/*
 *
 *  Created on: Jan. 28, 2020
 *      Author: wenda
 *       Email: wenda.zhao@mail.utoronto.ca
 *       test_NN = NN4
 *       NN4 doesn't have good results
 */

#ifndef _WEIGHTS_H__
#define _WEIGHTS_H__

// set_weights_for the first layer
float weights_1[300] = {
-0.4908211,0.11191389,-0.0024014711,-1.2290705,0.006435944,1.019873,-0.150557,-0.20790464,0.41823882,-0.89980245,-0.9350905,1.282436,0.50661993,0.0075332695,-1.1481385,-1.297438,-0.24297035,-0.1470544,-0.5293356,0.022556785,-0.8415314,0.008725138,-0.6201139,-1.09535,0.46193463,-0.17994992,1.75019,0.9156582,0.04412916,-0.062430505,-0.3725012,-0.004909665,0.5101946,0.26262036,-1.6212355,0.3353375,0.9462514,0.017597586,-0.06846395,0.92065024,-0.7568179,-0.023706246,-0.37655047,-0.40593138,-0.3309082,-0.03789041,-0.040730268,0.13047127,1.3176004,-0.10432592,

-1.408513,-0.052088305,0.055427313,-0.2471979,0.13035148,-0.053060174,0.26084036,-0.23399472,0.12472154,1.3652056,1.3459991,-0.0010654891,0.90449905,0.31284842,1.5216944,-0.33217257,-0.117255524,-0.09877037,-0.8469125,1.5438279,-0.26272985,-0.16481559,-0.15571763,0.9144513,-0.4267175,0.10952703,0.30985844,-0.22025459,0.75963694,0.15432076,0.11320728,0.010306653,0.74025613,-0.109046206,0.75086,-0.10993907,-1.3094478,-0.2662236,0.20113027,-1.0362828,0.6691027,-0.14036155,0.66386694,-0.010935772,1.1915456,-0.16421896,-0.013424039,0.7778196,1.2216717,0.030529419,

0.18658616,0.16415875,0.07278663,0.572656,0.08884198,0.20038036,0.04069696,0.6604733,0.2061685,-0.51326096,-0.62713265,1.5110798,-0.8953719,-1.1054529,-0.518848,1.5836297,-0.0018992722,-0.15211067,0.2560381,-0.50191313,-0.018800847,1.0962677,-0.076305464,-1.398977,-0.8618862,0.025214616,1.197713,0.16569594,-0.16030894,-0.48807764,0.103457436,0.087739974,0.845732,0.00977957,1.6975815,-0.26444143,-1.0991554,0.053961158,-0.007242173,-0.16633306,-0.55551946,0.22281642,-0.032216392,0.0040943986,-1.4043097,0.032901797,-0.073390186,-1.5836786,-0.51414704,-0.3463775,

-0.107678555,0.13978924,-0.14096743,-0.91123927,0.089095674,-0.0018553131,-0.31403047,0.74811375,-0.41398183,-0.20515329,-0.8511098,-0.17079504,0.24543774,0.2595119,-0.26741305,-0.19070417,-0.15116042,0.20512055,0.3533676,0.122749336,-0.15738785,0.08496345,0.004006949,0.47406268,0.09934985,-0.06073412,-0.19916667,-0.91806096,-0.33273995,0.98285437,-0.79212844,0.5888836,0.48882577,1.0241327,-0.119774565,-0.27624634,-0.066558935,-0.25217745,-0.2548831,0.38534296,0.7235624,0.5593101,0.09950944,0.67024803,-0.917841,0.2847455,0.100265324,-0.17730622,0.18542656,0.64935035,

0.044826195,0.13530335,-0.108601734,-0.3077523,0.1634089,0.09699857,-0.22612768,0.1983712,-0.37158397,0.55657965,-0.059259254,-0.18611966,-0.054551043,0.16238046,-0.12521006,-0.04689053,0.011952817,0.0076317573,-0.06263793,-0.5488468,-0.06769672,-0.06670062,-0.22656736,-0.31091332,0.04915937,-0.22668074,-0.062446516,-0.02428812,0.37305516,-0.19404627,0.53509665,0.38121116,0.04538578,0.05132834,-0.21800531,-0.0016434006,-0.10280835,0.13917258,-0.21806893,-0.012228209,0.04014014,-0.40047377,-0.028241388,0.047285855,-0.06246391,0.0769525,-0.32164803,-0.31760767,-0.12688825,-0.41884074,

0.2400795,0.25100842,-0.23259038,0.19016065,-0.24584556,-0.22834252,-0.22544254,-0.14346781,0.47890097,-0.050503254,0.06775131,0.07344336,0.08898899,0.13868758,-0.6376494,0.081819646,-0.22950518,-0.16927573,0.018237986,0.1251826,0.084130615,-0.11688727,0.51302654,-0.37274373,-0.16200563,-0.09234314,-0.06258906,-0.035912428,0.048404314,0.12637655,0.49614885,-0.34811613,0.08431051,-0.105639584,0.24745215,0.12567803,-0.030896246,-0.17933619,-0.3261923,-0.1474085,0.01000424,0.07332124,0.031265117,-0.16114376,0.02744844,0.0028437886,-0.20953852,-0.4578487,-0.22737198,0.7824493,
};



// set_bias_for the first layer
float bias_1[50] ={
0.29131898,-0.24702248,0.0,1.006486,-0.02472351,-0.8504606,0.06039418,-0.18428735,-0.030854646,-0.15070339,0.41097978,-1.4806352,-0.19414568,0.45497385,-0.27175474,-0.3142156,0.0,-0.04880456,-0.03288344,-0.49985814,0.21019764,-0.8672923,-0.0681455,-0.019661538,-0.054039974,-0.0034724493,-1.8940315,-0.380515,-0.08107761,-0.024252985,0.10082664,-0.17217095,-1.1401488,-0.44843793,-0.75145316,0.33051914,0.7043212,0.0,0.0,0.078280866,-0.54854256,0.008230028,0.15982813,0.11067201,0.30215886,-0.0014539097,0.0,0.3650069,-1.091943,-0.026996365,
};







// set_weights_for the second layer
float weights_2[2500] = {
-0.43871984,-0.15746172,-0.3488748,0.29926473,0.03957158,0.37801093,0.31081092,0.10241765,0.17934653,-0.09010099,0.056354728,-0.04463397,0.1762952,0.03330747,0.014912829,0.24708681,-0.20565799,0.24431853,-0.49123406,0.101805635,-0.11961451,-0.11861783,0.12560762,-0.15278815,0.008187543,-0.27939233,0.0209667,-0.43540287,0.038749363,0.23871188,0.034254946,0.10297698,-0.5078427,-0.12681335,-0.14885442,-0.036815494,0.2427136,-0.6786679,0.08234675,0.18075736,0.24048093,0.059246134,0.16863139,-0.03372458,-0.23578669,0.106915824,0.14632314,-0.34944963,-0.026978502,0.60030645,

-0.03213915,-0.17112869,0.17064428,0.26291156,0.30963433,0.052423228,0.13010053,0.17959261,-0.19964814,0.02380635,-0.028897593,0.11061056,0.04228235,0.3756813,-0.09110866,0.049486835,-0.044322696,-0.12205239,0.34456468,0.11954497,0.11976344,-0.10939907,-0.068378694,0.109912604,0.1838534,-0.098039635,0.08433592,-0.16685255,-0.34637716,-0.33847287,-0.22455877,0.086372666,0.028097613,0.109086245,-0.2303643,0.53124744,0.04783198,0.13672508,-0.120904185,0.16354783,-0.30615973,-0.123269334,0.065960854,-0.2262027,0.2528772,-0.37126774,0.19365112,0.2994935,-0.17531131,0.06950468,

-0.074625,0.037603006,-0.13773146,0.18100329,0.011759743,-0.24206726,-0.11401139,0.15078254,0.0971982,-0.046241954,-0.13089606,-0.18205841,-0.10660873,0.091343984,-0.23015001,0.22334836,0.13880195,0.21602295,0.17312245,0.07054515,0.21207376,-0.055556163,0.07490714,0.004292071,-0.2030916,-0.18092328,-0.23578653,-0.04181947,0.20894636,-0.19846833,0.19135879,-0.07186939,-0.22314331,-0.15133706,0.08546756,0.10899849,-0.020202264,-0.01205191,0.23383357,-0.07822971,-0.06590688,-0.18132578,0.07380541,-0.055345,-0.036742195,-0.119057834,-0.015634894,-0.05279383,-0.038680553,-0.19066097,

-0.12843607,0.08842208,0.5435894,0.042357832,-0.18295217,0.41570067,-0.14829269,0.1949877,0.94651383,0.23542555,-0.67336494,-0.12938575,-0.08290471,-0.14753474,0.025422335,-0.23218791,-0.07898405,0.053238213,-0.39253223,0.5949725,1.3197826,0.1683453,0.50426364,0.22368106,-0.3827749,-0.112759665,-0.066439316,0.19763593,0.27314854,0.2589226,-0.09130795,-0.33257574,-0.18688238,0.33619142,0.32023007,-0.77398497,0.09981936,-0.09576387,0.026730724,-0.17061287,-0.04039074,-0.57713187,0.11981243,-0.49860522,0.026940225,0.023750162,-0.107963376,0.10733322,0.018680517,0.116236836,

0.08694316,-0.08428154,0.6641771,-0.15648012,0.13080733,0.23220696,0.314955,0.09034933,-0.5265548,-0.040411696,-0.06674661,0.08618285,-0.15843402,0.7144928,0.21338047,0.17679866,0.45903814,-0.014473799,0.4907454,-0.12499767,-0.27773446,-0.010888012,-0.071378596,0.08472995,0.047471102,-0.15312712,-0.21163702,0.68273085,0.05230563,-0.2599738,-0.06579014,0.41559386,0.19520989,0.073985524,0.14936124,0.2926498,0.1873542,-0.2682952,-0.042050548,0.22373569,-0.2030167,-0.2422866,0.04658567,0.29381132,0.17795126,-0.0397462,-0.24773385,-0.4233898,0.23666428,-0.17163225,

-0.47860476,0.0647271,0.73374015,0.31116349,-0.18278192,0.3114798,0.20597754,-0.05549499,0.06680726,0.08422296,0.015477057,0.0990112,-0.12384046,-0.19881031,-0.010150531,-0.15316461,-0.17760016,0.12980537,-0.5957772,-0.21330267,-0.19556287,0.15841915,0.083110236,0.23168944,-0.1703184,-0.22664124,-0.2022875,-0.020971686,0.22276425,-0.34636235,-0.18181898,-0.15390973,0.068102404,0.11234561,0.1707176,-0.034736432,0.18446307,-0.080352746,0.2584008,0.22389486,-0.08976743,-0.08853833,0.28928724,0.08843166,0.05872398,-0.070036665,0.12705065,0.15596682,-0.025142249,-0.08659367,

-0.13961662,-0.20453878,0.17183846,0.11725051,0.17839865,0.11539686,-0.14997171,0.033011224,0.15453416,-0.023296457,-0.107469216,0.0064570764,-0.21022224,-0.009359784,-0.2280551,0.1985684,-0.102630936,0.119095884,-0.09193974,-0.2052102,0.10241958,0.1521573,0.025070155,-0.119055994,-0.10677327,0.15110983,0.1479401,0.14379922,-0.030241562,0.045854323,-0.10296747,0.2625062,-0.050965376,-0.03988387,-0.03329616,-0.038980447,0.20420374,-0.108793825,0.058774337,0.15431164,0.22390985,-0.0018728839,-0.14999457,0.051195733,-0.14680435,0.014616102,-0.07605771,-0.19521344,0.17677529,0.24804367,

0.42279816,0.2041953,0.8939909,-1.2987525,0.1195341,0.3570008,-0.03490079,0.25690362,0.6315882,-0.1796437,-0.22253616,0.03399393,0.1491755,0.11777475,-0.24240427,0.20891239,-0.72988325,-0.15171498,0.9350248,-0.12686352,0.736431,-0.12204789,0.023065655,0.0041451636,-1.0449098,-0.26445135,0.051955123,0.3454244,0.061552744,0.078275494,0.11816502,-0.13487141,-0.02237522,0.010927161,0.090857044,0.40603462,0.015919864,0.16380796,0.011485294,-0.12527947,-0.075878665,0.31688565,-0.13655818,0.39752522,0.090240516,-0.63183284,-0.21084799,0.85736346,-0.30803925,-0.20034128,

-0.14775263,-0.4447471,0.56222034,0.06883342,0.33062583,0.4220103,0.038270984,0.25906932,-0.59783226,0.073321864,0.34036148,-0.060099937,0.048069075,0.20905279,-0.0958479,0.036619917,0.020036092,-0.041889995,0.8558776,-0.64440536,-0.6179339,0.091484055,-0.48704025,-0.18540843,-0.57827944,0.39783365,0.10173622,0.036908697,-0.1721387,-0.26455408,0.16715907,0.034421198,0.19107677,0.034688726,0.16356537,0.53309155,-0.089086495,0.12687553,-0.15352099,0.12773582,-0.33334276,-0.031438023,0.117431946,0.2918579,0.10773774,-0.5291142,-0.14142121,-0.2340736,0.14719048,0.12795767,

-0.92097896,0.27468705,0.20317762,-0.19295473,-0.29114908,-0.11528648,-0.034867477,-0.18869108,-0.081832446,0.10070972,-0.25658324,-0.0073078047,0.019573165,0.6096328,-0.013258456,0.01616523,-0.14101087,-0.03049034,-0.7408079,0.23972899,0.51797193,0.18954423,-0.42543763,-0.022913098,0.0013789975,0.30456844,0.18486519,-0.23805982,-0.09567718,-0.083808295,-0.15331581,-0.029364537,-0.07521528,0.10619391,-0.15053295,-0.24089234,0.3416171,0.13853861,-0.1548579,-0.16139328,-0.12113025,0.09475217,0.1645681,0.54182273,0.048023254,0.12207367,0.18539448,-0.052506335,-0.17070763,0.8337097,

-0.43832144,0.21100354,-0.27544376,-0.086071864,0.19559887,-0.95294374,-0.10282184,0.37381,0.7027032,0.08151529,0.12062905,-0.12437157,-0.03096309,-0.35550305,0.19599496,-0.022342747,-0.41559172,-0.09502708,0.16604024,0.26207584,0.16886145,0.032584775,-0.6490555,-0.34274402,-0.2101311,-0.03830888,-0.2058027,0.19403288,-0.18739478,0.16727829,-0.07377078,-0.0466579,-0.16963853,-0.026954304,-0.20357743,0.20078608,0.013465498,-0.04611933,0.092287526,-0.2474597,-0.09135225,0.073852375,0.21021694,-0.25627083,0.19098882,0.3130656,-0.13894624,0.06574174,0.028576095,-0.19479346,

-0.40528452,0.35960662,1.1114042,0.2586585,-0.25573954,0.061110057,0.025528071,-0.6869683,0.0077144434,-0.076420285,0.43750134,0.25591004,0.04278452,-0.096757114,-0.17555802,-0.24136402,0.58597726,0.12241753,-0.3013732,-0.10314932,-0.2799636,0.05210361,0.1875695,-0.34412166,0.051280003,-0.18568835,-0.123771,-0.2264276,0.2023163,0.08533799,0.12194291,0.1994224,0.2544324,0.07760726,0.05583051,-0.3505665,0.13442546,-0.049861345,-0.08991788,-0.1889032,-0.13752107,-0.038225196,-0.055153735,-1.3655019,-0.13654518,-0.0051010237,0.13500029,-0.2950614,-0.020925097,-0.8680262,

0.8510542,0.03049227,-0.19231561,0.03309506,0.17768669,0.12881626,-0.3614126,0.35490796,0.16167451,-0.19799711,0.2498693,0.17284757,-0.22014405,-0.1447596,0.19988635,0.01401957,-0.38368887,0.12795429,0.7381968,-0.86728334,-0.7537444,-0.11806577,0.39381272,0.1389362,-0.3357593,-0.3136688,0.018062307,0.09424004,0.21603969,-0.3246245,-0.20602307,-0.09503856,0.22563878,0.042981472,0.2908309,-0.44322637,0.085461944,0.17283662,0.21557355,0.2953337,-0.40314606,0.052887496,0.08540823,0.6253334,-0.04906165,0.001099027,-0.20056656,0.20995991,-0.12051183,-0.038875964,

-0.38820872,-0.06284741,0.2508377,0.038138386,-0.02311206,-0.14369647,0.12531382,-0.28949267,-0.94072765,-0.0012116604,-0.30434594,0.45093596,0.032354973,-0.5336195,0.17045361,-0.24012266,-0.09001579,-0.0994154,-0.4127522,-0.20173895,0.7148471,-0.14911792,-0.19534715,0.2822967,0.1584032,-0.29440457,-0.082657486,-0.058359772,-0.09738963,-0.36086106,-0.09175157,-0.04605794,1.1958144,0.06065844,-0.21030198,-0.2949568,-0.1242408,0.31453475,-0.06681649,-0.0340743,0.17704023,0.17492211,0.17099153,0.13461526,-0.03672405,-0.20033222,0.14887983,0.38463947,-0.31795967,-0.63160086,

0.08550018,-0.3129445,1.1190021,0.10226062,0.20688541,-0.046637688,0.17888176,0.0045541516,-0.48058644,-0.16889255,0.28077203,0.1219156,-0.1433792,0.74768496,0.15574837,0.05990601,0.9968363,-0.14980021,-0.16700701,0.39983127,0.17795755,-0.1565166,0.0063320864,-0.0480014,0.39827475,0.019482726,0.09676357,-0.093730696,-0.0093492735,0.11770147,-0.20616679,0.025488993,-0.21125671,-0.08217903,-0.3508685,0.23686916,-0.0715981,-0.17646366,-0.19033657,-0.008041263,-0.04992916,0.26031798,0.0126465745,0.32882002,0.13834988,-0.15347491,-0.02851072,0.29304692,-0.15178667,0.41337875,

-0.22272418,-0.10366164,0.15374877,-0.33524287,0.0669506,-0.08371168,0.048507415,-0.056323573,-0.94413704,-0.5183209,0.22021495,0.096322246,0.47685823,0.009687878,0.14661211,-0.0097509995,-0.17445977,-0.057971608,-0.110722,-0.0957727,-0.0021052717,-0.2231308,0.18910709,-0.04374632,0.6790171,-0.012966674,0.0015378853,0.008287785,0.027612656,-0.6511321,-0.08702258,0.33548215,1.024252,-0.16035934,-0.055881318,0.23867442,0.041300833,-0.43641016,-0.24365614,-0.23546457,0.058427904,0.14047731,-0.18845855,-0.008219442,0.030491095,-0.2514812,-0.15766,-0.108077474,-0.03699629,-0.10168167,

-0.20481412,0.15471984,0.1894419,0.13992937,0.03761451,0.025046572,0.04836516,0.22799037,-0.16913213,0.044453368,-0.16385928,-0.06522359,0.23552383,-0.027116299,-0.018465847,0.02541311,0.22031854,0.16729076,-0.11668438,0.2226652,0.047449484,0.22538947,-0.006088823,0.053363338,0.2090001,-0.031393245,0.21744607,0.19321422,0.035626516,-0.06148614,0.21230333,0.044167206,0.10316603,-0.19999316,0.10779555,-0.18335092,-0.23022273,-0.1293005,0.1410089,0.12065758,-0.2301232,-0.0761628,0.058595195,0.15438701,-0.022348255,-0.07953578,-0.04033248,0.10264118,-0.18322256,0.01780267,

0.21669015,0.1784112,-0.023833646,0.22646615,0.18990907,-0.21034184,-0.22924317,0.20954786,0.033459347,0.07635738,0.010117064,0.08712261,-0.1552963,-0.0018613368,0.026945705,-0.15480275,0.12928168,-0.1937383,-0.18452424,-0.23615417,-0.0672697,-0.17809145,0.09429357,0.09556891,0.027846199,0.020976588,-0.07040937,0.24137922,-0.037604988,-0.24245057,0.16950004,-0.13113496,-0.0029244237,-0.23118742,0.009751082,-0.0128740845,0.24256209,0.14652559,0.042791914,0.19503428,0.08198594,-0.21859293,0.21061467,0.0033781808,0.15734603,0.10033352,0.08459897,-0.09188898,0.09747912,-0.22510877,

-0.099386066,-0.018007254,0.068988845,0.19885293,-0.023519814,-0.15022983,0.12129334,0.008983857,0.02079175,0.05020337,0.074872635,0.24834818,0.030294668,0.24494873,0.019037282,0.1558023,0.42048568,0.24396676,0.113608845,0.043970913,0.036326125,-0.08964482,-0.12302185,-0.037555493,0.10894027,-0.06860328,0.20337638,0.12055514,-0.12624899,-0.06899174,-0.04259241,0.20985709,-0.5962731,0.07822738,-0.17990687,-0.19926047,0.11146058,-0.39191025,0.32288083,5.197525e-05,-0.08578037,-0.10258202,0.24414648,0.22340666,0.027001109,-0.13105641,0.0944712,0.11618325,0.12859513,0.42467663,

-0.31286743,0.23292805,-0.24964778,-0.2225387,0.3772021,0.4186951,0.344768,-0.56047636,-0.83339214,-0.09999405,0.12741904,-0.039434288,0.07676147,0.3291521,-0.2661051,0.23345888,-0.1351973,-0.26829687,-0.34717962,0.9028173,0.08648231,-0.094049156,-0.25507385,0.098405726,0.5225032,0.044014547,-0.13994582,-0.28353792,0.24716818,-0.09225493,-0.08502594,0.54201347,-0.23199715,-0.086661056,-0.030867126,0.28170073,0.116826214,-0.23160098,-0.32965273,-0.08122314,-0.1764655,-0.011668233,-0.4101276,-0.75440073,-0.11628188,0.039620128,-0.09555646,-0.29113948,-0.2981962,-0.08692618,

-0.19318451,0.12232154,-0.056545455,-0.47338355,-0.14220409,0.15389043,-0.20171158,-0.07887422,-0.19013973,0.075433545,-0.07863815,-0.07273123,0.16246544,-0.067194335,0.07711865,-0.016220028,0.11334435,0.21952194,-0.16120628,-0.09436965,-0.13254318,-0.18391174,0.23259208,-0.092583284,-0.5561722,-0.13743614,0.060837965,-0.16446471,-0.054120768,0.013496939,0.06703295,0.10848967,-0.17374489,0.21894947,0.08876003,-0.23377986,-0.10283198,-0.1929206,0.28352892,0.13414879,-0.06459441,0.07808979,0.23530288,0.090769544,0.17478804,-0.037692167,0.04821138,-0.001305763,-0.024945978,-0.2376041,

-0.19230166,0.13560964,0.07928201,0.25288713,0.004479446,-0.30137768,-0.22837673,-0.4074415,0.014795755,0.19491751,0.32562467,0.094134256,-0.07690178,0.25821295,-0.1781867,-0.34657702,-0.43066522,0.16630422,0.29105064,0.06968532,0.32188585,-0.14610781,0.03990542,0.08528242,-0.058153115,-0.2335862,-0.004912051,0.17351678,0.19440125,-0.22475205,-0.026227355,-0.3281639,-0.010361517,0.2177144,0.13556094,-0.10294124,-0.005738035,0.13360208,-0.11465761,0.15901001,-0.18934277,-0.010351822,0.21982922,-0.23595592,0.1434452,-0.13803229,-0.17278227,0.34479868,-0.118046075,-0.60643816,

-0.09827982,0.17603731,0.14190674,-0.49634388,0.11129144,-0.1186485,-0.14875473,0.17570369,-0.00722771,0.20790872,0.061767902,0.02808469,-0.15565704,0.08230959,-0.20988993,0.0057908376,0.070510894,0.11204677,-0.06465456,0.14592527,0.037855927,0.221653,0.12029539,0.16808955,-0.267258,0.16718166,0.032941144,-0.017993933,-0.11457628,0.076927505,-0.16329326,0.1581125,-0.32991672,-0.017005838,0.01630508,0.22946726,0.21441717,0.041142903,0.18886058,0.20085885,-0.1530731,0.0030704588,0.20813118,0.07594,-0.10685733,-0.21560988,-0.18518949,-0.14314933,-0.054032043,0.051129397,

-0.16476735,0.5726585,-0.7373872,-0.380044,-0.18235104,0.061554175,-0.53421026,-0.07080302,0.08090251,0.14098345,-0.51517254,0.026183449,0.023018286,0.42300716,0.37747693,-0.21116705,-0.43759224,0.34586045,0.1681084,-0.565405,0.0020538194,-0.20499668,-0.23114173,-0.07437239,-0.21793544,-0.1460855,-0.11789268,0.030334003,0.033798292,0.07527326,0.033815697,-0.5089266,0.18320455,-0.12427616,0.32296565,-0.11673975,-0.61003387,0.023283476,-0.16689073,0.047764853,0.24285774,0.39042208,0.15822195,0.3111589,0.07954909,-0.38687608,0.047670648,0.2464021,0.09466696,-0.6058553,

-0.10195943,-0.13332006,0.19229504,0.33430117,-0.16481532,-0.41229278,-0.18098548,-0.116971344,-0.23656778,-0.1849552,0.03921006,-0.22768882,0.070767835,0.24692704,0.12515247,0.016687855,-0.1321985,0.08833301,0.21752204,-0.2433552,-0.04577414,0.13669561,-0.011533991,-0.08277223,-0.69955325,-0.09294594,-0.16987476,0.02758868,-0.12752852,0.03160721,-0.064970076,0.31967813,0.101930276,0.22215837,0.14122882,-0.115520276,0.1322666,-0.20135947,-0.3268488,-0.31868622,0.05003318,0.16690825,-0.025640188,0.038130008,0.10534698,0.0678593,-0.17934449,-0.04385294,-0.1357483,0.18717785,

-0.22890884,0.15933071,-0.030263836,-0.17901394,-0.003289186,0.03263985,-0.12509598,-0.1337205,-0.05409215,-0.1913661,-0.100586526,0.028027942,-0.115046285,-0.06631624,0.11509501,-0.020444527,0.006276794,-0.16179807,-0.039534803,-0.11743282,0.1766813,-0.1339052,0.1904364,-0.22051857,-0.031340323,0.04200455,-0.09613253,0.0053439746,-0.0014053612,0.21679924,0.10071199,0.17950223,0.13871685,-0.09916519,-0.042716734,-0.074029565,-0.14138792,-0.03336986,0.155827,-0.058549777,0.23801595,0.10701655,0.089186735,-0.18867156,0.16888468,-0.23484331,-0.15205228,0.21742733,0.11191139,-0.20498455,

0.13789706,-0.14455935,0.010964068,-0.13558714,-0.07863756,-0.26754215,0.4473031,0.623034,0.46874094,-0.23126224,-0.13897468,0.12801184,0.05893071,-0.42653525,-0.08951834,0.25692713,0.6858498,-0.19867174,-0.22933538,0.7869008,0.03931541,0.10636595,0.87536246,-0.05125306,-0.05813217,-0.12692726,-0.10242457,0.26992694,-0.32376882,-0.47551307,0.14394031,0.5690304,-0.9905751,0.1000878,-0.17759846,-0.07762149,-0.24808776,-0.314471,-0.65918994,-0.22733893,0.051619317,-0.008377274,0.21638128,0.8401925,0.08351552,0.8232346,-0.20239973,-0.10756877,0.12423669,0.5973247,

0.43208712,0.29467526,0.014949683,0.4410176,0.12947519,0.035018142,-0.18862735,0.49250755,0.012269999,-0.040060036,0.3972174,-0.1377431,0.06261553,0.10167542,-0.013604432,-0.18802887,0.11610148,-0.22044279,0.02508898,-0.07962254,0.07239188,-0.052421205,0.15791418,-0.21347435,0.07020024,0.15920058,-0.19118242,0.18413188,-0.17305203,-0.18636893,0.18612128,0.3270871,-0.039344106,-0.2300158,0.043800168,0.21671441,0.09726541,-0.31301305,-0.010558692,-0.2911588,-0.21216106,0.31944105,0.053232208,0.42349645,-0.17272343,-0.012194725,-0.13635647,-0.04173881,0.008870468,0.5504094,

0.35727265,-0.29528365,-0.3497751,0.60497046,-0.04819083,0.26581818,-0.06398228,-0.010952359,-0.005408598,0.028847657,0.3359482,-0.057076126,-0.24237892,0.30165878,-0.0447221,0.06745645,0.6678563,0.15180546,-1.0207217,-0.15567084,-0.5412588,-0.19606775,0.19665664,0.2899191,-0.39208224,0.24585828,-0.14710814,0.20466335,0.011079154,-0.30685428,-0.22050953,-0.1301191,0.17093979,0.17479752,0.012965296,0.22151996,0.17219843,-0.0653638,0.02866806,-0.06181409,-0.053561404,0.12675026,0.13993677,0.0131309815,0.105203986,0.3268923,0.22175705,-0.81311154,0.4813916,0.32443213,

0.050253253,0.27330446,0.01876264,0.30330774,-0.010703608,-0.21368709,-0.04357515,-0.18879257,0.74504036,-0.04313955,0.234208,0.3790619,-0.21485384,-0.010709301,-0.08860616,0.22683153,0.89498776,0.26590577,-0.8885381,0.086676165,0.19853373,-0.08217151,0.17306416,-0.18687457,0.28633073,-0.09329152,-0.042964056,-0.04595028,0.18872343,0.003089247,-0.16486159,-0.0903733,0.131605,0.026647197,0.15831377,-0.1801461,-0.10621932,-0.35282725,-0.08902439,-0.31558764,0.34871924,-0.24543825,-0.053000692,0.13790452,-0.21290675,0.19154222,-0.21657652,-0.26145574,0.034010857,0.3214549,

0.2251342,-0.17408967,-0.35153675,-0.3229112,-0.007873167,-0.26083064,0.44129863,-0.27039313,-0.66842294,-0.07928885,-0.09603793,0.0653721,0.13647047,0.06271575,0.004717769,0.23720066,0.1296386,0.11186889,0.4866798,-0.058340963,-0.36976585,-0.027946694,0.15907481,0.27366963,0.16502306,0.21703798,-0.07021208,-0.1799081,-0.34614465,0.05980188,0.19579487,0.12404227,-0.15250508,0.26271227,-0.17184742,0.3203265,0.27665627,-0.41277796,-0.10087197,0.19789132,-0.3386272,0.071246915,-0.10051878,-0.2558998,-0.028304944,0.32397765,0.074356176,0.03990807,-0.025950437,0.1372644,

0.27168396,-0.2698022,-0.046995707,0.6461236,0.02674047,-0.076018915,-0.0983435,0.07691544,0.19299677,0.15386674,0.13038829,0.09765518,-0.031316638,0.22449306,0.21936883,-0.11812182,0.5939078,-0.0341522,-0.5739758,0.10731327,-0.35631415,0.13397712,0.23889533,-0.012321738,0.34488174,-0.48540035,-0.1895532,0.14872271,0.08401369,-0.26612985,0.053146463,0.283591,-0.08207394,0.056748312,0.26877838,-0.130725,0.1321083,0.06190865,-0.18899423,-0.2696687,-0.2081039,-0.0711648,-0.075440384,0.40448096,0.022414997,0.26246014,-0.25414535,-0.1846929,-0.35302615,-0.21919143,

0.35252923,0.21203691,-0.044595484,-1.0842502,-0.22762696,0.5700148,-0.34303853,0.22002546,-0.53795666,0.191993,0.5596718,-0.2842802,0.054715607,-0.3300146,0.024411898,-0.30133808,-0.7035673,-0.116591446,0.96966904,0.27722335,1.4439526,0.1601701,-0.41270486,-0.078871354,-0.41762838,-0.38040695,0.15108192,0.4483144,-0.16342105,0.26067868,-0.19887409,-0.08875501,1.2370043,-0.12745373,-0.12372599,0.21895877,-0.24867924,-0.0067670387,0.05084049,-0.21883154,0.013984208,0.2398936,-0.15322785,0.41188544,-0.12660185,-0.71074027,0.07824696,-0.021492071,-0.4154499,-0.7937368,

-0.4396977,-0.21437648,0.17717549,0.4941407,-0.18647656,-0.305638,0.0037485724,0.003405679,0.6302952,0.032148913,0.1156657,0.10518942,-0.08500883,-0.38205454,-0.11265531,0.042237062,0.4802624,-0.063648604,0.006436842,0.008230957,-0.2722511,-0.06411165,-0.5073928,0.060369205,0.3716771,-0.14687034,0.021514757,0.19700526,0.072704524,0.1909312,-0.04673901,0.14347951,-0.024983706,0.16473497,0.19734335,-0.19663468,-0.060787924,-0.10861305,-0.0858704,-0.0017131838,0.22840033,-0.3732233,0.20758978,0.06807684,0.13614383,0.14738837,-0.19832727,-0.17664143,-0.24574545,0.04444589,

0.80377376,0.08388518,-0.6017704,-0.52781975,-0.18369903,-0.17370726,-0.4987265,-0.9159051,0.48485452,0.14850973,0.34777358,0.36402178,0.19548763,-0.32210046,-0.3248851,0.04673938,0.43391734,-0.092697024,0.31107724,-0.51630175,0.09726097,0.096466295,-0.61874884,-0.21064156,0.29858044,-0.10118418,0.033172313,0.5544056,-0.16675875,0.40078256,0.0159247,-0.38906437,-0.01756818,0.22242425,-0.12124949,-0.69548655,0.1995253,0.36935428,-0.11168029,-0.22792912,0.24724862,0.46160707,-0.009147546,-0.32008427,-0.13748251,-0.16499466,0.18733265,-0.003535661,0.2134783,-0.5070804,

0.4079729,-0.13986015,-0.124990955,-0.12846531,0.14041445,0.39099756,-0.16648535,0.3713852,-0.034449134,0.22052415,0.16949639,0.14681958,-0.33511162,-0.11731005,-0.26265872,-0.16690357,-0.28636268,0.25298136,-0.9436733,-0.3451217,-0.5969229,-0.065609805,-0.22835767,0.28894567,0.53819084,0.42768636,0.1427401,0.020437373,-0.2506385,-0.14251053,-0.19776608,-0.06324225,-0.1785593,-0.089404285,0.08295362,0.13955796,-0.13095146,0.6180268,-0.33092296,-0.21099646,-0.07419326,0.22224481,-0.06794936,-0.27689722,0.21151209,-0.43238473,-0.048323713,-0.02198953,-0.109190784,-0.2697073,

-0.073721446,-0.058814365,-0.020572184,-0.73846495,0.52819693,0.26041368,-0.40637183,-0.2529402,0.83446735,-0.009340073,0.077079974,-0.020932479,0.18208313,0.43916804,0.1005172,-0.07503713,-0.16899776,0.14691478,-0.30744419,0.20479423,1.0843898,-0.22838421,0.12382378,0.20334327,-0.21561389,-0.08408282,-0.2409974,0.45225844,0.21480107,-0.0037294184,0.03241658,0.037839457,-0.11145637,-0.13350354,0.18984194,-0.13391347,-0.047957264,0.36517328,0.16951044,0.29991096,0.33548817,0.2830352,-0.037205674,-0.42484295,0.034919962,0.1939038,-0.21504258,0.033585045,-0.042010695,0.34838414,

0.06896494,0.058439,0.2174622,-0.04085119,-0.015355095,-0.06645836,0.22663386,-0.13240185,-0.03155881,0.18400033,-0.13572729,-0.23426673,-0.15182734,0.063734606,0.1773959,0.0056210905,-0.19246653,0.056406602,0.2329251,0.044111744,0.060382918,-0.19869417,0.19410087,0.07423799,-0.13035667,0.11645551,-0.08223486,0.13180493,-0.00087969005,0.14235877,-0.17020833,-0.10376966,-0.19812985,0.05517529,0.13419439,-0.18461624,0.21870248,-0.062166736,0.032562718,0.0790409,-0.0012008846,0.038642004,-0.094117716,-0.14512682,-0.15290272,-0.19113937,-0.17053351,0.2101856,0.20658197,0.16325022,

-0.17010613,-0.23374352,0.124063894,0.1833194,-0.022477955,0.01836206,0.17827196,-0.042617396,-0.1410371,-0.021158397,-0.15102953,0.15895598,-0.029716387,0.1292397,-0.044045985,-0.136471,-0.12182828,-0.017804235,0.031388924,-0.07959476,0.10183613,-0.03189765,0.2292061,-0.1628389,0.23975818,-0.07794297,0.120656714,0.22154449,-0.15444268,-0.21901166,0.08166872,-0.037575036,-0.02787596,-0.17715302,-0.04573223,0.09237982,0.039357945,-0.12991196,0.08455114,0.15115742,-0.03796597,0.16896774,-0.22301595,-0.13778263,-0.15261176,-0.15040429,0.116014585,0.15319617,-0.084782526,0.07332255,

0.45191666,-0.042487495,0.1731885,-0.054667525,-0.08408822,0.39764512,-0.39605606,-0.7873853,-0.47738108,0.097023755,0.17617087,0.10876028,-0.14195447,0.39665323,-0.19401462,0.11563393,-0.309588,0.15664233,0.09396227,0.30222005,0.17860962,-0.16705024,0.92466724,-0.059507575,0.01247871,-0.006961183,-0.21993005,-0.45670658,0.1810477,0.49091908,-0.08613863,-0.28906116,-0.033308614,0.27638808,0.177952,-0.019054765,0.22544622,-0.031402007,-0.0393877,0.10268085,-0.06367661,0.22283402,0.16669028,0.28568575,-0.18790726,0.34019202,0.22690688,-0.14453562,0.0097766435,0.48792526,

0.28400916,-0.077223234,0.59568554,0.5269079,0.069105186,-0.23394337,0.2345477,0.17427933,0.1950326,0.07593235,0.3708573,-0.008488938,-0.021805983,0.47444433,0.25514585,0.0162202,0.26177064,-0.17456646,0.056479044,-0.36471933,0.3201003,-0.23248732,-0.17079931,0.091054946,0.0130145475,0.021142289,0.14508373,-0.31671393,-0.071289964,-0.15455303,0.190948,0.00932174,-0.15370545,-0.15072902,0.17820635,0.11186554,-0.21268633,-0.5073976,0.12853909,-0.021234676,-0.17635442,0.28510866,0.022622343,-0.04655187,0.19589056,0.029755646,0.12886383,-0.10516242,0.05525033,-0.31843936,

-0.054368835,-0.08647282,-0.06289956,0.42305616,0.104627974,-0.17076287,0.4179539,0.43507254,0.38390905,0.010949249,-0.117047094,-0.067162976,-0.35036454,0.14835782,-0.27997568,0.039681043,-0.05923228,0.15858442,0.8497501,-0.18698947,0.17898305,-0.16921332,0.18419465,-0.09397636,0.059223104,-0.32903835,0.20329542,0.2450777,0.17660262,0.019285766,0.06540085,0.32879376,-0.34640786,-0.246734,-0.30849442,-0.02182647,-0.32414913,0.08517386,-0.0071249246,-0.28978053,0.1883455,-0.33626285,0.08294246,0.109388776,0.13704161,0.016766256,-0.095590256,0.12273318,0.028988454,-0.23106544,

-0.7065126,0.023521673,1.0658536,-0.7793589,0.4074857,0.11596184,0.46922475,-1.3547131,0.3534447,-0.033138838,-0.19283643,0.060215104,-0.10057546,0.27743974,0.05576289,-0.080317706,0.06058341,0.14254215,-0.07127785,0.13099009,-0.004096638,-0.2491539,0.45272383,0.2981319,0.11816147,-0.09247512,0.06840828,-0.29433563,0.07118482,-0.45354035,-0.03642591,0.112385325,0.29368213,-0.062679395,-0.05624538,0.078052215,0.30881035,-0.2542355,0.032656092,-0.2273946,0.06160372,-0.2879516,0.14691047,-1.013092,0.14699875,0.75999147,-0.109832756,-0.26361457,0.2660233,0.54713565,

0.06938917,0.14405304,0.2985544,-0.3715825,0.054612786,-0.36166665,0.2818292,-0.37972292,0.34224853,-0.22989772,0.07264389,0.00907902,-0.09940574,-0.12024966,-0.16241162,0.106480286,0.26711416,0.14530568,-0.056118414,0.21318364,-0.21754247,0.101980194,0.49304104,0.022932531,0.35550785,-0.18918419,0.0015965839,-0.0993835,0.004583336,0.31498167,-0.001343943,0.011284422,0.011667752,-0.18791805,0.20847632,0.22915459,-0.017980572,-0.3502566,-0.19483376,0.0051132664,0.16348499,-0.32326838,0.16244403,-0.30631924,0.027558777,0.49425644,0.017209714,-0.18677002,-0.09720596,-0.16462933,

0.45546073,0.6008375,-0.31095755,-0.21022716,0.013441762,0.402959,-0.5119875,-0.059180595,0.3308702,0.31353313,0.05166727,-0.06556732,0.10428096,-0.5148,-0.17742139,-0.14368714,-0.17626849,0.13155062,-0.031286385,0.11644081,0.0094551435,0.17699346,-0.0066434904,0.008256068,-0.15692371,-0.35470632,0.015350196,-0.6039972,-0.044266295,-0.046622727,-0.12050388,-0.2950204,0.19723937,-0.057957806,-0.032845855,-0.23698647,-0.40962842,0.28754294,0.06452587,0.07680819,-0.20523371,0.34734887,-0.11215554,0.20715305,-0.1953192,-0.7719327,-0.20536946,0.42175952,-0.12932564,0.0037859683,

-0.13291264,0.13032134,0.16222443,0.056097724,-0.21725884,-0.4466839,0.21822838,0.34717458,0.21792066,0.027004676,0.032957975,0.14017034,-0.23579551,0.067435585,-0.25524405,-0.13546145,-0.26301602,-0.021850232,0.14102139,0.3621923,0.32209694,-0.0012717362,0.25531867,0.044512358,0.16838004,-0.44045857,-0.24772984,0.17077318,0.27123278,0.04418536,-0.08571378,0.31694093,0.052726552,-0.1600388,-0.16632986,0.08350753,0.0076314444,-0.14053696,0.11510775,-0.109780565,-0.16329193,-0.20739445,0.08297974,-0.30266035,-0.025922857,0.052706964,-0.03808484,0.08996566,-0.32473123,0.0085590985,

0.16861154,-0.04720539,-0.118710235,-0.15299997,0.1996377,0.04925616,0.10784595,0.19552775,-0.12277227,-0.20302905,-0.20697588,0.19328992,-0.13506332,-0.11795108,-0.112032205,0.054371044,-0.087648004,-0.19366723,0.10037775,-0.19542468,-0.15187441,-0.2107198,-0.066341326,0.028164819,0.22922261,0.117817745,-0.15099752,0.23415191,-0.19609839,-0.14449418,0.105418995,-0.23706217,-0.04362409,0.20515056,-0.23040038,-0.03430924,-0.04677339,-0.24361049,-0.20045897,-0.16868502,-0.10226883,-0.18519609,0.15342008,-0.060172543,0.08350752,0.0827909,0.13838626,-0.12937799,0.10307504,0.23372312,

0.60474485,-0.049331993,-0.31837758,0.2546356,-0.3501503,0.47592518,0.1211031,0.48943657,0.31565553,-0.141386,-0.33966985,-0.2993663,-0.037189186,-0.6174274,-0.07284354,-0.032246206,-0.23698768,0.1153262,-0.21524584,-0.46150985,0.1407419,0.18879132,-0.15295453,-0.05125891,-0.081525095,0.0428368,0.027959222,-0.28448573,-0.051161334,-0.24048345,0.19417872,0.16354363,0.3168004,-0.02775043,0.15186141,0.3196711,-0.64769715,0.26223946,0.0552733,-0.21767832,-0.27194878,0.39180064,0.025246644,0.05098184,-0.09444012,-0.58317745,-0.07926805,0.4239157,-0.11069647,0.41140577,

0.1750579,-0.24035916,-0.30918825,-0.5119127,0.15587164,0.7115029,0.1117253,0.5301669,0.3263735,0.098401,1.1272748,-0.09258488,0.19669683,0.4395134,0.2467101,0.11451891,0.35288674,0.13270792,-0.90519404,0.42589357,-0.88976246,-0.06636027,0.05211774,0.2528971,-0.10970054,-0.07969943,-0.006276995,0.12327468,0.43646973,0.19358575,0.00092068315,-0.395589,-0.4570303,0.06732454,-0.03770848,-0.05661114,0.03789401,0.11689763,0.21897955,0.49011642,0.17908603,-0.5579385,-0.13193053,0.6774705,0.13307597,0.78657323,0.2209696,0.19652589,-0.17773814,-0.32449722,

-0.03460416,-0.2596086,0.14857621,-0.016479645,-0.32523382,-0.7013024,0.26133302,-0.14319041,0.41740042,0.06505714,0.15393434,-0.082278475,-0.1301546,-0.1251583,-0.31488496,-0.02825344,0.09229142,-0.079354964,-0.49529684,-0.00096396595,0.088513955,-0.06899122,0.2805035,0.07487339,0.08938171,-0.24055839,-0.06898724,-0.3268456,0.09991452,-0.34656176,-0.20529021,-0.028195504,-0.265083,-0.15316513,0.515286,-0.4467618,0.039565373,0.27299705,0.13879497,-0.24392736,0.23996024,-0.31518432,-0.08483681,-0.08819771,0.07575203,0.4561132,-0.18128055,0.012555944,-0.29338044,-0.11823131,
};















































// set_bias_for the second layer
float bias_2[50] ={
-0.4094423,0.177749,-0.6381632,0.73789674,-0.022554126,-0.541251,0.021730129,0.06239792,-0.13458695,0.07022907,-0.1797306,-0.1926647,-0.41891256,0.0849488,-0.1675625,0.111343645,-0.025937764,0.018958248,-0.6621608,0.1266709,-0.50291264,-0.042626034,-0.048865262,-0.100907885,0.02322233,0.03452138,-0.104731545,-0.016169317,0.036257252,0.05529331,-0.10112086,0.16769503,-0.29083604,-0.024681289,0.0034755394,0.4535726,0.05668422,0.17967334,0.052998286,-0.19582577,-0.4030095,-0.45127162,-0.029748203,-0.15820839,-0.07305662,0.1536171,-0.04229386,-0.16969675,-0.00017782596,0.39259788,
};





// set_weights_for the third layer
float weights_3[50] = {
-0.8590788,0.10777804,-0.6835717,-1.5568283,-0.32896554,0.6213483,-0.3186016,1.296995,0.5391782,0.1195851,-0.5157485,0.20720126,0.7618402,0.37512594,0.7212624,-0.08190649,0.8309811,0.12602544,1.2342526,0.5856945,-0.7820503,0.1375546,0.5347089,0.27071846,-1.4742229,1.2111782,0.08238474,-0.3933402,0.2397527,-1.130942,-0.068732746,-0.20377618,0.5971935,0.09846859,0.21949624,-0.3915483,0.34900746,0.23845531,-0.85035783,0.9620203,0.930305,-1.5162212,0.20352146,-1.1350521,-0.06014831,-0.59561867,0.09279888,-1.0449045,-0.88417995,-0.82226026,
};





// set_bias_for the third layer
float bias_3[1] = {
0.9342128,
};




#endif /* _WEIGHTS_H__ */
