/*
 *
 *  Created on: Feb. 10, 2020
 *      Author: wenda
 *       Email: wenda.zhao@mail.utoronto.ca
 */

#ifndef _WEIGHTS_H__TDOA__
#define _WEIGHTS_H__TDOA__

// set_weights_for the first layer
float weights_1[450] = {
-0.37440249897611466,0.368103561376004,-0.24549708421678673,2.0250719564995576e-08,0.45845281823002537,0.04973748409386227,0.49499923760814557,-0.8072065510768894,-0.23536470986540284,-1.0516180191626158e-07,-0.0739121296378386,-0.12884813784939866,0.21114977916089836,9.47882676884435e-08,0.2519019401253437,-0.46195290699920283,-0.17225387221597804,0.2563467176589371,-0.06652914444217292,-0.24812462827441595,0.6629866871459108,-0.17239344687520458,-0.030285677827665496,-7.411710823097037e-08,0.35403170592371025,0.0785598018487912,0.23102158320351437,-0.1735172287028439,0.23502970225183661,-0.3434664115939503,3.013049333305309e-08,-0.14692906056154767,0.23049645359824159,0.2326335978007443,0.05573066230477979,0.11106768363709364,0.4526583874051219,-0.07844327957374544,1.039291065631013e-08,-4.2893350859946016e-08,-7.818100674048289e-08,0.31697613034274963,0.005155388360125475,0.06283875574946444,-0.5031418177732634,1.7506769975463535e-08,0.0052987321104355925,0.42222849575990207,0.0807085113728039,0.5667385332174537,

-0.109426399859485,0.13441236471287576,0.27305451918130136,-7.693036269733166e-08,-0.6499494760544542,-0.014545535465931644,0.13445958433685548,-0.08806560600906957,-0.22783207153419113,-1.4930913998597463e-07,-0.09085747895631308,0.4165165658401608,-0.23049677274235944,-1.773930988923632e-08,0.2187938286957243,0.07213740177906212,-0.16425846472547206,0.20611786214032327,0.4282932235306422,-0.3527801950858165,-0.1305758279701682,0.41745007476981455,0.280524975920921,7.082446775782226e-08,0.005975299111083758,-0.254335072803719,0.6095985844867893,0.31765823648623437,-0.22646624988299552,-0.12534375400872702,-2.7734444072744233e-08,-0.6237632688354504,-0.07424789904354344,0.4605899754359782,-0.250471833589871,0.2127545937662744,-0.17472486066473164,0.10382370846059716,-5.330339272736986e-08,-5.095961106263516e-08,-2.3421413754003078e-08,-0.5834800338964965,-0.47608932299630113,-0.11449594780632293,-0.5888843079977384,-3.2956220340150027e-08,0.08886398473559429,0.11777620744717392,-0.37229751819408285,0.04692686674790857,

-0.28466737198524095,-0.11233520729698393,0.09316312712619125,-7.824240664914287e-08,-0.8619984575549604,-0.2684785017540629,-0.4809073481407719,0.198112304368429,0.5835347656597493,5.648769890967513e-09,-0.2546126111951218,0.4577514843297907,-0.006464670127206128,1.0359411781909426e-07,-0.34519398285032793,-0.09004687772790562,0.12980546132354778,-0.22224382085176306,-0.635226245697052,0.202132458185426,0.6178073253882246,-0.13470203758240298,0.018184222698209025,-6.251664787733764e-08,-0.2951821176525279,0.14953503522762457,-0.6393172111413893,0.3738419248888762,0.45789974168212,0.5608460501425471,-7.185501374033649e-08,0.22710543332975536,-0.6883960321027127,0.6377018251346698,-0.14509797804387917,0.4332262351908697,-0.3164490368930719,0.14057216631463182,-1.1823250675866142e-10,-6.16040390944868e-08,-4.814116044797891e-08,0.3567030326423795,0.17223670529195217,-0.2730702391516785,-0.7223126821227054,-5.933651657270241e-08,-0.1229850799945032,-0.5036339445293825,-0.0989854192760986,-0.10173671274531682,

-0.14045549259079224,-0.10127362730103645,-0.4963205159100592,-4.8569960993187746e-08,0.2688864772917969,-0.1579169597529356,0.7305746588945154,-0.7184273253142426,-0.40997177181700306,7.654630987130718e-08,0.29849895672368665,-0.029292471153575562,0.0023929995853728746,3.0566228982634264e-08,0.31240029107584505,-0.4143840305680183,-0.40239968689210415,0.16987840516173486,-0.055000620382647344,0.01814466700246477,0.32114607661362027,-0.12086462776175409,-0.29970492894309725,-6.903041363867737e-08,0.7402227705243298,0.15414062573704568,0.29175244487534124,-0.05064189290729943,-0.8137959354068859,-0.4540291633233988,-1.931418481500875e-09,0.3532068237161079,0.046107012331012345,-0.1480745616332829,-0.3034209920407074,0.16292829023678865,0.39782909271831934,0.04393046557285246,-4.99625049287767e-08,7.841212328982361e-08,3.717993289085652e-08,0.2223920035549688,-0.5597790783239999,0.043335962049574336,-0.23651019116461297,-9.282719777603695e-08,-0.17244018819358312,0.02465417772323359,-0.007260823942225861,0.1380581201006437,

0.31769727573899387,-0.12169182777905241,0.2721551292601385,6.198631320336964e-08,-0.23016592749856826,0.2955182632601387,-0.12079623370894825,-0.3721930503117484,0.12189972605800645,-1.4663482199234682e-07,-0.07749080108179994,-0.07151376226094759,-0.30124576383318685,-1.0339587848112205e-07,0.5352831028619213,-0.024654567395767775,0.24834448604830286,0.04342324307050893,0.49295621297955944,0.26563245178639977,0.13698067912369852,0.19133386162156665,0.201931808388537,-6.873233079312629e-08,-0.712425895500016,-0.33830499701950945,0.5451591722419724,0.493095235304959,0.19553704631639873,0.08033805258333976,-4.752904095039146e-08,-0.28781062368095184,-0.8219918074045174,0.17041464976964701,-0.11230172444327755,0.10289337947409133,-0.29521853440467477,0.18036721783733592,-4.2930322177595914e-08,3.860536703809606e-09,6.744126196539284e-08,-0.017828395724655506,-0.4937127378774638,-0.008515856490741646,0.17857747364218401,-6.351845092823578e-08,0.0027927541323437208,-0.072288426432594,-0.37797918507259515,-0.6185698155846131,

-0.3351294523621657,-0.38773326023857685,-0.2739596624165638,-7.325251997259713e-08,-0.22420554764590186,-0.13154504319180677,-0.48245159989851283,0.439095502630305,0.5541466449496137,3.235616325732551e-08,-0.24835805630408817,0.00014270767317672793,-0.07362697195333291,-8.721639383455524e-08,-0.21160145399491703,-0.8092059251299538,0.4115078346985739,-0.07210013472615617,0.11974398320252541,-0.2519559721340365,0.40075533176432393,-0.17328980177330336,0.4239243507467695,9.880984150756987e-08,-1.088529046504635,-0.0859795276293618,0.7222039621369447,-0.416179022218841,0.3606836462714531,0.12223506422230283,-8.074689094483394e-08,0.18014217664987067,-0.06341948159161537,0.21162690291554714,0.21483558512065595,0.44429682870381315,-0.5742479494619489,0.11712807047918747,1.187147530096355e-08,-2.2152676829381035e-08,-6.624382754435784e-08,-0.3500209544704007,0.007983416669838253,-0.0856197073549125,-0.5354820455370064,4.0639364667759464e-08,-0.4593976861929281,-0.2325916533457341,-0.1737807652511089,-0.02684682489614356,

0.3264198258895435,-0.1808927537056046,-0.37919152453477617,-9.108847156806454e-08,0.1460692604882733,-0.40278477771092147,0.4058705851053592,0.24454109724869458,0.1039190871995035,-8.183519208825648e-08,-0.36767939455779247,-0.7683266153675385,-0.2444008530107444,-4.952576841579097e-08,0.48346484704459575,0.0390316052714668,-0.7207940595204992,-0.4657855355118924,-0.31929715609596604,0.6187514298467429,0.23443739253111312,0.29920661995227427,0.2859429545128962,3.000790235895237e-08,-0.08259581912265451,0.5084747290705082,0.20556466696440723,-0.18429154426345204,0.16675246125785526,-0.06580846241827254,-5.7634728608944505e-08,-0.21428514065200727,0.5883598501172173,-0.21617456945964808,0.5271549354814633,-0.17976602683589435,-0.08423558735134866,0.32069031641525414,-8.159213396431559e-08,-1.5568322229218065e-08,6.562336339783696e-08,0.657396144390779,0.07639635827367304,-0.16197156201012128,0.40797214736756227,9.715076145758495e-08,-0.22690673516930934,0.27797695987053705,0.1772010234804294,0.03288319575019216,

-0.11083260203960446,-0.4531453515912764,0.040267801830779194,-8.802260759874433e-08,-0.1551083655194828,0.005693535861755685,0.29285834621181406,0.02445570131535722,0.013223503928839413,-5.8452204650252256e-08,0.0955774600896643,0.0007977666596721372,-0.03364312916154178,-1.1794362911449351e-07,-0.39301835996192214,0.044779036289744875,0.026030169388814393,-0.21668709522682067,-0.0476434192343108,0.1242981311262319,-0.03146627789488217,0.24173115396458159,-0.2237544143836906,-7.07765473174235e-08,-0.035850497093443186,0.09025573491802977,-0.022040258004608952,0.06398166103308651,-0.11109527002451115,-0.11550740971179119,-9.312678146110398e-08,-0.2087318638114181,0.1426832980293854,0.0016282416435505086,-0.01669195797877841,0.01891323522672202,0.22694796995266606,-0.22913107000218977,2.5835677775739137e-08,-8.245864874416615e-08,-2.8697542773160457e-08,-0.11336998447009929,-0.0014347353886808194,0.4104220497424051,0.0413243447849641,-1.4206739801848142e-08,0.4383430599894222,-0.16368294977445097,0.07185627180428902,0.2565208367027577,

0.07690690141013208,0.007693595999012203,-0.05226786801022985,-4.997600255732364e-08,0.18751790566656293,0.5335563827209437,-0.36330741243830394,-0.018663684953583098,-0.1675450603524573,-2.7826041744406548e-08,-0.13054124704761436,-0.39089761415616986,-0.02621223191294561,-3.7263724146791286e-08,-0.28904832014514914,0.1631844566999167,0.4967835849532601,0.014298441578124736,-0.020248307670644252,-0.38779684833054595,-0.05711763960256139,-0.1418164748848557,0.45334195936436283,-7.618959577206658e-08,0.12579242835985807,0.26070510391595886,0.012219684057205363,-0.002283790148128122,-0.027026974617807162,-0.005633634825104149,1.1443228644312034e-08,0.05773055921402413,-0.11288467259218775,0.04401126447404115,-0.2484441672469407,-0.060639652260211487,-0.27074553704948595,0.24552249743443344,-7.087912112224988e-09,-9.218903404274907e-08,-3.432392458392099e-08,0.27354314723250117,-0.08774690247659543,-0.23948256329918968,0.3328838931667826,7.467438694872703e-08,-0.08531790962732257,0.2958834532802916,-0.07689752449991868,0.21935485918867484,
};
// set_bias_for the first layer
float bias_1[50] ={
0.06364181480387478,0.44345963813643235,0.09720173359087896,-2.3357117280585885e-09,0.46380726680531337,0.019753383734594315,-0.37241358344137876,0.10414332060767771,-0.11167440482064829,2.8097797364256265e-08,0.49914632007157356,0.2626941890597714,0.15755932173384019,-7.842930642578745e-08,-0.2965436039799311,0.6911758647752437,0.1703179207485637,0.27341881166264814,-0.06825571585128198,-0.05437402705266322,-0.9744414682299466,0.040159912698514,-0.47034840749768825,-7.666194467012058e-08,0.4191509594475562,-0.29154122147049694,-1.1203983526530215,-0.04971726006895584,-0.029240731998483926,0.35777124801879295,-6.722499118388892e-08,0.06657622840853508,0.3292724601898176,-0.5383226569540024,0.2167554560024317,-0.5352724986187402,0.2735765127083861,-0.2471089414409047,-8.283026557414887e-08,4.902417240494436e-08,-7.859099323500654e-08,-0.3356338062117222,0.27235399220518314,0.03639157700723921,0.8289434438613267,-1.0039493805819447e-07,0.19224996186565504,0.004377315114270103,0.13390649721853162,-0.23180248839478207,
};







// set_weights_for the second layer
float weights_2[2500] = {
1.1458604923907699e-08,-0.12809540099561442,-0.040238180647656115,0.004702093570248141,0.27768312985471927,-0.04719743253566661,-0.0599662732025697,2.47700370509898e-08,0.28962533393969886,-0.12457055670384669,-0.033945585292225695,5.127664348763178e-07,-0.07864583254340421,3.5577928234549054e-05,0.10112725526836101,0.0897624301742097,-4.4433363599684125e-09,0.06379251249273006,0.2379571253001746,0.03536050512153787,-0.13472316105062856,0.02039739997907655,-0.2173116143753158,2.303958112367097e-08,0.059155003142013114,-0.0734453222659204,0.006194880733322068,3.638223539340947e-08,-0.047341821678947994,0.045076872448921966,-0.050319664261143454,-0.11257333631955642,0.05031333775805794,-3.5728442612085115e-08,-0.0765750289200888,1.764403819038903e-06,-0.033300683311213074,-5.4428219485605275e-08,0.054489369640999985,-0.039564063607364024,-0.04380694669562205,0.10933475856242347,2.3847817142174425e-08,0.05333903931461846,0.21683756383669534,-8.113105352036491e-11,3.908245454809347e-05,3.9527059024219395e-08,-0.03180612458995581,1.0431679885677129e-07,

1.713695566404434e-08,-0.23782469904412468,0.03197883060449086,-0.005736285562108333,-0.31635519359356995,-0.04398160750246004,-0.028478016124176355,0.0003618330074787999,0.1555206831758386,-0.1798484026721555,-0.21284588053441234,-4.7082894363809114e-05,-0.2677598725441426,0.1391452768825235,-0.07835086495689358,0.02185067101538218,-0.00022446440867971096,-0.263447648121392,-0.11897647735296353,0.2540695249312066,0.060531528257358046,-0.03692965438710732,0.12569646569978118,0.012033332967522615,-0.00904558524587869,-0.11484523353214215,-0.014446515936409481,0.07635842626243593,0.13985224086766987,0.010630218771510646,0.0729614790131446,0.02600392988304482,0.011077450028787643,-0.021566564044848573,-0.07408566357350896,2.3073099044259854e-06,-0.02262379097596294,-0.035315583139380956,-0.15854992283082697,-0.039404921721295616,-0.12523463517152916,0.1813435619168754,0.13085614249387414,-0.03984061000849743,0.18632174847286584,-2.301832589606961e-08,-1.0068902812486442e-05,-9.035606745201256e-09,-0.19324913960947435,-4.1046855712739063e-07,

-1.3597489509595214e-08,-0.013972489479094555,0.056027704579609705,0.005483934022324054,-0.05506866358301633,-0.009709373397926819,-0.0022936972665369565,-0.000558036406959126,-4.390061868174949e-10,-0.07464329714630573,-0.18068128093198849,-2.4033637675351176e-08,-0.29804373990663874,-2.5146534073353697e-05,0.05379675172742885,0.16052407441471894,-6.673027238004527e-09,0.0481599100755225,-0.05893076208145686,-0.04491730306183964,-0.2801623581484249,-0.007326527736612445,0.07037752742457384,0.05988245817902293,0.022800480483770105,-0.021564390227968768,-0.004196590173580276,-0.005274808125146718,0.28112204052983836,-0.029663944777415848,0.05829567146993781,-0.241572470552967,0.05650930394041165,-0.2378521278643178,0.07401733796283283,-1.609720646463771e-06,-0.1723544042398834,-0.08174984211841223,-0.04728550161699222,0.0010619215316197224,-0.03127477952818142,-0.14802403369190598,0.20977524399041791,-0.07391454933658488,-0.11429667938448174,3.951451414144682e-08,-5.947857332958266e-07,-1.959526736789055e-08,0.1863115107308899,1.1358850731132123e-07,

8.643762370985406e-09,4.268563509704668e-08,8.447104692513489e-09,2.7822775677518444e-09,-4.063154392018344e-08,-4.2050474743462525e-08,1.9642953994676816e-08,1.3304257878259755e-08,3.692026357881717e-08,1.106119990175476e-09,1.7065093085277736e-08,-1.7036615495282758e-08,3.878601448571791e-08,-1.4407790028451772e-08,-1.0777790562920656e-08,1.2447868986570069e-08,-1.096985596043864e-08,1.183505939831684e-08,3.198295999470434e-08,1.1348618122526241e-08,-2.253567784888605e-08,1.1185053015353965e-08,3.97977327973334e-08,2.7457336351275416e-08,-5.402744765442025e-09,-3.4843603713253616e-08,-1.2892221542066351e-08,2.599799890369196e-08,-4.293686441868117e-08,1.9434315071087578e-09,-2.521023998237323e-08,2.2634578736959462e-08,-7.715563189786714e-09,-1.35253161637344e-08,3.806893764647739e-08,-3.9661026745148246e-08,-1.0649485910541238e-08,3.0746204026130326e-08,-4.162781237308988e-08,1.4448523537807079e-08,-2.9318306564311e-08,-1.7106848110415468e-09,-5.420616751574571e-10,2.904891242201916e-08,1.4280046074736186e-08,1.903533824667178e-08,1.8161628987372888e-08,-2.675077885456379e-08,1.4477620847378233e-08,9.954162817408382e-09,

-1.51314194526926e-08,-0.14836393859469146,-0.011633224626630884,0.014243029311735529,0.29246569656504967,-0.05850330042310144,0.05789404586171572,-0.001946960153487059,0.07585715712882135,-0.12233655987368013,-0.5043739895347745,-0.00024999266273857733,-0.04789486412282043,0.19861758055402995,0.12235514320409208,-0.06713973038099398,0.017898187660154472,-0.5131157847701647,-0.40375273618735613,-0.09754769063003317,0.1641153446435499,0.03347958585639717,0.12891284110483406,0.10723309803790138,0.19218855176322172,0.19368926266552774,0.010673898681170493,-0.08032193324837897,-0.030660180504419803,0.014261170635822287,-0.13759701700256086,0.25010014898933575,-0.0345129431785842,0.09423956892153455,0.232077037361807,9.774129534408031e-06,-0.7233074665093622,-0.11300366020684155,0.19780508249852036,0.016282259389528743,0.17981815912430907,-0.035562680845834645,-0.04651104835006236,-0.06823623810403281,-0.03267596084409959,-4.2491342795121404e-08,-1.2244772828586e-06,1.3056143622071704e-08,0.06275501119912587,-2.2016922298961295e-07,

-2.7798843637206216e-08,0.007229834040820996,0.1704552933806174,0.0047250338990502015,-0.1798292490416533,0.12519288870731887,-0.04108110367011287,0.004325232740176389,-0.11168636771923493,-0.04299160558256542,-0.2157955500513794,-1.2608594067833522e-05,-0.02334735246684028,-0.1702249663350744,0.18621522791413975,0.2851041120907273,-0.0007939965808654033,0.03999099140594229,-0.10250786403239585,0.1272829731741079,0.04626214341129284,-0.0537859903925396,-0.02148438079382233,0.04700202330522874,0.04033177283542439,-0.08079559214225558,-0.0035822527352044908,-0.014091091657376252,0.029332693611027347,0.025051841127706097,-0.22673408293320232,-0.05556468279702715,-0.07445933484876223,-0.17905976036863824,0.01730525834027744,2.3180483759701817e-06,0.11570793743382632,0.06637314465108833,-0.046201583040801936,-0.020892610634666322,0.16098691205686627,-0.19063789249722307,0.15130326156195642,0.004772329975492532,0.2738626228935528,1.3468717379252241e-08,1.94792230254616e-06,2.1189588312871264e-08,0.04055262743561019,1.332067976679507e-07,

3.588763208502777e-08,-0.3324856241597738,0.012523345684181626,-0.024221086118461393,0.16785701045989201,-0.019279639803216155,-0.05557411058462585,0.0008817263688758528,0.17024021214228124,-0.13086972936489094,-0.32789001180199345,0.00045417625392891526,-0.07225726003672253,-0.20386234321437358,-0.002214455107192502,-0.11248992182417132,0.0020611810180633516,0.11372478370646304,-0.015055449425953445,0.17375090792723694,0.39931810007113283,-0.11849344837959429,0.26362827378758985,-0.3450991752607589,0.11281396452952541,-0.13987020264204497,-0.03177765186848965,-0.03515680832476121,-0.1367889010073579,-0.020588669201169633,0.1489929516258429,0.3483151232623562,-0.31763187750627714,-0.02052957993715747,-0.16786739686558735,8.710182989452178e-06,0.033584110579547764,0.12617701776985518,-0.035539101902740164,0.13090571474411627,0.33621764920633235,0.278676682289954,-0.16442227680644578,0.07760372428873583,-0.3033583455369061,-1.0331880763363101e-08,1.3208316405413817e-06,-4.054944129165256e-08,0.043019930988978404,3.5460438094341023e-07,

-3.962173561892785e-08,0.18485621587003984,-0.025391622308253505,0.008406819034250433,0.3096282223200618,0.020329098032420324,0.19786363822386568,-4.2001630195848446e-08,-0.15798372789701384,-0.3338814974175217,0.085344612046713,-3.232322841411987e-08,0.049334850024048534,1.10943487861221e-07,0.10325367945638725,0.46653622418753926,2.7885320472694314e-08,-0.10262955946370093,-0.12278415154190617,0.03815494348052643,-0.0651425288033286,0.014876178924237525,0.1326773871299177,-0.07066201833321525,0.057849605568824354,0.2727234371031869,-0.09680908444465648,0.12598754132970438,0.03380336538370919,-0.28284047816239616,-0.1253200252180553,-0.05647898474958533,0.008716662117265801,-0.020704761289902462,-0.12383364083129093,-3.7120711544628417e-08,-0.09265723780080898,0.004727472765043215,0.16562275337419605,-0.15080301030900742,-0.63681118713886,0.05520357265216901,1.226165800950578e-08,-0.02251112025114004,-0.5160404372322132,-4.219145754172525e-08,-1.2965965213931066e-05,3.458234312309621e-08,0.05607922953597921,6.362814089816288e-09,

-2.4561809386034935e-08,0.22182656473492932,-0.12147275416176748,0.023078360179379278,-0.1356308864557114,-0.2573035512597806,-0.17364137828837384,-0.004162678326643473,0.015421452854019123,-0.10919946419693934,-0.00771435820908157,-7.597317890200925e-05,-0.3779294430361183,-0.10328373578649382,0.2533182216666066,-0.008202156305206256,-0.004740488267491167,0.06314892806500197,-0.15379258451140013,0.18894201256382892,-0.08523469278971707,-0.012719506695479374,0.06122678420871225,0.08335685425895975,-0.0429859546625716,0.0632063902015808,0.02784605498551043,0.046351313640921085,-0.1842491506484185,-0.14129963814555785,0.16418358330114746,0.05919785670878727,0.16099315784987375,0.016149818994361374,0.15447331964664082,6.266710865239391e-07,0.22142870779219456,0.058453924610935015,0.2055324968061741,-0.10198158931056962,-0.15425259824445273,0.23544339885087637,0.047731778477034505,0.051827256779356554,-0.38815665245048603,-3.3584501519418096e-08,-4.313213782040237e-06,2.7787690970598727e-08,0.13552326288271527,-1.4845247193095417e-08,

8.369850600137918e-09,-2.8404228100081043e-08,5.2698484539571954e-08,-9.311558535353081e-09,4.36746426907489e-09,-4.745297665823129e-09,1.0626624387317668e-08,3.645920129514592e-08,3.050297869187279e-08,-1.989835439506183e-08,2.399549200383507e-08,4.306568436902479e-08,1.3200550166802076e-08,4.108489064340701e-08,1.9745041320290106e-08,-4.556031493594818e-08,-8.916919043520133e-09,3.5977145727117125e-08,-2.724714916503299e-08,-4.948947137738085e-08,1.2941590367421128e-09,4.1016814272827356e-08,4.1184083871315605e-08,-6.927316385744733e-08,-3.1807246810259553e-09,6.401879805603889e-08,-1.8323031751992301e-09,4.470746176094345e-08,-1.2031419541119393e-08,-5.6538225184495153e-08,1.5346338469709838e-08,7.778427737528809e-08,-1.8352923208749457e-09,4.020031212020966e-08,1.8316628190794236e-08,-4.380028133895611e-09,2.153284527228883e-08,3.3369298380332764e-08,-7.605735772818482e-10,-4.927012440781436e-08,-5.2340915397042586e-08,3.619494633244553e-08,3.7327998198547025e-08,-1.8040560963122156e-08,-1.1939075541453335e-08,2.4023436135589205e-08,2.2422509947744027e-08,-3.251708108717166e-08,8.47897022624035e-09,-1.4303944600349595e-08,

-1.203600380861047e-08,0.0682767824831229,-0.031004170148201796,-0.019651374912539987,0.05351232200620895,0.08511785162251348,-0.045622721527164345,0.0006517881762392365,-0.1867604904614961,-0.09667660784191155,-0.026882857743445985,-0.00016289996293230842,0.0838197532413552,-0.10030952667144155,-0.04456586472039407,0.01836422859918856,-0.0011469056853713037,-0.14626507418591786,-0.09310547437872582,0.014018413497654605,0.07389357300651371,-0.013860231605368317,0.024757311677880357,0.3122665603572832,0.12068647828582854,0.09553667088483207,0.06733660345839183,0.17606299360477098,0.07459875163140324,0.11699338413203558,-0.20534909327527406,0.07894042660084077,0.020958780094453264,0.11614718267518732,0.07470079564189577,8.617616231252325e-07,0.015027133899057653,0.04067942810871929,-0.024616698491915587,0.043553159311548136,0.18603652873273374,-0.3488200691708146,-0.038324201432770814,-0.041088739984110736,-0.07933589394425027,-3.792866990926334e-08,-5.616376254435876e-06,-4.081743082805118e-08,0.19629431675837744,-1.1640763901930471e-07,

2.486129502313838e-09,0.11004838577990292,0.0003068181281163703,0.0064424137111335315,-0.28349803245013305,-0.011991578403378705,0.0707457854392872,0.0015824702032286536,-0.11899122122915923,0.015919832717958934,-0.25174441529407626,-9.810778838175246e-05,0.2786019131203278,0.00884734591208392,-0.2547401635405034,-0.10656628063393779,0.012794019555084373,0.16498300093918655,-0.03207716613950649,0.04194353996701896,-0.050000673534999346,-0.004875369656496603,-0.05255211143812173,0.4612074375206722,-0.05392251605543252,-0.2801558664737201,-0.08369286482865088,0.10568729936511384,-0.20374900275059035,-0.11856795969222281,-0.09037488120931632,0.1282837537986064,-0.0013479049402665407,0.091793535028317,0.15343546935747016,5.560336046140504e-07,-0.22047436072130797,0.2734535317153352,-0.1042213563431808,-0.05884603785869832,-0.03868973081423988,-0.04829104767915025,0.15361178600899977,0.009474887625069648,0.15360221293061618,-3.9487278260638706e-08,-6.833955561437349e-07,-2.6598046354761965e-08,0.325843592464028,-2.935226464243253e-07,

-2.9171075096489332e-08,0.017028082176232237,-0.13413929061597074,-0.004936731153545607,-0.22534647028653637,0.024132176762582176,-0.0029020765767732667,5.319205392221735e-05,0.15118762499234778,-0.02343994021446675,-0.018578964006796064,3.567741727584178e-08,0.03298845842867439,-0.07337223741511231,0.025312350160124734,0.12944933957208657,0.008047417748011286,-0.03402569550405656,-0.04586084220961761,-0.0767075136282479,0.10109981217582277,-2.940249308503894e-09,-0.041534718267802605,0.19979430502589934,0.0883671145130673,0.0719361948752663,-0.013312237017151955,0.014537979626111145,0.01704565220377311,0.013175556070856737,0.015105961838104255,-0.04209326282936396,-0.07663999479589423,0.09752758004471233,0.07937452992981582,-2.39272094259588e-06,0.00010272785048987961,0.0600913111457388,0.020383375154807,0.03800843516167928,-0.12634268750768704,-0.08093589607786941,-0.09296619522204944,-0.02559165505864901,-0.038528705504183317,3.961233903289647e-09,2.5702769531425793e-06,2.839957796943812e-08,0.0785500734916844,-5.544124784527911e-10,

-3.149208761044846e-08,1.2385701806052611e-08,-1.9954194281460472e-08,-2.0169768857918128e-08,8.082392504472733e-09,1.908915169812064e-08,-3.5152194551158646e-08,7.091446219217815e-09,-1.9312536304802765e-09,3.2477198523683556e-08,2.340117866135975e-08,3.035928562801961e-08,1.0429058694817364e-08,3.1145058524659855e-08,2.622246610990673e-08,-3.0024438505212605e-09,2.2881676903438935e-08,2.5748149763382218e-08,1.2409902085914367e-08,3.0461451714385886e-08,-2.2676066915901823e-08,-4.267022155890152e-08,-4.201933142325754e-08,-1.588092385595634e-08,-1.8089168006667464e-08,-3.1296513832097936e-08,2.261833803589736e-09,1.1706142684771001e-08,-3.952808006882521e-08,3.8611298155032496e-08,3.100879892260879e-08,5.089954151329666e-09,-3.315853235485807e-09,-2.8407738035693996e-08,-3.276616433119124e-08,2.997377011159103e-08,-1.7549566240659016e-08,1.0001393167144122e-08,2.201013241624338e-08,1.0319529502528616e-08,-1.5767430338506046e-08,-4.1525922708955306e-08,1.1578781518680096e-08,4.800722322519965e-08,-1.9479736202870573e-08,-3.293076319879395e-08,-1.3632761463825531e-08,-3.74790304420795e-08,3.2614636260940855e-08,-3.061103705772514e-08,

-3.694742284890046e-08,-0.21437257372268032,-0.04712959857691157,0.0052975523837120765,0.11807340329081879,-0.1108870119354966,0.06038442088216328,-0.0017380325175859444,-0.02616195140171694,-0.1636588251260921,0.4061285054534143,0.00018945993311161313,0.05752311576220777,-0.04685325623974384,0.41090754584413625,0.3235901862238442,-0.014664035844493136,-0.020623510139560413,0.07465687748576103,-0.3041617135521701,0.03678014631002545,0.10579221895804164,-0.4550925876117585,0.21700523797611532,-0.14112301292869298,-0.31281595848407745,-0.019531753072091793,-0.04536764025651235,-0.16702155530600435,-0.0070860065350042195,-0.0029062822273564813,0.03152764177343021,-0.1780475255084541,0.06993309912814394,-0.20846461684757453,-2.0383308114840295e-06,0.11266114062920421,0.22242034815407405,-0.11954993580982953,0.09455276183934772,-0.2023411619020675,-0.20171150890616515,-0.0057775602743360315,0.05161077526260912,0.20248416435043046,-2.1375506053579715e-08,-1.3700594631887433e-06,-1.973963976036035e-08,-0.060054835859622326,5.137296054980614e-07,

-4.369247870059107e-08,-0.0052339069517740415,0.08497744664035684,-0.023400490369082174,-0.2050134096923657,0.1490306111999677,0.20928064356175227,-0.0014253724868726878,0.1878893063917427,-0.08264236797240715,-0.037818618177617884,4.893749587268447e-07,-0.15724999654309077,0.00653009024891597,0.28613017504225613,0.22384579705141067,-0.005142528161993307,-0.44112563902573243,-0.4254793414660181,-0.19807646963103578,-0.1262020242621578,-0.04633110072713772,0.004031933421028135,0.03321162696895262,0.03752518867600486,0.2672310551403391,0.08854885159519398,-0.21712579199170315,0.32512965669864574,-0.32133911471436577,0.11541060444598898,-0.013186616280367823,0.11281999784700035,-0.04444942885978003,0.08243940481298395,-6.137010252668735e-07,0.007139494877363428,-0.2678285164696134,-0.10502496481758825,-0.055602771867685856,-0.02892386505874002,0.006212654417754865,0.06996517274847755,-0.19573289781944528,0.15974251672422002,-2.6763481970833354e-08,2.983160869545542e-05,-3.145459246382246e-08,0.07912060263014233,-2.4614225260321374e-07,

1.9550580974127875e-08,0.1769399937947569,0.29751477641149127,-0.006321804531932362,0.083426114638184,0.07434944974557742,-0.006017354541550028,0.006819531378636701,-0.30834297804586897,-0.14105052696564954,0.23944475679683694,-0.00020294729415686361,0.23610253304496867,-0.21631083566215456,0.04558974514058122,0.21438505629125473,0.00010746742106567849,0.057762355946349035,0.02903388225867248,0.10891739302700074,-0.38505071478947805,-0.11585215857862789,-0.2654491458249257,0.0663678475163129,0.07346710283523213,0.12051586334758473,-0.01199728283885024,0.0877157736449877,-0.13779189768880767,-0.08466870136670432,0.0039768302098735836,0.23749947364333865,0.12514306660295807,0.17159623666848062,-0.030541007188659312,5.368884883107504e-07,-0.47381635088107166,0.30554403658878354,0.23698179219618315,0.001505340368376821,-0.019629515234204958,0.2101390804972211,-0.20771125338742652,0.041307485653843054,-0.056452193955148666,-3.0989499575179997e-08,1.1346313882793168e-06,-4.402392914235513e-08,0.07730874259274216,-2.5497970481852844e-07,

-2.381348728471989e-08,-0.06823518177369121,0.05659838084733773,-0.023607724528988898,-0.16056418745636228,0.013782655560510991,0.02341702662588819,0.005268157477141819,-0.20837330586826236,0.054795062228403614,0.15129732163433518,7.713149209909482e-06,0.04133486691209284,0.0548866655962758,-0.1241189836777456,-0.0913641063842256,0.008046276083014831,0.1917637918129979,-0.2381085427929942,0.13989392337895368,-0.19904046429374603,-0.08194813204347011,0.035796934866246605,0.0560762210009768,0.16066490848023,-0.020349783327223855,0.0014755907082651524,0.10584202804365286,0.09480599126655107,0.07348245145405333,0.09639926913060771,0.1667196160150472,0.1280479059545471,0.05402346496563661,0.05033477626194411,2.64269464218308e-06,0.046551071064242416,0.051813828538356005,-0.01384228742185622,-0.0007046379253711877,0.18301757914375352,-0.2957871666311338,0.01737116306771532,-0.02809212102877299,0.17160804174487918,-8.620408250151448e-09,-1.121026999030974e-05,-2.9402659719838072e-08,-0.06992824487702595,-5.052207009044408e-08,

3.303366136117731e-08,0.1450976439076959,0.17940943362678302,0.024105369863632455,-0.16380029252671777,0.20960665329680597,0.03501929299955228,0.0027690423522737976,-0.22908243123607303,0.11949121109709097,0.17743965842669818,-5.73494147604995e-05,-0.11764435450253496,-0.1064025030431911,0.2901857985600417,-0.12886452603623808,-0.006347343711377056,-0.009533773557508106,-0.08936722593204674,0.005235616769621343,0.3303053903780152,-0.07602000184422403,-0.13324253432868177,-0.08059712146145673,0.039194974682060804,-0.13485613115563946,-0.012651909971531813,0.07861572579619618,-0.1528661512816528,-0.12576939650447957,0.04721299819627663,-0.22149397906823007,-0.06239095062491408,-0.17198666935679657,0.14304135690415745,-5.160240376707801e-06,0.11514292645151163,0.10144790901400035,-0.01098704594543395,-0.11771445722147535,0.0975301717639276,0.3220411846115793,0.17710289632245607,0.06128318543052713,-0.20126324807804585,-3.1765050247876055e-08,7.691923983423701e-06,-1.9619854650000732e-08,0.2711565254632688,2.503198802311702e-07,

2.8789065759368112e-08,-0.1577425591014946,-0.27538928968744775,-0.005531739938725753,-0.0024695493949710083,-0.15100735355136566,0.06417131197805474,-5.462215104675456e-09,0.1518486106365663,0.16735453816676457,0.24510073242195976,-4.271834131344885e-05,-0.10527561713716307,-0.05076926515911739,0.05546292714684682,0.14012872674834248,0.004812207479972499,0.08511668173808551,0.2434745736736197,-0.05938925037371076,-0.43204293205528754,0.13865449878160405,-0.12224657157937496,-0.05922915877004321,-0.14375952953980378,-0.08307785153049321,-0.06613976528918969,-0.14659037542423542,-0.16056708043830614,0.022759602978587083,-0.14498001691876355,0.0018087116285435323,-0.22476426698151497,-0.10409501670751635,0.0013808654569611423,-4.4835099796597504e-07,0.12017607914118306,0.05185506437928078,-0.12194994261916531,-0.05701093523635289,-0.22781174994487732,0.06724145819346482,0.10047351947216043,-0.024320610110884502,0.13676973515658505,-3.627854736394279e-08,2.3971138724073503e-05,3.700815370034141e-08,0.14610716540323124,3.1994546148326883e-07,

-4.0941194761988376e-08,0.017328405158759365,0.14628567182541238,0.00640433153761949,0.21600940199947874,0.1175121951052097,0.04212836052324992,0.00229189727146146,0.26971163130881975,0.235859984279165,0.30174621987430833,0.0003738309843106519,-0.2169472400695227,0.3978553974680129,-0.1710773622927483,-0.799917299876157,0.0159509646807827,0.30848321917510213,0.27166595228312207,-0.22662413635463372,0.15417239499274635,-0.18487752206108413,-0.3183036727109596,0.3585535696687202,-0.26377169110127724,-0.13765486334576382,-0.11400728840403229,-0.154878501290455,-0.02341949899638088,0.17483457777499575,0.22293274932350385,-0.12339111997452913,0.1868527215396945,-0.16032674091407706,-0.1198842309553529,-1.813215973086462e-06,0.1594156262942274,-0.010432530071631557,0.09837201538757312,-0.15259245399200666,-0.23784289714340207,0.028664841135634576,0.43625577955494776,0.12534884954030082,0.1412630573763262,-3.910110897410545e-08,-4.962554962926029e-07,1.0215369577181569e-08,-0.1297107080294943,-4.704604267201448e-07,

-4.155353884991018e-08,-0.0630916586642824,-0.09274100448294903,-0.012778515423232186,0.08218864730178825,0.02756114072273649,0.2301091055789264,-0.005748766391460758,0.039870241704142745,-0.026866228711567953,0.28145331381429034,1.925579560629526e-05,-0.09030361182729113,-0.18640281287999688,0.020362396566937255,-0.12217796899317353,-0.019664112184212768,0.08210655106251988,-0.23765458488764635,-0.10116756411222035,0.07515102223160156,0.09010685303895367,0.007171940258862177,-0.015437956988548064,-0.04812660346904772,-0.2597633011843677,0.056213305635734415,-0.1657743689285183,-0.12800797969749717,-0.09334884761941828,0.05335750283056438,-0.2574398123294888,-0.11416139287543747,-0.32634667183648575,0.11123690110008536,-1.4664980780600532e-06,-0.10320996154178519,-0.28495064445181195,-0.2303850442725848,0.09095055028557823,0.1852188007282962,0.25691997665642463,-0.02379955648419831,-0.029544938756972925,-0.19829163174097905,1.541014217535645e-08,1.3608845680386022e-05,-2.3697361071571915e-08,0.0675798776736398,3.1445114094575683e-07,

-3.282310541606417e-08,0.03796355733584398,-0.10811253448342217,0.009870396550998636,0.06432825420826724,-0.035043970869281,0.2026567950256322,-0.0017696286797440808,0.04984940911790737,0.14336749679335467,0.4924713526393415,5.192816935548795e-05,-0.15998292939052197,-0.003824852019211829,0.08775400169013069,-0.08124506619386189,-0.0020933088667206994,0.2749408844780476,-0.04373612568184067,-0.11936354838444983,-0.0032588761497036175,0.1156049693952976,-0.23926842121038075,-0.17859718732052518,-0.1382696917587041,0.030175827059943885,-0.10481124303152226,-0.08016682637724716,-0.1866956105216903,-0.022083754071900417,0.3429134933927745,0.12303980225488041,-0.06585566831419412,-0.1951123554029507,0.16954858289609323,-7.08582249537362e-06,-0.08299947565066203,-0.01541727269316047,-0.10452939536261549,0.02608650555556274,-0.1795111971362184,0.03535354022414475,-0.39001865311584394,0.0442564397486586,-0.11206162693433945,1.697856388835289e-08,1.2142972925193346e-06,-2.1333945253047625e-08,-0.06689388206125552,9.912745259446393e-08,

-3.127836834836527e-08,7.373228280519506e-09,7.096869670623905e-09,-3.192169855818076e-08,-2.630455806020193e-08,-2.3125796166545245e-08,-7.959710001992293e-09,3.5400366135547616e-08,-4.103773945613436e-09,9.161770754506464e-09,-2.0302094998775848e-08,-2.2420353257055115e-08,2.6106901566298066e-09,-3.9816260823604037e-08,-1.2374719376367648e-08,-2.0916103165546845e-11,-2.77926795525155e-08,-4.066493613611071e-08,1.3499671577511366e-09,-3.6628003373233474e-08,-1.0991419023599996e-08,3.9895144542401525e-08,3.246837975471109e-08,-7.514047636258373e-09,-9.30363432637839e-09,-2.437390458052063e-08,3.5523238593998136e-08,-3.297752138123337e-08,-2.8066177918217333e-08,5.9071533688388205e-09,-2.3166050698501246e-08,-4.3028673717186806e-08,-1.7680849179054192e-09,-2.8482311667718166e-09,-1.9329818546559487e-08,8.886161256184535e-09,-2.899740986627492e-08,-6.484645751420395e-09,4.379901011931868e-09,-4.1339467978010344e-08,1.724706817689534e-08,8.061098848506991e-09,1.2755781083985373e-10,3.0095475772011406e-08,2.8310719716527442e-08,2.6711834132845634e-08,-1.7299630839017617e-08,-4.6824694467842106e-09,1.521171840959653e-08,-3.1119992541371123e-08,

2.9566361583641604e-08,0.03831538657062365,-0.10918944694984026,0.008880210542702313,0.1301577171065899,0.016966180546146303,-0.0735093247145279,-0.002721491567935999,-0.06590188000563063,-0.23902679566648555,-0.8546379870964926,-4.626569975594712e-05,-0.003926111793145163,0.13545597435196963,0.09631587027755463,-0.12461969619788686,0.009821076753940826,-0.20305551252391565,-0.5911361995853842,0.13844414707992644,0.025132789970862074,-0.016575124026511585,0.06450592226016504,0.10624785209019101,-0.09789847383215461,0.06723797713131788,-0.036874075024016253,-0.12065167895800462,0.24644274755071197,-0.017441030833841933,0.013481859859488729,0.6251595457061411,0.18286166332168222,-0.08846911138165124,0.3401100472500844,8.325645931062e-07,-0.5764861502553393,-0.054100320276962884,-0.10534338005128921,0.036602206304118146,0.05810998083196508,0.32836462651837883,-0.2023650467921874,-0.1058256127384346,-0.17619061690943322,-2.1275678991194962e-08,1.123977435109628e-05,1.0901235070207527e-08,0.0739584942953452,-5.566711126352054e-07,

-7.32598481190079e-09,0.063615407643412,0.1631208247472052,0.016749195411653445,-0.19975374391112388,0.013296671094036623,-0.0734909016529947,-1.352036799970609e-05,-0.14984894748148714,0.07886804973820818,0.12923179380641844,-6.638108118486887e-05,-0.24850395937504302,-0.09445762212433648,-0.011169373769198668,-0.07142070096267229,0.007648154052358627,0.26442417957804404,0.012509401908276992,0.16020015898519824,0.20789419069583978,0.007783403936609305,-0.05270453703142526,-0.24545982742869293,-0.1711956431748544,0.009798132916721785,-0.11579386618460978,-0.0016701930417898434,0.0001517284323615287,-0.028427646857163296,-0.05135604524950893,-0.22570168377427224,-0.06536048731089496,0.06479579594061052,-0.19511895264163392,-6.211479446578809e-06,0.01162870997934926,0.13002957705337825,-0.06326027964677403,-0.20016295866650724,0.10074054491482527,-0.08030466528416777,-0.21313105975050523,-0.06930733081975614,-0.06768904796618119,4.363915424945541e-11,4.72548264348319e-06,-2.5360577850976222e-08,-0.05074492226708806,-8.834392589504981e-08,

2.9392344162347036e-08,0.5132123912904902,-0.09417954299590849,0.004810998699783005,-0.2828195012196493,0.14147451986832427,0.08097141530893896,0.005587245647907904,0.22783870404942522,0.3121087406073874,0.4235019413690879,0.00040281360379862364,0.27796726425849005,0.45366170024320324,0.2405020720399229,-0.06279248296784862,-0.01606730337805075,0.47263281560063686,0.33767612498973426,-0.17430630940927955,0.35189573633345084,0.05707255659274814,-0.18496756234030767,-0.32120048216312513,-0.1675505437523126,-0.12940459849246247,-0.007073026321606518,-0.16913440334308583,-0.4813779914591321,0.07233086835215984,0.3197468983730513,0.17247264143003954,-0.2570801906957336,0.009141162641715926,-0.369901559169372,-1.344409048564641e-05,0.06179904145292462,0.38737074097894286,-0.26729838289780056,0.1088832962398665,0.07538019154145163,0.3438650150845212,-0.21104881312787505,0.089135417260531,-0.29456814602503734,1.9009028540171794e-08,1.592053777753763e-05,-7.34643864380058e-08,0.14919859914872835,8.54984443416456e-07,

-7.98296783451017e-09,-0.11195988195815562,0.1014412152083568,0.02762408842745596,0.17052381703695108,-0.06451636999503177,0.010429746787322315,0.0006183762681875303,-0.1700427909187667,-0.17220088510731302,-0.3482701067370577,-2.7021937727505876e-05,0.005448862503108924,0.20522544861403244,-0.10105377050089015,0.05559336784001519,-0.019966215606650153,-0.3617780496021502,-0.07127675205824253,0.12660138858144546,0.17579212080168732,-0.03762632025847544,0.1511602398854404,-0.10923714364308813,0.09631213235849297,-0.012060773832999975,0.06848436060606546,0.05052971722129559,0.14271598929763504,-0.054861388869890115,-0.19928792868862782,-0.10690773448510478,0.004821544072086656,0.1286565791482304,-0.11847577136499321,-1.296176126138979e-06,-0.17513708673166856,-0.0641556322482637,0.06399853077316547,-0.06028703020438784,-0.45056409954933513,-0.13338261830317003,-0.009916392424225245,0.00874867354129185,-0.22969802007282653,-4.262154746685735e-08,-3.8065351791664984e-06,-3.3498021193851162e-09,0.11029342185475258,4.520538464266523e-07,

1.3299369671956659e-08,-0.06623603489673666,0.07676035086807688,0.015426163042327704,0.11331282977907176,-0.11433012993821999,-0.025802150443905384,-0.0029577265671029956,-0.0018051018071386599,-0.11074555911223725,0.2933442044254816,-0.00025822408985005506,-0.1025292074849432,0.08190479071117715,0.0727264502182283,0.21459434408468375,-0.018629642333588433,0.05480711753399436,0.3306264891147706,-0.47276132183805863,0.14173560393901946,0.025256479979719797,-0.1053195226446696,-0.04864210526309399,-0.31874556284574257,0.028317612287799138,-0.04220631407492452,-0.03666916558252236,-0.23164090883944327,-0.1145005733091676,0.1517166442540601,0.007718108040973122,0.14895833326314348,0.1520706390899528,0.1338698916441232,-8.841292995772918e-07,-0.4346922291081742,-0.08256007039992487,0.11999688919044493,-0.14698560690013793,-0.29935552372265056,-0.06488173814078642,0.21261527329107083,-0.10253562685765023,0.001185883264482717,1.3416256868707665e-08,-1.5403701989311035e-05,-1.0627776659116636e-08,0.16939061624686405,-4.908435140246003e-07,

-3.716619881179014e-08,0.13350014398539686,0.16509026328941567,0.03305988125371486,-0.14627619764884728,0.12372225378073183,0.019020210474274556,-0.003671956290519267,0.00031651357818234866,-0.09983170738317035,-0.09588540040595492,-0.00018675266807908475,-0.24515406641781834,-0.12373986241005362,0.10107423797101543,0.1366706214691003,-0.01675735749506522,-0.2617280651838427,-0.2143453630049105,0.2182005492820638,-0.32845106029360116,-0.036287378235992256,0.03721902108710641,0.24288499922521106,0.20373015062072958,0.18870518581955228,0.06308867560207762,-0.19646378963498448,0.09859695749388414,-0.10252474630701049,0.004438861693091498,-0.014466302917718615,0.23093941537741214,0.21719849943799296,-0.2359853500194686,-3.1616811163095604e-07,-0.36730919147554536,0.1370560728102031,0.12099103313783867,-0.03773219189986387,-0.013100276086646224,0.08302688998343773,-0.14631964453793975,0.052819924282949,-0.04889438815196761,-1.3759654154387052e-08,1.6358749157245605e-06,-3.727194931054455e-08,-0.031052669743560926,-2.69987762009168e-07,

-3.9495768191810866e-08,-6.665603867324961e-09,3.804124775865144e-09,-4.195529671291077e-08,4.117602999279853e-09,3.14687879704569e-08,3.467195728122359e-08,1.3036711544518958e-08,-3.027853594039615e-08,-3.873124307947046e-08,-5.192251223198847e-10,-3.162402204891029e-08,-3.912154382983607e-08,4.0094726026044504e-08,5.394729271598631e-09,3.446274176872396e-08,-2.4363226335536803e-08,-2.786129363264198e-08,-3.0689825435048343e-08,3.9595318309916736e-08,3.245551319591407e-08,3.197409777777768e-08,1.1024534295249396e-08,-1.7502274599976874e-08,-2.5710530742147117e-08,-1.831433651679075e-08,-3.031858389915903e-08,-2.7824342001718376e-08,-5.6245022217197835e-09,5.047245922785359e-09,-3.361608678743168e-08,-3.2082619074490974e-08,4.30207195142913e-08,1.0589790798218546e-08,-1.716245942964067e-08,-3.0235877441297665e-08,1.840055017883889e-08,3.186755595164579e-08,2.763917070071813e-08,-2.4499639553197696e-08,3.411461827001981e-08,4.2834472216664564e-09,4.1253179404802055e-08,4.466788874397941e-09,1.0935308296657317e-08,-4.780421460197646e-09,2.9162845482350014e-08,-5.4003861990009985e-09,1.875742693278603e-08,-2.3399053908530478e-08,

4.0062695261937056e-08,-0.012165817730551436,0.06660077104670639,0.024704970382409975,-0.10510872944055738,0.1348502484406501,0.01031735378913029,-0.0004897730722602393,0.07725319988375888,-0.017089294224794348,0.29277684769796075,-5.837164280276291e-09,-0.07721183217149169,0.1058229283343622,-0.062094668766293,-0.3196947150571624,0.017629643243481426,-0.25527595371352463,0.07896247057205014,-0.1805841257918681,0.05079606437816457,-0.0002870116371592843,0.0019427999541869055,-0.14583360194161674,-0.007436184020070279,0.04954331421074605,-0.08382556019687859,0.04975475740971117,0.2547780874487003,-0.06521994324177158,0.04769227262641613,0.2232324531019645,0.012841801410564962,-0.03385764779074056,-0.2286847005997453,-3.510571204374492e-06,0.027567804237850754,0.12518171744562576,0.03153353314957303,-0.01895573464246866,0.2612424244253475,-0.27737844861374256,-0.07761526281532372,-0.004704914447549975,-0.07726273232963667,-2.0598200643774164e-08,3.4916968240721374e-06,3.7522226939490805e-09,0.00828246300375301,-3.1404112057628976e-08,

-3.7370599047984654e-08,-0.15608986870636188,-0.1206356657516685,-0.006128713081415234,0.40208358950992695,-0.10540687410253818,-0.036532488727403174,-2.8673285713824582e-08,-0.08484368923328274,-0.1413932848947454,0.0013233528791824654,9.858342093540655e-06,0.09280597521904417,0.06912854026951658,0.2864492415606315,-0.0771855682831416,0.023990642730931704,-0.13997257760561482,-0.34507623144975574,-0.10611256169502835,0.09437600090666635,0.07570089074803482,0.3280273125176362,0.09536832450654108,-0.2567759136229413,-0.13574912374658105,-0.05211343659210716,0.10527911574713861,0.35267774475299235,-0.0419415322587824,0.3616980256741251,0.3246480991412561,0.0644660724082222,0.02054602626113208,-0.1522770670059556,8.695943106058461e-06,0.05881250090856173,-0.07286544101222468,0.027892637538813266,-0.09911522308310876,0.5460146829348475,-0.039785443489137304,-0.17293682810063532,-0.0716443457782357,0.3335130196830295,-1.694403438485235e-08,9.260126954296115e-06,-2.0916680919572387e-08,0.17869367827368274,-7.627622773520083e-08,

3.566277088615624e-08,0.05029592838752084,0.3362030312434373,0.016886159848437866,-0.059588049159086345,-0.22260304469917597,-0.09185543777669998,0.00318082741979203,-0.1645832190744887,-0.01859534911516994,0.13531454427127884,0.0003395387145101725,-0.27605414431603414,0.05808781256602641,-0.0929003925721404,-0.25203063392297564,-0.004919603963688077,0.31241608381475017,-0.02299425776128752,0.07259963982750856,0.006875057906349661,-0.07925002270517564,-0.22655083972334353,0.06886560920531527,-0.10182028731724124,-0.14971298417325676,0.03493917535732496,-0.21725835999006113,-0.31733105640675946,-0.004235484182440886,0.09121835536195969,0.25016263294478697,-0.06562898048205529,0.09527470070241523,-0.17326749056703974,-2.932640659535644e-06,-0.010459021435323177,0.07173110313685593,-0.20105658034504112,-0.06960006484650631,-0.2453686708853768,0.2204021533641713,0.15287983379120346,0.010657061515083036,-0.6119956291089249,-6.632956222900739e-09,-4.961351029511372e-06,-1.6752084759122174e-08,-0.19289977452245935,2.7938963222799046e-07,

-3.439207237656921e-08,-0.09065559069691835,-0.2549655908737179,-0.03133626671311004,-0.036654257996840446,-0.010732930277558124,0.03456014425518827,-0.00012169330705873705,0.21231659611923942,-0.02648702253071404,0.15676812051252753,-7.157021768214218e-05,-0.2520654143293606,0.02751484684846704,0.13827622967723735,0.03648541748638494,0.013724597088483195,-0.0005628091858704369,-0.15776627189862125,-0.07927860812680415,0.11492676173041294,0.06393326345136133,0.11822484040675434,0.001975184728684911,-0.11381241591347509,-0.07957459849511396,-0.05352720649220339,-0.044512404326792585,0.05466199485121534,0.12649192930028885,0.06113699793901898,-0.43989807575808715,-0.0737188606741359,-0.14728555630452742,0.27283808046278807,1.7090423264163756e-06,-0.22642854775335838,0.06396015597472103,0.026906568190836228,-0.010551670517677218,-0.10463635845372798,-0.0816611307562901,-0.06353134555638662,-0.05305653468724835,0.0788280500832389,3.822212415329471e-09,-1.352944011882888e-07,6.129914741642957e-09,0.058522277325310394,-4.3879797391674184e-07,

3.5574797076838115e-08,0.11573426542930548,0.1073734632977725,0.004122326310262234,0.07682325441482352,0.0808151237880536,-0.09612214070756654,0.0032801391967278806,0.23498373325282293,0.15821804416059096,-0.10205699309983353,0.00023244008222540527,0.1776851335027035,0.23377479430128742,-0.27962911998027346,-0.3117891396274223,0.005997811515122562,0.23303830535424266,-0.08077590627633383,-0.09215842309374095,-0.1671034142500962,-0.0896761293506264,-0.12102577041720504,-0.1763991114324675,0.027537520045078236,-0.14772601780194547,0.026759727399102495,-0.27765581463230793,0.2757917168965583,0.0743872464022751,0.1451732835953469,-0.05256577639184644,-0.11236343018870557,-0.0077426461613490745,-0.026291229230885452,1.8006734470975063e-06,0.23560963907703764,0.09756537903890837,0.0843098774371799,-0.04140665045990072,0.026379086567917237,-0.11716738478747661,0.02417848015209372,-0.007151748598731747,-0.135565789721968,1.3971103381398207e-08,-1.1774297296690259e-07,6.512793049639513e-09,-0.34798891068892673,-1.1461272655965269e-07,

-1.027710418918776e-08,-0.02131324535399093,-0.2134790489051417,-0.014545912506778516,0.2427943806245576,-0.08349765454143755,0.12034939559859574,-0.0023219106976453074,-0.018100060956802035,-0.0059732351868282555,-0.07980175414112868,-4.257011297972156e-05,0.156991688986281,0.12415376847327995,-0.09767396890148702,-0.20442709854978658,0.007907826217141735,-0.3542810767753195,-0.252042459637579,0.03128568970126182,-0.1658227839538128,-0.01635191494141875,0.04321414968886034,0.2865009979176039,0.13077299653442154,-0.10673953984587013,0.0017536384217282798,0.16500720027632648,-0.17151456277768806,0.13804899834196346,-0.2883457906097987,0.12574135554898264,-0.11463443157926159,-0.09353881470623564,-0.015583637765508727,7.052622991608433e-06,0.20902189634838086,-0.18373855543849685,-0.06233457465068201,0.14003113329315517,-0.10512553514626813,-0.13482515157884395,0.199897920040698,-0.004639413336208146,0.12762663755396653,1.629581905956149e-08,4.319351223024509e-06,-2.4244916647585407e-08,0.06299899186884586,-9.033272539488828e-08,

2.0770131969313785e-09,0.11213992422584272,-0.11024374193420695,0.0027421766317625024,0.06678523942165297,-0.09860534355477414,0.038028526726642906,-0.0021683494551418036,0.11911781928344184,-0.007094656123695265,0.03811875795556806,0.0001261685422424154,0.03679753549432265,-0.16239639906884507,-0.11411782378996331,-0.13722618150882465,-0.009020699051346155,0.05666546027085743,0.13585898569676808,-0.01738229313618988,-0.028880337112223473,0.12027395666637972,-0.06731703867192537,-0.4450345852077033,-0.07587544325892838,-0.0021128845002221057,-0.008286125710174844,-0.08075757175262888,-0.19610225920948546,0.031255320899802576,0.057513409798563606,-0.04223719450034133,0.017699252581693165,-0.0963289152336997,-0.04481836160811007,-6.367806542893962e-06,0.029693138489009143,-0.0763917935322369,-0.08018369044502788,0.002311488954046447,-0.026407486628413954,-0.017933844176097127,-0.3016020378161265,0.08258738162621576,-0.03541375129325289,-2.6905774579334488e-08,-9.749831296023364e-07,-5.757501468820229e-09,-0.11696247871523331,2.3328335188259078e-08,

-8.091882794136146e-09,-1.1379681282469688e-08,4.078810369912244e-08,4.306012732316298e-08,-3.822089833435719e-08,-3.5309010844058795e-08,5.881047965495565e-09,-3.606967235670479e-08,1.7239527120380927e-08,-2.147416404789962e-08,1.7635312275483132e-08,7.845890443416203e-09,3.067683629435998e-08,-2.4197173269923295e-08,-4.205757541317228e-08,-3.113575112485096e-08,-1.3158914342620691e-08,1.6375288447407903e-08,3.737988212018395e-08,-4.096636955342832e-09,-3.56671747078907e-08,-3.9541731861976674e-08,-6.060221833832546e-09,-1.0198727316066898e-08,9.162805890499667e-09,-3.9180051713814276e-08,-3.300547005305809e-08,4.098600535681185e-08,5.012618807777382e-09,-1.4786790544221074e-08,-1.362279827988773e-09,2.988703207143922e-08,3.968696416589688e-08,3.4140741833645024e-08,3.016597852131612e-08,1.1307485086998536e-08,-2.485917678824968e-08,3.696179614051828e-08,-4.5960038108412616e-10,-3.251371689519628e-08,4.2598838035982414e-08,2.599460293122214e-08,1.0911282245442462e-08,-3.5955153627326635e-08,-2.3760729516621157e-08,2.307001232465363e-08,1.7299846492349161e-09,-1.0002662116749881e-08,-2.993012187720071e-08,3.634688903986035e-08,

4.006571497780861e-08,9.80291038047378e-09,2.606725004700161e-08,3.0226048189427495e-08,-1.810283053544083e-08,-1.3928846678507498e-08,-4.1597649427508385e-08,-2.901789920284651e-08,-3.608716116648224e-08,3.085391292520154e-08,-3.128911429592128e-08,1.2710058037538877e-08,1.2337350058991006e-08,-1.7683426923089766e-08,-2.5258673101064837e-09,3.8649975823842575e-08,-4.2882588074092263e-08,8.607011691757897e-09,-1.3892363504194664e-08,-1.755489644937937e-09,-1.7280504908182696e-08,-7.236238473950064e-09,-5.431270242851972e-09,2.885406187101247e-08,-1.3356466852034381e-08,3.964884411457137e-08,-3.764260901186805e-08,-3.4363731918965876e-08,1.6012520965366666e-09,-4.2383042138806634e-08,-3.820769382781788e-08,2.396309962171053e-08,-2.878911769882615e-08,5.278748639632601e-09,-2.512069121734726e-08,3.227884090623076e-08,-3.012298989386743e-08,-3.8658738159227164e-08,-2.3505121297330677e-08,6.157724001584299e-09,3.6847163909384797e-09,-2.7092713360342468e-08,1.6352084148887987e-08,-4.216091445836949e-09,-9.240868934566034e-09,5.028840478411054e-09,-1.4034982168360888e-08,-4.3032827881371167e-08,2.9684585803531073e-08,1.6260896839992445e-08,

-5.03521019682661e-10,1.4372032435976035e-08,3.7405742359737786e-08,1.54088073947318e-08,1.649097851488501e-08,8.213863128800718e-09,-3.502459814972007e-08,3.007944932439409e-08,-2.510821779607323e-08,-1.7695202610824044e-08,-2.1588060787669904e-08,8.618742044407112e-09,-1.6360215414520184e-08,1.6433328704161965e-09,2.6205139604128895e-08,1.0462963938672648e-08,3.206666526799757e-08,-5.080906002852633e-09,5.820342687565023e-09,4.156993101879235e-08,2.379301849550402e-08,-3.1447840086798324e-09,-3.641214800814667e-08,7.559757062494618e-09,-1.9306875302071294e-09,4.0261614464566214e-09,-1.3551328495639624e-08,1.6642989143534317e-10,1.8696626313381956e-08,6.3070245870736935e-09,-1.4954421284211134e-08,-2.0952060521109147e-09,-1.074119305746868e-08,-3.994671519919905e-10,1.9979168889385325e-09,-1.6090578378477438e-08,-2.3728297525530582e-08,2.7178467082587714e-08,-2.2997096528064508e-08,2.0625870101283777e-08,3.5432310069099143e-08,-2.3852302731479347e-08,3.598673435526444e-08,1.4348083565953458e-08,1.214933213400824e-08,2.992208141297115e-08,9.659267101104307e-09,9.470095998303769e-09,1.0901897920448627e-08,-4.235487282658326e-08,

1.7296839199391762e-08,-0.4432844393427486,0.08413479148740813,0.017216851804870786,-0.1457214020404887,-0.09249360942963798,-0.006924249901359737,-0.0006143343282935049,0.14172075664420608,0.02727671006374465,-0.07546507119520392,-0.0001333535000427557,-0.32000446507521957,0.16694117718945625,0.05652485586024499,0.18388024138450543,0.0020364843838619976,-0.004395371251686927,0.4099664805740996,-0.12755440001772553,0.21621581153415484,0.036892250145389,-0.045335875447524696,-0.08417068249702639,-0.1777570528218098,0.09714428759200859,-0.02284574220798481,0.09968335205351979,0.02592505168700427,0.013321906161935676,-0.006670198105871336,-0.3573878143388566,-0.12622630258379944,0.018416208553212028,-0.25722032063613065,-1.1627319744092845e-05,0.1037990572190798,0.050622627500587714,0.0026526675927577644,-0.2134401154875151,-0.240239458730256,0.05401568060892077,-0.07452620590991679,0.022281760201757143,-0.5868526313659853,3.838492652868126e-08,-4.162885487889991e-06,-3.5914068246857894e-08,0.01921217914123712,-6.68920214439718e-08,

-6.483696960657137e-09,0.0921726031139627,0.07957987063710913,-0.010124627606643477,-0.16132726184200602,-2.1801665751975563e-06,-0.07192224264436832,2.2956723581943656e-08,0.20585986632045034,0.03734498280733011,-0.006357542772050905,3.4275760763757087e-08,-0.005513575429025546,0.06467820710113938,0.2988096321419877,0.3313969445424303,-0.01574521927158287,-0.07480549275108073,0.02542349051143554,-0.20803614943026652,-0.15097541607473428,-1.9534693626739037e-07,-0.11796836229726891,-0.17271427574536732,0.054478497833931966,0.26241882669845096,0.02836137984184773,-0.07817440793916827,-0.08964871206628358,0.12086416909660454,-0.00057497389649256,-0.33795568820619293,-0.08822557971545267,0.32691988899661883,0.03714020102964279,-8.787000667850791e-07,1.2959982914915438e-06,0.06428485798317539,0.08128592199932708,-0.0829522182457452,0.012450089830509641,-0.16783458171403473,0.031673002335233895,-0.017039634492633744,0.07463488174286378,4.083680049151358e-08,5.68135984299843e-09,-3.2175477129200363e-09,0.3151349707438333,1.4589132911740915e-10,

3.394046270241662e-08,-0.09178148527094976,-0.01481869781062539,-0.0032427341518635796,-0.02904629780066178,0.06077535420881536,-0.06961584769732368,0.0009806065366647536,0.023272658409845562,-0.004790406929450659,-0.12269567095935299,-8.795379996131188e-06,-0.033548468519167936,0.01781006710575899,0.06400942818892753,0.15443146180609832,-0.0036107606916381653,0.09117474714597334,-0.0029397244847268614,0.09073043995161612,0.02482078178512837,-5.678895344321486e-07,-0.06277244311647691,0.07208610540281603,0.05345114435872892,-0.019042539751573814,0.022231019404919488,-0.06907903750061081,0.0770113478866871,0.03577950615325078,0.05167112586493455,-0.14491212868018724,-0.003418433191849845,-0.0010733090103272275,0.11295478706471371,3.6151676241592333e-06,0.023044952991237745,0.02633815573188145,-0.018990334443132813,0.03770549958725264,0.06660807894222635,0.07964720560719867,-0.08919022446400911,0.006469961260814368,-0.07840983543214178,1.486423960085317e-08,-1.5844449988173034e-06,1.882853937331304e-08,-0.14361828735483562,4.065735237760526e-08,

-5.079939363034048e-09,-0.21619886836730165,-0.14437589373360843,0.018117166264966886,0.3653262133861279,0.3983308088651415,0.31260184955514186,-4.341439981429156e-06,-0.0655997150087738,-0.02908662067893557,-0.000678629586948652,-4.074569404527639e-06,0.030642640871408434,0.03401169395056136,0.4008055735767555,0.0763854003137827,-0.0070900786874852455,-0.03523477628880463,0.19645450325614525,-0.6474942903765153,-0.25049255432780887,0.11085798498538603,-0.07238126417673682,-0.034786446839170024,-0.11472958271769353,-0.03142997209933751,-0.053205252382261585,-0.20609192224034908,0.30710879890140996,0.18126955416018922,-0.13481723579108554,0.03685649326302228,0.10436411052847977,-0.17705532470935104,-0.20852720376782555,8.112371918443811e-06,-0.13669745695277608,-0.07279667754313188,-0.1796544329369744,-0.0998242188548568,-0.07055085595187327,-0.39557150877523684,0.03992184284656997,-0.12778950425247682,0.37999342312070694,-5.125798216462591e-09,4.419354003220835e-05,6.370371047803464e-08,0.6109009752371539,-1.0087749685770016e-06,

3.0976458223684745e-08,-3.123371675847267e-08,3.474062073104072e-08,3.33037799021143e-08,6.678886299937052e-09,8.045176822502527e-09,3.530532875435695e-08,3.0619713131770954e-08,-1.990996006006997e-08,2.3351914391566555e-08,1.3450078688991778e-08,7.292760077241031e-09,-3.761715980625675e-09,-3.728500827432785e-09,-3.372074389833621e-08,-7.476479889052482e-09,-1.9841634274398387e-08,-2.9038845903901124e-08,8.830347455887763e-09,1.7231497588520768e-08,4.101764964573295e-08,-1.750896212330394e-08,-4.270468199229874e-08,3.3825570164067076e-08,-2.543367603230654e-08,3.3331742194147786e-09,3.204609383418811e-09,1.166448442283919e-08,3.972925945938276e-08,-3.895946926989605e-08,6.302977193640541e-09,5.2050193668799824e-09,-1.667246495158589e-08,3.103291560881918e-08,1.5669139786097203e-08,-3.7969714413422624e-08,1.3874124783234206e-08,-1.3653847819620792e-08,2.5753339063559888e-08,-3.19278285177896e-08,-2.885908652497467e-09,-4.2757377023295386e-08,-7.541358428224856e-09,2.6012262968671784e-08,3.8963002404872633e-08,1.6403473202878373e-08,4.1125848597470166e-08,-1.2106764436313583e-08,3.139117696106508e-08,3.959115052552173e-08,

4.190933743380801e-09,0.09617117238431475,-0.026606289078912455,-0.0011367873772502354,-0.10123293024732745,-0.025327811682475623,-0.012269731901081105,-0.0012332247964553541,0.0004504477166964313,0.1461403787015689,-0.16203223264156646,-5.908369779717499e-06,0.17104416753352622,-0.09827437628048974,-0.07738419192440599,0.17367406930600526,0.013163225396925387,-0.004552332382309089,-0.10112477494193366,-0.08825314743053364,-0.30643018623110585,-0.007793346648202929,0.1595262343281581,-0.04978404829681296,-0.034958083528480226,0.048569637162063715,-0.010975862111132184,0.046298728732051445,0.00691165407278185,-0.11750504941295954,0.0796775946517871,-0.10746840933330128,-0.05572313247897729,-0.06227796351795984,0.018096803987292916,4.838794177264303e-06,0.004455619496677609,-0.09916304257610935,0.014296496552692085,-0.02297368539209784,-0.2854595399739185,-0.22756118900598865,-0.02811517379020382,-0.08381120845566001,0.09942364957281374,-1.2098560529558072e-08,-8.772674607450892e-06,2.0084739140504423e-08,-0.049665226820726036,2.0849538224997435e-07,

8.902923512311099e-09,-0.21267660979942257,-0.22079843382783265,0.0011773211986282762,-0.02056429063109118,-0.052346377982104564,0.050704264454150674,-0.0014800975436617134,-0.11879262857655226,-0.21273963984834862,0.01314726235512403,7.06254019468208e-06,0.11707964800930416,0.0006326341671567652,-0.16410198329791356,-0.1593152697854193,0.009950707582019307,-0.009941034700995804,-0.1642548356582574,0.2630393274516792,-0.05819196742203933,-0.01026714107202352,0.12553537088492953,-0.28736405918673164,-0.011045208096002509,-0.14227903371295036,0.019386664547361983,0.1591528189520786,0.1541732886825043,-0.05462230508432626,0.013457255983729889,0.04543920970171115,-0.07729071869436319,-0.16431761668590097,-0.02527878535263587,5.610681023530463e-06,0.15224945128200218,0.017484307180790352,-0.058267241862136686,0.1450854957252455,-0.07499691954339356,0.20197297327696692,-0.2655108132022341,0.01166500666547107,0.05939545650238696,-2.2097797163383836e-08,-1.0833162871229596e-05,-1.2562105585056439e-08,-0.27849662034567413,-2.7820323779064796e-07,

-4.259794695031534e-08,0.0028473086521848,-0.19315809830798142,0.0047745388264438205,-0.21947043749176837,-0.015799940511125897,0.06880902260765946,3.2771194456459125e-08,0.07396492354468974,-0.1698768765064858,0.06935902588713143,-1.3157411818993275e-08,-0.0008520092151009289,0.09858716891394466,0.11105034526652528,0.026369469024553185,0.016758947075241632,-0.09945112597443533,0.021980344680831425,0.015767869299231466,-0.06604948564779542,-0.0005983763009941781,-0.11678021942360661,0.15194626190010932,0.029263811882018695,0.04941791361646546,0.014530918077324446,0.060132720168247444,0.09797735865803942,0.07543022641171115,0.082908253530738,-0.09046507746493732,-0.17725931597231379,0.06625465946686929,-0.010357102751803435,-3.754933045104467e-06,-0.10738202218495031,-0.00011793089889880967,0.05152900755005443,-0.04230536693212493,-0.12113052441390737,-0.10532115063365553,0.0213762273614034,-0.020456132415143317,0.10822454262191698,-3.432905032311618e-08,7.793057308044181e-06,-1.1388059981925942e-08,0.11125593343196478,-3.366364894802594e-08,

1.229891418785735e-09,-0.13269421639299492,-0.044584085243377126,-0.007661624082817926,0.4350211118355455,-0.14643661755789264,-0.0013290492536597801,0.0023713983655230626,0.0946387825099839,0.03896120321507114,0.008642777999585101,-2.8292303446377983e-05,-0.06162408425007316,-0.0466233120304972,0.023355050337525007,0.12972146520745825,0.01639398730846076,-0.1475501171735511,-0.1443558570632176,0.11773356243837924,0.21074145941095748,-0.03391632796633867,0.11373593139431601,-0.08761973915369271,-0.0702901337264563,-0.21186408131051954,-0.10822163521624677,0.025284552853039828,-0.17175746933133892,0.0852353015816535,-0.18680655942021476,0.14899353420961053,-0.06728272841122131,-0.12724140001270035,-0.24761754075342077,5.03712130857719e-06,-0.22490653699266497,-0.15215150115196013,-0.10106769057104965,0.021813837061728382,0.154755084558668,-0.2824012583253054,-0.24954910689708684,0.004079096186403152,0.21102775695451023,4.652287060448997e-09,7.054235466451491e-06,3.512452963371766e-08,0.02190163240408562,-1.1297710272030328e-07,
};















































// set_bias_for the second layer
float bias_2[50] ={
-2.2523481248451374e-08,-0.08606321335480235,0.019854005555264127,-0.031077880528368185,-0.14659850185557885,-0.0954890416185163,-0.11454105023980582,-0.007750414430644669,-0.2186351033395102,0.11106449935171675,-0.22229582699434605,-0.0006081838353097043,0.06217736911673999,-0.2819218625552037,-0.10969979311256595,0.12943527152228357,-0.02986573128205239,-0.08092006569106391,0.20648736177593527,0.16699470024904461,-0.2062318586441327,-0.17831696109624823,0.2816557624192711,-0.1777876670516204,0.2945253619753211,-0.004155230565734248,0.12540272640311942,0.03144113582498926,-0.005912653541257528,0.12546089764440424,-0.1786869817979234,-0.16896469000318498,0.07937637307634435,-0.11756455330322797,0.1913737556440228,-1.0887546450554104e-05,0.12746231035919425,-0.26024705792406916,-0.0971260324612971,0.171849876053295,0.0010320009675007322,-0.058152056206948056,-0.094775382987913,0.09090713115781476,0.12060571690529331,-3.9744200830234285e-08,-3.998083472222612e-05,-2.75318382996994e-08,-0.10865734011699792,-6.704331262839317e-07,
};





// set_weights_for the third layer
float weights_3[50] = {
8.93119491676979e-09,-0.7772846592244054,-0.4754094816447053,0.08756145061905256,0.7533584158162047,0.6083990379888315,-0.36202766531499203,0.017712895317677068,-0.763807968172736,-0.4901229892362217,-0.9419388348854616,-0.001132572357663676,-0.8329240715469659,0.6962532151794282,0.6073435834880199,0.8429265649985729,-0.07521492220793087,0.7726381022764806,0.7511308428808582,0.6146037989964452,-0.8833157707122723,0.4505743833018514,-0.5103130492647503,1.0078050058905204,0.40044019265582803,-0.6858185867545572,0.16857088944853088,-0.6753853160636645,0.8895412740458212,0.33632459214902727,0.5694236064389492,-0.9245034035587543,-0.4029819197137501,-0.7808426951588815,0.5098138722154403,3.2674364122839965e-05,-0.9559523557202596,0.8310784279467283,0.6612491443974227,0.29126323048099056,1.0106073202596035,0.7022601159369531,-0.8892077527150832,0.19407073564457938,-1.0942561479454072,2.206637533789845e-09,-8.828894262964767e-05,1.0014311332822987e-07,-0.6630653941619152,2.102334694058597e-06,
};





// set_bias_for the third layer
float bias_3[1] = {
0.2685696275588812,
};




#endif /* _WEIGHTS_H__ */
