/*
 *
 *  Created on: Sep. 16, 2020
 *      Author: wenda
 *       Email: wenda.zhao@mail.utoronto.ca
 */

#ifndef _WEIGHTS_H__TAN__
#define _WEIGHTS_H__TAN__

// set_weights_for the first layer
float weights_1[420] = {
-0.3902403497250786,-0.013626895545373646,-0.6362509128047209,-0.8287552745919583,-0.7942269778377996,-0.18574999895512068,-1.0937586370428964,-0.0884838401835915,0.7394099667148682,0.3314593780639906,-0.056300139157250254,0.0779652415069992,-0.10395572634857185,0.19868190524422094,0.0031170094885559756,0.13567123205368625,0.27200985945758027,-0.13836546743427883,-0.41571964844754034,0.12228144326483793,0.4833453585597376,0.5044873349238345,0.5497086374481065,0.43429008067008845,-0.8388055163033985,0.26813652919206443,0.11441509201826963,0.5947923435313938,0.3623134483797482,-0.5159766961605022,

0.02472101388253503,0.6295809521450696,0.5431260152888395,0.22159791381669688,0.9865646032435014,0.10534763494997512,0.5749915067892274,0.46577768822087406,-0.24115827653528912,0.5208993293249581,0.19226082350896564,0.08898380388749202,-0.015178060590351887,0.5655041527143769,0.34118610591049864,0.395047818264058,-0.2582115516002438,0.3860933414319828,-0.8321702884036918,0.21479356218251905,0.34846985803128,0.3408138074827899,0.8492453599443889,0.17262435387743472,-0.9732347813938756,0.5422386380077576,-0.4152132187240455,-0.6632723706994466,-0.06526084602130518,-0.2867875746405765,

0.6353585459161958,-0.3937923159986575,0.11158262688053623,0.1003493627237664,-0.21349025622790493,0.27849623961711145,0.31255029130883244,0.242633980263605,-0.30158976435941887,-0.12109004909675711,0.05219923722918768,0.2042376788930373,-0.7794230920154162,-0.39867339479976804,-0.8365579705659615,0.11830960441126112,-0.0885827047860434,0.8138484928742469,-0.17961552461279584,-0.5025790917900896,0.7767899073473524,0.00794099489460352,0.5228083516905061,-0.2818210424544628,0.23414446764786023,-0.4416112538445199,0.1563932775265746,0.2445243900338206,0.5423020999166869,-0.06628274177350839,

-0.0058516167935526685,1.1199606566899694,-0.4337610398409796,-0.18564512437670735,-0.10567412250905242,0.46122375640341495,-1.550920082486296,0.1952950753051188,-0.40873931788657275,0.362614770506831,0.6862796946018537,-0.25489353053965247,-0.608247668030839,0.34367305334245984,0.6900171459165545,-0.9330326154922804,0.059222179905875756,0.3031526866315905,-0.25506148179109117,0.9838697901522986,0.4110983973408801,0.06755740410519026,0.016756961221536228,-0.44274423362859405,0.06927251335245037,0.3717125578056045,-0.9038007061638645,-0.6345072316298007,0.13901547393761518,-0.2952361110247134,

0.16549553925161864,0.4570299122679551,0.10361002306854722,-0.45510125889985587,-0.2161695489633183,0.1197914311472986,1.263575628828908,0.015340566073034153,0.49450227556517234,-0.6387422430818497,-0.24623280094639674,-0.5944401268365582,0.6569599578629538,-0.0804384505415921,0.17555261380638415,-0.041064379361212607,0.11458091900962934,0.8868532524947619,0.34247374440733624,0.143760621223242,0.23783952826822344,0.005008745918562063,0.8625419495548569,-0.3770119388195914,0.6138694371156654,0.7073238604435625,0.09787640080990502,-0.19421816571945116,0.026824599057497605,0.784156221844474,

0.3343091396474878,0.2366787973841365,0.06564037942393736,-0.4409673284427518,-0.7612493383640488,-0.6888954747802728,-0.15174226123849865,0.3290501686786636,-0.27319753715353096,0.4988300314298135,-0.3848478952534371,0.46788985459568594,-0.02825851697543682,0.49760466159343797,-1.0815029396964477,0.2322286428331048,0.09125933296676766,0.3413905985386536,-0.355350773164879,-0.19747532514906654,0.3571240286704339,0.01827921379460039,-0.44988803105238967,-0.28141091497538084,-0.030843833357002356,0.3431334396982487,0.4992248263690081,0.22962120649616014,-0.2456626106747252,-0.1457094023614875,

-0.05293597030757581,0.359786434877496,-0.03092376086344817,0.38256244679307283,-0.0950477292980932,-0.31179665324545247,-0.2615766529747106,-0.4955355482144146,-0.5873142889650396,-1.2723023435291456,-0.497144015494263,0.49730110413739304,-0.17362209415810126,-0.5103128605004253,0.5494638415860449,0.23597031799863002,-1.0590673064514995,0.33977334998272585,-0.0652014121721998,0.32703557550044005,-0.17091364769007034,0.7190601597617777,0.07951861237103328,0.14067630322788321,0.496826763589522,1.0658789373445012,-0.4053167918449698,0.05749330162033119,0.20415925912653923,0.4593003201183522,

0.24640678872531088,0.46543511732892673,-0.09383223777597184,0.221052957206581,-0.4571000960180778,0.16336287485745118,-0.1788878740758506,-0.5101970119443721,-0.5096066724236282,0.6054695207733234,0.25472231669683887,-0.3942905706755558,0.6684532818914721,0.5769646088674106,0.0759547896630747,0.21844246681167356,0.02419553018473112,0.3794870432465908,-0.7750092139815268,0.33005414059217464,0.48912847415687116,0.27304505202403734,-0.2482599301558511,-0.00032461227492889297,0.05404997520935273,0.4341610483675914,-0.1681634011498885,0.1987353216473617,0.0023479794523633664,-0.24540463590992745,

0.32874439031396807,0.2758243875985652,-0.2980336591674216,0.5342375316140409,-0.03892461155048992,0.2001762034931396,0.7009115885576419,-0.40540938943224475,0.11017855503902968,-0.9862652243493745,0.6424909330599965,0.2362506202066471,-0.45446092709366515,-0.32360915078411406,-0.5053037887610096,-0.5338169803883658,-0.5250255838779936,-0.38110901836064137,-1.7255501548721752,0.04904901281694762,-0.19077536660366087,-0.11547329054859809,0.7969929825662418,-1.3865640320403247,0.7947800270272358,0.7211257527367634,-0.17837849625222058,0.043332210755604686,0.49054285951964094,0.28211427151201035,

-0.07788247542307697,-0.041912556815241336,0.37705694683920316,0.21751821460095885,-0.2417965658572202,-0.571897858245548,0.7925749624577983,-0.19048461655581497,0.08687860287809117,-0.07234885092809502,-0.20623273819768476,-0.10071018718979413,0.2527620812130581,0.15985262514182663,0.7545022715429827,-0.024872343897394227,0.050868723921261884,-0.035254725473550116,0.044248679323742574,0.02605161039608325,-0.3695811054977787,-0.25711221111438054,-0.014150075455834776,-0.2688033347125728,-0.045089034393609145,-0.7139716426916407,-0.13737843043289022,0.1533609906528931,0.20051547824484867,-0.19523989651910587,

-0.6187313483266996,1.3945629787976064,-0.09065282206727095,-0.1719224790742338,0.07643417062298424,-1.0279398698034212,0.7412166097845914,-0.3871175708165637,-0.2633383443006101,-0.15742138036395378,-0.08770516597095111,0.3219082632982643,1.2204176354661131,0.26551266573061644,-0.42478074860870096,0.5632579009774659,-0.9957397350496768,0.3087665819140855,0.2708395859509424,0.326646408865327,0.9290308702581223,-1.2499104147614852,0.21766252103586017,-0.5823834743281184,-0.41363341171574153,-0.5899931160870348,0.4425046387126363,0.6047195004077929,0.029333081083249838,0.3812280676445762,

-0.4141822147080443,0.7116198250700284,0.39345620105985823,-0.05725284277839906,-0.3129312253446093,-0.12053187095693592,0.186680009814842,-0.8219080113490558,-0.2048788790535541,0.9212448788759188,-0.5120898270033993,0.03803890640954047,-0.09635588727467909,0.8892437609081939,0.06221448734924225,-0.47200999045066055,-0.6269434223029942,-0.21194170946497812,-0.21635324268852243,-0.3214420588707425,0.42602296056051814,0.1680485720405037,-0.49800734916556366,-0.04144209119562167,0.13590767071578458,-0.7876782353682461,0.2793432035106796,0.306542929403012,0.41282508547227764,0.12126298264235646,

0.3776898138686286,0.3830897718114347,0.256658806934266,-0.26214539535303033,0.36677463281090034,-1.0722994972966966,-0.7524733355120601,0.5782458580143727,0.28120318418155865,-0.5512490171810435,0.5181059526518971,-0.6345528467539902,0.08939727575743796,1.4713986102847585,0.3864961323698176,0.3671568802892182,0.17837450321814874,-0.11525565923183512,-1.1745498493345732,-0.8007255943276974,0.169828234164356,-0.02379246274597728,0.49746342052232784,-0.943992309445145,-0.33578520922373656,-0.3620426263903085,-0.6837167353985677,0.5491095444290759,1.057653578274309,0.032551011909940725,

-0.150334223196026,-0.32323649453104736,-0.016107111236401753,-0.41642948897466525,-0.42159608228950834,-0.5842916781940025,1.0245899756646974,0.37762660122127173,-0.019007876145135785,-0.18929818782495653,0.04854937207944021,-0.20259487150393835,-0.6151248744963287,-0.6970767463198411,0.2075470606221659,0.0005989606551710233,0.5068162987415783,-0.5900534054479399,0.6935570345904086,0.30435193340140554,0.2281731133178688,-0.3690949739531152,0.41238605241717974,-0.430486182687585,-0.2540977557609988,0.3941339468031205,-0.7108057264942987,-0.31443954826319453,0.401628054436922,-0.2353526421529603,
};













// set_bias_for the first layer
float bias_1[30] ={
0.04532308586815936,0.04417935501354634,-0.13563188272977783,0.10889743043105334,-0.38357567173862805,0.33298668276504667,-0.275884568488606,-0.0569320874268069,-0.1930323462178885,-0.38468142606108624,0.11999277934553336,-0.3551035544404868,0.13925571612333584,-0.0023977879110805666,-0.37231693316605075,0.15338823416389716,-0.2666370235394703,-0.4380779621646821,-0.36579784060325427,-0.11651404412351501,0.5423336018672567,-0.0382094875366922,-0.04996282575622803,-0.10964933351633535,-0.0937020717586527,1.2972731788561824,0.2010372439582852,0.2854527602458867,0.21158152941285302,-0.1623573931806771,
};













// set_weights_for the second layer
float weights_2[900] = {
-0.1915944791423104,-0.05869967748980348,0.07122159584104114,0.2506621263461902,0.48289725020320556,0.27295274045387685,-0.20699224740023883,-0.2604643104897169,-0.0433225079295668,0.09590787841514499,0.6544258504163821,0.06370718682240673,-0.2601181701618342,-0.18136873484320684,0.11306594590021204,-0.01356951428992303,-0.3178704892403843,-0.1294591422986158,-0.2807763843338231,-0.1444344526801323,0.028388104407514454,0.18436877552290676,0.26596254568641897,-0.049904964315220554,0.28650871139816236,0.17557794969691118,0.1942287082993473,-0.22947047894668127,0.059543789797774076,0.1645751694591578,

0.20524184677023552,-0.046997865114932674,0.4547805326895596,0.1475967723227539,0.061760250171443154,0.1261659256855601,-0.47926471994672415,0.36959616114892935,0.32227884334344464,-0.1344891508128772,0.28971158061008245,0.4065356317958904,-0.25219525536191556,0.1123161353975414,-0.10244241437211585,-0.10764373421500184,0.023067059979211837,-0.2162299245299662,-0.31985224617005137,-0.10920597039814423,0.06901854878615224,-0.7821851336026823,-0.37547220912283624,0.2150022266684298,0.5652283865478657,-0.1487080287128485,-0.06685679342129529,-0.11800446574599997,0.031169986125802823,-0.33042259183898404,

-0.38700974081665546,0.1307423087161609,0.2006403820054325,-0.15515817465698434,-0.05373829178366628,0.14534152200157802,0.26186047523396944,0.025516863834222123,0.47939689941743086,-0.0660371587076392,-0.22252838778117984,0.2619703582080965,-0.2353776947471339,-0.03199777095511536,0.14914678058728714,0.00289401256164619,-0.25281976146154966,-0.004256340118875546,0.40678549816189724,0.05929401440697025,-0.15785559479153344,-0.2628562257993674,0.2945756858308539,-0.130789930942804,-0.19298931956611334,-0.18831992661314487,-0.06240125610362897,0.054242469442235354,0.003676760684954097,0.31976808043651334,

0.016836753891329603,-0.38447078321401945,-0.12265134971796175,-0.06359502528443621,0.39140544836795554,0.5217148992916596,-0.02022780669779417,0.25739225726056314,-0.5594589778093358,-0.1762718761088822,0.12082409058323325,0.18138115617330416,0.32636844149828037,-0.3235181781119561,-0.08695964751084773,-0.13067617068003454,-0.03509566653776814,0.07162843611375111,0.6236229886003161,0.046291371803184975,0.5931077506436506,-0.19258173864735773,0.3104572586705904,-0.2119530724442744,-0.20436606938138083,-0.34408970042299564,-0.12286531233137153,0.12105075011188254,-0.0775644183731151,0.374584055399599,

-0.14569317288054412,-0.4576048023523162,0.15374034580582274,0.42135579675674606,-0.5472518949070635,0.23861900351178753,0.13209717001558657,-0.18875828923041232,-0.039418422292544386,-0.11542110787786623,0.161377992445273,-0.17366297638268322,-0.27621583650483345,0.15097009585794294,-0.2586974492966957,-0.7148371784658089,-0.21530548612010114,-0.009541376341594087,-0.41659433259489675,-0.09571357076370306,0.1282688875009757,-0.2997625782119065,0.22897972550716414,0.06683385869835719,0.02450734732463763,-0.012528888476004732,-0.30852579945499137,-0.03435208959939794,0.05244380094592954,-0.2027084496091046,

0.12336702256776655,0.2962235075377269,-0.2457078059648859,0.3796133928096405,-0.14271586852763152,0.2982070597190144,0.3227174988642497,0.30911046476896037,0.5111335202188028,0.178058831243546,0.0801365519185914,0.5275340820039149,0.6276878216719421,0.12572335593606937,-0.13411226278777535,0.41276534849848184,0.2964755624812798,0.10943964595192565,-0.14952546193646857,-0.004902229632460187,-0.2925867301606618,0.2815869376768673,-0.12348864495988712,0.14307997869887987,0.44090447312639514,-0.2676723079205906,0.6707644558100826,0.052544555558707795,0.22421680273899397,0.04764641414593246,

-0.11284295459981221,-0.6949299608426133,0.14933671171824517,0.6068362089839453,-0.326648771197419,-0.12707735136084655,0.35923441249941995,0.12406641960125343,0.4153711427437903,-0.0037915177571704716,-0.15715125404005836,-0.14704771473394607,0.19646240507942492,-0.18693799333881064,-0.1201513968687426,-0.3247021897040578,-0.5988114975780151,-0.4954750789396783,-0.41441474746618545,0.20395404653262306,0.41787310618074935,0.23005379069909757,0.08505083527515765,0.21183994555466307,0.02575178101860336,0.3203990208579325,0.09881762506515265,-0.04236172665528643,0.05436944892018787,0.23192293863782848,

-0.4161884073892387,0.20060524366086566,0.12227346996869516,-0.13994456816006612,0.09174645583936866,-0.16831620209151846,0.06357657660470445,0.24881970668284292,0.24666212376753793,-0.07255656126512994,0.10395858853251187,-0.1292130238510048,-0.28885804792709985,0.158208322287679,0.062746434213791,-0.06938832673284333,-0.1516232608614227,0.42413961358993235,-0.0628360154794408,-0.04972891016179134,0.2217436784692172,-0.42761787674179413,-0.24733202855086192,0.11873463990391117,0.3708778757472675,-0.22789126997668296,0.08135265370090598,-0.029635930555344706,-0.146149930766452,0.16164262472686547,

-0.2441248163215279,0.061354084912273496,0.025105030757563707,-0.4207560103374909,-0.020348220731384224,0.16573106712342195,-0.4346355260159752,0.2710714957392909,0.49746313430560773,0.05038547763063395,0.7082644138351966,-0.10589415246885275,-0.6850709039731662,0.11277128091229321,-0.00228084620617461,0.13375127655304184,-0.08610151072679528,-0.06660572404210714,-0.04623162779899273,0.23339089234686192,0.2239712063010688,-0.26112847558559427,-0.3358450768551259,-0.11887434774159346,-0.04656238283064327,-0.040283374743735764,0.18581978271834892,0.3914351735975147,-0.32168391973734795,-0.05609524642385867,

0.08320803058843075,-0.10966215687117008,0.014547315882655128,-0.11530751885667478,-0.3086455078661333,0.6060712934903797,0.0005498391438818059,-0.4796606573143472,-0.13136590642181134,-0.385196567757095,-0.25448237191515044,-0.21735214469472636,0.2617017441494124,-0.14866442692686294,-0.11018952480110734,-0.28628870693043307,-0.08752872456441838,-0.42733322669045326,-0.9353407168997139,-0.09988436764641372,-0.22270788412574974,-0.1462096132712654,-0.029228191811529976,-0.3783162488668343,-0.08503914342926869,0.56687192750742,-0.33169690214805025,-0.14037284976903225,0.09540329207199796,-0.46726856247280746,

0.023463312009395908,-0.26706936349113025,-0.027100665638777142,-0.1420102379596986,0.029751642500126435,0.08155434158250256,-0.02515032679764371,-0.05104763826830957,-0.24761470207108455,-0.004997815752583577,-0.0934492402770354,-0.6762829002550225,0.004070509802629931,-0.0886614962263085,-0.22428350771532954,0.5228039912411253,-0.480482575957439,0.06632550757580954,-0.22935977457477658,-0.03977015280657187,0.5372628385924004,-0.012455268013408727,0.055306204022643406,-0.6301019050874045,-0.5189006078108642,-0.02176881429140775,0.03911025418927137,0.08002333021609614,0.03536756697842791,0.2256668809174049,

0.10528930295385233,0.11068115923117916,0.23119565826153318,-0.15627759370141445,0.13727154484863593,-0.10641894314555275,0.13955507466892386,0.2969791853046251,-0.5607019881913788,-0.009385458110969821,0.19696048504157682,-0.4545996969874408,-0.12274167607491912,-0.30438031341798705,0.3603115898670736,-0.03354616644401004,0.6134524917465701,0.14356756247835875,0.1894322201515359,0.055812320451646566,-0.11874956221491155,-0.32697713907278675,0.21713317198495322,-0.7172509000888265,-0.580980177749639,-0.14585630133491922,-0.27826833146489727,-0.18973033451131552,0.1408477630424574,0.2599518038216107,

0.20741057662686102,-0.18230143497481152,-0.22732902276738473,-0.5234951163761257,-0.2079736476666865,0.04642888429390019,0.2899933846039314,0.16884156454178853,-0.11282193234139644,1.0045542605134583,-0.19615017758150632,-0.17229011432164362,-0.4551359242327698,0.15240078374590732,-0.0672944929060629,-0.05215326081158296,0.4576406962732663,0.08702557039784783,-0.02766125395129461,0.09947328050666625,-0.13071929421105993,0.5698193672536069,0.224501893841111,-0.11295280488890015,-0.5238255178866232,0.03787468817962463,-0.1886059758402566,0.26439080641388324,-0.1294648494920548,0.10713484519122689,

-0.5678331803172609,0.28600037031485426,-0.32331755716361676,-0.16799358255576005,-0.036138044418159515,0.6783949775649107,-0.45174265228886695,0.05833713121623036,0.009261774625721891,0.24737611878067842,-0.2522795547975354,-0.47653243076786544,-0.3046064497557912,0.2723600224088321,0.09510881990436229,-0.1296363423028029,0.2444291548745488,-0.04849319043555885,0.4099253897292563,-0.1324732504774081,-0.20622168526375032,0.8855270528335322,0.03384771033808645,-0.23831537297918565,0.42563555420081134,-0.061019408218817885,-1.0427138982968014,-0.0780683302963697,0.14099168620749364,0.04683678310110664,

0.19206505750212619,-0.3916838154555502,-0.06264590392430422,0.6377044048432947,-0.07395164201207513,0.22830256161307366,0.09409327128336457,-0.04499702249085262,-0.48727577144783896,-0.38818808541421973,-0.19138186541401955,-0.1307305159893956,0.1899578310810279,-0.07725404493203532,0.25016544356087766,-0.286389992482414,-0.11542704650696886,0.7976515957995355,-0.4756280556315135,0.21985593585631377,0.4845150486037124,0.15608842806154496,-0.11874555554422046,0.31156641079114095,-0.034126543620663516,-0.46463864316916137,0.07345793273681384,-0.2549720046071629,-0.21323261763232723,0.4763077097801472,

-0.551370874102836,-0.8828130512331652,0.016473997335486597,0.308507651304095,-0.025656586871081702,0.5923470815230842,-0.38188798987103495,-0.022752086658042583,-0.31352572453004846,-0.03336803413485494,-0.2827225664142985,-0.08324337030334684,-0.49259209886241356,0.5258158326744017,0.36658575940261817,-0.021702436334374124,0.08643556667861253,0.7235845290785787,-0.411125577025107,0.28719607474482445,0.4594022579109416,0.12391715371679198,-0.48116231023257533,0.18305613090542033,-0.2283116905435916,-0.2763117304831067,0.39059655702625196,0.27895463812856797,-0.2792002533281994,-0.012235149791449077,

-0.5591388887043497,0.2862102741857902,-0.06509506155547813,-0.621059901366823,0.5086689802813951,-0.27536845399553034,0.4233705331813606,-0.3509011527294704,0.40309879673930227,-0.17321797186217852,0.5045518793905617,0.9989490622098095,-0.27421367297959887,0.3032813869228296,-0.04573921048220584,-0.30555889112193846,-0.061586630329213556,0.0702810463735176,-0.4563818077858099,-0.1661818108117191,-0.2483512298214184,-0.39404107371212965,0.048635466319400245,0.19738375087988677,0.1651267091309342,-0.1665808090568738,0.16616281423673512,0.13531549416349514,0.065844242820574,0.4478830584229634,

0.3498123386614955,0.4028132151604777,0.13805303178327,-0.4345988771529652,-0.08460440387650602,-0.1558288072075737,0.23501287216866282,0.18516041913142064,-0.1445186283303757,0.288421389194672,0.26612355519173203,-0.2915380851730347,-0.4464552710361694,-0.35254884632539485,0.24961192610851649,0.3807665259099232,-0.350287090394383,0.062105224347521436,0.24331528494349614,-0.1935758564177015,-0.0525459209396834,0.11929920836985475,-0.22560406756163087,-0.41670950004841845,-0.21882009883518883,0.15542276482570916,-0.0033583166245344928,0.07090526838552574,0.029429089298128555,0.057797814165912564,

0.16738988397929705,0.22334049663545677,-0.2270237545308787,0.2775117212100346,0.44602627838605624,0.14556477805954954,0.6471211048267501,0.2211753321969263,-0.4873188014825764,-0.09757158242527045,-0.1012597181374561,-0.5679947802542417,0.1634066267412989,-0.0074388967936775425,-0.07547589988093649,0.08503367452178409,-0.2666510447282905,-0.31644997221475374,-0.41963119111388997,-0.2808756480979087,-0.09858949109204947,-0.11532143186791449,-0.2246434451377835,-0.263907251722888,-0.3630187412363675,0.3392814827136434,-0.14016902831515918,0.20699757830069226,-0.20873485335987832,0.12316692375282469,

-0.11085438534559117,-0.31975404328418694,0.031132672971032057,0.2645794590496601,-0.2603125465268431,-0.11620399130374666,0.06473402754863578,-0.1378530536912653,0.03128050468168533,-0.18615361823853493,0.21346860563896772,-0.19766970930769756,-0.4226406199726124,-0.3687352223490762,0.3810685496466096,0.48024117862215077,-0.5581195466328608,-0.3897053616915858,0.14990171792180768,-0.16717400583556105,0.07071265537290752,0.353169384601617,0.10856842835641747,0.2722349301728041,0.18059756196435442,-0.034641421319997534,-0.21611812807922745,-0.13728256818147955,0.03416891194244756,0.5235308894473142,

0.15743029484671797,0.8344708111357998,0.19936443260509074,-0.29956578757546143,-0.3445905517240975,0.3347422523542147,-0.11459880671731845,0.10189612974101553,0.12678922602820616,-0.03745562946421481,0.25707062849176027,-0.2677484389642589,-0.2967252748257811,0.10333157811845167,-0.13495121492128467,0.2025252211143949,-0.00721614349402496,-0.23502730971242022,0.02404467200397905,-0.10612252104709986,0.34179863890451684,0.5080051141493184,-0.42322236360313226,0.2692321416218149,-0.5960830840267286,-0.649037620971217,-0.5238837869091525,-0.09036598318696905,0.007123196090652895,-0.2712606115302302,

-0.040903362370835854,-0.4076737339170739,0.16466707232328445,0.015395249461425713,0.5007530692831798,0.47801711617859904,-0.20823073510879575,0.6343623445776952,-0.1422607706827002,0.27365616321486347,0.3700918764496814,-0.15834488157616908,0.19920757266912048,-0.16997759613794694,0.11788045966530593,0.296706409539472,-0.4427441001876032,-0.2590819527163749,0.4781437236962525,0.06322328901968347,0.5014624314206099,-0.5221931545073297,0.008529428968722216,0.40336779451364574,0.051081932688795365,0.01834633669495907,0.24889394051437871,-0.16182731526555824,0.04631096605925891,0.2027199979304858,

0.24372644067227495,0.14703355649592245,0.374342639527578,0.19500715020096354,-0.131433959308422,-0.48389280203536217,0.014940986256262652,-0.2606972511141996,-0.8633686122280314,0.4182548371901274,-0.18430087351376973,-0.19688004335410683,0.2625516287453103,-0.0320417606971954,0.42850097222664707,-0.0642585419322516,0.4609232530651831,-0.4735867511679487,0.0575906085183015,0.2570888985620842,-0.4807996612933071,-0.5780490526028741,0.3574766355057204,0.13107955572201177,-0.2256387086142236,0.15534488557475026,-0.39187863455782485,-0.08653110654928298,-0.09374673911137371,-0.2486828425404007,

-0.022806364833499456,0.009552834205648673,-0.2620789763452133,0.12973750013053528,-0.454565786365402,-0.13947755684024524,-0.3293606583315838,-0.06624727686940672,0.0845074997951785,0.09457889366719693,0.6852971012801006,-0.12827158882921097,-0.2497880979343358,0.09096851777507368,-0.3207718151119626,0.21521230780131562,0.14021768341517332,0.7337251614135065,-0.6861247123037962,0.004324729028960055,0.20039986772388488,-0.1819081668010302,0.2695474044597326,-0.26542248119215484,0.44848621326485144,0.2531096573702603,-0.23161416854132777,-0.11193326162691392,-0.014831221843942945,-0.03919392735364363,

0.38341153983631543,0.2521313776456759,-0.07808371239052368,0.048233663093528445,-0.08340995787453932,0.17994097556289082,-0.10036292875481383,0.0009380906559010309,0.171621638390536,-0.026961734296750053,0.2073318765104167,-0.472532681716684,-0.32521791028063207,0.03276589698868809,0.20530523247005275,0.14458309425891727,-0.2171843323217737,-0.3701672418908751,0.31699765897611687,-0.11679470806353254,-0.07325569460516665,0.20980591122199788,0.18082921129942967,0.5432138198343646,0.039464076377230886,0.08260412192587914,-0.2126862118862613,0.025813986610842547,0.12777481964336088,-0.14020064873002713,

0.8835434525999435,-0.47280271985720873,0.006607339872382583,0.008682176471048509,-0.6734509336038876,-0.13493564927091045,0.5753322124385102,-0.8633458756533794,-0.31478177304952254,0.1605590696563703,-0.23493298688062947,0.49633331176318163,-0.18802942187730398,0.09176954909769505,-0.11840423346330424,0.15216570710193852,-0.07385168499879019,-0.47726735684419974,-0.3193273792980791,-0.10277361448230643,0.32895649590823617,-0.2527300167353743,-0.010029575334534033,0.16824282567003626,-0.2518589228038939,-0.5106220616828755,0.5287100022267726,-0.3614629065553773,0.07642709499053733,-0.5089198785861263,

-0.23722881873004636,-0.06710787462591161,-0.13244833511843027,0.7143651501042656,-0.2050068230159722,0.1808552578411434,-0.16692938217088107,-0.08968035040732127,-0.14217098009084206,-0.28670055169621944,-0.18525945978579308,-0.10684662646476843,0.2161260788557074,-0.06598604512145083,-0.02914628620069939,0.020509661892429584,-0.34571711311164643,-0.14022626450505582,-0.27117049021752615,0.20021640095733925,0.225867682405835,-0.2559882530265478,-0.18833000413545933,0.19909732986220902,-0.12113244482356866,-0.19372528170503286,0.24570543558625194,0.26896700358629805,0.039834093885473765,0.20603483292030525,

0.0146431679340637,-0.31740569345033504,-0.12289787326371372,-0.18474638489557868,0.05206800953703221,0.03255323853158504,0.2987500339173297,-0.16980390611897633,-0.18458385210452988,-0.2475927397234759,-0.35949914270869177,-0.13156096575172224,0.2897286557087692,-0.0038267964283829874,-0.021638165123545466,-0.23817758561026117,-0.29433473216677836,0.17931474341138262,-0.27107110424551484,0.2253636621767649,0.16685313273949642,-0.1694450606686757,0.2066610801780218,0.22944485674572637,-0.051374481058576095,-0.21237750374865075,-0.20577644179372662,0.07438216999220161,-0.1513364695714119,0.1934657284550837,

0.2724507277626084,0.16242503934901406,-0.21430834533862375,0.21555150579023138,0.18011947018855495,0.31917867148186796,0.22453902038342943,-0.07710973117087369,-0.053343383358558594,0.3736641094448623,0.5372222728836848,0.256665719104641,0.4901623069198065,0.10157648424674774,0.057183152318422546,-0.2471588752043048,0.03283164295359979,0.3231868696310696,-0.3742979014127701,0.11982041094678351,0.019967504493004926,0.08288073197207094,0.019989580550477986,-0.47952337873180534,0.15445124304887486,-0.22670525692526908,0.08777950799503817,-0.10794819804786722,-0.07787178914884274,-0.04701366180783573,

-0.21867959458492725,0.2032005528341937,0.22996010159787564,-0.11785588987871298,0.09549974680463551,0.24311095678003353,0.274419428821483,-0.009776793502620042,-0.44842946028650243,0.18575391781242148,0.13658021364538836,-0.05363545871749526,-0.26248028614597396,-0.22384171185837792,0.22229610258841406,0.07457765175343964,-0.04427757136253698,-0.2585701899664823,0.29198023015610325,-0.14470707108224484,0.1122957558807325,0.2864513850929025,-0.16569874029474752,-0.16756051115368592,0.018464158256940057,-0.044148946915214746,-0.12304768793007782,-0.011672849495287529,0.08959338789889178,0.31687421870416804,
};


































// set_bias_for the second layer
float bias_2[30] ={
0.07709216140895189,-0.3908116550183355,-0.09625957011475081,0.29793302400562055,-0.08864305242073293,0.04517460672793076,0.19016736851952953,0.29240563224419597,0.004316172657352852,0.1611331837361599,0.26321627152167637,-0.1430882151051949,-0.25837378905444386,0.03571098561993176,0.10547283678090356,-0.25409779158287815,0.3881560460017961,0.14157078669945056,0.30770834790093543,0.08503424623088385,0.38522410047186173,0.14752777877791096,0.06125200827340103,0.0071981905382321855,-0.17789907163052654,0.24912977097071373,0.17468928584578333,0.11067730195008513,-0.03298784413291284,0.28447990259878175,
};












// set_weights_for the third layer
float weights_3[900] = {
0.04901077994984303,-0.2623711723684233,-0.27074192401963487,-0.12404406007000392,-0.280631488582487,-0.012892916476570468,0.19285045654357622,-0.06115232347871567,-0.22965767981008714,0.23395500687308624,0.2566102817149942,-0.28570474254481354,-0.12753233265383165,-0.027257393849447323,0.27731728485307044,-0.06011837882990093,0.11581781042051233,0.044440147969646765,-0.0053498859044938535,-0.2315533447333741,0.3341177141489155,0.09812404640114998,-0.09936962202489613,-0.21514545601521143,0.14724238873460346,0.29292725185996,-0.02686922472887461,-0.09073734565231313,0.08402569043438404,-0.5078885871439952,

-0.012288019212766205,-0.10618670767424199,0.05596038629142994,-0.034481384777982814,-0.14644231155369314,0.02191653501658563,-0.3594259696476178,0.07749394607379818,-0.08869131168553604,-0.02720802443886846,0.3241178671017969,-0.6900394198638845,0.19403396732886258,-0.13304406132022317,0.17073024627908376,0.032568508143776306,0.3250358066676461,-0.003373743609679231,0.21176633493191613,-0.2200140460607042,0.4166192437157881,0.08815399481351345,-0.4130655677830335,-0.48310629760610985,-0.19073174938578621,-0.068669358095669,-0.07222348393355196,0.004200162847371569,0.2438086117401795,-0.07498746603476758,

0.021412728365047113,-0.255485295463003,0.12145344158395394,0.06643092433206522,0.14276608132039462,0.000532290968054103,-0.4784267975769848,-0.06226267140334982,0.0002415710065101647,-0.2710355490639164,0.1563190738649982,-0.2941059669419209,-0.1019629247760354,0.060809963232105066,-0.12157298376065427,-0.004507338143884766,0.20069721513135988,-0.019401452987981356,0.12106740136123559,-0.2808441733359559,-0.2484205329097082,-0.1297385042114702,-0.0973394421450192,-0.572975860685272,-0.09357660787451555,-0.20938155997768612,-0.045846297111797225,-0.018810229639936695,0.2537050078376083,-0.10184453476332771,

0.05185008958469848,-0.10335861363368427,-0.3454504450613301,0.27549741091337493,0.12998491548983226,-0.05063811404665988,0.12175160985116051,-0.18860178671687924,-0.13240849177511685,-0.5313339762779172,-0.4187216185785809,-0.4924098335846489,0.16003441219570796,0.43216709641849077,-0.11849343813288887,-0.0808483644538929,0.08673711050032834,0.03319040095360717,-0.04252704387989669,-0.27121051668680696,0.03495546360915786,0.3106003338604758,-0.26562551592885075,-0.14275168711505992,0.17484432480756967,-0.3651709016796635,0.06821101488896057,-0.07719777030108427,0.04732244411872861,0.16515711282742823,

0.013841193131567857,0.1714555359933852,0.19903606423928588,-0.03418520585152776,-0.03407883088454488,-0.023133856290986316,-0.22672453192120953,-0.43457070396517217,0.6195380543172833,0.12237292907058547,-0.2595684904218557,0.1702666033938473,-0.14620257274618886,-0.07604460874920194,-0.012745761858356908,-0.0014013955144099657,-0.13464906797239276,-0.023446645640218856,-0.09814380705904116,-0.28528450974220915,0.16094305120907587,-0.38547809540133743,0.003393017029878165,0.353043472031152,-0.023441856587034158,-0.036926846741049714,0.0650108599138318,-0.025209265847314092,-0.46245308202851776,-0.26652956513856463,

0.013565935807328542,0.24660307620212343,0.34937727449081973,-0.339713853100496,0.11860271121053663,0.0033798711451672454,0.07273058953414255,-0.15422859163835687,0.10363116981962242,0.08168542661683258,-0.5139405807228984,-0.31576186292554603,0.0848853179790788,-0.0025172491309628856,-0.41758462947950586,-0.025795218810636514,-0.22959242362024884,-0.0031260564323842216,-0.03711817741412684,-0.0007012530360233065,-0.05089413902077432,0.04894755227005215,0.1730313126587065,-0.20008987877036294,0.0209484549993887,-0.16270664115518604,0.03808187060291429,-0.015958340980559572,-0.5795967352888658,-0.3238558232458785,

0.03756394029444471,0.139644759283032,0.2835243436032315,0.08472281923211393,-0.28748290292774437,-0.0019775046148214942,0.19864785740566626,0.5099620702125177,0.23365217734409482,0.12664255384722545,0.008074396662783956,0.1444217395453095,0.3172290769377672,-0.28310451050344165,-0.1647689073143846,-0.05127976461479472,-0.1390636967212348,0.05578837378638859,0.06222588202949012,-0.03014555261514575,-0.4146726238202541,0.1698556485447681,-0.38317037789418806,0.10037246857234929,0.13182032663694207,0.45634062211394577,-0.043838740885914954,-0.02620667627823192,-0.3101971808624995,0.10566273856213147,

0.03940421609200495,0.08579456094376356,0.1938232459235464,-0.09799304027596578,0.21221170225940852,-0.019977750794426125,0.07838892014081575,-0.3682909034051121,-0.1360831859549349,0.24864270255842172,-0.01355740614533148,-0.30360802779523716,0.008242414642039318,-0.07670110978818137,0.4386236565885828,-0.023795448471277413,-0.05172936628263433,0.029948752359366986,-0.1375468530734519,-0.5286698389035845,0.1328707114416534,-0.01885452390423148,-0.2185668451573789,0.10390795372550031,-0.022704700202352865,-0.32709884452085547,0.006228684002285421,-0.00798764307974804,0.14004019056213282,0.04271385804743739,

0.005765779361648966,0.2159259764197139,0.16341901907004291,-0.20668914983924463,0.23010309488260844,0.029685521813700703,-0.12901528202971155,-0.3606958742316839,-0.19029873145052853,-0.02339588804962065,-0.029808734164285214,-0.5413727975249484,-0.11242978902277653,0.34903846474843225,0.3996079154099151,0.016867697528379307,0.3253013496081288,-0.00604592475645658,0.19739353234560741,-0.22791247212332094,0.22461771296071603,0.7445512206225492,-0.4305903043016421,-0.10071546364371725,-0.014675217210771859,-0.2334656261923924,-0.03167816499374418,0.008308616096176093,-0.035412188295306214,0.21600789379993537,

-0.013769490060551129,-0.05365067275976394,0.29064560292664066,-0.23755148669153686,0.17025004761475154,0.0057616061909952125,0.24906606266714196,-0.5258522454423142,-0.2987642209269004,0.24801745968354616,0.07714079505015876,0.5851695964916783,0.477673466749018,-0.1354711835143913,0.18739703803510863,0.022563564000372096,-0.1667978348025201,0.08862568926604901,0.05706968838776362,0.10084931044527931,-0.10486802508306829,-0.11230734837638097,-0.039669970660847265,-0.21719095919897322,-0.05162885555681227,-0.20942538574826788,0.051812550060717166,0.01871814522272042,0.02348453361376697,-0.093796602386062,

-0.038834247563248506,-0.07735436508714626,0.08174871558618836,-0.04505632043633101,-0.19805059483359794,0.008254484783072055,-0.29134245720805346,0.12790857501795536,0.15933745668882981,0.04760825323141534,0.22199069005969008,0.09401328884056534,0.14981686391894725,0.11021300058095984,0.11440442471011408,0.05583307636262397,0.03868158393048787,0.008400472745328765,-0.16694642842202623,0.024325085300188634,0.1539620509617045,0.11189993678534788,0.12585900172934741,-0.2609239603353069,-0.12006367908356684,0.18598587676074152,-0.0160574745649022,0.040454544830186706,-0.187111349642096,-0.302545701981927,

0.003910565278188274,0.06795469136028941,0.5192209231756376,-0.02285524111260836,0.29549298730877405,0.029501683627064967,-0.3956786903755171,0.24848838900817224,0.46146726097396923,0.6031573651278526,0.4184930361522382,0.18563022814728544,-0.10835650845334896,-0.3163025437323265,-0.1521221103084056,0.0009549264825582989,-0.022461452566804985,0.01994976568954814,0.10774505374470596,0.5423244166943681,-0.43991545706862095,-0.5106957591051352,-0.001197622365565745,0.4533625447841811,-0.05709312525672442,-0.013001346747965197,-0.005444858538071783,-0.018653939347396443,0.08807697217885206,0.022322349428955703,

0.008467503466072796,0.11568208280116916,0.07845928741839438,-0.1443162605001879,0.2580212947276311,-0.003639519107848496,0.10770132884112371,-0.1350049803401577,0.14461324428535713,0.2888172768098753,-0.07512917805947218,0.21309220958102656,-0.47244262933474857,0.18962568321214554,-0.199204362308757,-0.01245360610468721,0.17071151905445636,-0.06401925079774462,-0.01246111305592413,0.6501973517171512,0.045390016453890805,-0.07042512102544103,0.1224407771553642,0.3749396049007007,0.07265794993431302,0.1019307723011284,0.050836581733832535,-0.035241073949109344,-0.09761619360791982,-0.6961411332597739,

-0.004769964797106046,-0.06017153209944845,-0.034451850042624424,-0.14934989079164215,-0.22034099047951003,0.023042143880969777,0.23001807743730118,0.13592208615782386,0.22552831734884274,-0.007093151246800879,-0.21885883824276656,-0.5334099298285576,-0.26222418296324745,0.047255601157595625,0.15083663463035596,0.01352979954472614,0.029376809181351948,-0.025940147246145753,0.0968926323448781,-0.26594510215179107,-0.27282805461516924,0.012398828579181426,0.028231462323887197,0.2370575874801333,-0.027321902953217313,-0.12445145283619152,-0.004790229763776215,-0.005988057969008267,-0.011540414629399493,-0.04732242510818032,

-0.020632384426653817,-0.16912884425678215,-0.6470134127188205,0.21274302420588231,-0.10183404843035675,0.0055516766597755295,0.37514470434424363,-0.06003482524624029,-0.21578572897550455,-0.061854537843665805,0.10003764276093634,-0.17025570470809126,-0.17033234068903835,0.2418156323488666,-0.0640223640910295,0.02480107195132818,-0.0690401708076181,-0.02453880487167126,-0.09703697809545485,-0.10138394698014633,-0.16340565634311485,-0.11807037345685177,0.08356494553695107,0.2836717791322204,-0.06385428736480789,-0.04338151037755556,-0.001878337484918912,0.007033477841356939,-0.15036575227473697,-0.05592226531912608,

-0.04407165171560562,-0.08583164742183545,-0.44850459429351175,0.3096378519566321,-0.08185159389322802,0.012602439789763262,-0.07708701363917723,-0.08736742368837055,-0.5453027342530951,-0.17192269072179664,-0.019426161624950516,-0.9358779416408456,0.3201141916121493,-0.25575514380783654,-0.09606774655247449,0.035275018332290596,0.11201086576035016,-0.003998534266765826,0.04227649868750557,-0.06776534408987243,0.045277711920617095,0.05291301765540039,-0.150732834742057,-0.34623918217310523,0.04389601353368624,0.006348821799529236,-0.10043852496289828,0.02679933842187808,0.017995361892433795,-0.223218135820287,

0.002599376036737041,-0.03538017021119007,0.3516496481035727,0.2783607239074339,0.36254327106939505,-0.01567097914675095,0.17853396103442004,-0.15251165902450237,-0.04221343982200812,-0.11721773542623753,-0.2057964698615815,0.024608895940111567,0.3729296331486656,-0.047356611796325096,-0.3380293720409778,0.005255604770702976,0.04486931640326283,-0.011442929997910495,0.05124302967483182,-0.0038125061297173014,-0.3768354549624606,-0.48478666313301794,0.32919039158123714,-0.858696072031226,0.034174680927703274,0.11141791298512184,-0.05128953281835989,0.019076221504529912,-0.34364160738239974,-0.20642658760325167,

-0.013597816494143405,-0.28502500318568125,0.06767479036474353,-0.38671583285778277,0.36239812789424813,0.004368376428679802,0.04250311416214952,0.24345167505924986,-0.37305930421997446,0.303331991053918,-0.05888951083984985,-0.3847445341457314,-0.47389720216006964,0.10947944362943357,0.14225975966166599,0.018922459406097224,0.08242073981926484,-0.09117287644312903,-0.20734172837556758,0.558537582050073,-0.40805083594519087,-0.4081939964658036,0.0007980448689750203,-0.3780917740849289,-0.09705338647816981,-0.33595396868185734,0.03509484382758553,0.0030854691217796684,-0.5109662207372235,0.1739130565493678,

0.057816968760073036,-0.2631861900701447,0.3421278810929863,-0.20423783492412087,-0.07199122525302812,-0.02781232056690009,-0.14260817316467356,-0.6670242924931727,0.06768449337951386,0.03485651849242331,0.13546967609642888,0.3025002378180496,-0.007483391175288965,0.21718889074475609,0.0932662216478176,-0.052520745800541294,-0.02517210834053645,0.051607314110153193,0.04988290840015695,0.20237811001628847,0.3181957203543175,0.08521119380321453,-0.045689393162907474,-0.07797041302495496,0.008391234368906327,0.21528319275917882,-0.03130231600795565,-0.06639896148227717,-0.30518958192275447,-0.0403956089977242,

-0.013692615958669855,-0.10457701944660427,0.2503729967146042,-0.06819612965587779,0.12124925774470188,0.0034585601974769817,-0.014784660328907899,0.20372949548904953,-0.07192185562620426,0.0665747236314392,0.28198230209638797,-0.17199659874281129,0.14191785115919436,0.006113848869647137,-0.03805680061809251,0.0013243617166680366,-0.16747226571273252,-0.003996314529035991,-0.004120461908598785,0.0355704216114967,0.022700594705619942,-0.02559736670388776,-0.033834045577176494,-0.13020590268701107,0.06249062986922345,0.0709025222754214,0.025725471137789082,-0.000415827174282039,-0.047034103424628826,0.36897141579606224,

0.02285699911891269,-0.1658675086660387,0.1280135222590799,0.14122497718598168,-0.13433080452903032,-0.013604355549910125,0.01570963120933697,-0.11439631968329841,0.1925442649117066,0.009013458249777577,0.22158038188943593,0.29350352832973864,-0.015049011961062711,0.3574003508456353,-0.10127299990469629,-0.04964266500127144,0.034801935992879854,0.09817635473371651,0.01679667467521135,-0.01770447437884633,0.4674703829751395,0.2596019536656883,-9.623767078119745e-05,0.10007125052599047,0.11429224004623056,0.07904659274164229,0.020495960702070427,-0.08203345600615698,-0.09502443766733919,-0.9217027558523896,

0.003551768165300847,-0.18747469664690727,-0.21997079976037073,-0.3075010773653011,-0.46369942549727006,-0.02313081291206981,-0.5551339511017687,-0.09312722368505533,-0.21170213741231678,-0.37742104496143725,-0.3412076962485069,-0.11573195911624219,0.046212531415384145,0.7510859951431144,-0.7507894127320821,-0.038688170703741,0.4475289924597822,0.015714736726207698,0.15782240556380578,0.38999353219826915,0.22289100641376997,-0.09305791934352649,-0.06253160763744645,-0.7732276350702335,0.0228968304868669,0.2076776162466823,0.011185586604855115,-0.023871673084925472,0.1265786381739681,0.1164754540952276,

0.03924734660898807,0.24553370290719895,-0.24152763168220737,0.098624461548009,0.5115254393523149,-0.01435408524379598,-0.054907807160775306,-0.24669298266363313,-0.19689423698645026,0.1228059390309289,-0.16892712762395223,-0.06526192611018365,-0.12598985257691858,-0.11865926071222331,0.32890064982426637,-0.01762641106246253,-0.19440355862552042,-0.013608608998016528,-0.0016422623462859153,-0.3104417908558461,-0.12263116757245515,-0.18987499601468835,0.15009680142564452,0.1889514083032226,0.003460542190608009,-0.277997091473307,-0.003990096970872827,-0.003099470993555905,0.756493998512284,0.7133600010563462,

0.04021240579153025,-0.05052907679427325,0.42304824588000295,-0.1320710980555035,0.3196613060801346,-0.01141875151991438,0.14458269767289172,-0.07501877846563257,0.010458633431545164,-0.04801184463382284,0.02229694426892933,0.07102841930493857,-0.5489756077667625,-0.20479799581374905,0.5087905608329985,-0.04370229081150915,-0.3263047323871597,0.08949434921202379,0.08724225509712266,-0.5343665251522854,0.506822022448884,-0.342507956211778,-0.16567850768202605,-0.17260971146666082,0.1960438307920105,-0.545435310121847,0.06327623894512052,-0.05194524854181143,0.49775126812566556,-0.10134594659465435,

-0.04926175368510666,-0.0781471879258163,0.30710964345553043,-0.24701507521712204,-0.20303693834054798,0.025024701077991172,0.07241696825908754,0.2936143079340965,0.2514301410643381,0.42944935643054444,-0.04796603386485221,0.5091254984561673,-0.2532832635069967,0.4729679057212669,0.4267969066333285,0.07275149299572314,-0.15450106191214677,0.019731984600571507,-0.084281840750964,0.7312648059896536,-0.2217371036501077,0.6211906884976249,-0.09778950438615631,0.04009457917696031,-0.1728363476364427,-0.15500885494872166,-0.11999420742362836,0.03667065246932472,-0.0729269101702032,0.26674365352489116,

0.0075706632865255395,0.18467958343961255,0.2650259046788523,0.09269367851646743,0.19988331516590724,0.02577893150037667,-0.44400015162048556,0.06662158177750917,0.04028369082148099,0.13956683468128978,0.2839250261222381,0.8697852167894132,0.1999209013630765,-0.05212560819652287,-0.1793155723121139,0.002664765096827973,-0.1143722489447369,-0.008189898678068215,-0.01958020803491371,0.2179377947136043,0.12263115367785002,-0.20382547940319623,-0.24377220841314864,-0.4248549893740221,0.016370069897889812,-0.029864120864125026,0.007667961034240761,-0.00919669448728277,0.6254770963475211,0.01279966794111922,

-0.007070015489151571,0.18103637953602245,-0.38967680114430875,0.2132508313941234,0.08073645040000178,0.019795326203757613,0.10066951575095617,-0.06159025757218929,-0.018487547789203508,-0.45580692100032116,-0.031969496133687325,0.2916889643319258,-0.4940618006883077,0.5301894468158539,0.3998832792792059,0.02654545184912601,0.2331617589669923,-0.0014753041077355722,0.1036437828742104,0.022995679262514362,0.24887598491150273,0.6603716953611846,-0.21066078633803273,-0.31993003434953843,-0.03723455481391048,0.6407181933683004,-0.08376441926484098,-0.01687279490434543,0.10657807717139627,0.5469720799764868,

-0.03250221863384439,-0.0013607445515119469,0.148037172398512,0.09634033954149854,0.044865937157763165,0.016445772071099575,0.06666175186078925,0.4181963741702534,0.2119848454063658,0.08922271299297815,0.002230090789852272,-0.17213817398124195,-0.022349244086941285,0.2172595762323353,0.0702761490889872,0.030475335126298558,-0.15507873930003865,-0.033250459424650304,-0.012927553243569747,-0.1308808337292963,0.03357451044303902,0.32681695881524636,0.035367196955089275,0.4182308884504466,-0.05075845202368371,0.26110375302365607,0.011148661286612347,0.0299232926518721,-0.014247449092755759,-0.10176999558301372,

0.017033861286670123,-0.031507150195053776,-0.28839626161081006,-0.09490567232837362,-0.07631995924722293,-0.005510708715396145,-0.041709522583613504,-0.0634550645536933,0.12942908580195406,0.012072312474132657,0.08473329601258789,0.3173931920622333,-0.28441512154619836,-0.07846727973984624,0.14725442259188914,-0.005109564314637437,0.1405424459542546,0.017775369447655516,0.006839423977436214,-0.12867768200901514,-0.14283239932967334,-0.1802246957312774,-0.07213369669135442,-0.07246508338151833,-0.06371009387452958,0.029044258614547132,-0.03311409138035456,-0.004634756796161349,0.12670445670128405,-0.051981802834295675,

0.03170587586835546,-0.2983805914474202,-0.5206762508259299,0.028099960413345948,0.08585827432225854,-0.01459611423651896,0.010049583784419292,0.07262943407740341,0.37434662926320816,-0.01844483127881267,0.751162348732454,-0.11005660464118491,0.44732278038337103,-0.32741610193383175,-0.058033085148505296,-0.0406301081028715,-0.12348405486555379,0.08248833002110065,-0.0361616175343471,-0.03362660534344806,0.3259906945017904,-0.08552142419274149,-0.033608314157900616,-0.03716874978543284,0.08719589794727349,-0.4647834880610906,0.02107425759230954,-0.03609920529963655,-0.08159272881889357,0.08183104112187561,
};





// set_bias_for the third layer
float bias_3[30] = {
0.0005769685684284412,-0.24368159767667186,0.1353828075891321,0.027525721083566795,-0.5099774713662337,-0.004006853131939524,0.25530921170415594,0.1512488634889183,-0.09538705229854054,0.04112095802806647,0.13454217131139137,-0.159041355875739,0.016043023121160484,0.11564653288105685,-0.07107368643022367,-0.015083182950168098,-0.01598910428359459,-0.004383483026919407,0.10526183775959028,-0.2864115073711085,-0.18485440732257125,-0.25775761567952254,0.12300646333869679,0.30933139776973556,0.08103090023752545,-0.01788675986282085,0.03503451764080319,-0.0160322120329806,0.11259679169405193,-0.12073801504036177,
};











// set_weights_for the fourth layer
float weights_4[30] = {
-0.15234204837957033,0.7587107697171293,-1.1494582622499754,-0.6731865109807431,-0.8494837964572737,0.08231140454475314,0.7190450131686877,-0.7309356179749069,-0.9610980274832623,0.8748519593499793,-1.1912188430425696,-1.1042263369402439,-0.6467339131243416,0.8380944177161785,0.953924413664674,0.22262107707940926,-0.5684654043333113,-0.12504893930472105,-0.3712900534796571,-0.9258360139414182,-0.8098128756684554,-0.8359659754685107,-0.6785047804601931,1.1188527608563466,-0.4651856748554346,0.6917799508042163,-0.13239729326514343,0.20121300017317498,0.7949060289003794,1.0918018418160207,
};








// set_bias_for the fourth layer
float bias_4[1] = {
-0.09079186030199982
};


#endif /* _WEIGHTS_H__TAN */
