/*
 *
 *  Created on: Sep. 14, 2020
 *      Author: wenda
 *       Email: wenda.zhao@mail.utoronto.ca
 *  Note: dnn5 is the dnn without anchor information. Sturcture: 10 x 30 x 30 x 30 x 1
 */

#ifndef _WEIGHTS_H__DNN5__
#define _WEIGHTS_H__DNN5__

// set_weights_for the first layer
float weights_1[300] = {
-0.22679391980283561,0.05088142767589035,0.06703279469432968,-0.10807673877398363,0.13755811851413122,0.1907322323184404,0.16037454668968396,0.14415754512386222,-0.19475714623421517,-0.36436597483734845,0.04487273402393203,0.12064990436610225,0.06260741957688218,0.4095206070754293,-0.2177429786932773,-0.2428951243475291,-0.18005445664602562,-0.05256719965328139,0.2542973518376545,0.3179544749549032,-0.2316810685972118,-0.10694363008085139,-0.13760135547443175,0.15124289062499716,0.12823814423161736,0.3092344601638766,-0.21606590335803183,0.06704566924469568,-0.21378341267444984,-0.06536352829318078,

-0.181525012178401,0.08663679440564219,-0.12892273364232007,0.1379304676424697,0.22558383850723027,-0.3263953033234734,0.016106791949607922,0.20085125791156497,-0.19473640212825719,0.1699856964682828,0.0026777494572357797,0.17987648115003282,-0.22759868906844732,0.1591798774704672,0.0027685582774457434,0.34999657699252085,0.019339732803274813,0.24853688442744293,-0.0302012624483504,-0.3286829746195387,0.15148328532893604,-0.2686217554565275,-0.22080276722538503,0.2874261462167557,0.31710170085555484,0.10391058090773625,-0.11952951566292994,-0.061714024030990265,0.16824239455578507,0.012527819150136945,

-0.10942070664797665,-0.25137495529181514,0.20307521325388336,-0.1629997835810271,0.20737448039918954,-0.032162562189010584,-0.16713101274761272,-0.2519499792141604,-0.20397562246065182,-0.07294252712505099,0.13132019620460933,-0.19982204073227605,-0.22068031477362926,0.1672045521870098,0.009978102651017675,0.1429497477247439,0.06352056739264755,-0.33819127735166077,0.21332528416568614,-0.19330155216779352,0.19945089110121708,0.3628164218441375,0.08728068305064053,0.13452745330764418,-0.30388443841416063,0.2537704743643963,0.03298272419332266,-0.15989008449447528,0.02262326038380724,-0.15710715683311036,

-0.21522504032112927,0.07005867145890401,-0.22051529853710883,-0.20268791185063778,-0.1913344075423584,0.36885932856480375,-0.10016637649792051,0.037723024000110676,0.012792646813689737,0.471581577471131,-0.035655924595599686,-0.26909557351881763,-0.08037962799082295,0.0630800293966308,0.07354750353182556,0.352496957893358,0.11605260907777287,0.20615324987161412,0.20761874618980275,-0.09908074934970558,0.17302540846821296,0.20526075039626612,0.12182290179483796,0.3294911412187136,-0.021033974815335064,-0.12617997935307226,0.16855923996703287,-0.004297747072801788,-0.22603293707994085,-0.05842334356628974,

-0.021434141727315476,-0.14074067921616557,-0.14423593042763327,-0.1958658271166862,0.16939229508385695,0.08190368223729631,-0.16925144799695543,0.1954511684798091,0.19177740662869594,-0.12880483973339021,0.04738927332958154,-0.10654297298251722,-0.23612816286937457,-0.28982433412326536,-0.07755055691231975,0.2918407313287168,-0.190181141542098,0.06318395861978215,0.07355914176861732,0.19658198401290408,0.3221365382532584,-0.016984862524713113,0.13562524993468209,0.2935253700071792,0.06932078411590892,-0.03701448297940886,-0.07022633078426913,-0.10576050174017083,0.3449654754535377,0.14869909696060873,

-0.20021177924463238,0.008788085090342996,-0.1411453355125845,-0.11120542489384906,0.012597527381546491,0.11054117264745987,-0.18717464306189732,0.2616937394041449,-0.1972162385972749,0.013916190379068346,-0.1101932859882501,-0.29785473921389577,-0.11743180547638792,0.006053079435286581,-0.03301288954955309,-0.3131887702854281,-0.21774430374437456,0.09715356778737011,-0.010080149007723896,0.24079262183610067,-0.0045499485747260105,-0.3021705150133597,0.020617271734179342,0.09108921692031287,0.22760903761612805,-0.2944163939250846,-0.4615188220068831,-0.17967607471664604,-0.23796806792839736,-0.09283243672493154,

0.11145386268074896,-0.17861442936040423,-0.09367448298230285,-0.05937795869876767,-0.3350373149819391,0.013859412530264523,0.005524670290986867,0.05888797243285625,0.08992068366545927,-0.08885565378033507,-0.32799679275897825,0.1612666398568423,0.059267116522028415,-0.06453925155287998,0.055449937644019155,0.1570216809937782,0.10793783152488687,-0.17917238854439907,-0.02679528812367004,-0.0447283264515319,0.23588701112201177,-0.10390099393730681,-0.027377163830517623,-0.13724763937582488,0.14077453292101264,0.3100678631042568,-0.04985596246274809,-0.1282474320616928,-0.056829677709173,-0.2271295614132829,

0.0997972174365777,0.12693964022609228,0.045061432078016835,-0.2240335968769585,-0.10718844726253796,0.1210734733712644,-0.1619499912539572,0.23162766837267856,-0.1994302991954549,0.12511787076391317,-0.07526672647919112,0.17463496725201075,0.000913418039902621,-0.017282240608329242,-0.21889855744156825,0.04044958794651502,-0.04724163633557789,0.11148282174808459,0.02996924451228883,0.10918756202907692,-0.2427509815816465,0.124982531247574,0.03955125926663179,-0.06145151779274098,0.07665547729303708,0.2427691142494674,0.22777020120868127,-0.2072235232962126,0.26142367135919775,0.15002241584302572,

0.03254971571498873,0.2239812764801854,-0.1711836315496483,-0.10580484386397997,-0.2004096792109171,0.2936349235140931,0.1204406625282937,0.1033079476105866,-0.15018361062972416,-0.013903843745923022,0.048266918317098666,0.0075121533766817515,-0.03448398024659273,-0.4590536429214114,0.1111531919165947,-0.10145211521436492,-0.00046150803687627917,0.30614132992848747,-0.3218927103281097,-0.11455340558198786,0.20002833274851411,0.21746928032311838,0.18552428080946023,0.08997101093310088,-0.30127175082342483,0.2684737368555394,0.08644229168551006,0.025463203701938778,0.08787478003876589,0.08700190991845097,

0.16148806316973063,0.19593488022221697,-0.17410316213305427,0.004347477885459341,0.13313849592585034,-0.1222038791458952,0.1010673820444967,-0.06352306085462722,-0.07706275627911943,-0.13540812231900998,-0.1438558547357971,0.27577770630070275,0.01996626149977442,-0.040005440203179705,0.2184540287152293,-0.07983017487239415,-0.05857933434115525,-0.06454994846199315,0.08374986515542401,0.21782024818382473,-0.22038128107668303,-0.033896040039179766,-0.2264107324382271,0.10623206295545162,-0.15511042233123545,-0.04866766136612444,0.2769110746623752,-0.05966228499700241,0.14953198575080812,0.13470814644221635,
};












// set_bias_for the first layer
float bias_1[30] ={
-0.093426741400982,-0.22610463905401548,-0.03923745777574454,-0.06771577414990033,0.11856865766436897,-0.02491446053060473,-0.06440984732187582,-0.1850750319395049,-0.08499596049937176,-0.21696339197778375,0.14596617995520877,0.11329916134688786,0.10756932837507192,0.01212477569168976,-0.16634371642248108,0.019984933544923682,-0.0164987449150551,0.10743740798100532,0.05669605705184561,0.1981252235714338,0.0971891557616085,-0.10761898243169506,-0.21090925386411016,-0.3654779021455321,0.11398826509796738,-0.0739675906034775,0.1765560962504742,0.08260466984195731,0.017950596000804158,-0.2495605228292162,
};















// set_weights_for the second layer
float weights_2[900] = {
-0.019806425509291476,-0.10004026129963152,0.11840351224599106,-0.02699112211381734,0.09329711956771898,-0.08691012222963382,-0.02374465089644927,-0.0015247031020773497,-0.11785259038530464,0.017732551778056257,0.011061642683774561,-0.05862337301726288,0.046876616120505726,0.12905145784804464,0.04264764089196567,0.0952900526960763,0.05840017315090697,-0.10605583192978896,0.07312211273078487,0.0811303972030451,-0.09144138233267467,0.046772494997261195,-0.05358251552887309,0.026477858529535596,0.09758674895246901,-0.09576011754464171,0.09571196310566668,-0.04961081250704098,0.10382522999920685,-0.05748980312659479,

0.05222764320097998,0.0106005600539229,0.035315501414882995,0.11039399612993485,0.0530425537893969,-0.07627498641308103,0.013266820816201643,0.20146501826817545,-0.1139479649164352,0.05484757818600199,0.1423994955798082,-0.0018251289157383745,0.08797418065041515,0.006676412231906504,-0.054666548784473044,0.11373558818255039,-0.09739383303236401,-0.025255158787700578,-0.20636554585682312,0.0775297139101298,-0.04686755819502535,-0.10718614267351896,-0.03301714097089665,-0.05036259047470385,0.09257520510062996,-0.01767475298182084,0.07703039952042695,-0.021999627631983196,-0.1566868705263093,-0.08372191802987022,

-0.057942169461764996,-0.06184724740754652,0.026709181174787735,-0.06402864775266132,-0.10822783637120342,0.01775028181369369,-0.08750350014684642,-0.018998812366319232,-0.00676482346740308,0.006433233246548506,0.04823597246905665,0.02171101370389753,-0.035333766852450335,0.039753395531096,0.06116183999707372,-0.0810064525515079,0.030744476838033188,0.031070219467933702,0.02750850279851145,-0.001220020634899095,-0.010708290122347345,0.033694694961135294,-0.010752229583684846,0.033726239739298024,-0.045938871553512624,0.0692785837646294,0.10965135272210516,0.0017027156909109873,0.055840204772890964,0.10003688556958708,

0.009168546744784309,0.047765284658375845,0.02539711114875525,0.09885226720274173,-0.0030007073388881853,0.09464352451088,-0.09536060182438706,0.10278280672826429,0.022326739873452534,0.025578515586599765,0.025833938040078296,-0.06093984185701936,-0.09694579015505769,-0.0796523405694738,-0.12733227409375142,-0.09683538210037441,-0.10644370482316155,-0.0418456696981961,0.1071951888134278,0.11179756901893377,-0.08261431776803188,0.09834178968369212,0.10844494665466507,-0.06147639859346072,-0.05158825939219144,0.08408103680777868,0.031580039415857984,-0.022803757138946026,-0.12056688423664354,-0.03263602941728782,

0.08899937094684231,0.17468206902156552,0.14361247227694549,0.007872631652891258,0.13221516247390339,0.041333767681575796,-0.10997084177078233,-0.0821783991584631,0.08472609769863779,-0.019241420170988698,0.10576015934957292,0.3204073872344994,0.1576251917687963,-0.05401471312389288,-0.12775860078007714,-0.1155749770025621,0.1150620112384969,0.1041401259115201,-0.08645917431216889,0.0018950400764019095,0.08674571172715256,0.09997353470358918,-0.14044315719539824,-0.06870926411408819,-0.0958162480284662,-0.031052036428449194,0.05978197358985091,0.06862042975425163,0.1421629961002266,0.012394781585093956,

-0.011325712450387522,-0.1618446932034876,-0.033912516763681386,-0.11265961187346077,-0.3236034568152199,0.08054376892907303,-0.1286582782381809,0.17517287885770993,-0.10343906708035355,0.05456509053177898,-0.14468668109705093,-0.0721425285545492,0.025726809523686684,-0.006644242250303562,0.11781441090246626,-0.0558600490446803,0.002110629333661123,0.13198434256505562,-0.18776971203726317,0.07853128257096381,-0.10090321029258024,-0.21191922630300294,0.18551521250115816,0.12688201191824547,-0.009835647322019433,0.08606672588427956,-0.08475502857062188,-0.059178335510047635,0.06455590245354322,0.021616097871438388,

-0.056609147675742204,0.08430674077373598,-0.035017821233577495,-0.0073385083465076295,-0.002110799469690985,0.0835885133763315,0.07040319543894208,0.015494739659186725,0.015090045899133521,0.05364402904429729,-0.08909122824614037,0.015244681601689822,-0.11077963827555276,0.036577537335586954,-0.022038264487803178,0.015850702607199427,0.11387900790481878,-0.06469476463544763,-0.07190434777776349,0.028673199688855847,-0.011589907969800129,-0.028496150661347964,-0.03108983212560312,-0.05060765845549278,0.1054965468355081,-0.09754659185619272,0.07788024230671259,0.12451943509019937,0.08370868117080288,-0.03219598388837738,

0.17808443892950765,-0.15897506474392165,-0.070626573099763,-0.018095525489369973,0.12928682681954726,0.05899497480871833,-0.05369054887327952,-0.005523283039983149,-3.0051097637096288e-05,-0.13579078032666447,-0.1446259399268761,-0.2156907763033616,-0.13515926245704077,0.09511366019314844,0.14898624534659902,-0.12632481124367315,0.05612404621507034,-0.007473254345569613,0.1510991831209963,0.07698784851623967,0.11088972921932508,-0.10775769501751342,0.031547129997220424,0.013972949766115999,-0.0976570957512033,-0.10923274347927028,0.04697688084503734,-0.06820939748249435,-0.0681546563408322,0.1050349465568029,

0.11242684594559042,-0.04409615760666246,-0.09722796537044111,-0.0806692916117504,-0.07124959862244185,-0.10641255671745806,0.1148551735642482,-0.12760730388044383,-0.03054240283670982,0.016804054275867897,0.1235097040190813,0.005708925978507401,-0.026217448426021642,0.021318311964540964,-0.029906113592927053,-0.10691856168798869,-0.004902650939519104,-0.0669901244517484,-0.07491263182680877,0.0997179076693065,0.05220269171735507,0.03692920743569744,0.041080658910912664,-0.07560390147050715,-0.00164487122932966,0.02375799666173954,0.06128311527974748,-0.12664660046014606,0.07403026722348968,-0.12651742899957114,

0.1817393907373872,0.30028389274480327,-0.04239916134544387,0.10520614000108074,-0.047140214594988836,-0.04333033398051012,0.09380058755247564,0.22433137282367302,-0.07638847578075719,0.14483026571764576,-0.07389939452781369,-0.03728808385178057,-0.06703560075835463,-0.046195616856662826,0.1431338551777256,-0.042177679220476674,-0.10287679351117125,-0.07620962603517636,-0.2766715155029519,0.026899361242848932,-0.02890833938392755,-0.12875301873682662,0.11644409929461945,-0.17690099426914024,0.130406395121781,0.03848708659813894,0.020493559376734825,0.05926410197068475,-0.12997388917170763,0.1090529896248035,

-0.01040809943428208,-0.17859657629990394,0.00828605955595097,-0.08593499868168551,0.07122914184958483,-0.09671906785076179,-0.11608905385826175,-0.039123391396418454,-0.02018399246395254,-0.1477551928889122,0.10958854058496513,-0.00817489737857806,-0.08069884200521432,0.01221462348022408,-0.06213342146340643,0.024872249594229318,0.06779654313958136,0.13683369591282782,0.12060519560375808,0.07950575910348735,-0.09365227698974861,0.20744792572573967,-0.13856139245197616,0.010001846836400097,0.09549620523568783,0.026098260332650332,-0.06495723401506422,0.024247880102756584,0.15680207963365955,0.00971567208158148,

0.01330483850748781,0.08086391650804418,-0.002424648792946395,0.10904225108329593,0.23634099998664104,-0.086921284933746,-0.11225390740314087,-0.12744646417410277,0.1242675660044236,-0.03288365632635331,0.10533969135855004,-0.11938189321665676,-0.09985660041417775,-0.08500641882317442,-0.06002563368309191,-0.06807962129578296,0.11360125122778043,-0.08100914163334633,-0.11163975615252497,-0.17795040182743468,0.09061880457150334,0.12836999891166487,-0.05222523801204197,0.08016655782650199,-0.11990879131887028,-0.015899587828652393,0.052898322095851796,0.08390299129375857,0.009145511427817327,0.07289749351428157,

0.0009462773556358184,0.0172131494415869,0.021671226657764088,-0.07765441587811618,-0.0231914732866069,0.07946402642290473,-0.09028502598634965,-0.0676573674185349,-0.10394737316927487,0.0437513049283989,0.03146274711737903,-0.13472864582395308,0.09061969172205848,0.12931587065646974,0.08759097067949215,0.04416037861127303,0.02709232702627233,0.023792242008669733,-0.05048383942016086,0.12386055333481706,0.08667630506470791,0.024956562088974534,-0.07299567720807576,0.11766260403015655,0.10821862505104703,0.1042110299040348,0.10406167873052506,0.027425521924201175,0.0942536567166972,-0.11147390590058294,

0.020124986534449156,0.17437209101221413,0.03651298241081698,-0.021611010373557338,-0.2651685670935547,-0.2294348737922943,-0.09471344535261274,0.30727918692217576,0.045230693645236145,-0.0209589636531682,-0.048663386452691644,-0.19556969480767047,-0.17073929086528622,-0.08759102366164752,0.14359923572237127,-0.01683043299427748,-0.015836722469617835,0.024659314089045026,0.2441185264416622,0.06369131356171354,-0.007189157576932132,0.18161038584206532,0.10864375156812578,0.060509402863279695,0.09193039139236321,-0.12480840431974549,0.007905379910267383,-0.0440970277995605,-0.08762888490396979,0.049201784282986494,

-0.00015189792008816957,-0.06674132829186662,0.11244837807198992,0.06624746842032701,-0.05362444567117202,0.06639161759396299,0.11011606116138209,-0.095126314824851,-0.04029006141901733,-0.03914600480760675,-0.07505505587459037,-0.09190606924759936,-0.04091014299891078,0.12651574646940997,-0.039351220241814644,0.09602114399492274,-0.10215751249956921,0.007141380105302544,0.03091776147054373,0.05207882342143617,0.042061523408504664,-0.10292304242195159,-0.11522382869977237,0.07060791569813504,0.10581533305512951,0.03700912229356535,-0.016968332580036116,-0.019615082962165787,0.019157320284237604,0.04090149607178805,

-0.10456148323630007,0.2231316176647774,0.18123548269238138,-0.06121743256805756,-0.026788286671379294,-0.10803895975621365,-0.013900900408041535,0.03543757366118468,0.03388680437060805,-0.035514086901422194,0.18296790507505703,-0.21467836077443245,-0.14201718577995756,0.005614175541908394,-0.33862307536065106,0.0243614499452012,-0.09918698486819334,-0.2303849675733343,0.07436844516586195,-0.05960111686618201,0.0272557375072371,0.028825641955716998,0.16601346797861694,0.004715311789972477,-0.03466846993689169,0.022083075164319073,-0.12938041379107199,0.16673398189852873,0.14669445022493963,-0.014058235010643454,

-0.05515285393359818,-0.09997432722290736,-0.040389267208179466,-0.08067143737014366,0.022536125624860088,-0.013828261609585387,0.09246362566419071,-0.10019925766987095,0.04228042803583492,0.05227631356018042,-0.08999903014754126,0.07401684150858898,0.10412098097490244,-0.05007940255611258,0.11481969648843265,0.044537371855097777,-0.049270494653878005,0.03348115629315527,-0.06468936376981417,-0.056406607958164684,0.029014079633298433,0.09936540602877254,-0.008104328452095017,-0.11794027677417819,0.04436386891962509,0.04370185453520556,0.0969113621804513,0.0314249639354024,0.1062444208401931,0.06403799218437656,

0.09521750085035496,-0.10356375999423627,-0.13298745123516148,-0.05031374414244858,0.1529187098364941,0.13581485629565476,0.000507301102779939,-0.04280414577198611,-0.036539807419120954,0.06518030132254667,-0.34955395590730837,0.11700590143365851,0.04202351036679097,0.011518194439606437,0.01019061081652373,-0.05388680856153684,0.11853861234327104,-0.11169222788138039,-0.16502141568609435,0.013089139112807235,0.14003159849186458,-0.046112781072641884,-0.04749485323653947,0.05014430596980166,0.05160519650744495,-0.10612572792183438,0.017615944293355945,-0.0008022897532587084,0.176935762519527,-0.05888800159579578,

-0.050615560450152905,0.2762270592692015,-0.10935007358212698,0.06776850888815723,0.020024171473578257,0.022200709994754167,0.04718602040811475,0.0770835742084194,-0.03798948850223687,0.20108152772454724,0.17720319772998144,6.289785933755973e-05,-0.008049175202668185,-0.11847892318303416,-0.018651018664710653,0.01262217882184884,-0.08269395167460253,0.05436873863622816,-0.13399113552796577,-0.06252888284379221,0.11571742743777659,0.10860269061914478,0.09044155846327231,0.062061271142060066,-0.04914168484049866,-0.03873767177742624,-0.11871300222967676,0.11300028003260311,-0.1148787774118614,-0.09685828460997488,

-0.02299436358177918,0.07515072939680006,-0.16116445323368556,-0.09653249760812424,0.0020474009791883177,0.10058695883680248,-0.09782609419139271,-0.08740370640672475,0.026434364444230248,-0.20215573475244258,0.10409422423459581,0.1411844704754929,0.0534517516454469,-0.05769312630207388,0.3784643012459076,-0.08338886732991367,-0.084621845583789,0.14808789837821973,-0.08868349637459935,0.1152695410129048,0.10513498011455574,0.22260471842500618,0.16571255897930348,-0.08387823515736567,0.019721050415114655,-0.09561831645897648,-0.10720110961574499,0.13860966072055442,-0.1656896595902777,-0.03704363652623872,

-0.05718352162220028,-0.0796548534708353,0.1641408988625658,-0.08968195763973866,-0.24373447700595938,-0.07861427938639333,-0.11959640510319358,0.08110508679178803,0.038784086811008,0.1269473446074126,-0.09090574391944616,-0.2616036649016516,0.10670151680563456,0.0417847435126075,-0.005104783109961133,-0.08628780289231386,0.09183398868088363,-0.21994587107221594,0.09105997538728106,-0.04196413248234299,0.15093813797244318,-0.18684425622101453,-0.06884785006130353,-0.11392874679722294,0.06435269454124973,0.058032877005152105,-0.1184632210442321,0.07754896249694931,0.07529899597309789,-0.12646739412709637,

-0.019204338543771952,-0.25088597716536437,0.17864490586113013,0.09200667130080577,0.048592588917074304,0.19938257571739443,0.12226031889023013,-0.1043522842301676,-0.12058527493017203,-0.09432485041646654,0.1508115536105239,0.15234354990602758,-0.21453002527945408,0.008362318627621983,0.07859791599745221,0.01123363354073197,0.052733706126945695,-0.03249896272022418,0.13089217128632052,0.09365588742038805,-0.20941046402057406,0.09349143897191434,-0.17285820195532264,-0.023678265716500644,0.09367556917264779,0.04234342175183361,0.06685398326973425,-0.010112518905672387,0.06633113081012237,-0.010668550330818023,

-0.03235137993189642,-0.12990844084445946,-0.017638792893117778,0.027477115091993357,0.028999777683725428,-0.07556569767716145,-0.10743191441679131,0.09386868553723685,0.107256441430192,0.13889200396457607,0.05168488019881385,0.06332965718655885,0.14403320631631805,-0.11773079748907958,-0.014382390553441041,-0.03129587285149796,-0.02091620485220839,0.11335711370456168,0.014218736912362355,-0.14388191633192587,0.06577488663961757,-0.0892099787163732,0.07467826667937047,-0.03840211174435194,0.11447482590903711,0.031439029012875534,-0.10334705066976838,-0.09502644279197871,0.0962264191394501,-0.007477573989558138,

-0.10706634534926197,-0.30118774613142557,0.16331474802572518,-0.02563079138654845,0.15035846432014208,0.05705349625030999,0.1288193006335205,0.09964875754459158,0.009392658021308004,0.18967094667008894,0.11467758747008967,-0.12932611997720259,-0.035423181648446905,-0.0027605532817599056,0.07003158085733435,0.05948046525108247,0.11139357199056142,-0.10255532642498862,0.027725642061022224,0.017190734951499108,0.05715491607139106,-0.010024914595265859,-0.03370966400732844,-0.019822734944356088,-0.0678906561211648,0.1174472284051953,-0.03535236786224107,0.12795591062418302,0.16353592402183265,-0.03831520381225955,

0.26240192903390347,0.1584707956860773,-0.06766205385090145,0.11806804505537842,0.044139448696359725,-0.06289650125695859,-0.10403405541899846,-0.24936187778216976,0.06024486364164522,-0.023286535356787066,-0.30270526970943007,-0.07592157954934618,0.047245627210598815,0.0002691823380897387,0.12226671836996268,0.08184806371875111,0.023695737745953984,-0.053196354995290754,0.027398048231312158,-0.06382807398577849,0.18669506022851987,0.09034622690454903,0.15599383641768744,-0.02612487863473376,-0.02092988843081472,0.12158164160037224,-0.0948314460908412,-0.0412301197101347,0.07098046786131124,0.06978473874560367,

-0.11919521052300594,-0.10342978945320723,-0.0019879016847332833,-0.06937277066965589,-0.1404181925073195,-0.22142338197318084,0.1096401607019003,-0.16555760678305717,-0.09526429493334558,-0.025207906341483673,0.09372024498694943,0.2490603249808276,-0.10655062824303192,0.01725804084157868,-0.013881751150404761,-0.01029182331011837,-0.11431897106285799,-0.006088436209797762,0.1514265797426016,0.06000606718162015,0.08467294038415159,-0.29493440221087497,-0.10910773403778772,0.02566481146099188,0.029004865783301463,-0.10172541106872897,-0.05811696091716864,-0.14682995965208226,-0.05542867781454284,0.07513006179378916,

0.04151239503011129,0.14039328926851474,0.11213546625305958,0.018885771882730256,-0.1502398521501959,0.19198015144816483,-0.013701174494687109,0.34604949377039007,0.06438849130575958,-0.11918564373885115,-0.34130931224817834,-0.1656638344338982,-0.08622254855446039,-0.015226763142664386,0.010297295483646298,0.09740675017272747,0.11593762862274803,-0.04089845416387984,-0.07709278467836997,-0.015168794873721764,-0.041450870234371495,0.2085541503212173,-0.03950265103093115,-0.023969592885781994,0.022456785877005458,-0.055913693004505334,0.12738745682324007,-0.04362435563228909,-0.11004529788516451,-0.032542173473275676,

-0.01911408165527947,-0.044113920013608025,-0.10470419227098875,-0.02015938679156128,0.05374015156605934,-0.11997783894874733,0.016075796922199067,-0.005036164499282964,0.07008117194610726,0.08501404769853552,0.11847966298447114,0.08221276810309522,-0.0844976174303918,0.0595701025775013,0.11394783190727167,0.002243224010481611,0.11114426811741887,0.03880743022305095,0.05038218876588237,-0.08606254085674639,-0.030621135663901435,-0.10976973682164198,-0.01737271485903288,0.09702659419817015,-0.04676580317760166,0.04389612021225374,-0.08625114396790429,0.03356359338288729,0.009925998791973553,-0.0091258831577769,

-0.17343779882073435,-0.03877126957804455,0.037188711327425975,-0.12791169791428683,0.07594268807237572,-0.1652693727324483,-0.024502880980723406,-0.1744152025270274,-0.013545436473972208,-0.1439518795000715,-0.03433995181393889,0.1801810159952336,0.10466433003173631,0.026577791613741342,-0.18768089917897832,0.01922420218898902,0.025170149555386545,-0.18347070448540825,0.047274896937790904,0.022199698716139533,0.1987587475432575,-0.12722830216047934,0.08592964703723113,-0.15830783539449306,0.07895744496680006,0.026035594071095736,0.09289195737557397,0.16531780412361888,-0.13217731641188174,0.03451594104679341,

-0.1174551381341336,-0.0778141757541091,-0.05118855231033635,-0.0804110948843754,0.09891269007591406,0.02492453298192172,0.12132223378670452,-0.048661332716846264,0.12452504081764407,0.12017997580074712,-0.024703904715494645,0.08113798252538013,-0.02331982268462479,0.10109274436137843,-0.061734114239921006,0.03217828271274943,-0.12657749811676552,-0.016438080696513205,0.03723481205612209,-0.03400451849486994,-0.0561713736312272,0.09282687792644612,-0.051357822601539364,-0.015369546224986602,-0.09889725891098382,-0.008731953464252935,0.03735850553702418,-0.07456833935426202,0.06848990393763843,-0.09937353667226165,
};




























// set_bias_for the second layer
float bias_2[30] ={
0.044871331102054095,0.08164673768629861,-0.17951628776431994,-0.0047496470307470924,0.11273044357913145,0.09531212107642895,-0.11353530320063043,-0.012768254248838906,-0.135104165747891,0.0376338478279941,0.1692998779850285,0.203368783214985,0.059865628318146104,-0.05519003434015095,-0.25930355192629484,-0.10223517510979657,0.08403327246897452,-0.004150485392901277,0.09903906134568778,0.0836749909466547,0.04119572743255603,0.22072619215732706,-0.14884249918497797,0.12762717428483006,-0.11825460860294593,-0.09260731160958643,-0.03415071653982105,0.018941728177401033,-0.12234223471713584,-0.05253565564142656,
};

















// set_weights_for the third layer
float weights_3[900] = {
-0.15972649485484944,0.0681882589047544,0.06632709784268283,-0.02318674301402327,-0.08498500328253997,-0.02013097462137571,0.08758042427762101,-0.08879300080350062,0.12642595588115413,0.09827793872923198,-0.018929847055630937,-0.009522659442072272,-0.17201456970376763,-0.03634160589775482,-0.05434336427226044,0.04972127773217896,-0.0058462811379747705,-0.15630723991068848,-0.06166841342331439,-0.26414184430054277,-0.008748300601685294,-0.03676780365971645,-0.07893336774731144,0.10666644014130303,-0.06453920234537196,-0.06806662659616185,-0.04528320659064057,-0.07530696645439024,0.19411964397321405,0.13004959696025972,

-0.16978611886689374,-0.01798217316534708,0.1431112554612566,-0.028471125739233216,0.07705640761676741,-0.24308852688586166,0.16251301606947716,0.1382040578719848,0.06907144220324027,0.058506567812688405,0.20305088018091266,0.06984354118411848,-0.06781909236038129,-0.1878544851665455,0.03775344452286146,0.15443772082146587,-0.0438763984031018,-0.13767448608997437,-0.18899805756165614,-0.3103621318661986,0.11277369999369481,-0.1522866619086386,0.047193575820420976,0.03655937848793851,-0.08763595028877857,0.03674531305176892,0.06084694063508267,-0.07839632658510876,0.2167418414806661,0.019095647008680383,

-0.010388451381960647,0.1212595933241809,0.03658036722488905,0.03821584776389748,-0.002030479952670726,-0.2376965195214068,-0.05245490614134409,0.06525204658088246,-0.049865657159404185,0.05857979514564165,0.031033188709445502,-0.059120366526815196,0.041296054329319355,-0.07198057471420083,-0.09313525547171264,0.08745509792813282,0.10478342027318377,-0.06242139830587961,-0.19397023526315477,-0.2152777683911808,0.0870431897136036,-0.04849941093730922,-0.022388206799826515,0.18520339443259257,-0.12964354171317624,-0.0631409451518757,-0.11885219432871495,0.05244874509157211,-0.017266225798583345,0.07327045044938058,

-0.07646532608359301,-0.009836977406489202,-0.08415851179437063,0.035837544665772963,0.08775546968638459,-0.05054998406185264,0.06898331436158842,-0.1109125680184801,-0.06823987164405741,-0.01784881498585831,-0.12920890220458148,-0.05951944031668588,0.09831692730233792,0.08314309201242309,-0.044360136471404236,-0.05234921977932219,-0.037521167866823094,-0.07380612788192543,-0.039038661840213026,-0.056756502873460936,0.035444353276629634,-0.02946543185017836,-0.0849866693122847,0.005884820742555027,0.0034220973725624083,0.0372337800026408,0.11099230795727608,-0.13029432583479023,-0.02336336217172814,0.10373638601770145,

0.1823590328531874,0.07441379852244222,-0.13260418899681145,-0.0437247429653605,0.04733574491358667,0.2445793126148276,-0.043216729477782545,-0.09304623731920783,-0.07602517610512848,-0.05905088761546767,-0.06433706780984413,0.04714325964966507,0.17999797696588654,0.08014386020036529,-0.023698543975544113,-0.17767983966350304,0.07110991134839559,0.06132452166576695,0.17769857401110398,0.328794502073375,-0.09656396250614754,-0.0020552737381437287,0.1153034507122035,-0.08623706788356231,0.19148874369108257,-0.10301420952913327,-0.1150236502071093,0.11151340221634563,-0.04894991634708712,0.09302360449207431,

-0.06162842306493732,-0.06059208709404552,-0.0019124321313416213,0.06489950631354187,0.12356158331924896,0.18766375870471239,0.005167381583143506,-0.12733865509135125,-0.08057226306425218,-0.08849424418463575,-0.011342486026408173,-0.053018564432802485,0.1942737613368405,0.23148830971879336,-0.04723321034304814,0.11131214658511801,-0.07714812338660101,-0.04386323567221233,0.048332032857039055,0.257208554889674,0.030034717886722528,0.07178258522460726,0.0863340139024684,0.026168931973301914,0.11645900748783926,-0.07779231298872645,0.018909595672437475,-0.10563955786291951,-0.1921367550669418,0.019458952298101163,

-0.030938415060635292,-0.10537464859072058,-0.08958276132756282,0.01706842049525519,0.0011119842954844669,-0.0575118570503267,0.0646229536095268,-0.12453704841219175,0.11356250055515518,0.12541167657148705,-0.060902048822095864,-0.12125387833694326,0.05070609711844479,-0.12279698211591321,0.06875577479040779,0.021795361176809636,0.03300799903073247,-0.035139562406723744,-0.07876705283623454,-0.05104981779602367,0.0956945734110981,-0.11271985111772287,0.026493183703991112,-0.12692768948517882,0.11629588792907097,0.013871892736266897,0.0077662517047828155,0.08789001352964136,-0.10802261028806864,0.10540500867596769,

-0.13047952551026895,0.040095375493919796,0.12616392212147182,0.10228334767179618,0.09454947359424122,-0.22463262403139678,0.05306249999998435,0.14747260842379037,0.10979695380580942,-0.05495404382779677,0.20822221176057576,0.014952099724326325,-0.11014250808012327,-0.266964852020684,-0.01734709238881544,0.10132993723818641,0.05870357292569752,-0.07272888681024132,-0.15865878517127743,-0.2568554698930247,-0.008535078709864655,-0.056105975536335895,-0.04519262150989396,0.2476232545840247,-0.1931608450360712,0.1249081826875249,-0.01719224486435966,-0.036489664327270764,0.08965023801318082,-0.01003513344207262,

0.0007461067851098776,0.12092629283348083,-0.07534075405302168,-0.014092376287162157,0.04958571306737333,0.01122514927031056,-0.12951818610810512,-0.08069208761368549,0.04102639198897255,-0.10800311210634465,-0.05329287430639621,0.06162651116511125,-0.07236449345509471,0.05036721357547294,-0.030882577422254108,0.028676807012210228,0.06565310931883961,-0.01902842289848504,-0.04902132813213028,-0.09955537489282958,0.042758783928358655,-0.046148984990331626,-0.013044525837366592,-0.061402031672951135,-0.04459092126034966,-0.032257140664810766,-0.07640695820468581,-0.02724132126957102,0.02036828784348219,0.12017535521016318,

0.0381939338386487,-0.04107414839800761,-0.011628325265794489,0.09699177840747349,0.024480536298822325,-0.09365853140857443,0.05011831136712093,0.12349440176481838,0.016892811853816577,-0.052374299144176184,0.060503797781799123,-0.011313782674951652,-0.044854865677430106,-0.20265272619506483,0.09134382510720737,-0.02111455429295668,0.005411227625447267,0.08172239684718567,-0.08364715614574925,-0.2930681382175968,0.05339081816182455,-0.16787918975384283,0.09397230146854504,-0.00858125170557507,-0.21365768312829844,-0.08780333743782144,0.01641664105890307,0.09061628346857487,0.01664027287392133,-0.09094789215837262,

0.02202944409935759,-0.07649445031005839,-0.18255717855031578,0.05031755788712208,-0.01587909676113037,0.2131709131253241,-0.15023324229335006,0.07491456323666934,-0.12329498003131359,0.07204719778254688,-0.26895911260636673,0.014133724511497133,0.1749133320564461,0.2724695106369406,0.03417758810258757,0.004251454584052613,0.00966699829968519,0.004430920916687117,0.24142877647292801,0.22746179193247348,-0.09306097613295794,0.11346821450068857,-0.01703145008978985,-0.19606350961769708,0.14404261049537792,-0.102989780307182,0.009735325796008172,-0.09744347705574305,-0.08765002287506077,-0.035483255967893396,

-0.06679589143479035,0.0996641050164389,0.05337437240119189,0.09400217271382613,-0.04289158288769954,-0.32816770256723254,-0.03265596534273351,0.09758022632249688,-0.10073482465792795,0.06720476950906545,0.1800258222330231,0.0353045701622569,-0.16650607314915822,-0.04286546956845707,0.11270176845428037,0.14829688136395458,0.029360891293749303,-0.09809078345706193,-0.26791338730931014,-0.28280643414191947,-0.07115391573661184,-0.08098276889330142,-0.022890702949564346,0.19661160740285602,-0.09801789108441707,-0.03342697049173085,0.009754456589820323,0.10238333804169951,0.12061342635607061,-0.0730531830983588,

-0.12957434958381134,0.006427006597763048,0.1443212527413861,-0.028651397443320896,0.08746238048462582,-0.13242920466324498,-0.01064945477382794,0.10711977841724626,-0.01879047191988324,0.10505914224000551,0.05296827094351782,0.044431992755255556,-0.1555150411273122,0.040048931366517646,-0.12408310198403091,0.12077383735148839,0.02396691259739202,-0.07433499453301351,-0.18936969592160005,0.022639506371194204,0.025966661119071147,-0.06834389586488446,-0.013938010580647312,0.15163021516517958,-0.04651232515500039,0.059932867539571444,-0.05169663882665814,0.05226915458189531,0.13963274316361243,0.09796558441387894,

-4.721426746748957e-05,-0.03332028860303296,-0.026603601372721667,0.07805981208283948,-0.11873409775015967,0.004249683784931138,0.034358831150129436,-0.06280483783437225,-0.034187950276570865,-0.05994028050930952,0.12071987048827897,0.12051076440175132,0.10825267450015832,-0.07556784462895454,-0.1249464782816545,-0.028172165104077898,-0.1055092723009202,-0.12568157723426385,0.0026777064159833673,-0.10234095223484252,-0.0998544384556478,-0.1299909598895133,0.010964507251857204,0.10336133020376032,0.0480484449874868,-0.07014869145524587,0.06853934071368203,0.12494346990859521,0.007725524172358243,-0.11891950618380881,

-0.007056981113903571,-0.10429508076386983,-0.14988302090324335,0.048825588451000726,0.05369066459519517,0.15289932374028287,-0.15777350280597077,-0.13095672697146069,0.039498808716336625,0.013516721802053955,-0.20359935989410397,0.10419573804769451,0.15477530162245928,0.24300402762862439,0.05145902815838206,0.09895787297373539,0.09748428499585145,-0.026189092615740553,0.09122638215301931,0.3451432385848371,-0.019493926028040825,0.10658656506297692,-0.06066956681535924,-0.13093798216895156,0.2055345291237879,0.0936951133039668,-0.018033656364255062,-0.022580263375834103,-0.17094206516248994,0.1372398898216687,

0.08135244677458431,0.06863978669900325,0.1228487465404697,0.11091446431532732,-0.08807277038097155,-0.03865013495146846,-0.09753707171721511,0.015133627955923884,0.06005564031413359,0.1242047806534899,-0.09955284933138311,-0.07728524959418469,-0.05131490148673186,0.04906845750754513,0.10242657888824411,0.05133012944952417,0.10689938297401018,0.03225690638845955,0.09692358714638112,0.009667309115184137,0.05566313977199453,0.02424842225495853,-0.05881022190984818,0.056035293079394824,-0.11797527665053895,0.12257039428917196,0.026508054927792426,0.12870607061370173,-0.08193298889584474,-0.050428570158842854,

0.12198978784113072,0.0009122377598867539,0.06917223604419472,0.051526944729477483,-0.12959197322095456,0.0019292860267513883,-0.02449091200924164,0.10446733061194405,-0.05937052821502961,0.0995019794165214,0.05726620553140385,-0.041940391886318255,0.1430332055347,-0.006273385011698375,-0.07688586649733697,-0.059758676735982806,-0.004109269752065654,0.020006043839959915,0.06735250595424849,-0.040248864898689445,0.0016231701408671473,-0.07738780569153182,-0.06307753368936454,-0.13709107505090987,-0.11920922439967577,-0.09845710110139713,0.03384856926555006,0.11235864846449205,0.05336901861867823,-0.09925562157208877,

0.007957494653435216,0.04572593273231001,0.0901767709853701,-0.03630153366017376,-0.060551860606617706,-0.052068047348518005,0.12784298694141524,0.04076884958094397,0.01372951261530152,0.09480554790517158,-0.09419404023264641,-0.06191582648472267,-0.07698171787537833,-0.17695965972364155,-0.129081371422827,0.1332620126202713,-0.050236697827692904,-0.01422426764976876,-0.13563139910213723,-0.22437497718197072,-0.0920082475669053,-0.0758662948173647,-0.11149698181217577,0.1880101974489307,-0.12222090650236599,-0.12808555890114748,0.10877180475945625,-0.06744278895682339,-0.07379928019600077,-0.06895375615939256,

-0.04836280685388504,-0.11916237772779698,-0.10387579001813543,0.024313461091256316,-0.01902554341541761,0.2592029954536247,-0.03534543508184151,-0.03400041701030491,0.11577637082190112,0.006191543913007298,0.050600373440059805,-0.10801449580719984,0.06309056419773335,0.20504806094933922,0.028423131154438334,-0.1054860335933223,0.00948198587292995,-0.08058427325147309,0.09812995540425254,0.24102808616413335,-0.10261779743496417,-0.04635040630463756,0.015178624988628627,-0.08972931037974641,0.1792659043201212,0.07351155388467012,-0.0870589288247942,0.08582913978401814,-0.1964054613823183,-0.06307301879274996,

0.0027230612501341627,-0.03703579858149035,-0.1583582943420917,-0.026202073591787035,0.07799831084951075,-0.020416421779241543,-0.07471182932298592,-0.008016042762408021,-0.09748692106795485,0.12084519389223908,-0.12688291636677052,0.04212546487883429,0.0002776119035152407,-0.02265362634551969,0.004334186943116243,-0.04853106139033419,0.06490116742479368,0.13155321478240206,0.08172984287310818,0.07467342195838528,-0.10740360614439143,0.11287826596134892,0.004799591974217914,0.014404107443477442,-0.06991644614852918,-0.07692783219969504,0.11078473911064284,0.06958564483407503,-0.006172767291684398,-0.06984248829056225,

0.09854922801731647,0.05752439495224996,0.10744276096069334,0.06455437359047346,0.04470719448790295,-0.11738029548100283,0.08481368744500786,0.1271993781573064,0.11836817028661195,-0.1180288833391332,0.3058989452284774,0.0011552703454374487,-0.12828664576965046,0.09106693000935655,-0.021107727555816518,-0.18830286525850223,-0.07922421118766486,0.017495736750085984,-0.14725064770157806,0.08114358488877378,-0.09305495899556934,0.11712737481729979,0.05661490341971872,0.07845042507089608,0.10488642633475775,-0.11190103656122326,-0.0037159776629276126,-0.012955549152988657,0.09874143342201447,-0.09971787008123979,

0.10140634812656894,0.033305056897757646,-0.035796244376180314,0.1306622644475148,-0.028531455570904692,0.3036386252639125,0.057092220391834744,-0.04244401394057098,-0.11243620121915847,-0.08065392521293682,0.07283225137987585,-0.0034811938244882473,0.07740043499522391,0.07380116571891905,0.07237791932459814,0.0789326520196933,0.009848386098583487,0.021511642363840917,0.15603998438900737,0.33987324272291747,-0.10289314458467219,0.03769638188395265,0.030318908522695035,-0.2982903979487831,-0.007861406809174147,0.043335372539276315,-0.08601985996523381,-0.019138712150735673,-0.2294974082159599,0.12730535133641593,

-0.1570841245238595,0.028749958718230557,0.08308627267519252,0.03274670285618742,0.03501597177351699,-0.09945620480124974,0.07991780290919928,0.11106655867378558,0.0023019954765236203,0.051442645991363584,-0.04547823280089175,0.08494914250048699,-0.07623847295723024,-0.23011300097960985,0.0848697771828791,-0.03883667858268877,0.08039883021390216,-0.0944458638335139,-0.11604934982608203,-0.10796232206447917,0.005549554993497495,-0.0288975169311635,0.0327870711076487,0.16355866751886608,0.017375061620477566,0.11782581396687085,0.014336000842395296,-0.11301025868952465,0.1535789085875821,-0.006276822651497868,

0.061835266758562865,0.06124158799753427,0.10942777284372882,-0.12231529940365264,0.09577117119618068,0.11016504468670722,0.08849732272543846,-0.13785123607087993,-0.027595004542564184,0.0338692548024175,-0.16847130181763734,-0.10055831018355695,0.0784503059783024,0.012036056768646513,-0.018052017134217734,0.062097642970359086,-0.11347779900547979,0.10916432937340248,0.14077398188055087,0.12919225937454187,-0.08946044057893744,-0.09963612190446353,-0.02664528496239188,-0.03127841776056065,-0.05454302209678994,0.1263861748898288,0.015331534234214522,-0.07723781034219133,-0.027575389554287705,-0.040944175199370006,

0.043932017738520436,-0.09111439621427407,0.013639394756140516,0.0835708148629336,-0.0009251059773970759,0.11199449958946879,0.010515237091639073,-0.08897656594590797,-0.06286388963099668,-0.09520100638500127,0.05197182834722095,-0.11548516396887851,-0.03803952825261908,-0.09747781044943904,0.0810994602627023,0.07963593057600545,0.0871500250539455,0.026041645322742373,0.07322500083737102,0.0037508958208720693,-0.02674212362435951,0.045528174461975025,0.029247770425412652,0.07672512678666261,-0.053779877380872754,-0.043162651540900134,0.11822325816766067,0.0514406226956062,0.023233989683447507,-0.0007491774996640057,

-0.035597524751993986,-0.06241945674497149,-0.06008208159497569,-0.10922761069740809,0.006724243741911771,0.062332433729650284,-0.01375845905575748,0.05213234491862514,0.009066249843180583,0.06695262426226173,-0.04133497920065029,0.03983918859558132,-0.12925991055546557,-0.09820911472678023,0.08179011226874768,0.11820967013932503,-0.03395403888125761,0.01009312435247172,-0.020924257811706003,0.001948122830402132,-0.08151170144836749,0.009821135499438588,0.12030344048038928,0.008391372888443811,0.12653879074316918,-0.09557104588077663,-0.04320903293385684,0.015761315530517246,-0.036078384948307826,-0.053657792779893236,

-0.06336041173379811,-0.019677672019014453,-0.061382469750253285,0.004250606611157116,-0.041154538490520524,-0.05017728747496448,0.11099765371764077,-0.13035120174335516,-0.12563052262972285,-0.08871220105763132,0.08688800825364254,-0.012501887233622368,0.008783762481185687,0.03560530379172937,0.0335879820834328,-0.08479951445492569,0.08113307359454985,-0.007464384630353714,0.09463794447416826,0.027401089753990002,0.05218298588158989,-0.0765904604807636,0.0012136747075299835,0.07380878023184066,0.0706443403461919,-0.09277822685627951,0.021703158790573596,-0.05079384958513488,-0.0819072610929795,0.11553364852451843,

-0.00392382659958875,-0.10358082465236074,0.14290665051510273,-0.05890296612156907,-0.0354373719893369,-0.04811624032571032,-0.1864635134260968,-0.019328349842396154,0.11752470615893221,-0.08245031899815383,0.18203958200381867,-0.03660477196134544,0.05251991150297034,-0.1006206119224695,-0.10934148847466685,-0.12541358497140215,-0.09094290592563394,0.0063826596342714,0.017790158387508363,-0.16332534061517465,0.10593124750619798,0.029041352657845108,-0.10640387784355453,0.0806050669218413,0.07907408459933508,0.10067161017856281,-0.056557633500923195,-0.12971367573833512,-0.09619995342267187,0.025915493976019034,

-0.04741216103212708,-0.12464687680430378,0.030204472221383376,-0.018963040038093067,0.0500843268258943,0.2586665969909532,-0.01232819658358278,-0.06049589535531936,-0.05498604331353327,0.07781416572691369,-0.2172404558287595,0.0402966238190657,0.16430757766810136,0.07395151204984934,0.045568947655417295,0.016635801424661346,0.0030679150341893584,0.05366559196050922,0.19999191315355988,0.14301582352311684,0.12370643066948271,-0.03121727255294918,-0.08844098891057146,0.0037768936579812775,0.16302881509961842,-0.003531225956007427,0.10246834397219762,-0.018526457517221883,-0.03296462322009623,0.058362677327663516,

0.117659985801271,0.08053222071407737,0.12640825698770078,-0.09693737565146257,-0.05397804855117219,-0.0395565925365072,-0.0606106414462956,0.1037157490485816,-0.12556845715614223,0.1242022675071768,-0.023508533485853588,-0.04333985764005159,0.10784571779993148,-0.07175314877278562,0.0695271296747763,-0.04063184978252797,0.05707011834233805,-0.060857338020525696,0.10997674740892678,0.087469196278196,-0.1040561732362817,0.1161935432764001,-0.10361323119976283,0.05588995897170357,0.04765587840243861,-0.11564864626590489,-0.10541769154567447,0.12593400634408444,0.024082621316727972,0.062193559870331025,
};























// set_bias_for the third layer
float bias_3[30] = {
0.024718513601405964,0.07924684797152179,-0.022919380413212512,-0.020550279639854185,-0.06531083797194051,0.043588134378283495,-0.015110176537817722,0.054525935757540014,-0.06643475577725287,-0.09026108720288828,-0.12216341635969213,-0.07753099483704601,0.07394887773564554,0.05018828329485353,-0.02960153161201884,0.04120120171776366,-0.07694213058087421,0.04533193876418053,0.13150067147673683,0.13067236272962454,0.01158785494892843,0.012103151014016033,-0.09266212162670306,0.047472043051985074,0.10497416849692967,0.02640407659325719,-0.07125324055480514,-0.059775483016783135,0.08278882407541192,0.010195160377346177,
};


















// set_weights_for the fourth layer
float weights_4[30] = {
0.23415450709092162,-0.16685608506801067,-0.3470908260779279,0.01271425079804211,-0.016177034204287965,0.7735111619103753,-0.32778743778947544,-0.25751745374119867,0.09291268510904595,-0.06827423040066118,-0.5878169658568465,-0.09740413053717058,0.4563867835846617,0.5990972394599547,-0.10109145963993646,-0.3493824866044501,-0.1028660919709028,0.18093648537302762,0.6239045887606278,0.9681230207534557,0.12166622604442578,0.22329831882827214,0.11303248225867593,-0.5334559725804082,0.4403610994745865,0.13067426510489424,0.1296477231071175,-0.06087878467503799,-0.4301995866200204,-0.12870403413190803,
};













































// set_bias_for the fourth layer
float bias_4[1] = {
0.21551214178677486,
};










#endif /* _WEIGHTS_H__DNN5 */
