/*
 *
 *  Created on: Feb. 10, 2020
 *      Author: wenda
 *       Email: wenda.zhao@mail.utoronto.ca
 */

#ifndef _WEIGHTS_H__TDOA__
#define _WEIGHTS_H__TDOA__

// set_weights_for the first layer
float weights_1[420] = {
-0.1346551572916504,-0.21135536168104668,-0.12376567616178889,-0.07902750141485879,0.21811410825065164,-0.029355384498947215,0.23718546641633115,0.017413764477587447,-0.10856378023825007,0.1372784386705157,-0.21908911005248902,0.07507595084105809,0.03999320681562557,0.3211798087767825,-0.0962733292751904,-0.1315028138786808,0.3074993022706187,0.0796309848963976,0.3335738273957464,-0.03582095757255265,-0.22268475215349476,0.029473042999212894,-0.2204939561744863,-0.02608636557618265,-0.31809296274800286,-0.011403037789473727,0.21530137556879417,0.16329963335268843,0.03292319959581214,-0.05440484911991617,

-0.13272882187556523,0.2145304984087177,-0.12587649363393708,-0.1812619939657035,0.19005057211186943,0.2370825764549474,-0.048799548039059684,-0.23103735698213038,-0.12410314787526547,-0.04553479532019514,0.09726160287789383,-0.1426014893924122,-0.04750455796872968,0.17435741183088507,0.0572610514759976,-0.1408978838138939,-0.08353225648790573,0.09225768823902286,-0.14144689686388526,0.019763530544599405,-0.049206893531589316,-0.020342493265862904,-0.19418452164645825,-0.11141220974413066,-0.008013186012680956,-0.06852592025091721,-0.11771341999980137,-0.03727635614873402,0.09364145104974507,-0.09769677453805205,

-0.03202339429396948,-0.2180650812341543,-0.07813941851319631,0.18706422166373982,0.08053912041664761,-0.21467163390553878,0.24292279611605663,0.1372817388412008,-0.1088065102640478,0.15232393267474617,0.2261785129793899,0.2219804106975192,-0.14209817588921836,-0.12053944807700998,-0.10834974881294339,0.13714476965470776,0.06313418371308727,-0.12867522514681504,-0.018898703426708543,0.009341400590759467,0.0526348310732483,-0.14663025615155956,0.17575545567048972,0.23091535294563623,0.20446387616176376,-0.08185598916438044,-0.03780272100165529,-0.06640205302227055,0.1855187035035492,-0.14991450947189872,

-0.2741387989331221,0.12833649792280563,0.09972365199564528,-0.20923463903077547,0.004182420623272255,-0.09621170556363558,-0.20014741983464407,0.09580445142251458,-0.13821531397541087,-0.03704078561948648,0.058866131543015295,-0.059059095082618196,0.0025949554298981326,0.01788564430999745,0.2636964502339657,0.02118053746744102,0.12864633217178925,0.1837954420579386,-0.23383804497643515,0.08878723637626994,-0.043044885735369215,0.08796872966997077,0.13751728692648432,-0.14139179225047474,0.22666699321398126,-0.09700700697968825,0.11467640999064435,-0.14812695248610272,-0.1375985126317413,-0.10365895883039544,

-0.06638527838158553,0.2596351439853593,-0.11784875714361204,-0.05899670073033452,-0.05766017848852272,-0.08083772193234383,-0.21042084878991626,0.09172403913691966,0.1371777649584385,0.20283528134899306,-0.06015195585247191,-0.21768071511290304,-0.22704919352623357,0.024481277453115274,-0.2018182669091694,-0.11847370046855174,0.1875575647162354,-0.13160864558241506,0.048614099544600976,0.0484739878102208,0.18792012742221914,-0.08086914527593908,0.1221044151626484,-0.09371191688955895,-0.3107545625803689,0.12813869739127387,-0.022888589698941093,-0.1623497386163797,-0.09357378470797614,0.06425315741118152,

-0.23061662263905114,0.12627708225312248,-0.14654325407877505,-0.03277770256707693,0.010695153351418274,0.1891089738870672,-0.060263543759586265,-0.19483230205640487,0.14402167673189123,-0.06364986198040712,-0.38674485634174294,-0.07704130844129946,0.141843408389677,0.07768285273425371,0.07383719644086997,-0.14076143008980208,-0.3050439320779082,-0.1653848689393902,0.002361233138434398,-0.044619208167250755,-0.32697109363327265,0.3478655169876285,0.06980730017263376,-0.04851276509143314,-0.055898085145130734,0.005813729150442778,0.2309599189842964,-0.13249838190622415,-0.005650546132065068,0.15376410607947524,

0.1877306542768066,0.2312129647489022,-0.14161088339112096,-0.04569747019557689,-0.27523600853219765,-0.01141087798773894,-0.14415284753417276,0.07051897980677595,-0.02281351598985285,0.026212725003278366,0.3255334546413267,-0.23266440610487557,-0.016543081581263573,-0.4126583616241479,0.08087925781472265,0.025932356360782043,0.10563284473451878,0.09861432518516342,0.2367326926934339,-0.1156004457972404,0.2888582120797787,-0.05855908571141749,-0.22427710953820462,0.21899383787631221,0.022294358783167604,-0.0353700531850878,-0.29340398710787025,-0.04711570174134945,-0.04039173797734144,-0.0234033269180872,

0.11004536346475773,-0.129977090862324,-0.0804014674042973,0.2505183348326997,-0.06599393129774646,0.27637790204446844,0.08222376502336157,-0.1292251653889665,0.15320709287719825,0.060150289882572885,-0.05743213332875489,0.022595989562772773,0.0016050372550799796,-0.056616520973970345,0.25936454725003005,-0.010987998767779497,0.19393518585670624,0.13271458453672522,-0.1413328817151763,-0.0031072688659106278,-0.13354872419849673,-0.023673686641585274,0.025240315378962694,-0.24253496216087128,-0.18536364612508566,-0.023936025070733866,0.03535724966448903,-0.10811386653911473,0.001953752242906431,0.11872472812440593,

0.0934431876355276,0.279133096320174,-0.04293023261438907,-0.031013781155806146,-0.09770666695135319,0.19795028838359507,-0.22698294714986506,-0.0676322916653771,0.046281788139340585,-0.5369163403205082,0.2792505448822995,-0.31058638917477815,-0.18841537690268012,0.013487869407667054,0.28232610973585837,0.04796668370989877,0.2463686905095435,-0.09648062963580425,-0.20387610016579769,-0.0764647863052614,0.27049820172249517,0.025305551279915278,-0.08752705988883046,-0.16478155426475194,-0.08154708644982576,-0.13264448452035266,-0.20687666667553017,0.06675048835315725,0.20764234765787623,-0.05860818564104626,

0.21256261721300482,0.0697397549397919,-0.16197618307360487,-0.04969774592740035,-0.14557102580850098,0.16663127209407907,0.09187275363277518,-0.10379920917739159,-0.16028610068274887,0.1000526791524856,0.18322833484651674,0.03960836476698546,0.11940692472221055,0.03940676048755454,-0.16464670149089558,0.10609164594699334,0.12333381895216097,0.15198759118946917,-0.20466743899996517,-0.1299057118544686,0.17911562738159573,-0.14589768385756993,0.10036405171808897,0.03796043833348838,-0.08481356268785332,-0.1474567734728907,0.021002101589609003,-0.05524262093596434,0.06645567683885716,0.044822293774462195,

0.033516382983177835,-0.2184523067591587,-0.07649684361285103,-0.11762469088410106,-0.10733390439102722,-0.3319857272854489,-0.046866091857469115,-0.07837935181238302,-0.14949791936547493,-0.1627943636800353,-0.2104153573287917,-0.17865840243796638,0.13365493133604098,-0.09041119417764634,0.2286572859188236,-0.11055397708291041,-0.254547030873248,-0.05805860905458473,0.17719189584748396,-0.09272282430197833,-0.14444973307536418,0.2049651309245283,0.1150475353260943,-0.08325666179741648,-0.11015243532350848,-0.1257777072049765,-0.30097913901132456,-0.09010078432704291,-0.20810885203846796,0.1118551565862991,

0.11135867078700921,-0.1245540663815764,0.003143224304298491,0.3078600599473285,-0.320887236974652,-0.20895299259754627,-0.013499967230906533,-0.09686827913911475,-0.07889696029418368,0.005473333302045376,0.05610029712956221,-0.16858089503181647,-0.16935919848282263,0.06935586438432143,-0.10594693694931538,-0.10517370178111518,0.2941083843095595,-0.015792702322070903,-0.029450812762634507,-0.14982249163377268,0.142821515471961,0.023115827158710932,0.2207192205812485,-0.017041304544266396,-0.043440462260765866,-0.03768039983990331,0.32679475443906303,-0.10411132174757991,-0.17222721201591612,-0.1328530949871525,

-0.0488109913454246,-0.1629758786617463,0.02693377277343211,0.2676228627823407,0.07321720230012259,-0.040262875937377374,-0.30297771986782096,-0.046834242170315905,-0.1629782403967969,-0.025659394110598702,0.10798983079202881,0.0036035778496762635,0.2298293286980519,0.19460546975230067,0.18752695407123798,0.022777568008262857,-0.475936110432394,0.2932867077463083,0.15232953833973797,0.018409882491282996,-0.14747255995630493,-0.12135201139251559,0.22942085966386996,-0.12291171339835563,-0.11427612862792103,-0.07744957149000874,-0.06836514140408814,0.14825147403695246,0.2684046084488149,-0.021481271206050343,

-0.15215042950906277,0.014283541969622072,-0.02342331995161921,0.05021341722580101,-0.049289372894291444,-0.05259978485612411,0.009342785952580136,0.2346297853096179,-0.07495714543163458,-0.1533823514108805,0.20734532329967556,0.08531867420012358,0.16943261736727175,0.22669567122593093,-0.281524826064847,0.08742405727692584,0.032702633028590146,0.1485525134029166,-0.31291940741908936,-0.04313579930220349,-0.024076359682604735,-0.26894881050411124,0.047787551472105894,0.18446183212902725,0.23110744007875914,0.059815123521759404,0.054930218825780155,0.007829730917962342,0.004861445001532646,-0.06618344425513653,
};














// set_bias_for the first layer
float bias_1[30] ={
0.01572901233843691,0.1467022864331892,-0.08018127496844482,0.13259664551306463,0.034139985312182805,0.0012539781645993116,0.2073825651973828,0.04484363494049971,-0.10101988225908232,0.2341943230735724,-0.23605903942338813,0.4810827206608395,-0.12668862869411812,-0.0045342864391327625,0.08381532822690987,-0.08317118010623888,-0.1481765637195207,-0.04138891727029094,0.22793877444654853,-0.12088290524041631,-0.0687206925238621,0.10435737092021265,-0.06118551228975403,-0.020795064205679944,0.2613585765488838,-0.08687263440517962,0.15363573165227917,-0.0252450317973406,-0.23866338764760442,-0.10642529835067643,
};










// set_weights_for the second layer
float weights_2[900] = {
0.12836229187278234,-0.11305245208700827,-0.021134427281679087,0.04203961984119608,0.0376804502508306,0.05023858833100416,-0.01838079716531678,-0.0482705375652626,0.050659556499382745,0.13987680649999662,0.05108006616513676,0.15557350100256606,0.04841414830642648,-0.15247594058268385,0.0332899837506774,0.11705798744171259,-0.20008608797982677,0.046311873595493026,-0.16074764391097912,-0.026328107774208152,0.12896562537083384,-0.08066567899054294,0.16016473200764306,-0.042379765189418446,0.14319996633298876,-0.049180487506970356,0.02977476988081976,-0.10506729270559255,0.027103433272597934,-0.0034891755126842563,

0.24170623781395256,-0.16867678921422363,0.07308813524086917,-0.03050092460666177,-0.13451744917846592,0.11036514957815524,0.09340987107773892,0.006139938594665791,0.1036488930758064,0.0009070873330569763,-0.1128798584121397,0.11644463292956019,-0.14313183276887512,-0.00920564258231992,-0.10130986827252736,0.07101696653639632,-0.17110184942172424,-0.19052866312791616,-0.14444667134464204,-0.04066362326895945,0.2634154207415826,0.028311520400532014,0.18869826530691258,-0.026711940577597616,0.07105807139119512,-0.07204728658637237,0.2021483779583163,-0.08722502793444704,-0.06442118652846848,0.003672793899310318,

-0.09258507535396289,0.015184736518602178,-0.07485614077181602,-0.01625281012306679,-0.005787066539310999,0.005503402866323759,0.041264163597447896,0.018573002170088504,-0.030226784312247457,0.03400761988994439,0.05232178480861416,-0.06929814699349389,0.026300809479408063,0.026579470745738645,0.0235325484632217,-0.001043684381050649,-0.009160562394402941,0.028824616444383704,-0.009198151045117113,0.028851601883260494,-0.03929907523855495,0.05926537121434332,0.09380284310241262,0.0014566128810769342,0.04776931462388753,0.08557800746259636,-0.046592850607364324,0.02924135005583869,0.07764805532569749,-0.02585435066344574,

-0.018655305444876407,0.11738499961050557,-0.14945101737252303,-0.1347357793138943,0.05583938535918337,-0.048134037945730346,-0.04250224716434243,-0.03584564368275282,-0.10043422196141268,-0.046177818060123124,-0.23378335065738617,-0.008034261643672443,-0.07906581474914742,-0.06643750068652146,0.15427721926187332,0.19465509301139572,-0.0630263961570874,0.24470837255208117,0.13638501613133908,-0.17118323252617762,-0.13707743554943075,0.11173170365631961,0.030198805894099276,-0.01950780542097747,-0.07196890739962573,-0.027918965620734225,-0.1860258428770865,-0.06541337796246705,-0.008415165085760328,-0.07199460929704062,

0.07708257012750229,-0.001185789474523858,-0.16162847610236608,0.06358083684199106,0.12541079460899973,0.033153832359739566,-0.002570941863749267,0.09893745741035145,0.04208483535722582,-0.09605756248592982,0.10310941851574973,-0.16730464103618853,0.11759125387232713,0.16542440464852873,-0.040124229955910924,-0.05156014723964082,0.07207754251819476,0.10534503368155623,-0.058100345638042054,0.12564470697528535,-0.15849989647002255,-0.07522305146091847,-0.01365426509177529,0.02939624360541328,0.177035757919618,0.010804159867292952,0.15839721810573032,0.11134061355522652,0.10287685577669764,-0.036084849611844425,

-0.17747753222544985,0.10926534615908201,-0.04405330402554448,0.2912972081979669,0.09841868585648536,0.13933387466738667,-0.10223081219024313,0.00807790244725769,0.08342174034456427,-0.016338323974114617,-0.016289779141043598,-0.08578862129243146,0.02501808763931831,0.19175485905306783,-0.13378995008311997,0.055481946161490166,-0.12472378116548859,-0.09355948198263535,0.061351791928402975,0.04311310387743328,-0.1207459464835729,0.059933708204057856,-0.0604941129643943,-0.009744416015776441,0.1863954786615093,0.018575223817115613,0.20781778699417386,-0.08504196081567279,-0.01950233727693656,0.06231594879514327,

-0.060173558054367464,0.21287960791438312,0.11755441804528056,-0.06301276209863818,-0.2101052739682758,0.010460821568635547,-0.026035138689887848,-0.010644242010218756,-0.10069643389173519,0.07229024968636827,-0.007430715916670299,0.08322666077915927,0.057967519279576205,-0.1461252281709167,-0.05987399492419872,0.08482410922272116,0.1521242434948748,-0.07749414993797099,0.04423889988896255,0.09207230329517072,0.10432801051396581,-0.05303101406822323,0.06865486577270292,0.10652196022212108,0.05225065387794463,-0.027542522278430404,-0.3198829513700698,-0.026466716750178563,-0.09014427440559018,-0.0766348749639738,

-0.07735455779936017,0.11346585011617905,-0.07414343418339736,0.05262196315330717,0.007597939130552382,-0.10110012435863036,-0.033877894665450624,-0.0877026175449865,-0.09198409501629586,0.03254866974499069,0.0709546932123482,-0.08545467228162541,-0.03264314732564461,-0.09917742942042725,0.09481570068533864,0.11453135145622712,0.07864033362644152,-0.1585744933249748,0.014682126942234955,-0.14027971294829014,-0.06939779552525424,-0.05784486480376771,0.05212262300823236,-0.07959908729765676,-0.28545861327622274,0.08897068907881091,-0.029734662192332683,-0.067772956133199,-0.01777102858727726,0.02381570768226807,

-0.06095150451658128,-0.09103216799512993,0.09825452726196783,-0.10916352245059477,-0.02612794233850772,0.014375272421111085,0.10565817110426738,0.004883783688490496,-0.02242809723911111,0.018237059760548607,-0.025583619458571506,-0.09146503730027992,-0.004194043989872699,-0.05730767544002075,-0.0640850995012024,0.08530513318253595,0.044657551221428025,0.031591627143585196,0.03514304663554784,-0.06467645616320276,-0.0014071289958410352,0.020324123487437718,0.05242553151151199,-0.10834167474909533,0.06333026787907227,-0.10823117314606351,-0.10894662775425408,0.0006235042133253805,0.1035971567866032,-0.06429280243188247,

-0.02860608573764009,0.2178255801336883,-0.049354627847544415,0.2683366076466222,0.13003602047992166,0.07521040811273182,0.14681053054832127,0.006581662088055082,-0.04891117854093556,-0.0830530343182523,0.15977385557163276,-0.017804106569859392,-0.07284702406263283,-0.1698496557631358,-0.038042807714331627,0.1533046013077148,-0.2522640785803747,0.08880447047868638,0.08165933488234764,-0.2037027777353043,0.10492861438619501,0.06116876785805302,0.08620579507407114,0.041340116368703154,-0.18656209114425668,0.09329096469560871,-0.04043439304739552,0.06833642321088639,-0.0674091389427379,-0.07560628996822377,

0.12756999897112428,-0.19149478212523088,-0.1547882002400743,-0.25604161442574686,0.031559628010632314,-0.07085183634635307,0.133057446265612,-0.014533412251311467,0.03525745273826227,0.1490410349515482,-0.2359764065483574,-0.05465205183766594,0.09321599934576509,0.14157578646616645,0.016071902309954648,-0.12950006870541925,-0.03853882305712923,0.1946498884764929,-0.06080142932714939,-0.14983580741283903,0.16381833904981305,0.003631312274250762,-0.1414495954503454,0.003871860191406147,0.13247715691470868,0.008322011915562331,0.361620423036501,-0.03103324104438703,-0.011667140492378015,-0.06311089532321623,

0.008806378342130255,0.014334065045227476,-0.07154937800430387,0.00033897543277553046,0.3476357621215299,-0.008986058363910088,-0.007485744200290211,-0.09423901467693163,-0.11722167286528251,-0.1086255296934736,-0.11604330406628167,-0.16190820473206755,0.3463733474287774,0.15554985665077797,-0.07131025722882461,-0.21628938940616818,0.10854408416969993,-0.06482738611962745,-0.05909189148490163,0.2706879447306473,-0.08642186926806962,-0.01728183150327971,-0.014799386365429773,0.08568939271406431,-0.05649624146734232,0.05970742317535979,0.0850136550662214,-0.010268060839141883,0.040012461927220626,-0.04360009734026998,

-0.12675875635287592,0.007356847429776841,-0.10203113277593852,-0.0881986823266893,-0.12125446034791953,0.026422162364203586,0.014553344649607003,-0.11457987640593242,0.09163478666716894,0.143289677224715,0.13967651304095743,0.06359264351575843,0.22503225124949056,-0.015823937067375005,-0.03643460585796856,0.1142767584991285,0.09885963100146895,-0.01871427064960558,-0.041567053190405,0.06208207361572624,0.11862656894438824,0.10391816530494252,0.079550115195375,0.023021437555195857,0.01720937622542034,-0.09528721760388749,-0.2714312141787826,-0.09577612115141519,-0.017036381954999916,0.09358190366478221,

-0.4226901944108559,0.03652148456366104,-0.09974460480054807,0.14779295226883174,-0.12233793513771464,-0.10534899189029115,0.03106496749416182,-0.09711786344788301,-0.15480087422572827,-0.08280160810904487,0.030299472763924605,0.060420400931179986,-0.030162585457436917,-0.10102520589015315,0.1990091411201824,0.08363985044538161,-0.02567986041533759,0.0932116221731399,-0.15561371694131088,-0.05312908524189946,0.14485437371304177,-0.04976664052324162,0.010975148429810984,-0.037322171498036356,-0.008243017233773398,0.039841389412517886,0.024825588453245957,-5.418073625110967e-05,-0.02841649157282199,-0.022658683931276274,

-0.08719128388624997,0.2090842212149637,0.11362556217609607,-0.25998197913389814,0.00013426906853429826,0.009747049708411608,-0.18755022533672933,-0.061209335614913915,-0.03624148943555698,0.17922363056173632,0.1608809433105345,0.1389929726784486,-0.07282204760700109,0.12420821100160771,-0.0865713736070706,-0.025725878466571515,0.15933090538146852,-0.018897534942701993,-0.08349779415472233,0.24397683352675278,0.14982583352154272,-0.009078618819224088,-0.042249504774092554,-0.016780007759719526,0.07726068216294198,0.03498977918128113,-0.21975645295394808,-0.05391526256225472,-0.05309211671744143,-0.051432219574867204,

-0.02786917419650055,-0.1133711233233493,-0.011891727257230762,0.030558001670071853,0.039716677508908706,-0.06776675035185226,0.09002616824028703,-0.013003459652821302,-0.09382915298062543,0.009583397611831655,-0.09036511542770664,0.022859035220559657,-0.08730948710364733,-0.0732536532222284,0.03967346685247018,-0.00012269736954856488,-0.051484724991614515,0.08650904351915126,0.047236961798008716,0.027406184957461402,-0.02657097392939231,0.021644241334724663,-0.11055693914432684,0.09087857714376298,0.08252240549596586,-0.012727802153992475,-0.07995957868866611,0.06959413277948505,0.05871890298176625,0.10509274542438461,

0.13875389590840842,0.05613723402885621,0.18925979010807967,-0.24833492070404367,-0.01607106863749381,0.08696178817373722,-0.10448594159235182,0.038936768258756416,0.08855668939998669,-0.07591581455203793,0.311334636030322,0.10010992348304038,-0.16760833261031202,-0.05640593665425001,-0.08831164963978273,-0.08841416742458541,-0.0275927467374022,0.4417160481677725,0.03858572525359333,-0.169850339823592,0.3387655375294098,0.07191730670595262,0.20947273165763453,0.02686740348827916,0.07339586041531403,0.054782230992514974,0.09291068792756867,0.10027691612234654,0.008651620182822523,0.06958008094744271,

0.12970546060016352,0.07954744297080933,0.08443582367461137,0.05447516618846256,-0.012394518483435413,0.05933631517822626,-0.09081314352924146,0.06609314074527166,0.031144415337058057,-0.018842068679018067,-0.10906006878812771,0.030687348479238378,0.25135510482831436,-0.14589632123859667,-0.06464425292268196,0.05697376909684435,0.2802173256175884,-0.025583790694055114,-0.08444442568014682,0.05464342946319219,0.10723243763384886,-0.05070104320282821,0.01073351988899678,-0.006749160406629939,-0.10905207606160898,-0.05069717438981162,-0.016136232101471307,0.029772327111499727,0.01500260814998355,0.03024877759296536,

0.09189364157206314,0.07035289055788874,0.144622108628924,0.11913818573582073,-0.21618534317885854,0.14813615481755218,0.13364482785900444,-0.04406912124029593,-0.050264354177155565,-0.1143758183332065,0.0280746826540713,-0.021419716810630197,-0.04485048822836141,-0.1114841061316427,-0.13138153080541792,-0.04899294014009098,0.12382880912321864,0.20639645337321022,0.06826380621371313,0.17278456951474938,-0.050613882824745764,-0.05160337810118025,-0.10947602958741331,0.09030002427427143,-0.3267810516919544,-0.08606119917953965,0.22315038597919423,-0.06887681977665594,-0.06816924968102867,-0.034087068538370624,

-0.035373913453373325,0.04703481147060857,-0.08368675385165893,-0.0934467510033964,0.025393614548441485,-0.10968937525631166,0.031101484666296215,0.04315076666690041,0.011296191484727268,-0.046874388285992906,0.10913131027677404,-0.07133621833611922,-0.06463011472424493,0.0944445176213104,-0.07516843761471688,0.07738856330900902,0.10742829200165109,0.10137143768881315,0.06215831775738357,-0.0810516231262116,0.016870659157228005,-0.08179807830777995,-0.09170674703095882,0.10443468241546303,-0.045819913302133294,-0.034792481894134294,0.04173369520278606,-0.004047202629707211,-0.022836634328113538,-0.11106651856495064,

-0.35602510247388786,0.08028266104426426,-0.053329201786559394,-0.23242568364986824,-0.07200245568786043,0.10155794397209286,0.030765162027298273,-0.12255010965463033,0.14126968276914267,0.09692654719213649,0.19654816661162233,-0.09642090121078707,0.21491485317858186,-0.10379350198793198,0.048796579591629204,-0.025656693086975803,0.004228295457503047,-0.11194934667675206,-0.145376669344017,-0.08258662693635219,0.14619799443260034,0.07086625733115703,-0.08249911542356707,0.024374997926903307,-0.021715522740882988,-0.10703587010933256,-0.04025701697621401,0.08927285129406198,0.04789293430675279,0.08306601360180278,

-0.011043024536138837,0.021228144498949175,0.20651713397087484,-0.007633677881117197,-0.32271236586007235,-0.050956150636075545,0.03543259167265127,0.09860697883978607,-0.11182155219035518,0.07590577270200337,-0.030524624468145682,0.04255320823713054,0.07057921328751268,-0.004044949930540221,0.037388474992774444,0.06286391544767107,-0.11198684528713163,0.011099171306375886,-0.091683067504933,-0.056523849886232415,0.17047392633172673,0.03478710962393826,0.11482137204692866,0.004671970824682484,-0.01714183643349867,-0.009126566412254311,-0.16513460332357344,0.03674687309661165,0.06726083176240738,0.04420716836873875,

-0.1179560075033249,0.11203770538397158,-0.15320861495733884,0.15815524609676684,-0.04121107868354179,0.06616287112412571,0.028888479653228903,-0.0008688568406319359,0.10370100711657808,-0.2603491719150484,-0.15185075105308565,-0.07832940093261656,0.1928805993658963,0.22027219741509066,0.0775922079001305,-0.110009013152476,0.06641054453661632,-0.015266846101040723,0.08933625100077883,0.1278589114580174,0.14011113487352128,0.028216020120691427,-0.0575835594494299,-0.07924258525865646,0.08433659232630998,-0.00639679933093744,-0.027193734773321848,-0.10024211677168775,-0.0040023489313079,0.01014680628230242,

-0.25044081727615136,0.06458620376253837,0.10152646001994141,0.06744405202828688,-0.0979245903411557,0.018062472261079678,0.05665069524978298,0.0014741590486342263,0.0256276151848625,-0.036197335834084556,-0.07953542315156772,-0.015329192679176455,0.010135112610089026,0.13234899249973792,0.05383154689379485,-0.04059459647242545,0.07560445016091168,0.050421061488443455,0.11752874059883926,0.07427892040267901,-0.22011534675935943,0.06594493913904124,-0.10172079181812482,0.04505862740252536,0.1603612449847965,-0.03205567466277052,0.12034683989167691,0.039663757857895804,0.05920988355860803,0.10823681209842752,

-0.159801231808891,0.19554977563841686,-0.04808435647629995,-0.03494723213558034,-0.15824677451191352,-0.0029610768983109963,-0.1403285950750912,0.030797493258735292,0.01945948506881715,0.09104519519704854,0.32672984630521407,0.18679715028950633,0.05456458524755431,-0.08452240351929838,-0.06194232374808083,-0.011886294104544498,0.19514745276372636,0.056068475099746114,-0.031231770984269807,-0.042347715846651424,0.01761937372419848,0.15990506016193326,-0.046188476577620215,-0.03603682969634683,0.06881058757325521,0.056209933567162716,-0.266454756125552,0.03758228297960331,-0.07794513428501225,0.01166801844719903,

-0.0994362840593198,-0.07178552168015549,0.0937932687260791,-0.03645734158808447,-0.08090832632360086,-0.0038094300310503857,0.04725730868020749,0.0854897610463964,-0.07430070851801819,0.01715588060219397,0.008123624301902159,-0.00880428980792747,-0.09891562382685418,0.028673423741983367,0.0793178046928059,0.09201863848875447,0.0742011432030698,-0.05084134117619883,-0.04997287874240208,0.035053087581139536,0.02481263392319966,-0.08702248113791748,-0.04971699875255848,-0.109963461136815,-0.009658368472153865,0.06308905007638191,-0.07922227045447444,-0.03045241984025442,-0.053397631330872504,-0.05139808979286092,

0.00680409479309656,-0.008224941822987988,0.1030162137054988,0.27942764217607763,0.1986922686869891,-0.0686034697095456,-0.17007158449717905,-0.10974242374176923,-0.038737537845649,-0.07785033818574419,-0.08868473296633254,0.11644006873312164,0.1463068639615821,0.0619089156576969,0.02857831814882251,0.13594190931801933,-0.1606059336417681,0.13443909111471256,-0.10385403534334048,0.22402010156317756,0.13242277310846415,-0.04956965806937539,0.2405895204442904,-0.05106847070773639,-0.171039968725139,-0.026318013294522116,0.12245834503887694,-0.05420258494969766,-0.016833550477922357,-0.052510525737094256,

0.04597279359084176,-0.10263678580597944,0.013752274085126389,-0.004308260104746736,0.05995195693713155,0.07272650249901866,0.10135514940635713,0.07033010716185645,-0.07228471472155323,0.050960109902459194,0.09747832865632682,0.0019189985775369279,0.09507997927186815,0.03319838012072483,0.043100175516654515,-0.0736234512075633,-0.026195295479645265,-0.09390411650066752,-0.01486174138056076,0.08300280996439022,-0.040006485913071224,0.037551573919106795,-0.07378479447972587,0.02871246369414984,0.008491339907842477,-0.007806869361559722,0.01810562616589393,0.01284100708354571,-0.09604883145548052,0.10338032585869855,

0.04636113044915557,-0.10555877359700987,-0.021850049325083245,-0.11544598913077622,0.16482764113455364,-0.06278407979655316,-0.11619831753523285,0.08895100724195738,0.047713640353821585,0.07568826708498996,0.009161326000476007,0.07389826027000063,0.07372666591938834,-0.1826378594479586,0.08138813455517252,0.08584706915134932,0.08113955863478381,-0.09956297795680225,0.09597457930984683,-0.2739303750791485,0.179326978426418,0.039637948801897915,0.09667370876762324,0.08732280317808952,-0.06779142395291704,0.029704468377699626,-0.1596815753423132,-0.08065455524728574,-0.07892850745423141,0.08848848121786289,

0.08827926775870525,0.033114293419497,0.10074703280742345,-0.06692269082611066,0.10795309718294867,0.09668593567681855,-0.02346566434229494,0.0769818100008932,-0.01769664683317934,0.08977856331701946,-0.04473659080870625,0.03274212239943913,-0.10775938687075207,-0.027389653645824727,0.03633565860618488,-0.020619962026499822,-0.061981329141264724,0.0670333199621461,-0.04776280568775576,-0.026659502736755183,-0.07749960107369835,-0.003159929628101625,0.0373951925249847,-0.06313017616762717,0.04889861223341185,-0.08501052297296365,-0.06343693614687301,0.10011951738392585,0.06927138702161137,0.10893894821168552,
};






























































// set_bias_for the second layer
float bias_2[30] ={
0.030115701365645547,-0.14036973072450162,-0.07589869830406902,0.17503619786586147,0.004840019783977443,0.037508314629405605,0.01790776115522677,0.1254927065588451,0.0019520419435520113,0.1136485958464187,0.029764790779856273,0.08736200082438914,-0.09415380667276142,0.07768775814533917,0.10587156670513753,0.09955812616459692,0.05483031693789694,-0.0218538845594961,0.018832742458854277,0.01841754431184375,-0.013871843747054488,0.09843931688693894,0.0631637551691979,-0.10533911025145408,0.19313349420082576,-0.09344034682970266,0.033702684517591786,-0.05377520428560095,-0.0187957920312984,-0.08295583084099005,
};


// set_weights_for the third layer
float weights_3[900] = {
-0.07217234561410382,0.12727643480248504,0.010176545805087119,-0.30388519090425825,0.10469985748229843,0.003658517614163935,-0.2412378494439465,0.01877364159564241,0.12702000024152804,-0.07160941774943366,-0.2687554119954195,0.07447312459338429,0.1014952037646241,-0.10474814075500587,0.04990231895953076,-0.07853776176098143,-0.08742048786866069,0.014739101796203871,-0.05822813136961245,0.16093770119789816,0.09239163291070848,-0.37635979143351606,0.1465271757372511,-0.07239446763013922,0.100757948821983,0.19469620144024818,0.013508047778357493,0.18148981001550998,-0.13312234057585126,-0.08890675890912311,

0.06474549916809995,-0.06308764529831112,0.08790189858935926,0.1856443637661275,0.06557047951796269,0.14717521215217924,0.10852189545856793,0.02866886547047853,-0.08844435504199152,0.10268291108351854,0.18382031156108816,0.05809434253990319,-0.13883012693314695,-0.06915486841043207,0.00840421456365009,-0.025741343871555425,0.15946642000624972,-0.09000904436527102,0.02886894676491626,-0.1919836576327287,-0.0726003869596903,0.13633867146585812,-0.09284361368614276,-0.02831518243569351,0.07749129427170467,-0.06018017531436521,0.09210731306451181,-0.13932828300474484,0.198975214241648,0.08511874896584494,

-0.0017370035817583604,-0.0438669069208647,-0.05291746694588807,-0.10473480336683777,-0.04276323217795933,0.01192566291124645,-0.08159027103373191,-0.028443310060421577,0.2220072437741624,-0.04349084445848813,-0.22748354829281625,0.07181294450939293,0.13670844656502246,-0.024084694364724726,-0.06504798022556874,-0.028544943992735376,0.045371949169242504,0.002055537584500991,-0.019346416507758358,0.16218109339843895,-0.03913266471760462,-0.19368631452707702,0.0030734450624832657,0.04613632146601837,-0.08427778711654807,0.0999529882256719,-0.0003957774931550917,0.054449340337491006,-0.06762580437317897,-0.048645588960712895,

0.07507169177594844,0.009760496527708067,-0.09222148004686295,-0.2454979748491259,-0.058560341531944095,0.03807429344314674,-0.2568085607205894,-0.03073513306342961,0.29130711909142865,-0.07549733182168472,-0.1586686989546735,-0.04480047159458308,0.040773687029420705,-0.063138561717965,-0.03339622399453196,-0.04855321554654286,-0.001643504257421574,-0.011444857840444437,-0.07009851033213166,0.16565513531814985,0.022735234012099235,0.35837752077227936,0.2879184020819734,-0.025348301417858193,-0.019986517404751353,0.18167248575212935,-0.043205821608195624,0.16943381292746149,-0.16891500585423264,-0.188838441026966,

0.04046993674181841,0.09724295104329586,0.044669847015475946,-0.16986424413703338,-0.05619584563275139,-0.12697392575783573,-0.23710253944320367,0.04919933500971817,0.2293301417020537,-0.17314516358972737,-0.14492310179906517,-0.06067178059611165,0.1553543680837477,0.011599574410184822,0.019783726921675487,0.09315074699784336,-0.1669960060260548,-0.027867096273951775,0.10866418291910163,0.18227112400144058,0.13437625552173194,-0.308286609517525,0.06195061287528096,0.15679178840027985,0.04344288990716728,0.15084472026915108,-0.04492155257805019,0.062350133648051004,-0.15782914786633537,-0.03952142534810815,

0.10759171230311956,0.07440490460800259,0.01384956047910335,-0.08836793398872085,-0.07003010494635242,-0.05531211248465227,0.08079439251630116,-0.050755011570863845,0.09778358910793765,0.09613822484878085,-0.00645841826861411,0.07702194146984838,-0.07903213572832797,-0.06908768835507087,-0.059150820315147117,0.07620462016502688,0.02347242039396651,0.03038547145668397,0.07245562313786892,0.10353401915732006,0.00967108002556374,-0.027611972215804723,0.02080195677383605,-0.13248171459012154,-0.0983801510959199,0.017903850082937486,0.03245885064761738,0.19975508202701311,0.036083061054508904,-0.016541053131771496,

0.0009512631245508539,-0.07988410514005434,0.07788949420361885,-0.024046120419921328,0.0971488279862352,0.11474214465596828,0.0059068228543178005,-0.10493581643089672,-0.07209833934167095,-0.021893876109845188,0.20543112038030806,0.018645158441499814,-0.03756521470558655,-0.030060649297036363,-0.06738241996485503,-0.04367130847225221,0.12080315366965683,-0.1033648369349348,0.022153637822225184,-0.19975695833202467,0.07167088912891861,0.11062772228396293,-0.10162748731417924,0.03395291649821791,-0.0924095117188743,0.03867489053607622,0.006686051852519796,-0.1522137543823782,0.13990702363543997,0.1438934219190684,

0.08184493900407795,-0.05037203448829173,-0.010316535676247457,0.06547688282863806,0.09198512818269484,-0.07955163861141099,0.05353124186604903,0.03236678166905287,0.05991964887325763,-0.10679110442675871,0.020154342211042533,0.0706402823395626,0.06887642359589279,-0.016413316434403188,0.01596689747371857,-0.015966498920945947,-0.022797867006156117,0.0023195480726907764,-0.034834615224193045,0.13285690797935176,-0.06618433523636984,0.03795237300361564,0.020281195269423655,-0.028850592906108273,-0.015877257261530317,-0.007758634847440717,0.046067835901188646,0.012263284622249973,0.07872992909284816,-0.11234500793276303,

0.042418818806252034,0.0038025905795844328,-0.07835439659252748,-0.04620392186830668,0.03509663149472399,-0.1109625454683105,-0.030427086067139328,0.04826494422485204,-0.08133338692650013,0.05766264317851105,0.023049437957822216,0.024533115783360038,0.04328697515451105,-0.01637917412645094,-0.0422328609148486,-0.08549790518762476,0.04997722289361393,-0.04001222635976628,-0.010113315832706058,-0.06865729709804752,-0.04679422162115865,-0.1700303901270901,-0.08368496809520679,-0.03917795712280095,0.017568063879706025,0.09836391329512886,-0.07633212972294946,0.0819321486245073,0.08241885460262088,0.022394711374350826,

0.022331057610017555,0.05007304866670408,0.039835258940647426,0.138555580185466,0.0051559078523066085,0.0033513911564476543,0.10457197414182921,-0.00193377250716161,-0.02425714486096169,-0.0177321948464854,0.24877091148847966,0.002229870602645305,-0.031119997190610163,0.10295452574102942,0.03793660094941285,-0.09755132530472918,0.12169305182554789,-0.11088374711025459,0.07937364034719105,-0.1600957719761542,-0.18404282339193095,-0.10514511103923474,-0.049052008180160325,0.086014774723314,-0.05322343416242877,-0.12628699325409137,-0.07721515869122378,-0.18034208263864887,0.07251070921535346,0.035705839664212195,

-0.013161661008727319,-0.07949686728767595,-0.0015832354576052264,0.26285977843776326,-0.10490540500643869,0.08911956833819905,0.09688280243152038,0.007495961767438073,-0.1977191293497772,0.2326631123735844,0.2602084334948993,0.0005177926457665261,-0.1295724068411513,-0.04744175434851947,0.04199213048526067,-0.0351035808012678,-0.028415575707429776,0.03430147657368492,-0.024893782597258125,-0.20378406053304943,-0.034482936050175286,-0.014227443521588569,-0.20210174118388788,-0.20022880608099738,0.02635278076096705,-0.1337764687388163,-0.09872016443735078,-0.17002632071688417,0.10129621891615334,0.21360825973463046,

-0.03622998658954618,-0.11048778547809177,-0.11249541271050713,0.07340666328861208,-0.08715212497950536,0.05457022827631967,0.14513574266890433,0.07011921340116756,-0.03386486570844694,0.11129431336689855,0.3435152285153445,0.08575192096325163,0.006734620423543898,-0.04292137335561296,-0.08137688773760857,-0.03854891693236436,0.004438809755472541,-0.026890109628418823,-0.022162513812436634,0.04341288672205034,-0.0006996938037040465,-0.13428337794586998,0.005565267376129766,0.05293541100419892,0.012160355242186569,-0.07618438019020067,-0.06632501618747083,-0.048394361227320284,-0.006747795127722814,-0.01322110339914097,

0.07674792730475256,-0.037438674462074925,0.024774869421694566,0.24592927567157544,-0.014363175817588916,0.20061644968970466,0.13754049941924823,0.012229405349384548,-0.2777667281259658,0.229641448960849,0.0296731331389983,0.1046622429933121,-0.08284158416342809,-0.044932766714352576,-0.09942449600702455,0.10183849598950569,0.03238776834316323,-0.05606085046779649,-0.020783085393606262,-0.07033584293137948,-0.03560811245254907,0.24939792378417946,-0.22167971612912554,-0.02760049503681648,0.08474408930569982,0.01083387236940406,0.044954844260515416,-0.02473191968490607,0.18972850461290008,0.020848653005669876,

-0.10157280932401512,0.02347404834366546,0.01967714464500656,-0.0930526428303376,-0.029316470822687173,-0.07934624088099222,0.03608099155225293,0.11644886672936543,0.18328093868834128,-0.11544776897711373,-0.39748482258118706,-0.024212272945477595,-0.04333958546502755,-0.10757568820420838,0.0021105073126807044,-0.08775628283832636,-0.20665804389508463,-0.10061390653246421,0.02151542627315561,0.1492893027233659,0.09203083399893133,-0.04066936498364555,0.1406703847202052,0.10513068177458375,0.0067019119754276515,-0.07605409078709503,-0.007378106858065797,0.20604403114486167,0.003259214996211151,0.035643450873098975,

0.04657989194864448,-0.0072596181493252525,-0.083594734047541,-0.0032623198794579744,0.03364086674995398,0.016484621375106378,0.036005742762195765,0.07116482838615647,0.009338047377995526,0.10257969698348038,0.046733384464792735,0.0803305015512473,0.08652790643015144,-0.06345241633284464,-0.052174197300721974,0.10688898405431334,0.0066785727991420145,0.043078364874571846,-0.056521482761887745,-0.020309370943048476,0.1188007213759988,0.18386836749765223,-0.04034555964994912,0.06354508524309857,-0.06128240352545959,0.09900274970204151,-0.006745102570043161,-0.23536701504956584,0.13355082464033757,-0.06688352485421928,

-0.07534313126603133,-0.027776840168768385,-0.13795556065691117,0.029774738997925033,0.05099979481847377,0.1469760959456485,-0.03168260545825563,-0.06356309528524465,-0.02195926982502334,0.025998436098454217,0.3188959087775472,0.04354726745862155,0.09173884761370052,0.027594639316433987,0.08291469108507833,0.008270040064642546,0.1238415513981853,0.018439367782055592,-0.05592882532053039,0.06678071894198007,-0.13633582117616777,0.17341888854115406,0.043146102217005156,0.12050497265166915,-0.07009076597336214,-0.03721282662220496,0.021398544329485708,-0.02038076544194087,0.08767184852118799,0.05848487482626031,

-0.1091051652148845,0.02106556602519608,-0.010472948306092767,-0.029518715922303068,-0.05202379528686718,0.0643245155938859,-0.09339737439636432,-0.058400460838431166,0.25239561123702886,-0.11535176399475257,-0.2856027172027692,-0.03674540859467895,0.06349838109711074,0.010551711986183751,0.04121277989654934,-0.05709648801938594,-0.12464781611010567,-0.05406249399357912,-0.04811233278532543,0.008002618930488228,-0.11107775211514895,-0.36700017224221426,0.16050044917800008,0.14539130779455267,0.057649702042324974,-0.049478871764895294,-0.06582126370235675,-0.0852198368929645,-0.06973020895911931,-0.013826240856968663,

-0.05125919301285332,0.06883845455595808,0.11983702766111592,-0.07774107646794179,0.011599215621898397,0.07854576877661759,-0.16901290519853185,-0.09161017536214969,0.14147994379426757,-0.17581680665572597,-0.27759773889027073,0.07849242590043187,0.0075784754458106274,0.009058068855296033,-0.04045901411840632,-0.0911615268379298,-0.07968182376298477,-0.028229238292799875,-0.09017299747677902,0.2110696832678012,-0.020692101204607644,-0.2197258855001347,0.23186972600779424,0.012338500297371262,-0.10895779634166262,0.032569430799632454,0.008843195390874236,0.17333841452185358,-0.18462062255899586,-0.14388547734535742,

-0.016739665109344878,0.08271389611743957,0.054175626770694214,0.07128297317204534,0.09524213597416993,0.05902898676988184,0.1556027988275915,-0.09249900399979429,-0.11331807100717574,0.14594962413252435,0.08758242880091278,-0.03566882814394554,-0.01789149823744912,-0.10149264328059904,-0.014630928082677231,0.07299245334806446,-0.0678573038285447,-0.07226047487815672,0.00510354152626807,-0.07087523969080926,0.06510013476455731,0.17043412089558044,-0.16419224954114672,0.0853117630778487,-0.1112091139146742,-0.09388697860741332,0.08209038374360543,0.026729885084733777,0.13807337531554628,0.00803141197516708,

0.06932406431093582,0.006737155055786493,-0.11291537618333865,-0.1067486678077336,-0.08606219547586168,0.08254827557518928,-0.2113958986535703,0.039129283338991766,0.13758212018491578,-0.14077902709658105,-0.2683830145951982,-0.04524723508538171,0.10893705190268418,0.10276512435367567,0.04886806768207484,0.038774101526375504,-0.1801095927666374,0.10518274560770874,0.015506509570464967,0.12854998070705254,-0.06306643568102309,-0.17756928500935715,0.23465840468747093,0.1096480054656978,0.00593755380330451,-0.025935999404418562,0.08131695451037901,0.23830534442173212,-0.16315896855268286,-0.17133694016841955,

0.042649979414409206,-0.11609579274487794,0.06399108790432853,0.2671852666690387,0.08405472163553031,-0.14162684325875588,0.2417599932578477,0.06307157968180743,-0.23504853230462952,0.18378356370952673,0.18129626429375326,-0.0670942878378785,-0.15443721001488944,0.010429432579357904,-0.10814096812765354,0.09427272543417438,-0.003785120064145349,0.0974248090392479,0.03814082690820915,-0.05049795862049961,0.08328866380298547,-0.2457172506696921,-0.13470127998741369,-0.0796343533848213,0.07590593332995599,-0.14734878100077337,0.02743196373928981,0.22498729712343263,0.10687109916078902,0.1983329758900417,

-0.024803027662656435,0.10783160293127732,0.07663164314929413,0.007905375455438736,-0.0898797710743153,-0.0518770705514164,0.07075433475537765,-0.016691978288515534,-0.01405141981059204,-0.0827790480718599,0.09508441759400928,0.06675804704562495,0.03220028649305249,-0.025675575831729705,-0.002150091716403999,0.09546532286693896,-0.10909031279871055,-0.015188039952056276,0.022540380296937255,-0.08980440424925276,-0.09622472949404015,0.040344451716969015,-0.05421962145317596,-0.021281717349581442,-0.1076529664481074,0.1172116551189706,0.020846530519761423,0.014807614824878105,0.028295136585453868,-0.016025512252141726,

0.03066604412641216,-0.0009310365150557347,0.015392072417890153,0.1327647180779087,-0.0033500090959142923,0.03349873659697295,0.06353141963259706,0.1455015472623726,-0.058112819100036246,-0.056335913030173525,0.2713248067030234,-0.0058086180956674095,0.045385252529720053,-0.051573767300170034,0.001144754303887851,0.0501670217690339,0.0960486800895695,0.0012057405595317994,0.022015454578690943,0.004327344265313751,0.1051135047347038,0.10233157930011981,-0.05016880679390995,-0.12903768567668095,0.0673174353659123,-0.02991239566403547,-0.07926915848009485,0.1860260023811549,0.13056277721210222,0.13522514501288344,

0.08284918267390952,0.06826318970827235,0.05127940760948372,-0.10465661481884438,-0.028472348174550344,0.028973946197253665,-0.07253833093164763,-0.08602406772578698,0.04685406892691932,-0.01946450892519669,-0.013995354837353246,0.013205317340724568,-0.09707623218014132,0.08343789294550188,0.0920199685162905,0.06734564379243836,-0.07636047024126363,-0.09505255884109498,-0.022794096221322325,0.015301986189435995,-0.06530501715717625,0.10667624341659016,0.013115583753315986,-0.06609520382640971,-0.004580081636134985,-0.0350362026082442,0.02764959177273307,-0.0952976300797444,-0.06785555904215014,0.02301885493322816,

-0.0007913953516907329,0.13137727273126248,0.042128937316398975,-0.17317025852168352,-0.053877279797359956,-0.19014724826032917,-0.008908787098840059,-0.08105659875334373,0.11806068055587012,-0.1734823994431166,-0.060955423485089,0.06779567081113602,0.1823972966998206,0.022277703919701193,0.06264139104721218,0.003208758336711,-0.10249508580767741,0.05385624575255769,0.033792370283415134,0.1759253404520476,0.006388709336395456,-0.31737498455068613,0.23973223534688146,0.10703241318774921,0.01987585410316382,0.05917760779707189,0.08728287502259673,0.10020381647774769,0.01453308605093219,0.11306157292217177,

0.00575235202344879,0.05332318622781929,-0.011769873732508906,0.044597372030197105,0.0077558551760169465,0.057275595357986105,-0.035360608623100344,0.03408101281366567,-0.11057726884586382,-0.08401441433457421,0.06996854008648437,0.10112418010353254,-0.02904647596954803,0.008634309897182885,-0.017899960409243156,0.0016665499847279726,-0.06973036950441579,0.008401633080406328,0.10291532636775476,0.007178521878005062,0.10824944736004675,-0.0817576400047445,-0.0369637951222808,0.013483246408673216,-0.03086377868288406,-0.04590233857041201,0.019733231424099384,0.08929469654088609,0.040512953111934875,-0.1053349470830657,

-0.035206247995513695,-0.0011186020544717088,0.11373830563900732,-0.2900426943618404,-0.1075004577408917,-0.2428907019322411,-0.06069207902546719,0.02556338150308904,0.17811822773110403,-0.08192126284068418,-0.30337355570480923,-0.07257644109756581,0.1384900356922708,-0.00638551630194249,0.08095940484694042,0.023440660413397443,-0.005559363489458432,-0.04937896756166043,0.013715177698341071,0.1873678563457889,0.06410750357446406,-0.31955479569285383,0.1754280910851632,-0.03916361750897523,-0.07006875675053759,0.20942642508098552,-0.0609546200605356,0.2781252412775282,-0.1956007458538657,-0.14641644052637548,

-0.028835208838361742,0.010113382508062414,-0.09712835832792174,-0.03368952011867315,0.09572187242544072,-0.07053332352704178,0.06616653338550031,-0.031314084102466465,0.0748606273373083,-0.05414365379800617,-0.09731191123801847,-0.07949477123365659,-0.07779843042555233,0.013625697140688524,0.05472378265903596,-0.07875472933555679,0.09391113102946584,0.042855978816669256,-0.09102474352634443,0.03342224835186381,0.09835678451621603,0.08589400743011692,-0.04838304945471496,-0.1081336347566365,-0.10898271158356464,0.019677693664584404,-0.037791035812155475,-0.052806261004202076,0.08362956266749512,-0.02436955483474892,

0.04284804875520986,0.0968294665228512,-0.01384964508238149,-0.008382552651092725,-0.05180024092772467,0.06656725884016165,-0.10242954747396374,0.03447233242289461,0.06180354657614056,-0.04063017773088354,0.038993697271792326,0.02373548698018297,0.002624492497898487,0.01488300360162282,0.06462422069810377,-0.04027936019314465,0.10617082384216438,-0.06554666311941802,-0.07565812915801377,0.09389122616527987,0.064985081765705,-0.003528866244593314,0.087658033886247,-0.01569852228509333,0.04460982509625785,0.049927188652545765,0.08843874183182539,-0.05381703638462136,0.1058259367696726,0.04134012547847926,

-0.046176306023802974,-0.03594323584065426,-0.050898955965013745,0.08931789914459753,-0.10741899091864959,0.10625063460425499,-0.01874487179033592,-0.03707571101829788,0.09121004551375012,-0.06276340740920704,0.05947799342495474,-0.03467797198893068,0.048821462059564336,-0.05247280670268765,0.09265360821131453,0.07261147333649423,-0.08901636550400285,0.09888495120546811,-0.08863744430217758,0.04902044693301822,0.03975722873159234,-0.09893331501507928,-0.09018109612690291,0.10773207575732899,0.021586898092414927,0.05330374596228905,0.013674155464233447,-0.10184993787025975,-0.0651056997768393,-0.04291855387942326,
};



















// set_bias_for the third layer
float bias_3[30] = {
-0.07832350890017349,0.07508846053151401,0.0029707703928893276,0.05718420826685566,-0.0063592574962506735,0.040989977271495746,0.03798209034479277,-0.03797506677551595,0.1325893053318581,0.061187703299211804,-0.06760916889167308,-0.0891347549514292,-0.017306167866733998,-0.09809534300711303,-0.03736375080072563,-0.09835736754199158,0.03343847988932932,0.087003899709362,0.09377395747581242,0.07272800108577973,-0.0022671744700758743,0.20157135179861385,0.12363146514394424,-0.006836104101355303,-0.05699585686045428,0.044660592048645704,-0.07404887326945672,-0.14976739941774903,0.030639352290959224,0.030109138699585793,
};





// set_weights_for the fourth layer
float weights_4[30] = {
-0.07606118216085465,0.19266638589449295,-0.23177230269420934,-0.6967366686020188,0.015578462186140512,-0.4159343338516472,-0.5697616935038515,0.17951063848144053,0.7241832146148091,-0.4981790537020663,-1.0472043646988127,-0.014052767875370875,0.3889811358687161,-0.0751153640500572,-0.04843982614398985,0.10324127421248105,-0.3840436802869378,0.04931234517807674,-0.02251371896657895,0.5817235144001848,0.23664152647588452,-1.0167949595432912,0.6680498230623616,0.2815441058403379,-0.018673472769193854,0.36723008940579827,0.0904925229860352,0.6869630395519957,-0.5068359326252992,-0.42273046022698585,
};






// set_bias_for the fourth layer
float bias_4[1] = {
0.3309182695344641,
};


#endif /* _WEIGHTS_H__ */
