/*
 *
 *  Created on: Jan. 28, 2020
 *      Author: wenda
 *       Email: wenda.zhao@mail.utoronto.ca
 *       testNN = NN3
 *       current best result (but not using NN while takeoff)
 */

#ifndef _WEIGHTS_H__
#define _WEIGHTS_H__

// set_weights_for the first layer
float weights_1[300] = {
-0.37849268,0.06916718,-0.0024014711,-1.015367,-0.028693236,1.2007921,-0.18498848,-0.24343744,0.22512758,-0.0773362,-0.64720964,0.6223815,0.5373822,-0.0023222864,-0.33113846,-0.7233758,-0.24297035,-0.14685927,-0.2735443,-0.37240556,-0.44295108,-0.057338588,-0.5824472,-0.5064447,0.32905382,-0.2569515,1.2162589,0.62898517,-0.12916975,-0.20661245,-0.39656645,0.18310763,0.604923,0.027393505,-1.1373143,0.8445024,0.92312837,0.017597586,-0.06846395,0.9588855,-0.86775047,0.14688377,-0.6214212,-0.38988516,-0.43512437,-0.052374065,-0.040730268,-0.121860884,1.2891358,-0.041187905,

-1.0334774,0.0040169354,0.055427313,-0.15027435,0.19824767,-0.022773763,0.45356607,-0.2524066,0.24166703,1.1885962,0.94974196,-1.0660416,0.8823539,0.31619957,1.369754,-0.17039987,-0.117255524,-0.099228136,-0.4422336,1.3493028,-0.11769306,-0.0077357297,-0.24020192,0.39513963,-0.25220656,0.073162556,0.20970719,-0.5725724,0.5894988,-0.012335236,-0.19792472,-0.06402558,0.5406705,-0.03634998,0.63152075,-0.23764439,-1.2522144,-0.2662236,0.20113027,-1.0758718,0.68748343,-0.08619067,0.46531346,0.20274875,0.95714754,-0.37883097,-0.013424039,0.5678783,1.2177113,-0.021776719,

0.4879786,0.10407399,0.07278663,0.32612556,0.22883657,1.2501049,0.34754676,0.62911034,0.13111681,-0.9479948,-0.5145515,1.1638726,-0.7559647,-0.085879214,-0.37646225,1.1220293,-0.0018992722,-0.15202524,0.27304757,-0.59917074,-0.19234473,0.9971047,-0.114277765,-1.346418,-0.5676171,0.068227425,0.47912765,0.16758771,-0.12768205,-0.3462966,0.14880094,-0.0312313,0.5798757,0.12135154,1.2403512,-0.85436773,-1.4954275,0.053961158,-0.007242173,-0.14872852,-0.29119277,0.1784578,-0.11950509,-0.014003357,-1.1143407,-0.124326095,-0.073390186,-1.1591886,-0.5689255,-0.18715942,

-0.6568306,0.008875528,-0.14096743,-0.4900046,0.16688208,0.16918725,-0.5171086,0.57133853,-0.29859295,-0.37342292,-1.1647946,-0.661574,-0.14772487,0.15489525,-0.02270992,0.06644524,-0.15116042,0.20470561,0.37520927,0.4711896,0.012417204,0.08628005,0.11274533,0.5097608,-0.02747187,-0.062825754,-0.28343362,-0.9417584,-0.40123823,0.7060156,-0.16716316,0.4711358,0.3774069,0.44461387,-0.17799747,0.19188671,0.29067522,-0.25217745,-0.2548831,-0.12460316,0.61803514,0.39983135,0.0073407795,0.3409318,-0.5353354,0.39504626,0.100265324,0.14860821,-0.24489467,0.4804599,

-0.20374456,-0.024361381,-0.108601734,0.074691884,0.053849842,-0.06532517,-0.3145739,0.18967104,-0.45993933,0.09433744,0.2610209,-0.009526037,0.22214745,0.44468895,-0.07935576,-0.031893793,0.011952817,0.007884197,-0.14319816,-0.34847045,-0.21834816,-0.02107546,-0.14172046,0.0071074064,0.062540986,-0.5446478,0.065016575,-0.0009344627,0.07669822,-0.32695535,0.7376155,0.33352596,-0.028702637,0.04070835,-0.20571205,0.008825294,-0.023687184,0.13917258,-0.21806893,0.25484273,-0.0141576715,-0.4312507,0.0007410442,-0.0682208,0.028417662,0.24962313,-0.32164803,0.016410526,-0.041976932,-0.48079586,

0.08524807,0.33929873,-0.23259038,0.134567,-0.1550366,0.06752813,-0.24065071,0.064933,0.6694798,0.0030826025,0.18611246,0.049911626,-0.05042158,-0.08358283,-0.5168958,-0.5637578,-0.22950518,-0.16927616,0.11340417,0.14433141,0.37394413,0.04263716,0.32200852,-0.2884133,-0.04445009,0.14533857,-0.03798682,0.004801344,0.036015652,-0.023817416,0.26174733,-0.16321051,0.122778505,-0.283254,0.012970357,-0.003719642,0.03082268,-0.17933619,-0.3261923,-0.15894367,-0.024922559,0.08104127,0.3063174,-0.036414664,0.19998461,0.18330902,-0.20953852,-0.4456778,-0.10227396,0.7144029,
};



// set_bias_for the first layer
float bias_1[50] ={
0.48983714,-0.18843263,0.0,0.6937726,-0.051440928,-1.5273284,-0.07589244,-0.16266856,-0.10299242,0.12625718,0.2811188,-0.39627743,-0.11575929,-0.19021396,-0.6132079,-0.19845976,0.0,-0.048485577,-0.17184839,-0.25245786,-0.0013976772,-0.8765219,-0.018636556,0.0112056825,-0.05003571,0.14101073,-1.1857188,-0.071084954,0.23383285,0.33325574,-0.0046493094,-0.16347922,-0.9137155,-0.07623309,-0.49089542,0.32896534,0.7137214,0.0,0.0,0.20021507,-0.51960176,-0.0146290455,0.32587203,0.20311849,0.11278952,0.053979125,0.0,0.13765413,-0.9445932,-0.0653584,
};







// set_weights_for the second layer
float weights_2[2500] = {
-0.3352553,0.12337362,-0.75488037,-0.11066269,-0.08774538,0.20846702,0.09110559,0.10272061,0.056658823,-0.007372536,-0.005063333,0.08684109,0.19471961,0.027831035,0.01780106,0.090087,-0.12796079,0.2623184,-0.6201644,-0.2454034,-0.2613725,-0.118621655,0.239613,-0.07836803,0.20910683,-0.1427059,0.025040653,-0.4481316,0.057923753,0.3373296,0.025661627,-0.060957912,-0.09018243,-0.15195905,-0.07541739,-0.16772822,0.23458396,-0.35047323,0.11050049,0.16136926,0.009996021,-0.011682277,0.14922073,-0.03409102,-0.2152736,-0.18665026,0.1360086,-0.11230359,0.1800474,0.030878311,

-0.13083696,-0.04502643,-0.056656,0.23335099,0.32679307,0.033136915,0.029458474,0.058453407,-0.1144188,0.07907032,0.026707368,0.104961224,0.08148231,0.11660724,-0.073849946,0.047923166,0.038580824,-0.089124314,0.32484537,0.27986225,0.13231748,-0.10985069,0.08692876,0.14843668,0.14406139,-0.05378271,0.16839868,-0.035904072,-0.2402241,-0.15678029,-0.22003138,0.0018774616,0.15366311,0.14676295,-0.21378437,0.36561227,0.096259415,0.26093623,-0.053509537,0.17997643,-0.21591681,-0.18366493,0.109476015,-0.098432034,0.26810387,-0.23301913,0.19196256,0.07693912,-0.17498453,-0.13479461,

-0.074625,0.037603006,-0.13773146,0.18100329,0.011759743,-0.24206726,-0.11401139,0.15078254,0.0971982,-0.046241954,-0.13089606,-0.18205841,-0.10660873,0.091343984,-0.23015001,0.22334836,0.13880195,0.21602295,0.17312245,0.07054515,0.21207376,-0.055556163,0.07490714,0.004292071,-0.2030916,-0.18092328,-0.23578653,-0.04181947,0.20894636,-0.19846833,0.19135879,-0.07186939,-0.22314331,-0.15133706,0.08546756,0.10899849,-0.020202264,-0.01205191,0.23383357,-0.07822971,-0.06590688,-0.18132578,0.07380541,-0.055345,-0.036742195,-0.119057834,-0.015634894,-0.05279383,-0.038680553,-0.19066097,

0.17118855,0.3084158,0.26908576,0.34114355,-0.19503659,0.26822767,-0.35889262,0.2082535,-0.037718374,0.20958976,-0.607745,-0.053920444,-0.074649446,0.060631957,-0.12997736,-0.32750455,0.33959886,-0.058184434,-0.48117104,0.14433135,0.73129934,0.16732022,0.44643566,0.12944064,-0.42318767,0.042708233,-0.02909231,-0.1771567,0.2909616,0.37302917,-0.106508315,-0.1531442,-0.03896491,0.23969033,0.20740367,-0.7008167,0.103875406,-0.13420774,0.075297385,-0.07462616,-0.09572986,-0.2934839,0.046988316,-0.5526924,0.006330065,-0.33861116,-0.12898913,0.16591616,-0.06177431,-0.12304763,

-0.10289781,-0.02322979,0.7785865,-0.55220747,0.28215814,0.28236514,0.41311887,0.35548595,-0.07413146,-0.0063868454,0.06728621,0.13943066,-0.17713301,0.562453,0.34222898,0.196427,0.06822013,0.05247811,0.5083258,0.024036711,-0.13732111,-0.017020924,-0.055475645,0.09178743,-0.18903267,-0.11067183,-0.29953572,0.5271275,0.0016905953,-0.34437305,-0.06478968,0.36318782,0.13347015,0.08816303,0.15491256,0.29608145,0.0022491242,-0.1678913,-0.16855998,0.24030669,-0.18554147,-0.06775772,0.021089202,0.10369555,0.18660437,-0.029537883,-0.24134171,-0.48414248,0.20205481,-0.15195768,

-0.53165436,0.30266848,1.0091885,0.6918379,-0.8704969,-0.28880575,-0.29544964,-0.24763998,-0.07798402,0.03567293,0.15270334,0.019215351,-0.123473264,-0.14392157,0.15014274,-0.23192602,0.39045036,-0.025083348,-0.283605,0.21349397,-0.2726311,0.13348964,-0.065972,0.21739678,-0.13794294,-0.18945204,-0.15525527,-0.20431396,0.18087988,0.12456855,-0.1792453,-0.07673499,0.07169835,0.15484762,-0.00067497697,-0.5728908,0.25618657,0.10299672,0.20208223,0.07096355,-0.13660315,0.10214907,0.33654833,-0.7291339,-0.06853514,-0.42080277,0.12883277,-0.2344681,0.0074922596,-0.05684463,

-0.3005685,-0.24172615,0.25672683,0.08569449,0.42167017,0.110989094,-0.15284346,0.089009464,0.12993157,-0.014952885,-0.1516845,0.004203772,-0.21635689,0.011590434,-0.31675056,0.20523234,-0.1751233,0.107500896,-0.3656089,-0.1692764,0.19534233,0.15429597,0.04983264,-0.11716947,-0.15354669,0.13239808,0.14945866,0.13374898,-0.044385225,0.040705893,-0.10296747,0.22550161,-0.056754727,-0.034142993,-0.048098285,-0.026379215,0.19097629,0.10869942,0.05781535,0.15484588,0.16358538,0.0061582476,-0.13674472,0.053685002,-0.13485329,0.013086871,-0.07605791,-0.23342527,0.17297767,0.22744584,

0.75117135,0.75104743,0.6699293,-1.0647874,-0.08220113,-0.049578372,-0.22192386,0.19791749,0.41388178,-0.15313314,0.27555177,0.054181963,0.1719847,-0.029903783,-0.096223466,0.19368373,-0.07409813,-0.18533313,0.5531429,0.5510314,0.7226828,-0.12717627,-0.103031166,0.0698031,-0.8993745,0.007723111,-0.074587606,0.5083014,-0.11261141,0.15534534,0.11309138,-0.19134106,-0.075735115,-0.1060212,0.2370981,0.24302265,0.0634254,0.3462068,-0.14288034,-0.23431979,-0.038951326,0.09279616,-0.1757162,0.26350144,0.21809067,-0.22949803,-0.21084991,0.42689648,-0.19403392,-0.35288858,

-0.027272722,-0.5889201,0.30486172,0.11680848,0.34052005,0.74422723,0.11344947,-0.040262226,-0.25406003,0.024303693,0.43336537,-0.0312792,0.16532189,0.030491268,-0.10793528,0.041069467,-0.35748896,-0.029919446,0.73103386,0.12269675,-0.33137476,0.0895697,0.037989844,-0.22344947,-0.29304036,0.24494247,0.24120654,0.11558686,0.036709312,-0.06613519,0.19688568,-0.049569614,0.24779366,0.055375766,0.16131754,0.36572632,0.066907905,-0.19635175,-0.16919352,0.1427585,0.09595441,0.19221494,0.051571097,-0.091253236,0.057730038,-0.19197488,-0.15414894,-0.44987142,0.008965817,-0.10224171,

0.39472526,0.24860841,0.18932424,0.41841105,-0.6944297,0.6674698,-0.004272633,-0.08215779,-0.4447004,0.017641652,0.28776595,-0.044645745,0.06465755,-0.027345361,0.027436886,0.048438136,0.22266668,-0.1069517,-0.50761956,-0.51423293,0.4760685,0.20245378,-0.35890654,-0.012505017,-0.48170185,0.14279917,0.24607883,-0.107611455,-0.16181493,-0.15420362,-0.15331587,0.028042013,-0.08729452,0.062420774,-0.19160031,-0.15704428,0.20608145,0.1062159,0.06488438,-0.07610026,-0.34481132,0.018262602,-0.0109159015,-0.022187928,0.08383172,-0.0057913163,0.19277054,-0.089398384,-0.23597896,0.19276933,

-0.5621152,0.22544135,0.10206942,-0.23145828,0.46877068,-0.4109286,0.11614275,0.32154375,0.45781022,0.041210204,0.35125706,-0.13177226,-0.0022185456,-0.16540815,0.0636203,0.058578406,-0.19106957,-0.1556261,0.38911426,-0.11698314,0.10373247,0.040941067,-0.29679024,-0.17730801,0.037228003,-0.19414963,-0.13747409,-0.021260526,0.044172097,0.25190008,-0.073800206,0.19217864,-0.11318852,-0.08565632,-0.02905379,0.26399976,-0.12882684,-0.3581707,-0.056804508,-0.0962662,-0.33222458,0.1077118,0.17344488,0.26593032,0.18458658,0.09817558,-0.1403176,0.43803763,-0.0048227953,0.16612521,

-0.58394253,-0.06138105,0.98353434,-0.6478515,0.086169615,0.32587934,0.39179853,0.2980693,0.1882089,-0.03164952,-0.19195709,-0.048431456,0.035150528,0.13525479,-0.25443357,-0.20799416,0.27622238,0.13250956,0.19868968,0.16838461,0.20182973,0.064237,-0.18732257,-0.14218278,-0.5807817,-0.20174903,-0.106172115,-0.12892213,0.05148321,-0.18835336,0.13792606,0.30482092,0.020626007,0.004251406,0.12864128,-0.14891464,-0.02182171,0.20437731,-0.45598283,-0.09340576,-0.18342002,-0.08406998,-0.078202754,-0.22641374,-0.07232242,-0.19825707,0.122691564,0.24600637,-0.031528383,0.14491606,

0.3857973,-0.12821572,-0.2979086,0.309115,0.2741379,0.021056047,-0.24036315,0.31161886,-0.102910124,-0.1949886,0.051501643,0.06896739,-0.22014682,0.019617524,0.3283013,-0.018975815,-0.5290236,0.067691915,-0.14561866,-0.46149206,-0.7835667,-0.11079505,0.18905595,0.122460544,-0.044990573,-0.13807443,0.06539677,-0.05224709,-0.094349965,-0.17205475,-0.20602307,-0.058794513,0.26416448,-0.011199838,0.21465729,-0.14234544,0.1163867,0.65003157,0.17548248,0.24081485,-0.3947165,-0.1058943,0.20009063,0.42351294,-0.12375262,0.2075143,-0.18449946,-0.21809302,-0.14915854,0.14845057,

-0.2075591,0.049784373,0.21240477,0.13613322,0.23992825,0.22300836,0.068600975,0.12140031,0.012787772,-0.032593846,-0.23177643,0.26406464,0.028848693,-0.1178981,0.31403157,-0.10447385,0.3176198,-0.12220833,-0.052225284,-0.31584117,0.20421483,-0.1554847,-0.030401712,0.24087542,0.06046689,-0.16765033,-0.06919713,0.055686574,-0.0026435442,-0.25145414,-0.09327404,-0.1613929,0.17096269,-0.037608854,-0.08972265,0.030125221,-0.25835925,0.26299763,0.105798304,-0.060567826,0.1211613,0.05283123,0.21073489,0.24961081,-0.113525964,0.48662814,0.16108394,-0.4330388,-0.16056103,0.07086937,

-0.062492568,-0.22731772,0.23431997,-0.28307617,0.5301926,-0.17519568,0.070570484,0.08480416,-0.39341822,-0.14064418,0.34688345,0.23762336,-0.1433792,0.47175413,0.29234517,0.04620942,0.33517838,-0.17386836,-0.1419172,-0.56350046,0.21846761,-0.15588188,0.12173906,-0.03224083,0.03311189,0.039364945,0.1749587,-0.057401374,-0.04994078,0.117705904,-0.20616679,0.15206455,-0.15875062,-0.025171125,-0.27715886,0.27810752,0.040816043,0.23372966,-0.13673288,-0.008041263,-0.049339402,0.23902842,0.034787606,0.2446634,0.1320886,-0.21124557,-0.02851072,0.9050123,-0.20196682,0.38867792,

0.07261945,0.03731899,-0.007661021,0.26698324,0.7777306,-0.54865474,-0.0035487688,-0.101750225,-0.28073514,-0.28628343,-0.06300896,0.037949793,0.29355386,-0.012452268,0.24657533,0.022387959,-0.15031676,0.032793634,0.17939372,0.054873284,-0.1655017,-0.23897687,-0.40214577,-0.22124115,0.5157415,0.063082606,-0.004904555,-0.09451778,0.021748668,-0.40866935,-0.108291425,0.091493145,0.13932775,-0.26071954,-0.08028115,0.14839952,0.027200015,-0.075934276,-0.09005874,-0.23546457,-0.11001404,0.19293036,-0.064011216,0.06254655,-0.012364764,-0.13569406,-0.16038635,-0.20154423,0.12227785,-0.15430094,

-0.20481412,0.15471984,0.1894419,0.13992937,0.03761451,0.025046572,0.04836516,0.22799037,-0.16913213,0.044453368,-0.16385928,-0.06522359,0.23552383,-0.027116299,-0.018465847,0.02541311,0.22031854,0.16729076,-0.11668438,0.2226652,0.047449484,0.22538947,-0.006088823,0.053363338,0.2090001,-0.031393245,0.21744607,0.19321422,0.035626516,-0.06148614,0.21230333,0.044167206,0.10316603,-0.19999316,0.10779555,-0.18335092,-0.23022273,-0.1293005,0.1410089,0.12065758,-0.2301232,-0.0761628,0.058595195,0.15438701,-0.022348255,-0.07953578,-0.04033248,0.10264118,-0.18322256,0.01780267,

0.21669778,0.17827292,-0.023635851,0.22664185,0.18993779,-0.21034184,-0.22911121,0.20954789,0.033434972,0.076237224,0.010134483,0.08703153,-0.1552958,-0.0019255953,0.026946021,-0.15481223,0.1292923,-0.19377306,-0.18451768,-0.23614532,-0.067250766,-0.17809145,0.09422744,0.09556162,0.0279856,0.020976588,-0.07040937,0.2414066,-0.03760005,-0.24245119,0.16950004,-0.13096076,-0.0029499293,-0.23126096,0.009726162,-0.012698625,0.24250157,0.14640258,0.042800013,0.19503428,0.08198593,-0.21859293,0.21044244,0.0033769752,0.15740593,0.100393414,0.08459897,-0.09184527,0.09747912,-0.2250811,

-0.013501543,-0.058660354,0.13456419,-0.05569849,-0.120111786,-0.17463651,0.08914889,-0.14650609,-0.06984298,0.060446404,0.12467129,0.18962307,0.013811274,0.12687555,0.019067544,0.1576128,0.17493375,0.22084029,0.18025166,-0.013354029,0.12097492,-0.08964482,-0.14025977,-0.015248216,-0.131763,-0.0685954,0.20443678,0.078045905,-0.14126387,0.10499504,-0.045184884,0.21631515,-0.17343283,-0.0014545748,-0.19888939,-0.057614084,0.0550746,-0.32573122,0.17772278,5.197525e-05,-0.12492241,-0.10258202,0.21315642,0.19250901,0.023080155,0.031248072,0.0944712,0.08283581,0.121637665,0.34560904,

-0.59244704,0.4851637,-0.64667916,-0.2792623,0.11983947,-0.25405517,0.025479661,-0.768261,0.33660764,-0.060602512,-0.14320779,0.04497086,0.084163114,0.10168193,-0.09858354,0.10298589,-0.27590394,-0.23511541,-0.33660883,0.4627491,0.12660584,-0.084828615,-0.1023243,0.23071715,0.092723526,-0.014976848,-0.36229423,-0.4107969,0.25331068,-0.095784195,-0.08502594,0.43763438,0.1613998,0.026608087,-0.14121638,-0.16517432,0.22837205,-0.7061618,-0.18366382,0.00245305,-0.1376917,0.021625461,-0.20564166,-0.4422893,-0.16151746,0.17510521,-0.09042459,-0.2646316,-0.07955693,0.43007895,

-0.19362222,0.1375948,-0.07482679,-0.27203536,-0.22260691,0.15141149,-0.19715327,-0.078874096,-0.16455016,0.06932917,-0.07678686,-0.07043788,0.16556914,-0.0017613275,0.07711865,-0.035908446,-0.11644391,0.22275813,-0.0884111,-0.114326805,-0.16102463,-0.18391174,0.2523053,-0.09201337,-0.23199244,-0.13211212,0.061436675,-0.18026628,-0.049895953,-0.09295585,0.06703295,0.09977432,-0.04654561,0.22024885,0.09194921,-0.24928255,-0.0956951,-0.19066703,0.17112412,0.13414879,-0.02346552,0.07807685,0.23698752,0.090769514,0.17304268,0.0043637794,0.04821138,-0.1242383,-0.018180115,-0.26714694,

0.27959478,0.07545802,0.054247465,-0.0102343215,-0.045762733,-0.19486094,-0.3503116,-0.3502405,0.1329369,0.15504363,0.33090842,0.19398144,-0.10578545,0.24920923,-0.17510451,-0.26793048,0.14854379,0.043118827,0.1506027,-0.05440729,0.39029604,-0.14671786,0.21872255,0.08765468,0.28895786,-0.27640018,-0.009559887,0.17228287,0.13029927,-0.38624725,-0.03071793,-0.3735592,-0.33073556,0.17651884,0.15301457,-0.11347755,-0.14702359,0.15482283,-0.11464027,0.15901001,-0.14543642,-0.010351822,0.24786372,-0.275996,0.15045498,-0.10382477,-0.17121509,-0.2486243,-0.13484412,-0.18224686,

-0.1173877,0.21461788,0.07510736,-0.36910003,0.087674454,-0.11864309,-0.16032046,0.17570369,0.016670767,0.19547617,0.07174955,0.041218437,-0.1530916,0.13789518,-0.20988993,-0.00058543915,-0.07165335,0.123790696,0.04961049,0.09363401,-0.015116109,0.221653,0.14893338,0.1772974,-0.14650628,0.16792212,0.032938763,-0.06856525,-0.100146875,0.08829333,-0.16329326,0.14428979,-0.13349433,-0.0036596146,0.04600852,0.12683806,0.24152236,0.09679228,0.20226952,0.20085885,-0.1837914,0.0030704588,0.20671117,0.07594,-0.121502474,-0.15772678,-0.18518949,-0.31112352,-0.054032043,0.02225376,

-0.13646661,0.4872058,-0.4119083,-0.1611081,-0.2977204,0.037760608,-0.424742,-0.07860934,-0.057530474,0.06820987,-0.5853811,-0.036886096,0.023018286,0.13325635,-0.20458412,-0.21209113,0.039662894,0.30706447,0.16810948,0.47079164,0.02215119,-0.20499668,-0.19583799,-0.060949054,-0.48052055,-0.14617687,-0.11789201,0.09698474,-0.0859587,0.07527326,0.033815697,-0.36024752,0.12443872,-0.30211413,0.34198362,-0.15034293,-0.100640744,0.41516092,-0.23120518,0.047764853,0.2886902,0.2012848,0.17112513,0.20055735,0.07883751,-0.24699911,0.047670648,0.45219705,0.09474492,-0.33451906,

-0.10111082,-0.117174715,0.020736022,0.08128029,-0.19846834,-0.28583404,-0.17798136,-0.12612969,-0.16178863,-0.17374553,0.1459572,-0.21193874,0.070767835,0.27293327,0.12517,-0.0025358007,-0.08250405,0.096549414,0.21752203,-0.12077132,-0.0790403,0.13669561,0.0844191,-0.10327438,-0.3315773,-0.13075139,-0.16989194,0.099622205,-0.101872675,0.13191113,-0.064970076,0.19734205,-0.0054814653,0.23846678,0.15889646,-0.18707708,-0.02990156,-0.14322694,-0.30130714,-0.22951542,0.018311031,0.13459507,-0.004317385,-0.42071697,0.05534624,-0.011319682,-0.17934449,-0.003685153,-0.1357483,0.07556637,

-0.27919787,0.052116197,0.10947136,-0.1965492,-0.18984564,-0.009215676,-0.05604881,-0.1446256,-0.14373322,-0.2116686,-0.1774575,0.0121992165,-0.117349386,-0.11049619,0.09517481,-0.0023968674,-0.06035162,-0.17503245,-0.07080736,-0.02872477,0.40983093,-0.13325974,0.18588467,-0.22039211,0.06741186,0.082278416,-0.095415086,0.038870193,-0.018484011,0.3007947,0.10060742,0.26140407,0.1485933,-0.12623051,-0.100055285,-0.017646091,-0.16241565,-0.0007583549,0.17198057,-0.058549777,0.20810805,0.10701655,0.084045775,-0.18887064,0.1928534,-0.19517164,-0.15205228,0.26444557,0.095389694,-0.02445733,

0.26499563,-0.19220293,0.18624341,0.15060782,-0.01494361,0.067140386,-0.10500092,0.32100028,-0.010015341,-0.28990966,-0.12382363,0.051549096,0.05893071,-0.26041037,0.010606498,0.25859973,0.7487258,-0.300686,-0.13102975,-0.41405934,0.2655916,0.102295436,0.22288218,0.046705943,-0.06888861,-0.12643504,-0.11679554,0.24429601,-0.06988131,-0.20206411,0.15380323,0.689791,-0.25109664,0.15239313,-0.27681515,-0.0841389,-0.16596511,-0.20807031,-0.32819137,-0.035682753,0.041474156,-0.008717843,0.1813162,0.45460227,0.008230693,0.17456545,-0.19377823,-0.16138002,0.14224142,-0.13678855,

0.16413073,0.25296196,-0.040422548,0.5687006,0.2210735,-0.11059413,-0.29277086,0.3940864,-0.0003220532,-0.044143423,0.22658134,-0.1595457,0.0626669,0.10941618,-0.013604432,-0.20458303,0.17515536,-0.22100095,-0.02021578,-0.22082576,0.2052296,-0.05666508,0.087519154,-0.23378958,0.07189637,0.105547056,-0.19119662,0.32837653,-0.16113573,0.17399976,0.19680767,0.31558383,0.13447806,-0.2533766,0.02470819,0.24608776,0.15000781,-0.16704594,-0.06411217,-0.23453714,-0.23310307,0.16928159,0.05904471,0.3064469,-0.26685026,-0.002193292,-0.14881223,-0.16994171,0.017434336,0.48164433,

0.3229828,-0.32811812,-0.06484463,-0.29704878,-0.012537613,0.41474667,0.2523937,-0.054098837,0.12723614,0.017717961,0.11909373,-0.1666533,-0.22519664,0.13520044,-0.046009514,0.090273604,0.15710974,0.20515412,-0.42736524,-0.15302193,-0.09448378,-0.18735209,0.13398956,0.19219212,-0.5406982,0.1316034,-0.13176997,0.18691497,0.053451587,-0.13865434,-0.21478127,-0.10648025,0.14642692,0.21029985,-0.017270565,0.43370745,0.06496497,0.22687788,0.063641876,-0.035081543,0.12906806,0.049993917,0.10050262,0.020861395,0.12740819,0.14847709,0.22889706,-0.4704029,0.22779207,0.18007809,

0.19059561,0.56896085,-0.26876727,0.22997116,0.13971034,-0.49901322,-0.27902302,0.0189647,0.48733026,-0.0440374,0.04705342,0.23007621,-0.15969886,0.10501224,-0.15175644,0.16300629,0.2458376,0.17115551,-0.46234494,-0.017282968,0.16766489,-0.081251845,-0.13188769,-0.20999391,0.22522858,0.05098721,-0.1718612,-0.1803131,0.15446182,-0.17131667,-0.1648616,-0.13507956,0.1798849,0.048579596,-0.026126936,-0.10412877,-0.07946891,-0.06679598,-0.13613738,-0.26927847,0.15433602,-0.19194075,-0.115060166,0.31473216,-0.23082894,-0.3389205,-0.21130799,0.10013446,0.052966844,0.43322238,

-0.12648404,-0.042360168,-0.41885895,-0.14264181,-0.32343066,-0.2845408,0.15668386,-0.475354,-0.38101363,-0.04359906,-0.09996499,0.026160292,0.15897074,-0.2313636,0.10086432,0.2319225,0.27224967,0.08665781,0.16949812,0.18129721,-0.27040285,-0.02991964,0.27143523,0.24668142,0.20709117,-0.01072709,0.091577046,0.08919882,-0.10077956,0.077823915,0.18062192,0.2081215,-0.1458659,0.36214793,-0.025143325,0.13440584,0.2036085,-0.68201005,-0.25991598,0.02233096,-0.34415522,0.015493661,-0.050872467,-0.05941417,-0.010696721,0.24271813,0.06962636,0.030995786,-0.11456095,0.09043581,

-0.12549911,-0.23982784,-0.0570793,0.4485316,0.38615018,-0.18740647,0.0543192,0.10903326,-0.11673216,0.14714515,0.15166648,0.13371277,-0.052697867,0.22110987,0.30676508,-0.06999693,0.30747682,-0.072163604,-0.14659521,-0.1691688,-0.18997507,0.13130288,0.30325252,0.00943894,0.07736827,-0.400077,-0.1887574,0.15545242,0.04111206,-0.31252536,0.054413293,0.2189128,-0.01451735,0.055511266,0.33348075,-0.09203339,-0.09069061,0.28666177,-0.19451906,-0.27220213,-0.20546158,-0.03247386,-0.05186816,0.3987114,0.087996855,0.28682208,-0.24411538,-0.29801556,-0.18258706,-0.10175298,

0.5828721,0.33206612,0.28515473,-1.1738511,0.016531402,0.4406441,-0.1242359,0.27350676,0.020894185,0.10930298,0.5056239,-0.19322285,0.024674123,-0.19374801,-0.15836178,-0.13270105,0.18966167,-0.112972036,0.507767,0.0916494,0.4690868,0.15072617,-0.011831095,-0.12393997,-0.25815576,-0.2477823,0.06575049,0.6903061,-0.080930226,-0.097917266,-0.1905636,-0.23411748,0.16564429,-0.07621213,-0.16089647,-0.021316051,-0.17808066,-0.277183,0.18714182,-0.19198535,-0.008561483,-0.026962016,-0.23138434,0.39171958,-0.017667195,-0.16346957,0.10451721,0.05950872,-0.12461874,-1.0101149,

-0.41197443,-0.08920689,0.29786602,0.038300954,-0.19167314,-0.02609073,-0.12533814,-0.095479555,0.29156965,0.020223156,0.19074467,0.14371732,-0.052363615,-0.10826629,-0.08778409,0.07250458,0.21936098,-0.102918714,0.1135792,0.11485854,-0.02298441,-0.06357472,-0.18980142,0.100832045,0.13143894,0.17193139,-0.06801271,0.019027814,0.13733375,0.016459962,-0.048740882,0.123178296,-0.096724965,0.1644627,0.21723422,-0.19202332,-0.063610464,0.015027481,0.011765057,0.025955869,0.11644144,-0.2747538,0.15608898,0.43368313,0.1687929,0.20260964,-0.18840219,-0.116894126,-0.25565708,-0.15819696,

0.38021657,0.07153238,-0.14038518,-0.27593052,-0.44451624,0.096402206,-0.24821655,-0.75321287,-0.0046373657,0.23085822,0.267839,0.12994377,-0.005401646,-0.099714816,-0.10115011,0.008568268,-0.1029075,-0.09631053,0.37530825,-0.09165911,-0.20748876,0.078358024,-0.5040833,-0.34310055,0.419899,-0.041140687,0.030458152,0.10379082,-0.15090494,-0.28079748,0.0026184036,-0.27812997,0.02063644,0.15199487,0.061372478,-0.21366741,0.09155577,0.4049569,-0.11133904,-0.22792912,0.1375977,-0.069643855,-0.013545458,-0.13783857,-0.07368904,0.0797567,0.19448538,0.32997394,0.16798551,-0.27863023,

0.18145151,-0.6209929,-0.14224948,0.20337562,0.69915545,0.3323868,0.20760979,0.13797583,-0.6771362,0.03361591,0.19023466,0.08367838,-0.16808383,-0.3091015,-0.25149575,-0.05927657,-0.054620657,0.1885699,-1.1518623,-0.07083935,-0.7340301,-0.06331427,0.022474708,0.065835774,0.23758689,0.17069861,0.39309978,-0.1885068,-0.10693537,-0.060523134,-0.17176576,0.044608966,-0.2176408,-0.1013522,0.13000321,0.18214847,-0.09030647,1.1924795,-0.238011,-0.23737036,-0.053524483,0.05387415,-0.039106596,-0.32668236,0.2167693,-0.052394062,-0.06403249,0.07685825,-0.16099156,0.15728466,

-0.39094466,-0.16825178,0.33866814,-0.6932229,-0.2724423,0.019543402,-0.45800313,-0.070088424,0.66470665,-0.06467187,-0.35933417,-0.09827078,0.17738146,0.10121266,-0.04444989,-0.1370076,-0.38955373,0.18698506,0.156554,-0.014182087,1.0095315,-0.22846512,-0.009118025,0.022300167,-0.5065562,-0.1430965,-0.5156574,0.2860265,0.23328817,-0.26497632,0.048138905,-0.19194774,0.066261716,-0.12489647,0.64674604,-0.45247698,0.01963114,-0.07309629,0.21434501,0.26514018,0.21791393,0.14994046,0.003946671,0.3879079,0.039297607,0.13678718,-0.22818056,0.0139223095,0.059294626,0.49681208,

0.06896494,0.058439,0.2174622,-0.04085119,-0.015355095,-0.06645836,0.22663386,-0.13240185,-0.03155881,0.18400033,-0.13572729,-0.23426673,-0.15182734,0.063734606,0.1773959,0.0056210905,-0.19246653,0.056406602,0.2329251,0.044111744,0.060382918,-0.19869417,0.19410087,0.07423799,-0.13035667,0.11645551,-0.08223486,0.13180493,-0.00087969005,0.14235877,-0.17020833,-0.10376966,-0.19812985,0.05517529,0.13419439,-0.18461624,0.21870248,-0.062166736,0.032562718,0.0790409,-0.0012008846,0.038642004,-0.094117716,-0.14512682,-0.15290272,-0.19113937,-0.17053351,0.2101856,0.20658197,0.16325022,

-0.17010613,-0.23374352,0.124063894,0.1833194,-0.022477955,0.01836206,0.17827196,-0.042617396,-0.1410371,-0.021158397,-0.15102953,0.15895598,-0.029716387,0.1292397,-0.044045985,-0.136471,-0.12182828,-0.017804235,0.031388924,-0.07959476,0.10183613,-0.03189765,0.2292061,-0.1628389,0.23975818,-0.07794297,0.120656714,0.22154449,-0.15444268,-0.21901166,0.08166872,-0.037575036,-0.02787596,-0.17715302,-0.04573223,0.09237982,0.039357945,-0.12991196,0.08455114,0.15115742,-0.03796597,0.16896774,-0.22301595,-0.13778263,-0.15261176,-0.15040429,0.116014585,0.15319617,-0.084782526,0.07332255,

0.8336599,-0.2169002,0.09530606,0.076653086,0.19009836,0.20150033,0.021167884,-0.5069845,-0.14110912,0.117366716,0.05997815,0.04656934,-0.14451723,0.19038488,-0.18743327,0.16731317,-0.13165729,0.18451601,-0.2787392,-0.6733985,0.19093071,-0.16997972,0.99832284,0.04600924,0.15429145,0.08452194,-0.14444728,-0.26383945,0.1301731,0.0021507866,-0.068198465,-0.083396025,0.100324936,0.3050369,0.25691736,0.07197738,0.18100432,-0.10680104,0.099106155,0.039999664,-0.16504431,0.10184413,0.12774062,-0.25145268,-0.2803936,0.49080604,0.19896372,-0.13397393,0.05525056,0.23291104,

0.05947529,-0.016330868,0.62507856,0.4719635,0.31094834,-0.2762539,0.22529937,0.1742962,0.2209867,0.045638412,0.28699535,0.002100417,-0.021806221,0.37662995,0.16187541,0.044411097,-0.06134398,-0.2322789,-0.17241159,-0.10499212,0.3935594,-0.23248732,0.142121,0.039858654,0.07850879,0.021142697,0.14408769,-0.19842556,-0.13477805,-0.15455303,0.190948,0.08895305,-0.1903339,-0.13021365,0.27254394,0.10300673,-0.08194253,-0.6193779,0.12886116,-0.021234676,-0.28576022,0.1454366,0.028114391,0.0036075644,0.18040328,0.028203571,0.12886383,0.32643372,0.052593805,-0.39044923,

-0.04310702,-0.064030655,-0.0110831335,0.4157769,0.111360736,-0.05832374,0.3622653,0.4563945,0.30735964,0.0048862905,-0.0010012046,0.007941347,-0.28883395,0.11562148,-0.41748804,0.08992896,0.2404593,0.1054555,0.6738174,-0.080426544,0.14410602,-0.17761573,-0.11379193,-0.1402401,-0.1542085,-0.16403034,0.12836713,0.1814097,0.02697735,0.10842536,0.07256018,0.44890103,-0.117671594,-0.33348033,-0.4430332,0.12205449,-0.31783143,0.06530856,-0.15885846,-0.24252194,0.13370596,-0.15007642,0.018949114,0.04834319,0.22518405,0.08354155,-0.09854724,-0.061058313,0.1723596,-0.14989753,

-0.84638417,0.42337245,0.76246005,-0.7166163,0.02343462,0.10993984,0.15734267,-0.41063473,0.67091966,0.04676742,-0.5079869,0.05637435,-0.051867414,0.103284985,0.17852153,-0.11604064,-0.21576862,0.17518663,-0.31300363,0.2672831,0.24366425,-0.23364547,-0.14258054,0.18278843,0.35450855,-0.09424184,-0.047709666,-0.15361543,0.08072035,-0.3101842,-0.052270208,-0.05512751,0.18021202,0.035237975,-0.16922373,-0.0620341,0.23391734,-0.1950297,0.14837854,-0.13576144,0.115377896,-0.09259649,0.15818404,-0.3960801,0.16329664,0.4301527,-0.09367411,-0.293827,0.18224972,0.41655746,

0.06913485,0.42396834,0.3281043,-0.24619627,-0.24840948,-0.4861828,-0.018200003,-0.34126148,0.49999723,-0.12480171,-0.17128102,0.02615231,-0.10931128,-0.0669408,-0.11342101,0.027739692,0.23377751,0.17495246,-0.3364004,0.1948938,-0.074796945,0.100956514,0.16093117,0.09217037,0.1957831,-0.13472998,-0.1601924,-0.1770965,-0.08359418,0.13430694,-0.008560631,-0.050003607,0.20508379,-0.14857179,0.16820927,0.16525568,-0.10488346,-0.22093743,-0.2511859,0.023073474,0.066131555,-0.18584046,0.21802595,-0.27579316,-0.004184089,-0.08249557,0.021056883,0.026936784,-0.026169347,0.10485448,

-0.083969496,0.65027833,0.08487672,-0.12810843,-0.042603068,-0.1952266,-0.4804043,0.22758532,0.24573226,0.25888896,-0.09373451,0.020517744,0.10386199,-0.21544552,-0.14649625,-0.12368421,0.09087139,0.026168536,-0.030730562,0.07295733,-0.2545656,0.18355423,-0.16027938,-0.011418215,0.15107371,-0.26610658,0.006921194,-0.28709885,-0.010353375,-0.13533239,-0.12050388,-0.44804454,0.041297168,-0.16357663,0.13532498,-0.21548596,-0.15671064,0.5121094,-0.009497094,0.026653338,-0.20888133,0.08250957,-0.11045113,0.48029262,-0.2311235,-0.43097034,-0.2062384,0.33226842,-0.11528667,0.05101925,

-0.16027455,0.4786638,-0.2803895,0.5529931,-0.21917534,-0.32355395,-0.009404118,0.09517417,0.13865924,0.09320092,-0.08391108,0.12234044,-0.21053421,0.035487927,-0.19412407,-0.14433709,-0.1000967,-0.04408877,0.26073167,0.40864128,0.3124066,-8.6987544e-05,0.29491445,0.121797256,0.44426623,-0.29441854,-0.1597711,0.11378235,0.23539451,0.09728402,-0.09687669,0.21274473,0.20504947,-0.120933294,-0.10029134,-0.07125666,0.07182581,0.10889612,0.19242784,-0.062252358,-0.24513653,-0.13539751,0.12779684,-0.09071898,0.053209767,-0.07459591,-0.04040445,0.093366064,-0.27484757,0.059519585,

0.16861154,-0.04720539,-0.118710235,-0.15299997,0.1996377,0.04925616,0.10784595,0.19552775,-0.12277227,-0.20302905,-0.20697588,0.19328992,-0.13506332,-0.11795108,-0.112032205,0.054371044,-0.087648004,-0.19366723,0.10037775,-0.19542468,-0.15187441,-0.2107198,-0.066341326,0.028164819,0.22922261,0.117817745,-0.15099752,0.23415191,-0.19609839,-0.14449418,0.105418995,-0.23706217,-0.04362409,0.20515056,-0.23040038,-0.03430924,-0.04677339,-0.24361049,-0.20045897,-0.16868502,-0.10226883,-0.18519609,0.15342008,-0.060172543,0.08350752,0.0827909,0.13838626,-0.12937799,0.10307504,0.23372312,

0.6278477,-0.1909815,0.08561586,0.055286873,-0.18667373,0.17916183,0.1961261,0.3520114,0.03958444,-0.20715365,-0.35157937,-0.32559416,-0.037189186,-0.3476909,0.093758844,-0.07600127,0.11745368,0.06690814,-0.21524264,0.02354749,0.16516155,0.19086613,-0.26546675,-0.109033816,0.433603,0.08741683,0.10527284,-0.13020216,-0.16435821,-0.24048345,0.19417872,-0.05847371,0.103512675,-0.12496267,0.1569923,-0.0781032,-0.21923442,0.29510805,0.06958005,-0.10774185,-0.18204224,0.2310084,0.038961653,0.014370223,-0.10174361,-0.20855221,-0.079297796,0.6601759,-0.1295396,0.41219023,

0.15603392,0.1369405,-0.27443215,-0.38256624,0.0021610847,0.05140594,-0.09482649,0.22682567,-0.25839168,0.11386232,1.057842,-0.08014973,0.19669683,0.2379555,-0.07694134,0.028849488,0.61517,0.09554044,-0.93262595,-0.56906193,-0.47777808,-0.06113676,-0.11578765,0.1548137,0.10499006,-0.13063933,0.013895396,0.0067037498,0.24313158,0.025285553,0.00092068315,-0.24415813,-0.23879927,0.115563095,-0.2656367,-0.0056721023,-0.0011617246,0.7260371,0.07878601,0.14395782,0.20489639,-0.21373545,-0.11789341,0.36377433,0.14096291,0.6026381,0.23109901,0.26481363,-0.10191914,-0.8951549,

-0.077987045,-0.06163887,-0.14459164,0.19315451,-0.27229142,-0.47911277,0.0096428385,-0.2897831,0.19272193,0.022425808,0.09679086,-0.2693172,0.016995953,-0.18881185,-0.37002286,0.015173477,-0.0012713887,-0.25725636,-0.37863666,0.06506451,0.017562045,-0.069031544,0.07804764,-0.08195982,0.31007168,-0.13402171,-0.06321385,-0.1464986,0.15363273,-0.26704517,-0.20345946,-0.02038219,-0.17712274,-0.1918096,0.18233544,-0.32262328,0.26228645,0.36054188,0.15181154,-0.17797405,0.073232576,-0.04687587,-0.06252664,0.3667402,0.22433887,0.10429871,-0.18070881,0.04817503,-0.24901043,-0.10094304,
};















































// set_bias_for the second layer
float bias_2[50] ={
-0.38615528,-0.07053301,-0.3791336,0.53081536,0.050661217,-0.32306868,0.24116682,-0.17675497,0.04508311,-0.004750947,0.021147111,-0.03281982,-0.16334708,0.022422686,-0.0999538,0.0805276,-0.091133446,0.115813516,-0.23242895,0.006227724,-0.20975508,-0.038241234,0.15135473,-0.19069873,0.15171032,0.13785471,-0.020999428,0.010358582,-0.074077316,0.0929524,-0.06889329,0.11513037,-0.12425068,0.03564291,0.03082347,0.37997103,-0.07837326,0.053916633,-0.06151587,-0.010334702,0.042259388,-0.1915473,-0.08814408,-0.3615408,-0.07785353,0.044183575,-0.07352453,0.07539574,-0.0828478,0.26660597,
};





// set_weights_for the third layer
float weights_3[50] = {
-1.0329747,0.48117867,-0.68658316,-1.5407479,-0.7327945,0.6160688,-0.30282375,1.1675167,0.49793953,0.028873863,-0.6136941,0.17684276,0.3607215,0.14373769,0.7937922,-0.046514623,0.5114003,0.18884699,1.1991645,-0.6091966,-0.75516677,0.11607923,0.44236472,-0.26808715,-1.5149307,0.6304855,0.6976984,-0.41129798,0.120387286,-0.8667374,-0.07503192,-0.18415855,0.1488117,0.25066203,0.38011613,-0.28074446,0.24863812,0.7579975,-0.73814696,0.42433888,0.6782353,-0.4447254,-0.22532965,-1.0689023,-0.14347489,-0.371638,0.094470456,-1.174249,-0.3808483,-0.7699999,
};




// set_bias_for the third layer
float bias_3[1] = {
0.9166962,
};




#endif /* _WEIGHTS_H__ */
