/*
 *
 *  Created on: Jan. 28, 2020
 *      Author: wenda
 *       Email: wenda.zhao@mail.utoronto.ca
 */

#ifndef _WEIGHTS_H__
#define _WEIGHTS_H__


float weights_1[6][50] = {
		{-0.31043053, -0.17918313, -0.00240147, -0.79436773, -0.07586931, 0.8492558 , -0.24225931, -0.36519563,  0.4235014 , -0.11478762, -0.136925  ,  0.52646315,  0.24655353, -0.07907964, -0.17687394, -0.59183246, -0.24297035, -0.14707577, -0.18620968, -0.34875295, -0.33852172,  0.03846556, -0.4219475 , -0.33374384,  0.17111844, -0.11218546,  0.8884037 ,  0.49952754,  0.26627845, -0.09737931, -0.3112197 ,  0.11572389,  0.15661815, -0.05850766, -0.97230905, 0.63929665,  0.61887467,  0.01759759, -0.06846395,  0.74173695, -0.40842804,  0.4352601 , -0.57577   , -0.4078496 , -0.3227674, -0.3199365 , -0.04073027, -0.4903554 ,  1.0469592 , -0.0722348},
		{-0.47193754, -0.12624885,  0.05542731, -0.43393302,  0.55176914, -0.03560498,  0.19261973, -0.38790807,  0.19104551,  0.92082 ,   0.2870009 , -0.42675194,  1.1214637 ,  0.18954998,  0.7569225 , -0.10481756, -0.11725552, -0.09915166, -0.43490762,  1.0858133 , -0.43964884, -0.1307999 , -0.23214073,  0.4204677 , -0.06640442,  0.12719329,  0.08434089, -0.34534866,  0.32086638, -0.01619501,  0.00446337,  0.10778223,  0.13973837,  0.11395885,  0.37440857, 0.10888731, -0.61946976, -0.2662236 ,  0.20113027, -0.93114406, 0.47515577, -0.13087194,  0.7987665 ,  0.08378518,  0.77062374, -0.10893218, -0.01342404,  0.37039867,  0.89692104,  0.11606764},
		{0.26113597, -0.01248758,  0.07278663,  0.27061045,  0.33792186,  1.0404671 ,  0.09105016,  0.6759546 ,  0.1603278 , -0.57301533, -0.29645577,  0.83923745, -1.0339468 , -0.38196185, -0.28218758,  0.9046422 , -0.00189927, -0.15209651,  0.16142467, -0.36432275, -0.7903781 ,  0.09863767, -0.17724422, -0.9562057 , -0.11329017, 0.07624678,  0.27590716,  0.09067983, -0.14949147, -0.23826349,  0.07382587,  0.13872236,  0.16120583, -0.01510459,  0.8818747, -0.31155288, -0.44229278,  0.05396116, -0.00724217, -0.17981629, -0.35551682,  0.40531516, -0.1625177 ,  0.02583438, -0.84825504, 0.05038619, -0.07339019, -0.5195663 , -0.20353545, -0.25474253},
		{-0.5457658,   0.17595436, -0.14096743, -0.07566506,  0.08175898, -0.07300249,
		 -0.15366913,  0.92588377, -0.10152666, -0.45450783, -0.81008595, -0.5480195,
		  0.00073304,  0.01794176,  0.02029277,  0.01546359, -0.15116042,  0.2046281,
		  0.20603642,  0.41354892,  0.00632748,  0.18511668,  0.02053253,  0.33481625,
		 -0.17553699,  0.02471134,  0.41407725, -0.69464195, -0.36425132,  0.6306063,
		 -0.46903324,  0.41494173, -0.11649419,  0.36359945, -0.27754977, -0.48024145,
		 -0.22099347, -0.25217745, -0.2548831,  -0.18328556,  0.53112125,  0.5681803,
		 -0.09364899,  0.47954398, -0.5212261,   0.38598526,  0.10026532, -0.0142907,
		 -0.10552581,  0.6194484},
		 {0.295142,    0.01097064, -0.10860173, -0.08881676,  0.17776048, -0.18953025,
		 -0.27047092,  0.1053393,  -0.43703148,  0.31128842,  0.01003666, -0.08309903,
	      0.10817687,  0.19938967, -0.16582786, -0.2385546,   0.01195282,  0.00787111,
		 -0.06606355, -0.52397156, -0.18635778, -0.1687965,  -0.09081908, -0.03670952,
		  0.01573088, -0.333756,   -0.37798852, -0.01090459,  0.42893088, -0.18602918,
		  0.65990835,  0.33359304,  0.01322558,  0.33634156, -0.28218308,  0.24002083,
		 -0.16755395,  0.13917258, -0.21806893,  0.0464211,   0.02795859, -0.2574423,
		 -0.0020793, -0.07433144, -0.07146986,  0.22373025, -0.32164803,  0.04640909,
		 -0.04900035, -0.19860259},
		 { -0.13447632,  0.09207929, -0.23259038, -0.02643801, -0.12461552,  0.02733313,
		   -0.18609744, -0.2433582,   0.41945502, -0.23789458,  0.13554649,  0.01300988,
		   -0.10161115, -0.02756747, -0.21776477, -0.31196192, -0.22950518, -0.16927059,
		   -0.15228017,  0.06754598,  0.03952848, -0.23723172,  0.3832775,  -0.21897353,
		    0.00845027, -0.09996767, -0.00468602, -0.01396168, -0.12128144,  0.02779802,
		    0.4714321,  -0.31697008,  0.39951795, -0.05934307,  0.05863151,  0.32174498,
		    0.25772947, -0.17933619, -0.3261923,  -0.03419118, -0.07415312, -0.11797383,
		    0.23881498,  0.08960442,  0.29270428,  0.31389773, -0.20953852, 0.01959758,
		   -0.03627263,  0.36328587},
};
float bias_1[50] ={
		  0.30373687,  0.12737729,  0.0       ,  0.73947424, -0.13593921, -0.9615731 ,
		 -0.00401218, -0.00217719, -0.13747771,  0.13857898,  0.25568625, -0.38187903,
		  0.05200729,  0.24361476, -0.31943312, -0.1322575 ,  0.0       , -0.04839538,
		  0.05248791, -0.1570188 ,  0.4848959 , -0.10400461, -0.04866802, -0.07613572,
		 -0.04530311,  0.02184453, -0.88602895, -0.07835927, -0.00991989,  0.17235851,
		 -0.0507188,  -0.21655476, -0.19966595, -0.18607394, -0.13446997,  0.1264904 ,
		  0.14622132,  0.0       ,  0.0       ,  0.34025154, -0.40448278, -0.20580505,
		  0.30714893,  0.09372529,  0.07266171, -0.08710682,  0.0       , -0.03549511,
		 -0.80508476, -0.05094827
};

float weights_2[50][50] = {
		  //0
		{-0.4446379, -0.17632556, -0.26088214, -0.29476604, 0.00344055, 0.16017917, 0.10477788, -0.13066094, 0.00915927, -0.04490088, -0.11263002, 0.0548965, 0.17628844, -0.02067362, 0.01383697, 0.1539181, -0.0809176, 0.24986258, 0.08987869, 0.105941, 0.03274892, -0.11861783, 0.12995537, -0.0848286, -0.23766686, -0.14435479, 0.02393681, -0.41541803, -0.01722858, 0.0465818, 0.04010236, 0.0229868, -0.13011049, -0.18156981, -0.16868713, -0.06192672, 0.18167093, -0.3335862, 0.2000091, 0.18183415, 0.19705097, 0.05631888, 0.145094, -0.06380218, -0.22542053, -0.2363636, 0.1344021, -0.17166711, 0.20762753, -0.19432814},
	      //1
		{-0.26439297, 0.04373164, 0.0929492, 0.12525932, 0.18251696, -0.13646252, -0.01872594, 0.012794, -0.00010846, 0.09110323, 0.02562866, 0.11376397, 0.07703688, 0.15262122, -0.06236658, 0.0081737, 0.03652744, -0.07683948, 0.23356272, 0.22881284, 0.08571941, -0.10677379, -0.08400511, 0.16304478, -0.02138815, -0.0652341, 0.08442856, -0.0995224, -0.23924422, -0.14310005, -0.2048322, 0.0370015, 0.15385172, 0.16981564, -0.1346257, 0.35035685, 0.07621927, 0.1310488, -0.16604163, 0.17851365, -0.23194744, -0.18394107, 0.12568729, -0.24531472, 0.2148732, -0.21530975, 0.18389653, 0.1642384, -0.1758434, -0.07508074},
		  //2
		{-0.074625, 0.037603, -0.13773146, 0.18100329, 0.01175974, -0.24206726, -0.11401139, 0.15078254, 0.0971982, -0.04624196, -0.13089606, -0.1820584, -0.10660873, 0.09134398, -0.23015001, 0.22334836, 0.13880195, 0.21602295, 0.17312247, 0.07054515, 0.21207376, -0.05555616, 0.07490714, 0.00429207, -0.2030916, -0.18092328, -0.23578653, -0.04181947, 0.20894636, -0.19846831, 0.19135877, -0.07186939, -0.2231433, -0.15133706, 0.08546756, 0.10899849, -0.02020226, -0.01205191, 0.23383357, -0.07822971, -0.06590688, -0.18132578, 0.0738054, -0.055345, -0.0367422, -0.11905783, -0.01563489, -0.05279383, -0.03868055, -0.19066095},
		  //3
		{-0.24399003, 0.08331788, -0.01545745, 0.04135546, -0.02523728, 0.48205712, -0.23980424, 0.11593015, 0.1773629, 0.11312699, -0.6750548, -0.07754322, -0.04751092, 0.11841187, -0.01833022, -0.23320939, 0.08354038, -0.0965294, -0.5251213, 0.4139054, 0.15284258, 0.15433487, 0.10573339, 0.14853573, -0.08836541, 0.0398296, -0.0665809, -0.07734172, 0.25502908, 0.21268608, -0.07381063, 0.05461197, -0.19350272, 0.09673611, 0.29686964, -0.5549256, 0.07158991, -0.13581602, 0.09334654, -0.0781973, 0.02478458, -0.21140482, -0.03070912, -0.31184962, 0.01829248, 0.06611218, -0.12827377, 0.11969054, -0.0169942, 0.02764864},
		  //4
		{0.42752668, 0.22912113, 0.39499205, -0.08836588, 0.14752473, -0.21312752, 0.41343275, 0.36887175, -0.2701322, 0.0017772, 0.18494122, 0.09742196, -0.14440277, 0.38041073, 0.33022436, 0.15339437, 0.04559522, 0.01961274, 0.5372818, -0.04624806, -0.22763738, -0.00662442, 0.08732839, 0.16924445, 0.08138386, -0.0511191, -0.18499883, 0.6213175, 0.24107683, -0.294662, -0.05018504, 0.26072407, 0.09694407, 0.14842881, 0.42080185, 0.22070606, 0.10018208, -0.10523435, -0.1268481, 0.22574455, -0.16139469, -0.0448372, 0.06010411, 0.27769127, 0.13986973, -0.12719697, -0.2481808, -0.4132751, 0.1682868, -0.4868658},
		  //5
		{-0.54918027, 0.15874559, 0.3848126, -0.42453635, -0.15890706, 0.1778969, 0.00171053, -0.28869838, -0.10708145, 0.03036649, 0.3885302, -0.03836768, -0.08890972, -0.23366252, 0.15999255, -0.24259226, -0.03942229, 0.10521723, -0.0329242, -0.16703929, -0.10884929, 0.15714292, 0.12665829, 0.22130066, -0.19462217, -0.22054404, -0.19950265, -0.0137208, 0.16382122, -0.1949944, -0.18901728, -0.01552818, 0.03574132, 0.06930281, 0.05841039, -0.367849, 0.2052956, -0.11187784, 0.2362589, 0.07096354, -0.10913011, 0.12094568, 0.26251644, -0.11252424, -0.06470668, -0.3411093, 0.06531192, -0.18323871, -0.00436926, -0.373542},
		  //6
		{-0.12457312, -0.14974423, 0.14572325, 0.10051985, 0.16351871, 0.21135326, -0.19885154, 0.03301532, 0.20917922, -0.00157645, -0.08521292, 0.02326664, -0.21980567, 0.03104809, -0.2296283, 0.18842764, -0.12848529, 0.12996109, -0.1690753, -0.19319806, 0.08274786, 0.1521873, 0.03729053, -0.10073798, -0.1216632, 0.14937672, 0.14865872, 0.13144724, -0.0375736, 0.04936205, -0.10296747, 0.2149986, -0.0366238, -0.02075243, -0.01826745, -0.0757769, 0.20434958, -0.0600004, 0.05877432, 0.15431164, 0.21612452, 0.00615825, -0.14109309, 0.0517862, -0.15356678, -0.04767504, -0.07605791, -0.18767229, 0.13792455, 0.09233148},
		  //7
		{0.23016222, 0.5884973, 0.43395045, -1.0119716, 0.03760736, 0.03178543, -0.20455217, -0.22585697, 0.00710643, -0.13518746, -0.00430766, 0.05537604, 0.21724267, 0.11267297, -0.19158556, 0.13150245, -0.00503133, -0.12860592, 0.31621277, 0.43475476, 0.27301747, -0.11462972, -0.24778353, 0.1510685, -0.28385377, 0.15428326, 0.05700817, 0.42280185, -0.02763558, 0.15546615, 0.15150693, -0.24275339, -0.05118308, 0.02193213, 0.12018241, 0.13277902, 0.13968077, 0.100838, -0.07941428, -0.19476482, 0.02047142, 0.09556375, -0.10510663, -0.4306406, 0.06262429, -0.23855436, -0.26779887, 0.29082456, -0.19601753, -0.1225361},
		  //8
		{0.16907173, -0.27584878, 0.37827656, -0.08238178, 0.0625123, 0.16875935, 0.14261167, 0.0113783, -0.31824505, 0.077291, 0.05308497, 0.02319775, 0.16315646, -0.10352441, 0.07022567, 0.1108036, -0.15787207, -0.06473347, 0.55396426, -0.18564571, -0.16226222, 0.1011477, -0.14947656, -0.21886012, -0.1616979, 0.10459914, 0.13008466, -0.00778664, -0.01732187, 0.050318, 0.19232959, 0.14852196, 0.19434173, 0.12375768, 0.16825753, 0.23625542, -0.02259324, 0.13634777, -0.20112534, 0.10904975, -0.15928145, 0.1948838, 0.10138155, 0.02407886, 0.06701947, -0.11156815, -0.10899046, 0.02454149, 0.0100796, -0.01267025},
		  //9
		{-0.30991825, 0.35140553, -0.07782878, -0.14639738, -0.23298556, -0.02874684, 0.0948786, -0.11186527, -0.3710438, 0.05819682, -0.29986343, 0.02421765, 0.03600196, -0.09780277, -0.02285711, 0.06959109, 0.21626322, -0.05950368, -0.0157237, -0.31526285, -0.0220496, 0.19347756, -0.43430153, 0.01462945, 0.08859288, 0.18537433, 0.20244254, -0.10590111, -0.08651085, -0.10265804, -0.15331568, 0.05954674, -0.01642664, 0.02949463, -0.19639838, 0.07773378, 0.02404655, 0.08211392, 0.03610109, -0.0667625, -0.16287579, 0.01924848, -0.05556006, 0.16858383, 0.11610277, 0.17666312, 0.2140436, 0.06940064, -0.16149873, 0.805328},
		  //10
		{-0.07118194, 0.10589863, -0.2358898, 0.14291288, 0.1408493, -0.24280488, 0.17386343, 0.02879441, 0.01655911, 0.0367052, 0.12870921, -0.11885722, -0.01567178, -0.33849373, 0.0751015, 0.04826872, -0.1469383, -0.07867114, 0.19644062, -0.2741355, 0.16257538, 0.02837664, -0.28542346, -0.1785106, 0.14397262, -0.09026059, -0.18688722, 0.01631031, -0.06547028, 0.14308736, -0.07431472, 0.33765563, -0.13687909, -0.06686669, -0.2661408, 0.32093948, -0.1521876, 0.01243023, -0.25791693, -0.11191681, -0.06617073, 0.09899115, 0.14034449, 0.09371799, 0.23124878, 0.31709972, -0.10829078, 0.3070767, -0.00724624, 0.1410689},
		  //11
		{-0.26782444, 0.2832128, -0.00487541, -0.07275963, -0.07596112, 0.29730675, 0.29296967, 0.159741, 0.10239845, -0.2334341, 0.09600367, -0.03371108, 0.03867679, -0.080112, -0.7073864, -0.06716698, 0.12076561, 0.05122415, 0.4054815, -0.14938259, 0.01400818, 0.06391184, -0.34361967, -0.26135, -0.08370466, -0.07271607, -0.10866515, 0.16598298, -0.0349412, -0.01223825, 0.143621, 0.26380962, -0.0428674, -0.02486992, 0.01448264, 0.1151963, -0.07078964, -0.3276681, 0.18280043, -0.02966733, -0.12375636, -0.09498895, -0.20833427, 0.1740885, -0.10557766, 0.14677356, 0.13291769, -0.01474909, 0.02083555, 0.14517978},
		  //12
		{0.40892255, -0.17488416, -0.0461517, -0.06601394, 0.13657068, 0.43846235, -0.07353118, -0.12487288, -0.10953433, -0.08509874, 0.19161606, 0.08142862, -0.22014675, -0.04400021, 0.14472967, -0.0284959, -0.07409808, 0.16136453, -0.20848025, -0.1762208, -0.17124592, -0.10109617, 0.07105014, 0.13113713, -0.54891294, -0.19010822, 0.00753285, -0.1658315, -0.09427976, -0.20540768, -0.20602307, 0.09654194, 0.18104275, 0.10023126, 0.04288626, -0.25814655, 0.09911487, 0.14589843, 0.13949482, 0.23706695, -0.19488557, -0.0977858, 0.17493472, 0.343321, -0.11086231, -0.01969013, -0.201643, -0.25490597, -0.10409629, -0.69534045},
		  //13
		{-0.31870484, 0.15233915, 0.23203287, 0.439636, 0.08969133, 0.17769817, -0.00214489, -0.06707434, -0.01384402, 0.02015676, -0.16390747, 0.2505467, 0.0136082, -0.16087432, 0.1214891, -0.09970282, 0.20221645, -0.06910494, 0.12037821, -0.21363394, 0.17353737, -0.15042001, -0.13573864, 0.26633617, 0.19044799, -0.10191917, -0.08681451, -0.04354324, -0.0092854, -0.3674689, -0.09285114, -0.20071602, 0.13240887, -0.00907693, -0.16801383, -0.02290801, -0.18336812, 0.14854759, 0.01258842, -0.03776274, 0.18965635, 0.05257275, 0.2358264, 0.19420408, -0.07206037, 0.32189465, 0.16718405, -0.10742406, -0.1916124, -0.06265194},
		  //14
		{0.03302875, -0.29754305, 0.53826755, -0.14102732, 0.2073138, -0.08759831, 0.11775339, 0.01611536, -0.23871092, -0.16331097, 0.04958134, 0.1832568, -0.1433792, 0.15540263, 0.00579645, 0.04561612, 0.0259797, -0.1381145, -0.1405299, -0.28119197, 0.09366238, -0.1565166, 0.11618929, -0.05942454, 0.07860992, 0.03931286, 0.09752645, -0.03587136, 0.02269408, 0.11769008, -0.20616677, 0.18452267, -0.17424332, -0.03838373, -0.21883096, 0.33534104, 0.03817764, 0.03209625, -0.13843246, -0.00804126, -0.04993706, 0.2390284, 0.01045815, 0.23240004, 0.13295497, -0.15396509, -0.02851072, 0.04887286, -0.20121437, 0.44723815},
		  //15
		{0.21985035, 0.09999227, 0.1653717, 0.22457086, 0.18109637, 0.17974764, 0.06348534, 0.1771172, -0.22029527, -0.28317106, 0.1001886, 0.06111791, 0.38457063, 0.00140723, 0.18233792, 0.03943448, -0.00142226, 0.04075666, 0.03828953, 0.21957847, 0.01918442, -0.23938923, -0.25260815, -0.11554786, 0.11066002, 0.14782815, -0.00494721, -0.02540771, -0.02075665, -0.35870215, -0.09049735, 0.17159133, 0.12513313, -0.23213229, -0.04484282, 0.0491108, 0.06303093, -0.30906284, -0.04263606, -0.23546457, 0.00970383, 0.19293036, -0.12162489, 0.01791882, -0.0993986, -0.14495775, -0.16205342, -0.05201428, 0.0805216, 0.1832638},
		  //16
		{-0.20481412, 0.15471984, 0.1894419, 0.13992937, 0.03761451, 0.02504657, 0.04836516, 0.22799037, -0.16913211, 0.04445337, -0.16385928, -0.06522359, 0.23552383, -0.0271163, -0.01846585, 0.02541311, 0.22031854, 0.16729076, -0.11668438, 0.2226652, 0.04744948, 0.22538947, -0.00608882, 0.05336334, 0.2090001, -0.03139324, 0.21744607, 0.19321422, 0.03562652, -0.06148614, 0.21230333, 0.0441672, 0.10316603, -0.19999316, 0.10779555, -0.18335092, -0.23022275, -0.1293005, 0.1410089, 0.12065758, -0.2301232, -0.0761628, 0.0585952, 0.15438701, -0.02234826, -0.07953578, -0.04033248, 0.10264118, -0.18322256, 0.01780267},
		  //17
		{0.21667826, 0.1783983, -0.02379382, 0.22645988, 0.18989047, -0.21034184, -0.22917944, 0.20954823, 0.0334548, 0.07631337, 0.01013413, 0.08710305, -0.15529649, -0.00187768, 0.02694564, -0.15478478, 0.12928365, -0.19376019, -0.18451764, -0.23613665, -0.06723108, -0.17809147, 0.09427404, 0.0955717, 0.0278686, 0.02097659, -0.07040937, 0.24137926, -0.03760739, -0.24245106, 0.16950004, -0.13104661, -0.00295216, -0.23120402, 0.00972758, -0.01282174, 0.2425581, 0.14645943, 0.04280859, 0.19503428, 0.08198593, -0.21859293, 0.21058984, 0.00338149, 0.15735222, 0.10027298, 0.08459897, -0.09179381, 0.09747912, -0.22508384},
		  //18
		{0.0429342, -0.03003409, 0.14275317, -0.0164014, -0.09252637, -0.20308433, 0.07644119, -0.13921505, -0.05500098, 0.06548486, 0.04425748, 0.19218044, 0.01549463, 0.13703458, 0.01888446, 0.16591142, 0.06361918, 0.25076592, 0.16740125, -0.00164695, 0.13989365, -0.08964414, -0.15284911, -0.00901134, -0.07297948, -0.06860328, 0.20292103, 0.05983428, -0.11923964, -0.23655096, -0.04154862, 0.2110823, -0.23503062, 0.01775827, -0.19006562, -0.01633502, 0.04136096, -0.28837305, 0.16449837, 5.198e-05, -0.06891142, -0.10258202, 0.1931353, 0.22364964, 0.006983, 0.01213215, 0.0944712, 0.19832969, 0.12350272, 0.10383414},
		  //19
		{-0.28657475, 0.20561425, -0.40214565, 0.0155983, 0.06686616, -0.19299255, 0.0887454, -0.36230445, 0.02355814, -0.11218514, 0.01671718, -0.01254166, 0.07656822, -0.10932376, -0.13426486, 0.16069928, -0.23803662, -0.18146291, -0.29186028, 0.11674137, -0.19810113, -0.08887853, -0.37832645, 0.13425831, 0.23506248, 0.08254453, -0.13442309, -0.27339438, 0.23031975, -0.08606284, -0.08502594, 0.3591273, 0.19509774, -0.07470943, -0.12695737, 0.12118641, -0.0135394, -0.32556805, 0.00984173, -0.00101021, -0.22022706, 0.02162679, -0.3062019, -0.6006816, -0.05893926, 0.34513268, -0.08592881, 0.18512283, -0.07068174, 0.4599111},
		  //20
		{-0.28856024, 0.07226096, 0.02900424, -0.28029716, -0.22978878, 0.18503958, -0.58851504, -0.0788741, -0.17322809, 0.08168885, -0.20590596, -0.06621273, 0.16675009, -0.03856017, 0.07612038, -0.04237593, -0.17457923, 0.22538276, -0.07505934, -0.00967544, -0.14634213, -0.18391174, 0.18596174, -0.09217392, -0.30861086, -0.13211212, 0.06149405, -0.30662644, -0.03415688, -0.22720256, 0.06703295, 0.0352744, -0.04936382, 0.20795351, 0.09268221, -0.36354297, -0.10392779, -0.15320735, 0.25432128, 0.13414879, -0.00500325, 0.07808979, 0.2518468, 0.13973977, 0.1685015, 0.00047482, 0.04108483, 0.36369517, -0.0181659, -0.27169335},
		  //21
		{0.06821415, 0.00974554, 0.14957745, 0.0303778, 0.02854841, -0.05523022, -0.17120855, 0.01140815, 0.14695676, 0.09322218, 0.23155639, 0.12588662, -0.15881272, 0.21915615, -0.17852429, -0.23655424, 0.2012594, 0.12361082, -0.07780964, 0.15301909, 0.22282334, -0.14512654, 0.0231756, 0.11725623, -0.1091586, -0.22722124, -0.00813693, 0.16388398, 0.08089448, -0.22557098, -0.03058096, -0.18814395, -0.19703598, 0.11351048, 0.10884118, -0.02948072, -0.0837686, -0.05380324, -0.11467632, 0.15901001, -0.17223673, -0.01035182, 0.18984497, 0.05832645, 0.15472959, -0.012151, -0.17278229, 0.04782346, -0.16861406, 0.16612922},
		  //22
		{-0.1173877, 0.23101124, 0.09958851, -0.08181074, 0.08838657, -0.11864849, -0.18705481, 0.17570367, 0.01717497, 0.21617362, 0.07174959, 0.04412269, -0.15288194, 0.15276437, -0.20988993, -0.00026726, -0.1460821, 0.13570768, 0.054504, 0.08863135, 0.01639326, 0.221653, 0.1711132, 0.2079782, -0.18829665, 0.16792212, 0.0329388, -0.07557214, -0.0805091, 0.02230893, -0.16329326, 0.09475929, -0.16048989, -0.01120754, 0.05657081, 0.1273021, 0.24266724, 0.02103359, 0.16601482, 0.20085885, -0.15854898, 0.00307046, 0.22273237, 0.07594, -0.10752849, -0.20083915, -0.18508703, -0.20255467, -0.05403204, -0.03319865},
		  //23
		{-0.16159062, 0.4959829, -0.22284792, -0.362828, -0.13793042, 0.10266297, -0.43696028, -0.07084654, -0.0551618, 0.08478949, -0.4419386, 0.02852761, 0.02301828, 0.23838843, 0.14748003, -0.18063322, -0.05608969, 0.31547958, 0.16810925, 0.18780842, -0.27433705, -0.20499668, -0.00017328, -0.05231783, -0.0813426, -0.14617687, -0.11788847, 0.09949941, -0.061948, 0.07527326, 0.0338157, -0.42101365, 0.14102237, -0.13473818, 0.21773595, -0.11856262, -0.0932341, 0.0111083, -0.16341767, 0.04776486, 0.24256286, 0.2012848, 0.17492063, 0.19322342, 0.10669512, -0.22434008, 0.04767065, -0.09786383, 0.09482874, -0.4575234},
		  //24
		{0.09073572, -0.10843753, -0.00543556, 0.09844093, -0.18158881, -0.04381754, -0.21772029, -0.11726621, -0.1315466, -0.18242843, 0.04334244, -0.21162017, 0.07076784, 0.26407003, 0.12515955, 0.04376186, -0.10195708, 0.09517425, 0.21752214, -0.12074405, 0.06609348, 0.13669561, 0.06734126, -0.051427, -0.14170045, -0.10633782, -0.16987476, -0.06681621, -0.10016083, 0.13278158, -0.06497008, 0.14830005, -0.03262337, 0.2190532, 0.15833533, -0.15561725, -0.02692143, -0.17496572, -0.19721004, -0.23927777, 0.04553205, 0.12134748, -0.01339054, -0.21361436, 0.08313618, 0.00713088, -0.18291049, -0.03145135, -0.1357483, 0.08068188},
		  //25
		{-0.27673215, 0.18603748, -0.05474816, -0.19571327, -0.00632996, 0.03528128, -0.14156607, -0.14055024, -0.03526164, -0.18274672, -0.14117897, 0.03246636, -0.11504757, -0.05564674, 0.11541092, -0.0241473, 0.00673167, -0.16193278, -0.02951741, -0.13313319, 0.1628704, -0.1339052, 0.1814377, -0.20868896, -0.05601542, 0.04336794, -0.09603878, -0.02290055, 0.00726405, 0.21804376, 0.10071199, 0.15367801, 0.14204383, -0.09432714, -0.02899152, -0.09486074, -0.13630949, -0.00873734, 0.155827, -0.05854978, 0.23811197, 0.10701655, 0.09459379, -0.1887725, 0.16946146, -0.23389883, -0.15205228, 0.16744699, 0.11416667, -0.26617652},
		  //26
		{-0.06137117, -0.21342687, -0.16757248, 0.2080594, -0.14729673, 0.22883245, 0.00611989, 0.16443515, 0.05185394, -0.23770812, -0.17086679, 0.05548072, 0.05893019, -0.22778673, 0.05000006, 0.27080348, 0.14212675, -0.18361768, -0.6084629, -0.39645, 0.16593099, 0.11712473, 0.33517995, 0.1588191, -0.06240472, -0.11660834, -0.09117806, 0.23901051, 0.03580531, -0.36538264, 0.14828669, 0.51289004, -0.15624452, 0.19811948, -0.16584118, 0.04444636, -0.05636674, -0.15585446, -0.23218215, -0.03667136, 0.03048228, -0.00790877, 0.16434765, 0.32026204, 0.07281622, 0.32960778, -0.19999713, -0.03235724, 0.14566061, 0.10182427},
		  //27
		{0.4376328, 0.2337951, 0.05214454, 0.17713813, 0.06740376, -0.16673142, -0.0885232, 0.15601696, 0.07435255, -0.04739565, 0.3042043, -0.139388, 0.06261536, 0.11444241, -0.01339953, -0.19876654, 0.15712653, -0.21695696, -0.11848263, -0.11382103, 0.1572098, -0.05648827, 0.10554075, -0.24409679, 0.06831987, 0.12174731, -0.19118837, 0.24673893, -0.19593698, -0.1777632, 0.19035472, 0.0277166, 0.1873206, -0.22307947, 0.0378722, 0.2325112, 0.15767424, -0.307949, 0.0481617, -0.23042335, -0.21043274, 0.12328985, 0.03775226, 0.38166317, -0.19823402, -0.11607886, -0.11975545, 0.02811714, 0.01748549, 0.3911363},
		  //28
		{0.20051494, -0.29762468, -0.08869615, 0.00177422, -0.24734353, 0.16731456, 0.06143078, 0.1856957, -0.03502178, 0.08884826, 0.12867527, -0.12895554, -0.21076716, 0.11951322, -0.06585306, 0.07950548, 0.20831165, 0.18989705, -0.32615846, -0.10046788, -0.16226093, -0.18842682, 0.15047559, 0.24828218, -0.3580411, 0.06522976, -0.13392729, -0.0102939, 0.06105454, -0.1665191, -0.21994776, -0.16269435, 0.19376022, 0.2235765, -0.02773682, 0.21913283, 0.08152239, 0.12810913, 0.06243344, -0.05343992, 0.10363723, 0.08019953, 0.17243332, 0.21225405, 0.14568576, -0.02381851, 0.28278303, -0.51247436, 0.19236097, 0.13876843},
		  //29
		{0.14292629, 0.21409626, -0.36457884, 0.47108456, 0.06385994, -0.08505513, -0.21532191, 0.01179071, 0.49868777, -0.0157239, 0.3839934, 0.19705594, -0.14974396, 0.12685813, -0.03873686, 0.21118878, 0.0154425, 0.28046796, -0.0820111, 0.04895324, 0.18549226, -0.0840096, -0.01227189, -0.1690579, 0.25143105, 0.08241055, -0.0585792, -0.0996055, 0.15180784, -0.02304354, -0.16794413, -0.09393232, 0.14634915, 0.08731204, 0.0219019, 0.19621357, -0.00196806, -0.26232278, -0.22424906, -0.2383346, 0.0994128, -0.15850595, -0.1271935, 0.04670685, -0.22891086, -0.09278207, -0.24661714, -0.00133431, 0.10748108, 0.25727043},
		  //30
		{0.11257135, 0.09767141, -0.07334662, -0.2766797, -0.23877259, -0.41462016, 0.07632511, -0.44113144, -0.30115795, -0.0943824, -0.19512086, 0.02001014, 0.15565778, -0.16662091, -0.03230994, 0.2135027, 0.19015914, 0.05330044, 0.1272872, -0.09663255, -0.10896795, -0.03708522, 0.15564974, 0.28800267, -0.06109097, 0.03755597, -0.05943193, 0.10410522, -0.1729864, -0.12179044, 0.2075771, 0.11498216, -0.11107584, 0.24022187, -0.03962702, 0.0637209, 0.14155962, -0.28935036, -0.11915407, 0.02816398, -0.21960989, 0.04800031, -0.06980454, -0.04392212, -0.03026388, -0.00405739, 0.10226739, 0.06480459, -0.11848371, 0.08368309},
		  //31
		{0.12653624, -0.3807403, -0.06868647, 0.28404993, 0.14189552, 0.01431983, -0.05683002, 0.19263202, -0.06398727, 0.16805838, 0.26141456, 0.09980338, -0.07488516, 0.263819, 0.22802904, -0.13737158, 0.17086352, -0.00923861, -0.02187097, 0.03144296, -0.07232796, 0.13748486, 0.4248776, 0.04510964, 0.13357203, -0.2827265, -0.19715494, 0.28709698, 0.16153617, -0.22405586, 0.05649124, 0.15878314, -0.02080492, 0.08230458, 0.3807194, -0.04796495, 0.0066737, 0.28102022, -0.29670832, -0.232993, -0.17009962, -0.05381226, -0.03571412, 0.20746544, 0.01340085, 0.07021786, -0.25983658, -0.13463096, -0.16197649, -0.14467743},
		  //32
		{0.3939524, -0.03026256, 0.09352154, -0.20934343, -0.18830492, 0.00402335, 0.20859379, 0.25012222, -0.21478866, 0.13981983, 0.2723914, -0.1963641, -0.01278528, -0.03378666, 0.25343028, -0.14255382, -0.05891357, -0.08236856, 0.34641877, 0.10561992, 0.02843847, 0.17671753, 0.23041408, -0.11784555, -0.25859886, -0.2076732, 0.1510796, 0.3217878, -0.01613995, 0.21091133, -0.19824643, -0.21849652, 0.09586459, -0.02999116, -0.11668445, 0.12645382, -0.11491394, -0.00166962, 0.13998373, -0.2120028, -0.0076485, 0.00777023, -0.22550748, 0.3388956, -0.02968625, -0.24849088, 0.12311462, -0.13281748, -0.2292107, -0.4245503},
		  //33
		{-0.26756394, -0.15878014, 0.2448274, 0.25105003, -0.1776446, -0.06373413, -0.20794684, 0.1796706, 0.25921053, 0.0398742, 0.2335105, 0.13087751, -0.05451343, -0.11584309, -0.10154859, 0.05981374, 0.21253683, -0.02392859, 0.13649301, 0.26543197, 0.01376354, -0.05987386, -0.06064747, 0.14745775, 0.18721542, 0.1733417, 0.01567376, 0.07788205, 0.20155159, 0.06308112, -0.04429456, 0.08735661, -0.12266587, 0.23001955, 0.32139876, -0.08155528, 0.02898714, 0.0248445, -0.06959838, 0.03961001, 0.14696556, -0.23052716, 0.1893712, 0.14535344, 0.11482275, 0.12804869, -0.1990967, -0.0179607, -0.23394535, -0.03902524},
		  //34
		{0.5848504, 0.3137452, -0.06795948, -0.39143223, -0.06033012, 0.20922056, -0.3364114, -0.1878121, 0.12617336, 0.24111225, 0.40071827, 0.13610074, 0.08952264, -0.13197373, -0.5804714, 0.04153457, 0.09035108, -0.05194322, -0.00767733, -0.06975146, 0.08876199, 0.06999904, -0.26185754, -0.15184301, 0.00542481, 0.05461775, 0.02830049, 0.06441486, -0.09392541, 0.28325775, 0.02067173, -0.29358134, 0.03926151, 0.16948687, 0.10038324, -0.3534226, 0.17073853, 0.38131636, -0.11425588, -0.22792912, 0.23956472, -0.06964386, -0.0944772, 0.08498414, -0.15541755, -0.08176428, 0.21182173, 0.14507855, 0.07006468, -0.23931473},
		  //35
		{0.08398869, -0.36985603, 0.22345178, -0.02014328, 0.18944763, 0.6500935, 0.05954454, 0.21860608, -0.31667843, 0.10621423, 0.27221408, 0.14812899, -0.22158755, -0.06130672, -0.19830953, -0.16509272, 0.02193708, 0.2249858, -0.5656122, -0.10403521, 0.00011961, -0.05737843, 0.32361683, 0.17806225, 0.19205531, 0.15165757, 0.1396245, 0.06444214, -0.2964617, 0.0644231, -0.17359036, -0.20628418, -0.20217502, -0.12339398, -0.065248, -0.18184613, -0.06666444, 0.33996513, -0.04262666, -0.22293577, 0.03226492, 0.01518767, -0.08128491, -0.06429048, 0.17726484, -0.15514572, 0.01115941, 0.15431741, -0.1681759, -0.00428833},
		  //36
		{-0.17459033, -0.23035447, -0.07489818, -0.21145716, 0.1304539, 0.07587151, -0.04151435, -0.02781758, 0.36959016, -0.04499268, -0.15591818, -0.02918529, 0.18013448, 0.29329333, 0.07846314, -0.13198613, -0.00775153, 0.16367695, -0.11645642, 0.00226128, 0.06990087, -0.2288036, 0.2515736, -0.01714556, 0.19263425, -0.11642285, -0.23869845, 0.31818268, 0.2125718, -0.02818523, 0.04627542, -0.3200147, 0.17602953, -0.07808333, 0.25456816, -0.3304273, -0.01977152, 0.30584675, 0.1763361, 0.22587311, 0.17460649, 0.13152187, -0.00463179, 0.06816262, -0.06198158, 0.02316521, -0.19462489, -0.46463808, 0.05915422, 0.20890795},
		  //37
		{0.06896494, 0.058439, 0.2174622, -0.04085119, -0.0153551, -0.06645836, 0.22663386, -0.13240185, -0.03155881, 0.18400031, -0.13572729, -0.23426671, -0.15182734, 0.0637346, 0.1773959, 0.00562109, -0.19246653, 0.0564066, 0.2329251, 0.04411174, 0.06038292, -0.19869415, 0.19410089, 0.07423798, -0.13035667, 0.11645551, -0.08223486, 0.13180493, -0.00087969, 0.14235877, -0.17020833, -0.10376966, -0.19812983, 0.05517529, 0.13419439, -0.18461624, 0.21870248, -0.06216674, 0.03256272, 0.0790409, -0.00120088, 0.038642, -0.09411772, -0.14512682, -0.15290272, -0.19113939, -0.1705335, 0.2101856, 0.20658197, 0.16325022},
		  //38
		{-0.17010611, -0.23374352, 0.12406389, 0.1833194, -0.02247796, 0.01836206, 0.17827196, -0.0426174, -0.1410371, -0.0211584, -0.15102953, 0.15895598, -0.02971639, 0.1292397, -0.04404598, -0.136471, -0.12182828, -0.01780424, 0.03138892, -0.07959476, 0.10183613, -0.03189765, 0.2292061, -0.1628389, 0.23975818, -0.07794296, 0.12065671, 0.22154447, -0.15444268, -0.21901166, 0.08166872, -0.03757504, -0.02787596, -0.17715302, -0.04573223, 0.09237982, 0.03935794, -0.12991196, 0.08455114, 0.15115742, -0.03796597, 0.16896774, -0.22301593, -0.13778263, -0.15261176, -0.15040429, 0.11601458, 0.15319617, -0.08478253, 0.07332255},
		  //39
		{0.3101875, -0.39880964, -0.07461738, -0.39034197, 0.14115983, -0.27760118, -0.31618804, -0.64920676, -0.24101384, 0.11661861, 0.01773926, 0.12107701, -0.19233543, 0.04610482, -0.25596142, 0.0547225, -0.11879238, 0.1694074, -0.3216893, -0.14715952, 0.05583216, -0.16447388, 0.54975134, -0.00954266, 0.15170652, 0.08387166, -0.24163023, -0.18707801, 0.24736208, 0.13657181, -0.0630504, -0.33211422, 0.22720584, 0.2187352, 0.29494998, 0.02383931, 0.08233402, -0.04018473, 0.20552973, 0.04268138, -0.06247069, 0.01906909, 0.12650387, 0.09526619, -0.16649464, 0.16635525, 0.20899469, 0.09571075, 0.06686239, 0.31467032},
		  //40
		{0.16984887, -0.14729701, 0.45265472, 0.3272031, 0.11448294, -0.23000693, 0.3008409, 0.17433114, 0.12437756, 0.02487478, 0.33771497, -0.04086309, -0.02180594, 0.15621124, 0.13678345, 0.04634336, 0.09632434, -0.18665636, -0.0510884, -0.25751695, 0.05796202, -0.23248732, 0.11245087, 0.02736772, 0.27449912, 0.02114229, 0.14408194, -0.18291324, -0.09133678, -0.154553, 0.190948, 0.18229435, -0.22667402, -0.13109235, 0.2079498, 0.19801775, -0.11130543, -0.40985093, 0.13328102, -0.02123468, -0.19632503, 0.14543653, -0.0168634, 0.02184894, 0.2023693, 0.13360058, 0.12886383, -0.1754919, 0.05540718, -0.21174885},
		  //41
		{0.30350313, 0.02409306, -0.07717973, -0.20563444, 0.09164102, -0.26485476, 0.33459938, 0.30302247, 0.34209487, 0.041935, -0.10163192, -0.01360336, -0.26942822, 0.05280199, -0.2410428, 0.05401593, 0.05950783, 0.15286179, 0.47176135, -0.16147603, 0.32315364, -0.16387951, 0.02583074, -0.14391224, -0.28577328, -0.14979064, 0.2036789, 0.4188044, 0.19446325, 0.22642638, 0.08333394, 0.38548195, -0.0837675, -0.23429042, -0.25763223, 0.1612139, -0.24773213, 0.20687295, -0.2047155, -0.22895253, 0.12431833, -0.17311247, 0.06917301, -0.2752315, 0.1234459, 0.02623513, -0.16350827, 0.21438295, 0.20341703, -0.5700152},
		  //42
		{-0.4874662, 0.2784908, 0.3198897, -0.6004975, 0.22332008, -0.27598763, 0.09332054, -0.8431763, 0.23730482, 0.05473944, -0.3235329, 0.04454044, 0.01003728, 0.10155299, 0.1467857, -0.08280022, -0.187764, 0.12395412, -0.16488917, 0.16545168, -0.05887448, -0.24078143, -0.20809554, 0.1777859, 0.27896196, -0.05174839, 0.08933572, -0.20214885, 0.0878494, -0.2988398, -0.02860406, 0.38677055, 0.166693, 0.01295662, -0.07165254, -0.03715086, 0.13887869, -0.05040718, 0.06639883, -0.15404293, 0.04754592, -0.04796649, 0.14879948, -0.49447036, 0.15304923, 0.06436992, -0.08098735, 0.03139445, 0.21121597, 0.07114703},
		  //43
		{0.12641287, 0.30172554, 0.1612483, -0.07633442, 0.03533655, -0.34586045, -0.04597701, -0.22407825, 0.4150015, -0.15271376, 0.0717021, -0.01958249, -0.06530214, -0.0998584, -0.10266305, 0.0702683, 0.16990624, 0.1839324, -0.17139737, 0.09421813, -0.20865858, 0.10234179, 0.20326439, 0.11095162, 0.22532654, -0.09954841, -0.00170635, -0.16702786, -0.06297186, 0.08967818, 0.00266951, 0.00368306, 0.15401892, -0.15544176, 0.27523926, 0.411229, -0.088709, -0.19818375, -0.35804996, 0.01868387, 0.03221864, -0.177399, 0.19279753, -0.1620197, 0.02127061, 0.03619442, 0.00883866, 0.00222658, -0.00537845, -0.02484577},
		  //44
		{-0.08996928, 0.5672942, -0.36136657, -0.2149019, 0.12939316, -0.16795357, -0.34196547, -0.2502034, 0.1195934, 0.26376134, -0.3037668, 0.05019643, 0.10206003, -0.16177869, -0.24338987, -0.16087617, 0.03196475, 0.10500105, -0.03112474, -0.3162897, -0.2943086, 0.17697877, -0.25996143, 0.02009983, -0.09021754, -0.161077, 0.02865004, -0.23363627, -0.11407062, -0.01719658, -0.12050388, -0.53666735, 0.06304799, -0.10001618, -0.11309227, -0.28140938, -0.18837054, 0.1646691, 0.10371884, 0.05076016, -0.20613223, 0.08251272, -0.10353801, 0.32735053, -0.17983778, -0.3622388, -0.19894677, 0.13881241, -0.11196221, 0.0786861},
		  //45
		{-0.2500679, 0.24328993, 0.12333892, 0.02514993, -0.29049012, -0.41329688, -0.00885345, 0.06169644, 0.17707887, 0.07236325, 0.02561891, 0.12903042, -0.1820727, 0.15146318, -0.17811014, -0.17702088, -0.15234293, 0.01041678, 0.24981949, 0.2562351, 0.26428148, -0.00055341, 0.16338794, 0.15065905, 0.11149956, -0.25363648, -0.2511195, 0.24791776, 0.24900566, 0.048394, -0.06471142, 0.36472785, 0.19045466, -0.12877347, -0.06129814, 0.11699712, 0.06405224, -0.04336503, -0.01856172, -0.04373366, -0.2562736, -0.11919811, 0.12065579, -0.2579858, -0.04920256, -0.07381343, -0.06434926, 0.08119286, -0.23183902, 0.04160962},
		  //46
		{0.16861154, -0.04720539, -0.11871023, -0.15299997, 0.1996377, 0.04925616, 0.10784595, 0.19552775, -0.12277227, -0.20302907, -0.20697588, 0.19328992, -0.13506332, -0.11795108, -0.1120322, 0.05437104, -0.087648, -0.19366723, 0.10037775, -0.19542468, -0.15187441, -0.2107198, -0.06634132, 0.02816482, 0.22922263, 0.11781774, -0.15099752, 0.23415191, -0.19609839, -0.14449418, 0.105419, -0.23706219, -0.04362409, 0.20515056, -0.23040038, -0.03430924, -0.04677339, -0.24361049, -0.20045897, -0.16868502, -0.10226883, -0.18519609, 0.15342008, -0.06017254, 0.08350752, 0.0827909, 0.13838626, -0.12937799, 0.10307504, 0.23372312},
		  //47
		{0.18548205, -0.28746855, 0.21440832, 0.46025473, -0.22744963, 0.11371784, 0.19431126, 0.18980014, 0.18497306, -0.17468739, -0.16605793, -0.25226563, -0.03718918, -0.21329626, -0.05804516, -0.0723344, -0.00992026, 0.09136637, -0.21524803, -0.10106473, 0.13767941, 0.18879132, -0.13219865, -0.10148512, 0.3133701, 0.09395675, 0.02795995, 0.09207603, -0.12311026, -0.24048343, 0.19417872, -0.0777683, 0.11864945, -0.03934041, 0.02874286, 0.01476291, -0.23461089, -0.00531101, 0.01653912, -0.10802612, -0.19479819, 0.23100804, 0.0367629, -0.0705322, -0.10657299, -0.20720726, -0.0792978, 0.21174645, -0.12921056, 0.14060391},
		  //48
		{0.14864777, 0.1907757, -0.38592747, -0.46562865, 0.05102768, 0.29473835, -0.36869875, 0.29054758, 0.19356105, 0.2614383, 0.4955628, 0.00458462, 0.19669683, 0.29015136, -0.07992886, 0.09100372, -0.0561666, 0.25506508, -0.39187223, -0.31874463, -0.07770108, -0.04557122, -0.32633752, 0.2714726, -0.13022947, -0.1095242, -0.00907586, -0.03475878, 0.3170907, -0.00975981, 0.00092068, -0.593114, -0.11639999, 0.19435272, -0.0374958, -0.19375286, 0.04192216, 0.38236773, 0.0555086, 0.14865999, 0.21672115, -0.22525112, -0.10532951, 0.5502947, 0.09647844, 0.5837094, 0.24144477, 0.15662447, -0.09767386, -0.03409934},
		  //49
		{-0.19462532, -0.21927197, -0.21299867, 0.39265147, -0.19114979, -0.3239309, 0.185925, 0.14614454, 0.37920004, 0.07181966, 0.29292962, -0.26876637, 0.01257466, 0.01817153, -0.18582349, 0.04192012, -0.02433317, -0.12212215, -0.22194017, -0.04977958, 0.24696407, -0.07023784, 0.07677708, -0.05679655, 0.18302284, -0.14128545, -0.08217323, -0.22923422, 0.10465573, -0.11940911, -0.20427856, 0.00831288, -0.19208083, -0.14430293, 0.24369484, -0.23823673, 0.2159752, 0.14147405, 0.01471445, -0.17265594, -0.00704274, -0.0402924, -0.05711464, 0.01054502, 0.0842111, 0.11106373, -0.19809859, 0.1788242, -0.19145533, 0.00764706}
	};

float bias_2[50] = {
		-0.37197948, 0.09697107, -0.21116546, 0.45943028, -0.05225868, -0.19632632, 0.23110361, -0.10989887, 0.15119146, 0.01046221, -0.0574565, -0.06381607, -0.16400166, -0.01099456, -0.05630446, 0.05275687, 0.02848008, -0.0728504, -0.35022405, 0.12526475, 0.28658754, -0.02006487, 0.20432396, -0.12975873, -0.17902447, -0.05706426, -0.08511478, -0.00862924, -0.15008423, -0.12441561, -0.02065871, 0.03440694, -0.0259189, -0.01252779, -0.07326685, 0.21619827, -0.01126034, 0.14474791, 0.02759038, 0.0, -0.08159932, -0.14050674, -0.00686326, -0.19654816, -0.10490949, 0.20297736, -0.01975356, -0.19369783, -0.01688773, 0.46125883
};

float weights_3[50][1] = {
		{-1.2589198}, {0.5834447}, {-0.4589325}, {-1.6731619}, {-0.19872741}, {0.995464}, {-0.41413072}, {1.3021575}, {0.54126894}, {0.13467696},
		{-0.6460435}, {0.07041448},{0.4432647}, {0.21470775}, {0.90125865}, {-0.07143856}, {-0.02185171}, {0.192358}, {1.1103057}, {-0.6735656},
		{-0.3194683}, {0.10204104},{0.5647601}, {0.24883074}, {-0.920045}, {0.31716362}, {0.0782083}, {-0.6010757}, {0.25321478}, {-0.7951018},
		{-0.07371926},{-0.49247307}, {0.10195447}, {0.08716377},{0.2628492}, {-0.2767289}, {0.05910182}, {0.3383841}, {-0.588593}, {0.3092194},
		{0.23634702}, {-0.28519127}, {0.07913889}, {-1.1565094},{-0.01606962}, {-0.5654971}, {0.31321648}, {-0.8013394}, {-0.2595609}, {-1.0855991}

};

float bias_3[1] = {0.994943};

#endif /* _WEIGHTS_H__ */
