/*
 *
 *  Created on: Feb. 10, 2020
 *      Author: wenda
 *       Email: wenda.zhao@mail.utoronto.ca
 */

#ifndef _WEIGHTS_H__TDOA__
#define _WEIGHTS_H__TDOA__

// set_weights_for the first layer
float weights_1[700] = {
-0.6009563007572983,-0.1739136144834846,-0.14774664235690868,-0.3723689759066676,-0.23279983894435313,0.15472937871588244,0.15245773914503463,-0.18431978995462855,-0.12959921126117238,-0.037956758665740345,-0.44236153574446063,0.17080821133237375,-0.023817805535076342,0.5403165606420015,-0.2894409441020752,-0.13257459413586087,0.49193516613419414,0.13445530864628885,0.7419700340592984,-0.04276166358461646,-0.3519144788389465,0.48252069527145425,-0.2988716563672451,-0.15666001297622545,0.05941884033141728,-0.013612502256774607,0.08277877437438105,0.18972815331158413,0.12324916736868408,-0.12072847125792349,-0.1583824634640555,0.021797320533179988,-0.16359425195673888,-0.05467143281835448,-0.18977627885962184,-0.471849014730771,-0.06338772854227732,0.7686903093489887,-0.3065748846329586,0.08163251727913158,-0.10279207117372653,0.21716860487514236,0.010279383806342865,-0.04313563552276383,0.0668896845193995,0.21012699041703828,-0.4739025954259769,-0.21172016521805842,-0.3771952126214775,-0.29568989301097093,

-0.7060488472452013,-0.015835835661869843,-0.15026645401882008,0.15400615466381473,-0.028790432620652173,0.28320039582715256,-0.4385472041620576,-0.42818087229377455,-0.14814950294072524,0.1981140348888992,-0.06285501130884177,-0.16699933280142648,-0.013891066832966354,0.1833706724194956,-0.13072505764642184,-0.13200211777323823,0.14892947801610823,0.3291536712327428,-0.6354148462540447,0.023592932787482604,0.15757108447618992,-0.10386326725079381,-0.16365235031593106,-0.14981169842337225,0.21104628650998997,-0.08180357386205765,-0.3717366047716479,-0.049161592587035764,0.03208113223811382,-0.14568727822342611,0.3804852747495448,-0.0544707118147893,-0.2282608578168209,-0.15970293984028072,0.01647184154101476,0.07318658598923634,-0.1254442826117849,0.27376033004568623,0.12239687748868697,0.05775000395390472,0.17572949016338996,-0.6109138239003186,-0.492344121285271,0.4843519766547597,-0.05044532767462606,0.3127708675263384,0.23829560898749322,-0.03011363251609657,-0.10328104471738514,0.3896530961016601,

-0.20015460338778554,-0.1265449636286507,-0.09327979355078146,0.3609283820935581,0.32617706346536407,-0.41292774478236266,0.0339588921286028,0.012368309922140509,-0.1298889729093208,-0.03622557073212941,-0.27656204992469313,0.14683749003762625,-0.08586640404256665,-0.1653265303908108,0.017511341357232243,0.1897667249202872,-0.43870011736413084,0.0399430276836894,-0.10993534849450776,0.01115140008923969,0.09640672801724565,-0.2745355079162935,-0.10064815633954227,0.15422841848412816,0.2089579815864397,-0.09771649079854414,0.30939504280873725,-0.08114102646173353,0.40288749449027006,-0.20544848056675258,-0.2767784557636185,-0.1318943935518935,0.442465474660428,-0.08016390029246655,-0.06890849448325842,0.03137938289046911,0.17939599839064693,-0.45671129477683425,-0.5594775506468157,-0.3992688834614356,0.3743371651183865,0.20833443870057108,0.22954097408874424,-0.0794831713537835,0.37731333253269644,0.22843332997513602,-0.11561143345587148,-0.23447110549474026,-0.14582780470356316,0.33382434851642384,

-0.5262826681612558,0.17522425714947693,0.11904621057185188,-0.1975186775342559,-0.1699534029241084,-0.023056754409287523,-0.3164590886203193,0.7002400750481553,-0.16499605702856598,0.24870003351464998,-0.014118339812517708,0.006672299576459218,-0.05175406533738292,-0.10784528393842983,0.51513029902307,0.05763091115521605,0.07815752540721686,0.023916296463459847,-0.12124879208575307,0.1059907436823815,-0.24654449267398645,0.15035254121034278,0.20950119393044894,-0.08041552911197372,0.33215222386507937,-0.1158031855908478,-0.014963039487334049,-0.18082873004204192,0.0591361212825851,-0.22533751122636692,0.514649506458253,-0.19673387871928816,0.2998835653259253,-0.04615289710837836,0.3393981499130087,-0.33743942647472924,-0.1793564681376579,-0.4149078718772065,0.5546071650549362,0.04154779914771882,0.04586923286594133,-0.029249885189582752,-0.4455115485674054,0.08142287513651958,-0.3608758037236541,0.2713499633629068,-0.47337044704603526,0.018545026198366128,0.11264002027696973,0.05796201808696044,

0.13300156995313014,0.13548746809879636,-0.14068325495302758,-0.8533512260874381,0.6452806793218543,0.35078201063797504,-0.11565585772304923,0.37357461282554655,0.16375747143447114,0.43495114377988037,-0.08405584452170037,0.04942982458283562,-0.2880194012511243,0.18855475145655068,-0.323614294201133,-0.1359280863272923,0.06846805964437526,-0.2681270909287959,0.3738230704823707,0.05786635812700566,0.0976202155758169,0.005525994558561863,0.3191498988273821,0.007506168377643054,-0.02438557966663268,0.15296698473004952,-0.07772663796355227,-0.1957600633662915,-0.11495977014886988,0.0509112580174735,0.11269891257556378,0.18562746732879346,-0.11882933056894576,0.03288423600645654,-0.0658693968431092,0.3272389205641221,-0.11023098590391002,-0.31894070530894486,0.07670728562432291,-0.10977038505099289,-0.274122988093855,-0.015130646504557263,0.48590789901618275,0.15809334779715978,0.12455756583341909,-0.14256151689379795,0.04628666887441721,0.13052712867639046,0.5016296772048707,0.04883414653169613,

-0.3351315431321661,0.14622975725679332,-0.17493762747185274,0.23278721756294768,0.07268868440482804,0.18037927686289465,-0.504491985884215,-0.32260980852524956,0.17192746667444603,-0.1028256703124665,0.02036118416633614,-0.07077980429048149,-0.10409627778975918,-0.09185160131118833,0.21270481191032498,-0.1463239773701213,-0.3674911710317235,0.07627448505237946,0.3920253771464657,-0.05326467236939383,-0.2108995048592071,0.2922918975069735,-0.0819411794623695,0.07129514937824534,-0.10032645533492023,0.006940203359995972,0.326000331419776,-0.1579495214262348,-0.38053443585949265,0.18645976632748223,-0.2800026556824464,-0.187672949804318,-0.2647251122134808,0.08743320388353647,0.04999259757785118,-0.40891720741115056,0.03788875244191612,-0.1479786634619811,-0.027609108174603415,-0.2280645739112355,-0.11647365126804166,-0.25503362877913216,-0.21878814837810423,-0.10575314441670489,-0.4284658181627071,-0.45005849998995934,0.17277705464262175,-0.25170948886821753,0.3966881127094422,0.26795087055334016,

0.055301508118615665,0.05785523854414847,-0.16904955550747822,0.38205847899785406,-0.500476270355584,-0.07051684923625591,-0.400567507018439,0.1331261000579783,-0.027233886586212133,0.4009232268597393,0.18696482728255978,-0.15633900774709822,0.49211521688952775,-0.6117087010830238,0.23903368983509218,0.02017012535772745,0.08758328059252336,-0.0419166935681968,0.3835888786160452,-0.13799930846072797,0.0844451800586803,-0.274570342231988,-0.630185359052863,-0.0059529441273173085,0.3434704369569371,-0.04222339149386076,-0.8415834057089749,-0.057944674861393236,-0.511566619147228,-0.08162653968022085,-0.3810485446579979,-0.09109202045501741,0.5858505285497575,0.06527649708022303,0.25889929990961114,-0.0017192956760792774,-0.035496196113695505,0.35214727108850447,0.0025997422512782976,-0.07923828908434434,0.5323768935642883,-0.004314333929465305,0.3782986380403918,-0.03516057349200146,0.5150624663551173,-0.2125124103001662,-0.04118520423459369,0.24077991281941374,-0.2929648702607681,-0.19881067589536972,

0.4522269292022187,-0.11127174623467309,-0.09598013938875079,0.17981585148459697,-0.18796399906821035,0.3149880661361134,0.17038808180064824,-0.3785512911445075,0.18289265860977533,-0.0046642150956034325,-0.20870879658122246,0.018665171379709175,0.04503164779496238,-0.010580551052074087,0.16381576257161473,-0.04207002553088555,0.13745141852892856,0.03127424648067515,-0.3224787663931201,-0.003709336514578323,0.3755854823719242,0.02192019553762431,0.03279884455288211,-0.1795640264343914,-0.29289025221152526,-0.02857389419460843,0.24023188654320954,-0.13223910615274204,-0.2072322501877383,0.2720344064059476,-0.11828999382142664,0.2725864445089412,0.31399489815401604,-0.061815463025831185,0.2383065762588489,0.10786544685771264,0.01983274661080832,-0.1821635049930891,0.4411470330992399,0.24577315732820293,-0.022139170205310782,0.4879242447569347,-0.15956778516351927,0.2322308993420187,0.07944485194951645,-0.30490646520932785,0.13749690276593407,-0.07548927893110934,0.03775922839552212,-0.3525688238272331,

0.07094752025844674,0.17527190007612486,-0.05124843915597527,0.4952159261174519,-0.6458253269642493,0.4164539633540554,-0.6334478544314659,0.32633295928958417,0.05524939556684387,-0.031695357617307504,0.42661801610415273,0.05426199835890239,-0.29640865273794115,0.2169323854608046,0.7963655858057201,0.05081356831089699,0.1496102472955116,0.3080287882267226,-0.2553226587628626,-0.09128068286372824,0.4516566622917806,0.0010918638815495493,-0.22379408109109045,-0.02960889082960964,0.07353116327167124,-0.15834581786169272,-0.3565295585814061,0.07622080743073108,-0.2094503243463862,-0.035065293043834884,-0.5890144143527554,0.005971976176393323,0.370807328487672,-0.17867430755723107,0.13411084119640318,0.22534469508944183,-0.1308101528654144,0.21495898255052714,-0.31268696698576526,-0.04113749021036611,0.1401604861216932,-0.4342159659770751,0.4842638389021352,-0.5520401187919777,-0.03778940902250846,0.4776307983935401,0.021340462014357908,0.06640053604212957,-0.7820308512384241,0.44696006196658716,

0.516475181384456,-0.19032425917352264,-0.19336085684714294,0.2000880420428258,0.06821142209750745,0.19434915094091537,-0.03721739276891638,-0.013516002782357798,-0.19134330233365957,-0.04029212680933963,0.042808836518624625,0.09808842317341136,0.2314741931246832,-0.2396445912465511,-0.1320983372623256,0.12275377855619514,0.43291031994949564,0.10397173838384145,-0.1465170743310116,-0.15507637775427327,0.3739568113526762,-0.19301059777120239,0.3523963234100375,0.039949719546859566,-0.13853137431341842,-0.17602815133430458,0.273800870675494,-0.07081503981985526,0.08307007746163805,0.10870204586553248,0.16131001705984982,-0.05888763383755355,-0.08436368367563371,0.08359015098669283,0.12682560233450657,-0.142023273906517,-0.14255583620580478,0.10382240075171674,0.31889929842574016,0.21579134137752484,-0.1756649142861318,0.22238138623813983,0.13899046795037975,-0.14397965601314322,-0.03506904071645834,-0.20435420447498576,0.062303821553228896,-0.13293986002200142,0.2698600119940194,0.3598192879486708,

-0.06152213622744458,-0.12448838998236156,-0.09131895162859442,-0.58653149630403,0.0509267271598089,-0.6087249546832767,0.23082885350372173,0.43452605893022767,-0.1784647917789106,0.10150380746698928,-0.28274422010330424,-0.16360796334144545,0.21074888614090537,-0.28155267389589367,0.12147358104913611,-0.12322293251615052,-0.07639442923946692,0.16501303897795186,0.297872953770558,-0.11068889521968404,-0.07089070931763179,-0.026681103543064116,-0.13644984319938736,-0.08661852180023051,-0.08544421440881739,-0.15014852662859288,-0.007681484054305254,-0.10824714653094056,0.03887041266264265,0.2667064427932863,-0.2855511357598103,0.1788768937344718,-0.24012244935393243,0.042472788240623546,0.2883057744437454,0.11734034065716112,-0.1643968827921903,-0.08102522875919647,-0.36250007590101463,-0.31230607182783443,-0.2367363832407089,-0.4146383688104501,-0.2442154330384935,-0.06258407285020699,-0.21372492116432998,0.44173918974066556,-0.08586065164169716,-0.12882989345326742,0.43640052873370033,-0.4837536363134068,

-0.05491308434958741,-0.12182092983491719,0.0037522587161210354,-0.09899107740446321,-0.25530787251607967,-0.21199921969284588,0.2936337286205184,-0.24090398451474826,-0.09418411741549788,0.2000549610558474,0.25253654335051584,-0.1887348276311212,-0.2780820511126469,0.03650191335067227,-0.6382930466275035,-0.17713436767407906,0.3068260135093284,0.11988666119773805,0.44846946129420706,-0.17885225350764472,-0.1592640441081871,-0.039503430342819376,0.15964702174472428,0.013706182703305097,-0.11965440391967042,-0.04498139332049955,0.376777657921497,-0.12988304994444191,-0.014505562595323897,-0.27846472630786323,0.8268418831751959,-0.057184213626346354,-0.12096217301689212,-0.14723113958312672,-0.3309471556583266,0.14961122758275608,-0.1923329615203106,-0.18257609120925164,0.07187476950648804,-0.055460789043475844,-0.5532772846510284,0.39308230939802624,0.5101616218291019,-0.13551512584191963,-0.02896055629029207,-0.020257370290006307,0.1410475404718509,-0.05022553685007127,-0.14741173063084098,-0.2644459167416128,

-0.0017282544071099916,-0.08084937771667124,0.03215248861143223,-0.12391313105702553,0.03962970523996657,-0.05515288072616971,-0.20862912986902687,0.3210913188883504,-0.1945570738399563,0.0694120883216141,-0.013186702674282888,0.09281105283693904,0.5575142405198211,0.305140513095962,0.13295852373263603,0.020096000695914534,-0.18336092958229194,0.2969902319877834,-0.06398564398796522,0.021977000478843545,-0.07510330123819116,-0.029572003343912554,0.47871833775503236,0.03342618381262199,-0.38080466450580386,-0.09245628105057574,-0.16220293062745933,0.1714876851908611,0.5203424816427406,-0.10801046603022131,-0.17081110417110312,-0.12332194099426105,0.07789959767992263,0.0161617046889781,-0.41504668962693747,0.1806218750848688,0.10524667230957983,-0.5868678923781346,-0.01937389999248315,0.29129078683351683,-0.0031886952742315867,0.1605674143229006,0.12403030949745976,-0.2307287983970819,0.18444937165513609,0.05363299777224585,-0.20949929911933945,0.17082961824781293,0.10076531317532816,-0.013377675731061193,

0.035595551316910994,0.03889200796937171,-0.02796184679812788,0.2188467309857369,-0.029597456477673645,0.05284926767894681,0.3499154617489385,0.20152048520590732,-0.0894809199256825,-0.2026652206622629,0.25966183438458595,-0.03904874786934516,-0.19678353490290298,0.3265532539456374,-0.24648456347523487,0.1300400361127193,-0.004561794381162085,0.21563466098242,-0.4689505938260542,-0.05149383665912296,-0.138021296543695,-0.4117910986810891,-0.08148688814796998,0.07634353786958856,-0.08262611300699955,0.07140496409481975,0.05923403592965607,0.004684541608691793,0.1057246793688251,-0.08028939444909419,0.08547893228839812,0.018012317770538657,0.06527383302134555,-0.1737636387698553,0.1275126589802827,0.32388146503640125,-0.08026272048750245,0.3487241831836845,0.38552462199729515,-0.3305223599374218,-0.04579878237341082,-0.14308365338449938,0.11622491806716531,-0.06875968743024635,0.3267486126773939,-0.24721650922177318,0.4970923839437175,-0.11329840845124797,0.21767331733216275,-0.06257750546549228,
};






























// set_bias_for the first layer
float bias_1[50] ={
0.43056551849041036,-0.18711340213980368,0.15323650819365586,-0.08623546117397102,0.20793295348452084,-0.3036629667883783,0.638279305733345,-0.49484484405241025,-0.09426403703840443,-0.33612881684694573,0.19474624965535015,-0.17665566555398127,0.3301481146594772,-0.005533265519370075,0.15310295700309673,-0.12983953562456138,-0.21850514780573327,-0.5777724954290809,-0.4044444884296024,-0.030892721435419677,0.24313012072368456,0.04460531139458135,0.28289913305353426,-0.11907334344151231,-0.23697453039292427,-0.0029431527365904884,0.09309587887046823,0.14430780407827673,0.2543254085161746,-0.01644643178058942,-0.06662209615259844,-0.1647084357622594,-0.13061636885318986,-0.13094098875916133,0.10465180953607528,-0.016472664018632416,-0.07486437235201172,0.14480452667841406,-0.05621603784799121,0.0012604930205871183,0.14489606845829242,0.004454469401151104,-0.45386542224305915,-0.06600535000657487,-0.11560339123766092,0.09267894382444447,0.1523698005114943,0.011561075164342046,0.03819096595676299,0.2193349505905538,
};













// set_weights_for the second layer
float weights_2[2500] = {
-0.05020638169542283,-0.02290245521612009,0.2694582260907856,-0.16236794503059276,0.0729787033215875,0.01946442531058145,-0.04640997102246391,0.13288136075976484,-0.06328490728263782,-0.1401258259250277,0.07268988372665491,0.1924363674473736,-0.10641753879323694,0.18635379237881622,-0.025534686516438497,0.11884042394840512,-0.15086994775145243,0.12519492373133653,0.13713815368708338,0.029661714969950122,-0.13676619431970405,0.4185143931279369,-0.05133736991613515,0.35844752175408395,-0.06078263274910391,0.10042992608081305,0.03238260023469727,0.3720779968890647,-0.0010369233709639747,-0.24543139350167864,-0.2960539071098574,-0.0010269767378170997,0.19499187307878674,0.2816072877307878,-0.11459131570393306,-0.037021709889482786,-0.10052045181995278,0.17565859179033885,0.09006186986136237,-0.05097611337839372,-0.0025145284433339683,-0.2044453517829019,0.04940573810307169,0.11747392305153856,0.028196312310403347,-0.6969544360528948,0.028716041704173134,0.08600447044251006,-0.20374659308446869,0.08408754935139634,

-0.061779793361504805,0.008886184734531151,0.0025602073188743706,0.07813726523943217,-0.09695861918061136,-0.045549500692985266,0.07323011991889986,0.03349507900802249,0.07923555377881737,-0.06662092805324384,0.011492899063009605,0.03699885684766896,-0.011907984391158796,-0.022934947104560965,-0.0783738486380297,0.06081791410092158,-0.06379998503767224,0.02792710965627787,-0.0007645175397620551,0.05643994130052542,0.023225459120651364,0.0077712372112961,0.08827519827231578,-0.023434276186795836,-0.07055461778463552,-0.0902966949362021,0.0077161055582462956,0.07165491274263548,0.09668270127718309,-0.07704996578413807,0.03051239363955492,0.0568165661937382,-0.08640283451749022,0.020526812485442022,-0.046921920933858934,0.007810498310573084,-0.05192406392290316,0.047079471013708976,0.0013281058825093974,0.022311797796930634,-0.05513613894516398,0.01500401066176512,-0.021643124808333296,-0.09086472890312912,0.021457981035033043,0.05305983823451941,-0.07689866877044102,-0.062288466699554755,0.01805140167131095,0.09074042338542805,

0.04838108751464062,-0.024756092810131695,0.03428838647997881,-0.0009650775849772746,0.04348078250473523,-0.04658573978504532,-0.03633920186795649,0.024869335838190332,0.021287540123369492,0.07913256306052549,-0.07561138538462374,-0.0157532598452119,0.03223440921550517,0.02835637992906262,-0.0058308455341579786,-0.03955325612159159,0.040692871990806005,0.03514720977288593,0.03412230232418884,0.06769613462234125,0.018958640008601355,-0.06014878708534513,0.046388615952608944,-0.040350995114344146,0.06861395423505401,0.07599320304147064,-0.0408937884438,-0.07793027243737265,-0.007122754829566532,0.0563732346782789,-0.0003885335858308698,0.03170381752122277,0.06518246184015646,0.06489721327453046,-0.046576958305184525,0.08403783789866437,-0.06532042079187099,0.06756064970984355,0.002401233307111951,-0.0007745203216058695,0.09464971528391648,-0.03613552862840455,-0.04693683585599919,-0.08686599097138122,0.06903988047681049,-0.008197431927085445,-0.056985812226021185,0.015282575243413638,0.06953536800144465,-0.026185089706080956,

-0.25590568469564823,0.04961209439589535,-0.02924113702893935,0.45648777781792194,0.0019114559795317793,0.05889201384410041,-0.04207365748919293,0.5664135163828468,0.040791538899995816,0.10160469128038259,-0.21374945618706384,0.06851804149578629,-0.11275439498765494,0.20325653431068166,0.026101251392570888,-0.01964940626009811,0.08059747132150893,0.2375927968910243,0.13652422228811517,0.09408515665522536,-0.10232008447838786,-0.33374192866691993,0.2824956049150971,-0.1129603322322964,0.22011889387943925,-0.07583955661307551,0.048815140217558894,0.14751054351944626,-0.09722713258797909,0.4116744051553569,-0.4278050106732222,-0.025542088164551086,-0.08630770487078136,-0.222736417313652,-0.09909028503846369,-0.054947628859076836,0.06149682591867619,-0.07501026045698958,0.13502133670529282,0.15898009935472956,0.045661588266760915,0.04824210384722282,-0.1613135406291017,-0.074323506787272,0.023843354493350125,-0.49512059613409304,0.21717535332265223,-0.2039149077262219,-0.12195637815675497,0.09003884965934277,

0.18328055849312197,0.05413433603769427,0.2925833495240238,0.13750561422633323,0.09001508400709751,-0.12389285678850231,-0.32967995314408377,0.08170647099357828,-0.24833842365814715,-0.07832038864081287,-0.10852917250019546,-0.08659665502930236,0.17160760824828653,-0.13187072244829262,-0.09591012856223151,-0.15371884637811079,-0.18541823520798603,0.36576427459325045,-0.1533243722045527,0.016223766033598805,0.005757188948722816,0.10093730267405954,-0.08819749724870193,-0.12501293283492754,0.34536191894637264,-0.04223064636759335,0.008695215676644736,0.18593851364345512,-0.02346197247755922,-0.08598056364271718,0.2097077636566843,-0.052703125278923214,-0.008658798089780779,-0.12859751908641467,-0.029702812877703925,0.09460693440938653,0.040047586222780235,-0.2038900399545737,0.04933689423281444,-0.0028405125601099414,-0.10189393299347373,0.07183101804303459,-0.11337258952645844,-0.10349169158833686,-0.08485292235318218,0.2682422408233284,-0.12845647024251874,-0.24169221592402557,0.08227497986717386,0.04342325513244973,

0.13917677233557205,-0.08536364235556529,-0.17480292380654397,0.1292981437717622,0.0595504056844845,0.03716680716775243,0.0836796770556193,-0.26115547077558354,-0.05762791988273106,-0.04130579089644221,-0.026843193685280823,-0.07242661620665261,0.06710623236061597,-0.26462477536013157,-0.07788915749667054,0.23569791907861307,0.3707062737003307,-0.0027090769335771404,0.06459692629879302,0.24215140972957847,0.20538419476985287,-0.1367275034089339,0.04140412094780671,0.18604163544159213,0.48461904338188977,0.07165925432844683,-0.0007907909085001157,-0.2320160150999135,-0.22453365098915315,-0.02790586017259298,0.029856834815008733,0.022732586955189475,-0.14181801291446852,-0.0649252730257338,-0.08543898618111975,-0.11772918843974924,-0.013712013735816724,-0.22755579551764454,0.06616341117703729,0.2845324691325362,0.032264295494273273,-0.010830405421445378,-0.1650764829778474,0.16954451768741602,0.0757337062335065,0.07677834916890908,0.092152442705272,-0.01886971152169883,0.15726727520880332,0.09522118234923306,

-0.14641316022705927,0.0698329575070225,-0.05418346423729876,0.19752082897304316,-0.05511559498447772,-0.15163093088612314,0.029227011807944847,-0.4391934582562212,-0.07886251266181366,-0.08926586447956425,0.03077568755823857,-0.1735755624458363,-0.15199817170114835,0.044503869288863754,0.0010131872720141506,0.23432735067866756,-6.030924284162306e-05,-0.05788936924971966,-0.10339898117821941,-0.08898951906210707,0.11458235872369052,-0.2075779312973352,0.2680767192035346,-0.32916054598652394,-0.23085069551551016,0.09539844719932151,-0.05171199301663691,-0.06324759861240886,0.08647962655765666,-0.028363377102016016,-0.22537965020395526,-0.0684717649481485,-0.031091919301591723,0.02940656354331522,0.02692467453160042,-0.0474649561629828,-0.2350524961604374,-0.1965726031833814,0.0016069936749456945,0.12084045525847609,-0.02671930059375403,-0.054029637127707475,-0.36046204728684916,0.7218697191495206,0.054647034985453556,-0.3044141991456918,-0.353241767658657,-0.149605417675941,-0.34636601016024116,-0.1075092053895909,

0.10554357870485905,0.07238215559513052,0.1256351043492632,-0.06414653738040223,-0.024482045089717068,0.34532573415775075,-0.12947640255638576,-0.005082448472402447,0.1011402093972984,0.10514211465743599,0.19310817835242614,0.16843238670314906,0.4477209577596447,-0.03991969746975033,0.06384633172591848,-0.011162595579561754,-0.05364532433930852,-0.06693152582404541,-0.16514910491537965,-0.11125747745817045,0.028968042977556663,0.19512406538715277,0.16697502172740955,-0.15780938849236398,0.24198460974008035,0.11907027574243681,0.019833659085629337,0.1373548636484566,0.3092420672437605,0.19658804100453767,-0.142238202715003,-0.06843046560058166,0.014682073456407256,0.4858567682076204,-0.06757907893126425,-0.003995823982977987,-0.28725075521327864,-0.32833086040812026,-0.02260870448206127,-0.1508262922809009,-0.10145642207767597,0.04420584114102677,-0.02801236295217968,0.0544924135770125,0.015346110473630615,-0.020313237401890213,0.20808008378328283,0.15658782942745056,-0.2232376783732945,-0.07344550089326644,

-0.023656746686951797,0.015206994704676912,0.0016157380897635842,0.07888023824756879,0.07693731271927622,0.021717192376933564,-0.0013011488803331367,0.020595036155912152,0.08349892690767104,-0.10007956256048249,-0.045141624062623134,-0.0630349740494293,-0.011279125082575909,0.03962087623524107,0.03251027818189663,0.03245326381218969,0.06155363898976851,-0.08544311936154125,0.03959981427719776,0.03605682427531433,0.0075005718834346025,-0.03905202393226531,-0.037245654493890196,-0.05839445946972435,-0.04840761139003382,0.060090628132659606,-0.06886655635790415,0.01624489629671522,0.04616684416462715,0.09640105230268375,0.009940118644444928,0.036939270564665366,-0.05195634605660622,-0.00533976200323336,-0.09877646707346983,0.01345308713197569,0.03879673570969622,0.0832820161989432,0.015075937234888663,-0.056745786922316445,-0.08044545683033369,0.06910650009987652,0.09072122919105524,-0.03899252192971885,-0.07372689068146179,-0.06130087374345348,-0.010676017531652328,-0.02424840093159602,0.012369846732230683,0.055310686490055334,

-0.24805068591963125,0.04916630799831308,-0.018882762737705342,0.022644271382990386,-0.05582156880830117,0.30007407428370536,-0.20004287059693324,0.023302143715934212,0.11139114926053277,0.0494010251136073,-0.27246535474924233,0.036853684641166985,0.4302207356603849,-0.14361154465902884,-0.04293498445748387,0.0891214282716637,0.16137919675058535,-0.05349357473514723,-0.1559613580040156,0.02292217739365435,0.23259436713356713,0.17667501862524893,0.016649917221515466,0.17583867441236745,-0.4235432152519983,0.015840672587606672,0.13757606053775545,-0.23134429662198022,-0.12671042539567723,0.22286007540972055,-0.2712298385433919,0.051894110777973276,0.049579973386431934,-0.28877731624684533,-0.24304213390253743,0.19235952649752103,0.03434545839349101,0.16447518315326443,0.01208850868500546,-0.09049639926368556,0.05747058499056601,-0.11982785530268844,-0.2231582752717733,-0.16500419203451216,-0.034261908822900124,0.21314708300081514,0.18542564656358085,0.12517979224219558,-0.013078226640136362,0.19421794760291897,

-0.24477141765199162,-0.0002776958868163655,-0.017743536211767864,-0.20623898948855027,0.03610241685513644,-0.22501600004864739,0.16051075157367378,0.3310486583646336,0.03437693210550655,-0.024502506247464015,-0.20704238815567708,-0.29413470395438435,-0.012669046987852492,0.07604881893205756,0.02177870161910541,-0.037149592899799674,-0.14154414243292227,-0.10457495954423593,-0.10279251821223971,0.3419345203137266,-0.0010026812500332338,-0.02182402455853569,-0.016914981013080723,-0.08050428647480924,-0.054249012562821115,-0.04854214308533577,-0.02004162043665544,-0.11684498185150086,0.05881599026236746,-0.09933744060143436,0.4680704578966,-0.07078701768428187,-0.20536646818223267,0.047576789682675716,0.19443950886172165,0.3037030933422376,0.1813634441884943,-0.23269030049174447,-0.005409272783881595,-0.13773552360558836,-0.09205554309092996,0.025969913014760915,-0.24906640319148254,0.029220449674194116,-0.10256553154087768,-0.04284032808739183,0.002188217289251828,0.1925548523346836,0.1313647033818385,-0.17692385552132353,

-0.05127827443770556,-0.07996301374543936,-0.023895597501709318,-0.07640122376422816,-0.08383245458145644,-0.08926201911068146,-0.09485191225611048,0.06093365019927015,0.004320093876324796,0.05521046343321951,-0.08065553266588248,0.06219497520437039,0.08798362051625547,-0.02136320766128781,0.05543406764145801,-0.08033123234275939,0.01867409559260142,-0.0027537420952411192,0.09728273463047145,0.05380528528187056,0.007790406257464936,-0.07524785386819546,0.08933847507867976,-0.013285094431647323,0.041973339534514556,0.028556067518619905,-0.06804462071785995,0.011244478338312306,0.08517010505578779,-0.012282774145390566,-0.03575805821190011,-0.00836691380871212,0.0647590694495558,-0.06967001554682375,0.0815453983541594,-0.04488616727913904,-0.07706176504809799,0.07459479451391407,-0.07680024007172055,-0.02295955427924102,-0.09458446589795874,0.07022839804207755,-0.06371069669043536,0.04596233083923213,-0.031286014828020216,-0.007664553785569416,-0.10230917757833984,0.09157990567284573,-0.02798814773811944,0.03360700345474072,

0.2156968631954626,0.008749966574607268,-0.03213616155243368,0.1606699491716372,0.00927060477403195,0.027197255195316017,0.10687353740583816,0.23745135564887762,-0.015652068583147695,-0.21834409365865132,0.2827776029110001,-0.1578652844482062,0.03209438747849209,-0.2452269884196687,0.018868880524400403,0.1013987436085156,0.00817191270227562,0.017020608167500992,0.17545143946213507,0.17746941948581887,0.17107870702427264,-0.15537617639428342,-0.03477677756856523,-0.14116710155353024,0.36373925718062966,-0.08442763930188389,0.032170771282458356,0.3300339457646325,0.24086959676977504,0.3284609434757216,-0.34825722449640356,-0.0621331027598736,-0.1523015612547887,0.19041567279654292,-0.22669616838447856,-0.03046915624468251,-0.13242041765738063,0.12053916700523018,0.24983917376224382,0.02062374148855349,0.007867883633146033,0.2938666944709324,0.2612533308071633,-0.10672372674770716,-0.0013055904264258492,-0.21304117439975298,-0.19606724948827414,0.293269972849625,-0.09623053061175636,-0.25437230525851684,

0.09645539806908067,-0.11510289671215328,0.26809532073965303,-0.07232339423464468,0.04934625673798135,0.3072041732595937,-0.12428599036246582,0.06317491778220649,0.157808226556916,0.03554725234659265,-0.014536383268345764,0.06735370912627149,-0.28173566836163666,-0.04883240534759817,0.02998545460340517,-0.21071812484615915,-0.23512642025910027,-0.13437507192572504,0.000941187286781161,0.09077682907346074,-0.13860360308496067,-0.1702828289921347,0.07950245897229989,-0.5283009970927357,0.08117027605284516,0.04164284246952733,-0.22706076441107545,0.0770775516887464,0.06107851670666699,-0.3726036181390031,0.012838453926506985,-0.04160519172792292,0.2521679953330982,0.3760262521380102,0.23673371603641538,-0.18365261198469676,-0.29023110272875297,0.07312890293216039,0.05755250979655634,-0.1767626927555973,-0.07917619483229518,-0.09633747843214926,0.030778505022406647,-0.0447322445392771,-0.07332307310664896,0.12337914320732236,-0.1816718750630902,0.23463093503860435,-0.1367297389493374,-0.026702836864823463,

-0.07862046438646948,-0.016102798982010114,0.05819108673008893,0.12527192945418114,-0.027967977737527214,0.12736579686657454,0.35125844244938303,0.26053969045060055,-0.11999248713997007,0.08134284335150468,0.32667232779666217,-0.12898555462660824,0.08836112555853827,0.10204417955024116,-0.004553064677505834,0.15867291282103407,-0.6066418812418087,-0.44591461403182264,0.18704692674993686,0.11048608383547973,0.2550260495731669,-0.2993335992261049,0.1564426964631677,0.13682019742318535,0.06299669540728292,-0.10253227105568025,0.011904873252054903,-0.2135160105495285,-0.21959690082514116,0.12505587014549033,-0.21323306274965023,0.014429905243495548,-0.3043515892055415,0.02422752948468132,0.20815199362265635,0.18764228933257301,-0.17080185517983423,0.23006223276057416,-0.013283854990949431,0.36509041354460686,-0.05119984766516022,0.0216255131216835,-0.002338887132894492,0.17394711322100798,-0.04685437694449253,0.12501033857469734,-0.1945784887455382,0.16748762059071234,-0.10638607559387316,0.12482834016187673,

-0.08768118417488044,0.020113548702650898,0.026513840581069443,-0.0008160202054787052,-0.08810671348286866,-0.046209093142035466,-0.02742393357899541,-0.06704409750843945,-0.10168139148622182,-0.011769188072323404,-0.07863688522518121,-0.049375901402787595,0.08773709202374799,0.06901299772979484,-0.010883406587796862,0.047506044311873434,0.0714916914036572,0.0315141457124087,0.038814809789607566,0.07140293592640404,-0.026858795053569796,0.07666983373643013,0.027880135535834922,0.007768850850940722,0.04432581370868633,-0.05245006641037251,-0.0341798087830159,-0.0648117637661693,0.03001416020325858,0.08256932434334248,0.04996958381584597,-0.08908947254696079,-0.039766920673367914,-0.04585759469986828,0.021865167109394578,-0.05055454456097936,-0.025996364013363908,0.09993343656062648,-0.0029979180415254793,0.06800677607400185,-0.06410697252371729,0.06473318175567656,-0.04600127384775332,-0.10061821799138178,0.013233382933911752,0.055235252762437764,0.0757303839522712,-0.08876616183952506,-0.09420575846184329,0.021164345204589558,

0.06144747025809984,0.14985755866425404,0.2232334978264456,-0.17296559412043816,-0.0277237814914882,0.07818528694236618,0.11662056420492434,0.13941826115936035,0.10592023156660468,0.02446119722607384,-0.01988339055843102,-0.20642611346235154,-0.2783482724078244,-0.13565782123045966,0.0670061305925235,0.020866161133135466,0.060742679680632516,0.09039686310448856,-0.13615341328576092,0.11777861502665748,-0.14698897050348506,0.10179958915471857,0.21384122304197137,-0.07588748450222088,-0.33504519603285626,0.03600252171584236,0.012460344739779217,0.12629136397241753,0.10692406282387483,0.22868725363722373,0.3355445944356873,-0.08187166218957907,0.2524430002320369,0.13884202693653266,0.005553452094928749,0.12877734874819954,0.18388547894577367,0.32069064764484123,0.0027438404247435125,0.45615465172344427,-0.07721282150012455,-0.08370077126502834,-0.19028739297504446,0.3341702482082788,-0.07759250355349936,0.03340713209697864,-0.19683917106630097,-0.05176421811728363,-0.24609226801058012,0.3474021547177989,

-0.17529900402052936,0.0035051140872094334,-0.12921718475501004,-0.10974364190723748,-0.06916898886010124,0.1391380103237152,-0.08944501931698175,0.26050316379931043,-0.04525719258024897,-0.005378802344233388,0.11754388536924792,-0.32648033490358064,0.18081894440911006,0.06594348726675564,-0.10397294381759573,-0.1309068057096522,-0.12375669021784416,0.032271389722337,-0.16767001726595823,-0.13445843074108407,-0.2205141834781542,0.16355768415194982,0.08194119893977765,0.24567988195266582,0.3789481849256937,0.07927944863098085,-0.11281001508126207,-0.3925078290733672,-0.06547588348005258,0.14189150465411537,0.11298810374582609,0.08031229096653207,0.050924871616145194,0.09026192040052915,0.1303467442571197,-0.033344315077867434,-0.12086447354188362,0.5791975098561859,0.17104549112389045,-0.11567476028860808,-0.020254849767970567,0.10221383570474174,-0.10574480933158498,-0.158621725691125,-0.04765074570013896,0.2073848283200313,-0.05480541276242918,0.2717199603189889,-0.029039219117750113,-0.10198027359145113,

0.2531987246402752,-0.09443175370128487,-0.08092966708922346,-0.11501115538768238,0.02961599558159293,-0.09722515413625615,0.06634237513859198,0.38016358042052634,0.2058792887964372,-0.08346114828055128,0.24937863278093286,-0.17981253022242996,-0.030195055163698973,0.09812691535822254,-0.01729061240222506,0.202388341609923,-0.08655850147497741,0.00628984173802054,0.11205836357568381,0.21066826764185745,0.018477497059746606,-0.08795673993424814,-0.2384626140425102,-0.14777838450084382,-0.26809511883854764,-0.036185957369387775,0.22472264230464686,-0.3350032758651865,-0.3016395175020722,-0.05936970523981665,-0.1718197738731356,0.09833155269831635,0.17907465326078964,0.18580103560457406,-0.25005329594209663,-0.16674322934898306,0.4219386759570885,0.3590794853796298,0.1550372019031829,0.09660706572493845,-0.07480245966508998,-0.2383509405282789,-0.15593414502773836,-0.22211780002290663,0.06941462945017629,-0.22831747606458008,0.20223825052222316,-0.22835312320535356,0.32409246691123095,-0.11498472875195355,

0.1009119054775879,-0.08859618718910006,-0.012710864491778606,0.07155991507412536,-0.027245778286804016,-0.044165474217584384,0.015600018943559944,0.01621109847414959,-0.058375428398818756,-0.03217203080252575,0.06318955528221913,0.06405410420874369,-0.026142666730309405,0.0625962806778232,-0.04706542064593147,-0.07957685156698234,0.050407026574222344,-0.03428329159042485,-0.036702244013991185,0.002210958960999873,0.04514439172407648,0.045187491662228366,0.04636459874112672,0.09143727051513548,0.01603609282419345,-0.07931520696672731,-0.08338895994253352,0.005490357586029643,-0.07139957558302756,-0.09417894096421461,-0.0794245486252506,-0.06852629168501884,0.04584250577936509,-0.061271652893440526,-0.06129340812621068,0.0032897088776130687,-0.03246198819883705,-0.07080861189438334,0.06134717362024115,-0.037192329433214856,-0.08689854497753013,0.10126772125412871,0.09143288793138087,-0.027782764420910586,0.09956276567388235,0.03896512262506518,0.09226317549282732,-0.06206117590100991,0.05294253615090914,0.09353970360485989,

0.1221182534763287,0.05436610048748745,0.28346129487631017,-0.0468130678115098,0.0819365736805117,-0.2662178973217749,0.24600498183111016,-0.08918991370761516,0.13244395503287393,-0.06941984625639369,-0.1675466737849491,0.34515488338853734,0.026641826341882807,0.04882598528085008,-0.10355109717079249,0.1459958780219507,-0.1967362724563508,0.15216655961787814,0.1313219037965676,0.3273967624111432,-0.24177517445999192,-0.28840111025517884,-0.23734516041754875,-0.284510864971628,-0.08628341149482592,-0.08464149499267785,0.0031636609657074307,0.5515731501395618,-0.1433954686701202,-0.06575428118140446,0.05431677453027223,-0.0913462839661958,0.026455527010781122,0.04439307157548235,-0.05036926865366298,-0.03667296181127802,0.21121656307794728,0.3196752684110376,0.25802889188016026,0.0689957319332377,-0.09626216623650677,-0.35252258190743296,0.23186608008983645,0.27316987338601467,-0.08781899631547746,-0.15537873520371367,-0.11042971248983185,-0.31552862742850496,-0.009207921117523808,0.21692373574546406,

0.250580325397413,0.07080174945659466,-0.12545077767515897,0.16834253391088747,0.041814834975187676,-0.14830158641969746,0.05510709665773695,0.02302300681817428,0.1239582067101721,0.057350202338967135,-0.048541924592883035,-0.07253891746251927,0.22280355193183188,-0.12880666385143047,0.060080896119346416,-0.13085910407686038,0.19239825785716103,0.06392707965191166,-0.016114161142307286,-0.11333828160117182,0.05648627384388431,-0.12592740797820406,-0.04960690164576204,0.00890234289209059,-0.06068178381054893,-0.017843331666101418,-0.03270595620914409,-0.1272059776323147,-0.00917949142180856,0.0011865773064832998,-0.05858007901674522,-0.013182284327930355,-0.02857860732764812,-0.07833147184974244,0.14835665162027298,-0.15057148338339335,0.02839003499968293,0.034534680914906676,0.1424395895095421,-0.3324434804371404,0.03691214041372774,-0.13153423082053617,0.04136738675385501,-0.11513744139556353,-0.04233969036816235,-0.07299227085600932,0.05920042943945244,0.31740372692956853,0.07462239240431451,-0.24096994002658093,

0.005170867120538287,-0.04108161723144867,-0.06935657104297191,-0.2544351918501673,-0.0028841989977480952,-0.11370209530491379,0.47570641784930817,0.05232950670982737,-0.05688496401353959,-0.07055811110388063,-0.06775262186623586,-0.015533522926787814,-0.044855702780440175,0.1557535154105313,-0.0018862781178054886,-0.04870652284043908,0.10284416294531865,0.38077486908066993,-0.0873154833873707,-0.07732685625184484,-0.11882926581342895,0.12901994004050113,-0.04566110200978861,-0.10282800443840823,0.24555723873500324,0.04201114241734435,0.07530800727161986,-0.1820864738704116,0.2521042143875513,0.09275382921847562,-0.1980365960078043,0.06152807664724196,0.18529143721224092,-0.0074587674261045525,0.15833238343046455,0.14139054698984144,0.03846001054915463,-0.10054630870393941,-0.027540303788272442,-0.3079574661815967,0.037161389043582724,-0.05917282181127987,-0.08753304485170281,-0.27556553047365007,0.045307341190615726,0.0832319532820339,-0.0973512924686024,-0.3406458514486084,-0.10268438598173822,0.3647726234982546,

-0.05539356408512361,-0.019066013310648097,0.08479501896059187,-0.009829829510463054,0.02194532462068445,-0.04862991061055313,-0.0537038061743553,0.006253422987113735,-0.09537248273219935,-0.029641349680401177,-5.010002693887724e-05,-0.06657221938662289,-0.0974053273517958,0.0032335923666437496,-0.08773560216277054,-0.02632790701832621,0.0955614449539423,0.0777719991768287,-0.017998508887816067,-0.02228513662595487,-0.05838317676340007,0.08508933175341558,-0.07899154826256906,-0.06722733409656345,0.014149492468968333,-0.055489986365226875,-0.10306722319463273,-0.004235125582182382,-0.006822412585672263,-0.046301002339611146,0.021285153083332908,-0.06945792785521018,-0.01553276721706773,0.010491243504872579,-0.09902104352184432,0.04131215935040481,0.01930887288455453,0.00030554617978524194,0.07208814147816774,0.06781309414667325,0.06398325968793753,-0.04143806075933974,-0.011215983387718604,0.03643685573021934,-0.074542181759036,0.04723833151872649,0.09244851637364664,0.04644367012201237,0.06815030841076757,-0.09178062365895669,

0.1323702720290965,-0.03823028231688965,0.08150590268236498,-0.22427897078183276,-0.08139987689411018,0.1652259056286259,-0.12814831290583553,-0.191205907132928,0.0437359812192008,0.0530011501665456,-0.050772734011930276,-0.11752195284152808,0.14048595871765088,-0.02232048832278147,-0.03680559407493769,-0.07322382837972467,-0.04622592031475721,0.09755512905142566,-0.08652426870524493,0.04256882433281807,0.19430528402458908,0.04976847804246135,-0.035174480006202206,-0.13976308835296425,0.09132367199666935,0.0785461359662094,0.09445160296298788,0.056098176571450976,0.1403031679380235,0.06181526019767959,0.22963687453911855,-0.044791504013731914,-0.029622969222878832,-0.08790078253014903,-0.07998330086702478,0.14404893769006188,-0.15726339251713736,-0.187377190592083,-0.060488303587943965,0.08340222042664747,-0.05096195085201958,0.01593750093015842,0.03915114513963613,0.13756782962656178,-0.07585832712323977,0.15597297118075368,0.10430911185832956,-0.06953784588734344,0.13393060909648558,-0.1803988791934045,

0.007511780504516761,-0.08047815221014895,-0.10037417441299107,0.08508810288997788,0.0828830107663464,0.06465319688338649,0.022943831895949313,-0.1023442926228835,0.05370393123568257,0.0583373934442534,0.06435253858778157,0.05762252117167211,-0.08640273664341228,-0.03057356493889268,-0.0736641914590016,0.00717171022042653,-0.07874967422626362,0.08526006764667858,-0.07768673454172537,0.040603869109631985,-0.06388423830729456,-0.01655179678357922,0.04403142751030178,0.0682931284417373,0.006637859455250963,0.09695733594268827,-0.08229224826331262,-0.028539225020868968,0.019786877651839462,0.03563398922322128,-0.09740147763802492,0.0954654848569882,0.04983378896876459,-0.01955169575568143,-0.08928177879973159,0.03777374768043643,0.012779751531006103,0.03414161886115803,-0.0720994133095918,0.05640732748244343,0.00010453089691073449,-0.048009051828241354,-0.04401319302565136,-0.009765666254906803,0.07823627030773062,0.0836620721223664,-0.09281865439040864,-0.016126782673866483,0.013413642518800251,0.0009276009884379628,

-0.11644211134284635,-0.17084188206036893,-0.12056864969984624,0.239517566441228,0.06912430720257197,-0.09962299016174078,-0.022439452739078023,-0.14581201962634868,0.12291581464231946,-0.06424671270609214,0.40094592351547254,-0.24020096646029646,0.046567560458573964,-0.13828961062313652,-0.10452938064007057,-0.034112407126730186,-0.2605157296212745,-0.10674093580708068,-0.024398688247316305,0.048082824742557574,-0.37256708743192035,0.00596305907750962,-0.2170298588879416,-0.15249437202960245,-0.06477143843419694,-0.05466338949618395,0.2337785552870619,0.13778373459070423,-0.13148108010525275,0.09130520363341367,-0.28962959478631906,-0.04988719626110574,0.04506956664636335,-0.04586110074832116,-0.09465179601130687,0.4276536190959188,-0.28074964371062516,-0.05043404383297544,-0.05496024734384225,0.04250683302809883,0.045549018194002165,-0.43525354908714864,0.01954279523472029,-0.1443017287454672,-0.03218603223326395,0.2442930726002064,0.06536679551421909,0.05543961435829903,-0.0782200983586359,-0.18136103046986252,

0.08994888762124374,0.08992718705618188,0.05242001248616459,-0.06819021917083838,0.018360177878695906,-0.008224468336998466,-0.03731141379336022,0.014903463840181291,-0.09753836926516239,-0.007218882128070562,0.02752997742480281,0.02202198857110153,-0.049518422126835805,0.030209211067438044,0.08983530781566629,0.08835179895507525,-0.06554681788890668,0.019983168195241745,-0.05006573422350806,0.07254361249248414,-0.01517713530468154,0.05084058221259508,-0.07266267957390192,-0.03574869724614573,0.03143196571626376,-0.09801129839921074,-0.028850826291023764,-0.10060089476039781,0.008040061078069309,0.09416472467007778,-0.022519489452820993,0.0189241285208769,-0.0021900024861028792,-0.06654182590981236,0.09804654847311547,-0.07565557697100024,0.048041443682373654,-0.0858673703524805,-0.020849047202175997,-0.023612932767125037,-0.10209202762186266,-0.015263832142184512,0.05740631189384264,0.026917558034425706,0.041629578582031285,-0.023554243379993543,-0.09370160908122034,-0.09089291594121077,-0.030001108693277795,-0.06764690890398901,

-0.1212155092072358,-0.12085641589668251,-0.12427482414837063,0.04231820712768407,0.08092609811932815,0.02844942874998814,0.10626371086430918,-0.3675149484482037,0.1919198825521765,-0.021199036971882117,-0.221593266517699,0.05975496143549586,-0.4799067230763246,0.18036661488216663,-0.07204674748679657,0.09256653729709885,0.29501330828798916,-0.1995272887107032,-0.11604174385482738,-0.19679291248678574,-0.11250478090946163,0.32165645346268973,-0.1789698941261273,0.03107368994635032,0.2373855755907155,0.038868027396509186,-0.10099741187536093,0.3231539801783043,0.15277258842981842,-0.06682283297342606,0.23880483388865187,-0.009219431502938254,0.08622726145626365,0.007622885010298154,-0.10222299008328203,-0.013978979829024036,-0.20123401861434012,-0.32358882345586076,-0.35774079612284426,0.04137269583898353,0.031175594372861035,-0.1932135062446301,-0.31499466238807405,0.09419125312317225,-0.054660356735086395,-0.08577082154875912,0.07024969180304509,-0.03778795724218208,0.09222864084490738,-0.09389023701784728,

-0.09979254664600824,-0.05979756853886118,-0.01658093614843004,-0.015468720635905008,0.09325662432185271,-0.08564662210061737,-0.09569280547963281,-0.09240073806569372,-0.013308723318456719,-0.12407057601908897,0.015251393652552396,0.010772066837255402,-0.21980249857062864,0.05337204573959372,0.07103018308541337,-0.15415974326611864,-0.12889163264133763,0.17791470782253385,-0.08567546945469269,-0.09314368505862755,0.05363094573046847,0.1458601120427824,-0.12023217016851313,0.07433527595615577,0.19425936273365782,-0.06228459053544424,0.07011341643924585,-0.031330045027855045,0.1034037515743674,0.0473210899860064,-0.15583475657031545,0.04036676643467339,-0.06454393131045615,-0.06016826471833978,-0.10282211389421816,-0.00675999128048366,0.036873977072645905,-0.03447744114424483,0.031010214251473316,0.06932992119689828,-0.03295870458690963,0.006178280499872299,-0.23270736772507714,-0.11370488382302514,-0.01702309581709523,0.05508194662456873,-0.022590398432383838,-0.013705915149956628,-0.10238672685411064,-0.09540775376740912,

0.40327814468012296,0.06551994028976266,-0.08359165825743076,-0.1111526559702402,-0.09295342925403825,-0.23036029026080893,0.1041644088442694,0.029234812243294696,0.04479852823022722,0.14684056075955743,0.06608388953133248,-0.06811492250597752,-0.24758215247508872,-0.11634039618897692,0.08999412412421808,0.2602761117107825,-0.04451862085237469,0.21188870639668134,-0.08009800641761301,0.027848620089880205,0.09907318047856419,-0.22536710287210918,-0.012835547517627562,0.002979234532882062,-0.06503733118690438,-0.08104291694633926,-0.2964757893444052,0.3753490657337121,0.14031368266104288,-0.21451195763843015,-0.11277172267111701,0.044075117411651384,-0.31508714021514284,0.43062913438947825,-0.02216279639426989,0.3283128521108012,0.13086344742465172,0.2861605251537193,0.4066394706425397,0.23854589966605158,-0.013506204983316086,0.18146010059073328,-0.09626953010908451,-0.2048947621588197,-0.05604810242548682,0.1683684548616365,0.14176314214388025,0.198325355303006,0.1922622379686075,-0.18796762349197893,

0.1463348519079684,0.04819699574776535,-0.05973399200087467,-0.13580918770229392,-0.07997769649860767,0.09723869852986855,-0.03635437317753727,0.1267727206853481,-0.046412666074826296,0.038230344336266375,-0.028467571120280078,-0.0525159313173435,0.07698928297092214,0.07866864266584583,0.041521623730303124,0.04811560113176891,-0.01895742122410756,0.014649296861236713,0.02235191774217531,0.038700229172785865,-0.04231258178852987,-0.05518315119004624,-0.08220029795428486,-0.0163011681529745,0.07236991632857366,0.03977395530310193,0.08303581378379844,0.03419970649012811,-0.0375419074798669,0.00437763793859284,0.08246674818711171,-0.060505500040942295,0.10930440419631525,-0.050868483068136044,-0.01837249556276865,-0.004417052701760973,-0.09832777548060159,-0.08351934634428679,-0.01155927811219812,0.1549856933813939,-0.04933917687339014,0.038248171647821835,0.011514841653660818,0.17865279134375708,-0.07521538142378398,0.025900248299523185,0.09015097076866532,-0.13229829149732536,-0.07882698931117858,-0.038637078614896805,

-0.1700696568179191,-0.0625877362475775,-0.1339510543890657,0.43704637397868307,-0.0819684592484411,0.2644535384565007,0.2849115531464506,-0.39995341093759335,0.31711450698934124,-0.22866919538628788,-0.35178860886829405,0.17111353964218876,0.22300050352803572,-0.020916661639184847,0.06414306656225406,0.10591638071735274,-0.17970450376148436,-0.21487590389320768,-0.10390553742995312,-0.0867946249482726,0.17666813353231686,0.03338562169759682,0.14726091290050225,-0.10305986940439754,-0.4407368538691137,0.07278388306511395,-0.0046348745354400115,0.20050441739302918,0.2188427424994706,0.05636136125115105,0.04436732679383768,0.07676636302960771,0.047045821462952636,-0.3073543230618424,-0.0880293778634388,0.4732958013434196,0.003049169523795585,0.18885682866914547,0.11834885951196797,-0.21058416979562652,-0.04183851517542498,0.39176276340918026,0.1318290557783942,0.2993099155381618,-0.08408463802074619,0.04149808871854274,0.17315980094750544,0.028707032723381796,0.19425488564257193,0.08233400785870847,

-0.07660006039304264,0.07766456606284251,0.07837127672473441,-0.06535072369420264,-0.04180891380061902,0.032061063346804364,0.06651094477575697,-0.02796491895671707,-0.04529696925697201,-0.0037543276654008013,0.03667641885077221,-0.020952109342493253,0.06941754936019595,0.06312183729448924,-0.049710038070842864,-0.014119016927637834,-0.06707499309269231,0.08551643792156663,-0.03509036940154187,0.012210737463928032,-0.0994734501393985,-0.044896354339521785,-0.07060925870792857,0.008673296378575945,0.002706988531316606,0.09864174884125528,0.0988871300320574,0.08205899258340141,0.02556711820909936,0.050622496359009166,0.042998051235052986,0.029331953404524116,-0.018926047940313787,-0.08697758373372075,0.0059608447404674554,-0.03631065798032334,0.04603594302149347,0.061060995250868104,-0.09282380909189403,-0.09601925639563243,-0.015888020217653655,-0.040620785012941585,-0.04012651547684411,-0.0454472331553912,0.08683283340841623,-0.08711880515473537,-0.0840908910868987,-0.0062458445428068285,-0.03329150364255184,0.009457819651945563,

-0.28609385431683154,0.02714469531553658,0.25222892764209487,0.06873593925126815,0.03929086473934886,0.46431491318634693,0.10220549654084018,-0.03881238523245179,0.07673919375778095,0.02167629911203106,-0.10399880931201778,-0.11231528465782889,0.12167556819418102,0.16771278889393468,-0.08129197225288656,0.10170170022719506,-0.19801538287748924,-0.11399931904858186,0.04777608061840927,0.017544987472974036,0.05616015478081595,0.10946581887245609,-0.08849154781197582,0.12890445423953908,0.16922345156034985,-0.027079603963482014,-0.11263918767784405,0.27359832123381544,0.15428991587877228,-0.06579042347872312,0.03411395477231773,-0.017264851708957488,-0.04700661422750297,-0.09891007039302768,-0.18732335600496725,0.08984138391040997,0.18415025607205374,0.09035729006723014,-0.2717680329375995,0.10714976609728971,0.009219102403312777,-0.027465633463568152,0.0053842718516408546,0.2978266075194111,-0.04805927210563573,-0.22114431790320663,0.04425448343962807,0.6055122104048577,0.1290957737637184,0.08917718425515539,

-0.09605016224935732,-0.05825388439747554,0.06343866262333521,-0.1418349525913436,-0.04740418338323126,-0.04065745883406333,0.020169717914231788,0.09819085034907386,0.05518406886768566,0.08642148414872788,-0.24708287048498076,0.11588723839814707,0.36835415501200974,0.0665813282342557,0.00578645119771274,-0.23110922941880824,-0.11422171120313461,-0.42508503182137264,0.055900665312234386,0.4194737379052296,-0.07408476600595709,0.04247680495601704,-0.006024816570794009,-0.10119202212193404,0.13379875544024306,-0.07325994399356475,-0.12165991489277671,0.04972741673617244,0.03824173722466757,0.2222807313563778,-0.13937202596166634,0.04804676693057869,-0.31624540252785643,-0.15851503465009037,-0.0287214342014424,-0.07993182723750186,0.2058600751567588,0.24339849494588747,-0.00714659268379689,-0.15206630534444768,0.03202701557886297,-0.0005568157074369494,0.01673056104594982,0.21704802026169834,0.06783545837371296,-0.15142482511048844,-0.1853589374830818,-0.010840852459710629,0.06777409537209533,-0.17307590631831699,

0.012538441630016283,0.09050022408335921,-0.0549899205086756,-0.009168009746435002,0.07685967682487972,-0.09455712640524,-0.07716265147369133,0.10076779133379771,0.0840429273507694,-0.0898102662013179,-0.050120228335682346,0.06433954308507543,0.0008796172017157066,-0.03969193009782816,0.08725828659212287,0.09920488366678552,0.06873135419274434,0.10181104201612369,0.054388141734308976,-0.06707928323982004,0.009756992164660541,-0.04038213538379227,0.04127850969832044,-0.04989646644142905,0.0919939782761509,-0.07339072040754331,0.09208358743286826,0.08337893328689083,-0.056363724580274714,0.01746295959956281,-0.05742737657060866,0.08367693810746862,-0.09218756232939544,-0.0588607370192452,0.06673088414348383,0.08031605098562897,-0.010615115386031647,-0.042335014162169574,-0.0742681832750422,0.07043981149003732,0.03903361816797654,-0.009225429885761239,-0.058074210045981296,-0.044291082004283173,0.05409554173786726,-0.07881124245936531,-0.07343225707915609,-0.031829069155021684,-0.09578098738790339,0.09592948411544884,

-0.02252581526890556,0.06958389478633314,-0.28053567379754896,-0.24455775276601824,-0.09042172806473875,-0.2609838324979208,-0.25384132611774674,0.05727155217549964,0.2315270041233626,-0.04222367608631856,0.16100954392381545,0.0938102275962315,0.042464824175386065,0.04890930741975933,0.014908905039484095,-0.014382029767237495,0.37693263878821714,-0.024506857770365483,-0.05313069900767839,-0.2718319122513264,0.03984301406043649,-0.06313243102358619,0.20318740121210904,-0.29038039671067273,-0.13868294434864717,0.11764719915023612,-0.12769661178342465,-0.13393826884399196,-0.1922378905737351,-0.3942115576486872,-0.424187074924483,0.09166711042888456,-0.019445354902484585,0.40681473569989474,-0.2176891323071997,-0.12550249781841707,-0.13304645002441023,-0.1325550616094684,-0.023372209541758393,0.07657169320737135,-0.06444780269128175,0.1533857648242956,0.009036751215272056,-0.3840751889129781,-0.04470011137379722,-0.22687522755059966,0.14789588941410486,-0.10507169379300164,-0.1257060995273414,-0.05593547515798764,

0.04875330307875888,0.06465851222409805,-0.09022370781534708,-0.06437324201550419,-0.0580192093872657,0.32516282413320907,0.025465247697243076,0.03064906635592837,-0.10983167591537676,-0.1496050100195034,-0.12104473063172735,0.031118866459136658,0.32147941389096185,0.24081847509434834,-0.022776168379810932,-0.19418123980354648,-0.3406928569641821,-0.19705866677803854,-0.09922222763421487,-0.028014758957232926,-0.04011049105432191,-0.35296770544189343,0.040041132661992246,0.21207565279721594,-0.002139393813111565,-0.011381497003871546,0.1337768750801827,0.10996557929460253,0.04815839382905922,-0.1250593252542958,0.31467619753286463,-0.059545556512143216,0.13725924730988137,0.20922926182193857,0.08775064538116537,0.36433372110239914,0.2647194693665713,0.21902242600042543,0.038093385327553596,-0.1973064908322155,0.052404232950351,-0.2100028146165484,0.13061175531339123,-0.15078693542002028,0.0870622448120064,-0.11775476265569196,-0.017466569863138652,-0.1762740377209421,0.10732196841587757,-0.056400189063574975,

-0.0467956971681757,-0.11829524867289248,-0.08158410698296241,-0.14324302614478535,0.07390979558520393,-0.00018808683954657922,-0.009402192799231235,-0.05006184888042428,-0.17783329038336118,-0.006035272596932287,0.09236143275543397,-0.076924528056028,0.22352892979317238,-0.0010167177524754926,-0.004214955541191057,-0.13047104134006063,-0.08702000518418496,-0.00227583145745708,-0.006669647200552001,-0.17272444037604762,0.06527924313399884,-0.10334373456222319,0.020857670395099198,-0.050004807565161125,-0.10594969348792989,-0.09326097543827874,0.05750281850148725,0.027460516686070864,-0.005284986955398235,0.06203602567846818,0.2890451938659021,-0.07218268240097535,-0.14287693963927298,-0.147147872094522,-0.033683318110283085,0.13721310903577258,-0.11010703278703432,0.029998606972059607,0.06198236442649137,0.21531465604708208,0.012046911628461979,-0.04640417512337655,-0.1285690152194809,0.17072689960661505,0.038949965736450785,0.15883498557441994,0.08075697631495594,-0.09515266975328336,0.07815320843824661,-0.228929209011251,

0.14825886245929298,-0.10173810912620761,0.18306770981023465,0.11478858593613916,-0.042391282191919996,0.10462243813103002,0.12685298827766645,-0.23237891374722539,-0.06506047875770854,-0.03838596686526835,0.154214962735318,0.05444296984730717,0.1612552065071823,0.008781351324900545,0.09955706439290267,0.09116465123882118,-0.07881849398004957,-0.08383395140141131,0.030491862630532347,0.08814350683853413,0.04018522693225268,0.09396687295587218,-0.001219964598884878,0.08727199166824437,-0.2909409143127929,-0.03790173768305428,-0.0061709791150231915,-0.23261807385138136,0.0961676343636436,-0.0022128194725074737,-0.3087909165838155,-0.056843856121327904,-0.018102943296618396,0.012670811885578217,0.04670045735766455,-0.06789695773986476,-0.008034888745410817,0.1057385527838953,0.17651206965105068,-0.0828018162076416,0.0716729948141154,-0.07742070104235045,-0.03135784855963503,-0.0035281435051006797,-0.10145325788310679,0.03254184824790672,0.24802051916395412,0.10964022894663022,0.019285187112959044,0.047821771702866944,

0.1207499644602348,0.020174737469171908,-0.1127094191347215,-0.08431728332781878,-0.07356533792203565,-0.3266142107014419,0.01739583790100452,-0.07019704352418119,0.04465043731503201,0.10681468731903335,-0.42008777655714247,-0.07449847292858434,-0.20649814151397164,0.21083800452770002,0.006188955345691336,0.032350927451964884,-0.05523498125142611,0.07830246939117905,0.027293441421705786,0.023572641353221752,0.17189243707161245,-0.17858431967624144,-0.012228903692953036,-0.014997687477732053,0.009588118559017573,0.04106952982921091,-0.16770859259035464,-0.32660932721420555,-0.27305796208530564,-0.08091028558273682,0.08367223145704006,-0.016879391269718512,0.026573313624094208,0.09728942235422754,0.060782141657945564,-0.16201947905795522,0.22633386874123093,0.34781921679559563,0.07275788349832991,-0.026267976181282803,0.08893684651553903,0.1980432019658361,-0.1932325201345643,-0.09914152291666649,-0.09172947901526259,0.03421232799814543,0.13456150531221517,0.08261660855783302,0.0065474165845657096,-0.12107558642684696,

0.2316097005881157,-0.04784610570565259,0.11979199717458164,0.1745939413437391,-0.008420898934565588,-0.14270233849982317,0.0605651474339347,0.18057545234330588,-0.12482284282675729,0.10177281426842118,0.15191456886555377,-0.11729211742782311,0.6140114627931272,-0.35126958030776667,0.048241172031316185,0.07304147185230037,0.0312549997521883,-0.2876091491040008,-0.24821775324015655,-0.19578763408033611,-0.08651791184271083,0.25416690190558083,-0.051566695168980124,0.4956004526728169,-0.10700388419404494,-0.10181209206648675,-0.1900767611633158,-0.05068106816754029,-0.2733917324456483,0.09229738585738032,-0.40490246223420356,-0.048122200820201,-0.39869294383199666,-0.13112383311601894,0.0006978058141712702,-0.12007336411105608,-0.25536063921977703,0.19159310166909269,-0.37772619683741465,-0.14876223054031093,0.09631998375861939,0.0437004323142168,0.01366319976847941,-0.028316824699457226,0.00044182020204454493,-0.09422723145613845,-0.24086259376775113,0.2024765509073152,-0.048505060523254956,0.07798298358710497,

0.08498213570160461,-0.07520365938945095,0.013492740858142506,0.09743373870537482,0.08489575718712376,-0.082457452599142,-0.1104447290534403,-0.2768327263560525,0.1865163990754483,-0.0829734551527592,0.020748411333719945,0.17558614525272134,-0.16124202037635,0.1181405312926177,-0.09723716408438944,0.01239331595605462,0.07073551436377021,-0.19569447061111236,-0.10935707662887116,-0.02976836292454622,-0.05839416453818673,-0.11813802970268704,0.10391063632447456,-0.061563711350862506,-0.03436304543034826,0.08800637540495619,-0.06323966487342067,-0.2800323110942748,0.1285702139347725,-0.04143117811482991,-0.20056250760816924,-0.05263163913915424,0.002149764260997214,0.029541868110542376,-0.049460427744976686,0.03199570267466831,0.31285955563247975,0.2511579753617284,0.1394189594519522,0.04483798126309226,0.03560485400432841,-0.09523207680136142,0.025448640484868473,0.0024628766959538515,-0.03528010102229183,0.017060620486851922,0.17402342930045478,0.06346368794100717,-0.26158651653221343,-0.06570095937535966,

0.19025925952797998,-0.001059933509467208,-0.21684285561725222,0.08120015103863723,-0.060281768264604914,0.15171618173663498,-0.12179803929148832,-0.22161165444198022,0.003707448089827183,-0.05946218153765357,0.08980507148914826,0.10323807479425585,0.049227410151723765,0.024311390206876733,-0.08662488371740129,0.056932188754852855,0.028594241301533915,0.2311588831649983,0.047759999166855756,0.22842296179159194,-0.19152641155803535,0.47492676050749383,-0.17367297293469233,0.1926648193547312,-0.029685347863078696,-0.12835767191710734,-0.15335131373990532,0.17403052951549167,-0.2077481691323286,-0.1622917901983494,0.46198344923520374,-0.06479379284960475,0.1609190202860694,-0.2101128420361171,-0.02968631534192691,0.20192537001399583,0.18485702311156146,-0.13271444495299325,0.1192608267505853,-0.22251348114440014,-0.012990467628393808,0.22003436941830753,0.06632125067682196,0.05888332307178372,-0.001793721252715537,0.14873876916793888,-0.0700653234216569,0.014581503543116658,-0.04787796688524179,0.08938656149945762,

0.23508625700887986,0.10665483384691302,0.1418383894247034,-0.18390217148250126,0.04486419088923186,0.10284767570920839,0.11443044853079108,-0.17743553133232495,-0.11976403818896679,-0.10098938984170315,0.04034666637574226,-0.03583696805793674,0.2434954442579812,-0.01109732556867659,0.029210238532187238,0.3136939125111832,0.036085129683263495,-0.47202780763190766,0.13930383362864654,-0.03632934483315743,-0.17545461409490393,0.006768404009476771,-0.029816511533848577,0.33733259797777565,-0.1597440393848839,0.03170054692379927,-0.02984276449542009,-0.33649437370451313,-0.16185639643922964,0.19474035484308988,-0.052735402986196646,0.03348390329851086,0.012685733002877123,0.18017250470622773,0.0011665407284159374,-0.09034111986609648,-0.36616795073740593,-0.14199774037973387,-0.06556553343306604,-0.0668409192133274,0.039731103555387996,0.021403525475789317,0.032667182342307935,0.081402748200769,0.09483327268152458,-0.27831814587809806,-0.079733091316937,0.13230441254598116,-0.062420495690119815,-0.10013147008912145,

0.1865352683255339,-0.08582781532095148,-0.06341944498295592,0.1640376231102821,-0.03556008369604659,-0.016260513150517988,0.028425914966763936,0.3471650350957742,0.04854933403314214,0.1778593641325926,0.20292402423415767,-0.2960947826255365,0.22432591012165784,0.03771696194709566,-0.10493714636566501,0.13263469294059682,-0.06652105529284,-0.16595343610511373,-0.0804288475048507,0.40927825575122667,-0.0812738437753513,-0.007199883510464873,-0.005599168454605838,0.05155855762923572,-0.11131272976272549,0.03455809904640238,-0.25466590955150115,-0.39913992562435174,-0.40969148895542834,-0.14886237304644803,0.23664544386940106,0.06660500557728606,0.3104916700282649,0.09423493293174041,0.13428300267238516,-0.14801808588649623,0.2125881891642165,-0.11390099135399194,-0.017472589338855118,0.12804761675226511,-0.029225241674449735,0.09371575541412057,0.19232829536159554,0.19080868999727757,-0.02271606803935692,0.0779723670640215,-0.33304994151151146,-0.04342757039525491,0.041520871794761265,-0.20642901115302908,

-0.11691967185144723,0.0015164939748234596,0.01485302221016404,0.11588285619270164,-0.01579259525810732,0.07340373092126493,-0.02615268214389464,-0.20135256585570255,0.00949232806886308,0.07243613820328984,-0.0164168274761743,0.06515508461647924,-0.11452242267706325,0.08374160126344898,-0.031164504050821266,0.12119291576684006,0.038846020626026594,-0.020830299787702657,-0.10146782657757815,0.0813594625902569,-0.0035070045129961106,-0.08790893216065242,-0.0014153734493020423,0.038045544475756386,-0.08891838576437668,-0.013599646768378115,-0.09922392232735565,-0.19073467393445637,0.021661650015458393,-0.0005188709312735272,-0.05711306429283286,-0.07753790069234887,-0.10233412213017626,0.01659857308987826,0.038213585635021134,-0.15536473707918533,0.13151176283345392,0.08409080978364289,0.07267170886124037,-0.028203934641374943,-0.05293118275775105,0.10608561829280967,0.00034609014944922065,-0.1107391891584382,-0.012266312269057405,-0.17037337978686243,0.03721264189623317,0.009477455988133739,-0.055547678689637094,-0.11942586849491682,

0.11534680818713013,-0.008380435830495246,0.10753110280157337,0.1770542364734454,0.008147832019612887,-0.3224237406387719,-0.13158356240322655,0.13630477317156545,0.19872515332680912,0.08421065983443485,0.08040377592748565,0.13214308860840862,-0.10214090618443922,-0.2102937411329341,-0.011898410718508884,-0.054311576996382026,0.17808299155687304,0.4817290649901708,0.02825201299145875,0.14696913128178013,0.05936576330486372,0.17489927507409916,-0.09700344464642947,-0.38941056117196704,-0.27363220957323997,-0.06666003808664175,-0.05823494328003092,-0.3883612941807164,0.4094238151952907,0.30176381684270354,0.32711645272713996,-0.03674121281618945,-0.12476095296787197,0.10899134936679052,0.0928736100643147,-0.1567322916093784,-0.003863771016145211,0.03247425072317119,-0.24909400562899217,-0.08417831623402104,-0.08260168947897502,-0.028305014837185026,-0.03891961555109817,-0.18311025060437386,-0.08080863491258868,0.3160019838909191,0.07544332325063671,-0.12015408692976988,-0.19207458748996462,0.006289149548144164,

0.0029515480606112894,-0.039539505885565124,-0.010196498726941316,0.39202992063569037,-0.01611624597024018,-0.04286365083877884,0.057684565709568696,0.22212535785083412,0.3562735839053936,0.031673804155993995,-0.08523153650614348,0.06295023803723637,0.2617460534883539,-0.01253689003274054,0.07727242318797478,0.17960324964547578,-0.15522148192661991,-0.1972600035995175,0.09097792327065787,0.14633322883967664,-0.1317847890206343,-0.05692617876513369,-0.29144444642183864,-0.009856591037115017,-0.453869783416599,-0.025698897810937264,0.05678738979100271,0.03795310143673179,-0.11145606880358946,-0.3556341609804272,0.1369522552762419,0.059222418764087646,-0.1521297990164045,0.020325903579312837,-0.3344581937041601,0.07506959158384997,-0.31029077029566354,-0.27866509827490743,0.26495301553882733,-0.14383028855713798,0.011979377171128834,-0.11369099456662625,0.22915148881983013,-0.14894442705414493,-0.02850718485363841,-0.03681623847390245,0.13126140765086003,0.11849340103986794,0.035646720185277495,-0.06743256928765748,
};































































































// set_bias_for the second layer
float bias_2[50] ={
0.03321822249555629,-0.20605040197635022,0.10577047686400023,0.01115150594627229,-0.110664490481947,-0.08927418694717183,-0.07026147484587607,-0.11985897225632343,-0.26737240940469215,-0.02696998604856742,-0.01946017609698081,0.01221520850941437,-0.3555533354935137,0.15994408320870407,-0.03515153114862846,-0.16635590654964713,0.3008108844142513,0.2687921949602619,-0.05631100444882642,-0.16542249382477858,-0.024259937009040274,0.0540271498797467,0.2686112224070843,-0.0008403054558246426,0.24201004231662038,-0.06804208977642112,0.01975650732568784,-0.07234713644771236,0.23655642536648883,0.06818417806035636,-0.16396221936341476,-0.08516868714283753,0.23075572618314874,-0.03445080065046749,-0.09896027923698371,-0.41664330879243733,0.2065749543848964,-0.2894024029565948,0.10410127723463941,-0.0168364157534826,-0.029965767178411606,0.25990682927386627,-0.16532628756131673,-0.05997290500400722,-0.081156566388326,0.18679528371726914,0.08584129588213119,-0.12064868703999826,-0.08900141622782226,0.17173791685522163,
};


// set_weights_for the third layer
float weights_3[2500] = {
-0.14241919746238432,0.01947793231908238,-0.1472776795175653,0.5902162347525443,0.1992045353819888,-0.13423456532226316,0.048090660086538284,-0.041856529937511364,-0.1467905838747091,-0.1896005762642241,-0.0362192483279288,-0.006119725883334818,-0.023364775810075834,-0.03631871088144766,0.025176950577763466,-0.16844685583111113,-0.15843776125633047,0.08962790385961923,-0.05704491727391573,0.023414360527827777,0.07067954564432385,-0.05755063988162286,-0.0372760159363331,0.033142223586391274,-0.2435570636178215,-0.10040722885183677,0.2266622901841772,0.07841004454436466,-0.06861503287573997,-0.13265278837590383,-0.012700224921036446,-0.0783639131647965,-0.04239242192202053,-0.2793112106698425,-0.00805979045833709,0.02033408684125973,-0.06434363593427014,-0.0021049409236401336,-0.08966904263913412,-0.05841513668384646,-0.27840918127919445,-0.06361179685648202,0.03571982425184893,-0.03217086971289776,0.16873264850752148,0.024606198190106218,0.0698824309138975,0.4515486091925486,-0.005568196675392736,0.07806237811842094,

-0.0405305980232018,0.11276595191782501,-0.06437373028680723,0.00441582268341804,-0.1841563404702539,-0.11310031166749669,-0.018377487030094113,0.06772293966608611,0.10636878379529513,-0.02651206645400948,0.010504186672131119,-0.09356145340017638,-0.04250828202230697,0.09620470602543214,0.12614164767249422,-0.023405780858998942,0.009108105932368528,-0.060266708107162004,0.05450662374431481,-0.07067685163433379,0.002404289519436868,0.06291636659034554,0.0930471588330212,0.0006814686225765078,0.06848285591767615,-0.0967197851377626,0.0774548588333757,-0.0847854218634084,-0.13908835461376617,0.1304857721204894,0.02694949852950184,0.008644685885241365,0.0607210662133839,0.17611264974681592,-0.0848612362124414,0.06520683248581294,0.05333591142672438,0.06504908380491671,-0.031036925508350313,-0.019212757820310757,0.04085267123785088,-0.03433232336097713,0.07313069979647754,0.09253313395234025,-0.0023600217903211322,0.13566851681591593,-0.025032317421776737,0.015829478549233576,-0.01946893392214605,0.059623610102128646,

0.063874620124389,-0.2135019712246562,-0.129944828992897,-0.03775958147504747,-0.179778499411043,-0.3773489251026283,-0.010947092956980691,-0.12695669513989816,-0.14707171630126634,-0.01873921167894866,-0.015429693631029003,0.042042130593363584,-0.1521749173432731,-0.033922211562423664,-0.08704152257465791,0.03630098934600229,0.1842890172653658,-0.1788238617602838,-0.026581166135171683,0.09011549410215496,-0.14849649002498053,0.07750764074115073,-0.11674536699886144,0.011788902506901499,-0.008913526692588918,-0.16856943517490258,-0.20226819514046698,0.029385360324632775,0.13908481372062945,0.021966070894875202,-0.0771613129890417,-0.0968207350375695,-0.026151550050625194,-0.20649163833732115,-0.06485841141680306,0.010849243513509256,0.28249242958852794,-0.008297717596349272,-0.09823261101053302,-0.035518837595172326,0.5059638098243323,-0.08835752683214314,0.00696657355501645,-0.1416001821735722,0.5002373686283836,-0.19451485235879223,0.11017231271812002,0.19293453412234451,-0.015343150705349294,-0.10420027552073885,

-0.11092189820293968,-0.18587986317656582,-0.2901628058297565,-0.08216745682036572,0.025538956657741422,-0.14685886038560333,0.03046780718463049,-0.12665439840997245,-0.25347784668343337,-0.07293800972881428,-0.05317923025835522,-0.03880260522623508,-0.07236902106274963,0.027896736834017857,0.11976250672299206,-0.013213654714091957,-0.11603318353291144,0.04782725932680402,-0.03415818485312754,-0.016163618424854764,0.10541427441106284,0.027787712439496997,-0.002792241346470711,-0.0008922713114235327,0.1726526271519528,0.0505718333498178,0.06080091978497631,0.03782192401944124,-0.251048914806841,0.016586992882005103,-0.00504898909716551,0.006451601073494639,-0.26173212882997615,0.37152642856323675,0.08081043947844907,0.002294226644945718,0.333933990694145,-0.09433721436539705,-0.09558738789547791,0.07855716738031318,0.399758410406916,-0.09856937377119954,-0.08480343526727666,0.11518258910247045,0.04139511438784641,0.0771700960762505,0.08384026133858555,0.14864269466383603,-0.1010019839941662,-0.0019857070364262077,

-0.03181176433564593,-0.05682480030892367,-0.013276660104351983,0.005558859493169298,-0.014504066327071501,0.08761188116544612,-0.005608907426764731,0.07734083123440295,0.0569043761522632,0.044541017470277555,0.007883556552734634,-0.074349592758925,0.007361540117451916,-0.09764746782309228,-0.10150174802331297,0.09643979956304785,-0.05613351484995159,0.07658021195705592,-0.0016229972538719672,-0.07053131287895018,0.027480791836456703,-0.06032380638073867,0.049774116139761786,0.05060752162493184,0.008582979107756947,-0.0884886976616402,0.020444638079552924,-0.09532642754061123,-0.04734873681756522,0.05563175980566052,-0.010270751556408796,-0.06491221855276595,-0.010413180982843431,0.011374425683479199,0.021048458217037,-0.10225496621350473,0.020268666366412225,0.09827288454579357,0.03489405519227844,0.05674623823057078,0.06356563712293359,0.03950503561584936,0.0024157839107324807,-0.01647149110180801,0.05389047999570933,0.06056659262357869,-0.03829371097458991,-0.02256849451879566,-0.08973882384808239,-0.01918145173361546,

0.14132711630342648,0.01920309622666015,-0.13180564113139331,0.012446811192701314,-0.03716423274746781,-0.2622060195367387,-0.006416007780568829,-0.17046014347459199,0.22699246083296237,-0.29208706780252774,0.0509931186785175,-0.013442588991299183,0.20322036707841798,-0.08210228977703961,-0.006379819693048803,0.12195908303079817,-0.1452334760016006,-0.07367348577187209,0.028975690859275788,-0.045117238965265496,-0.06724133664932168,-0.0361125319935722,0.059215922380717746,-0.1036074822853574,-0.2428015734747238,0.24200294173061979,-0.06050618209948923,0.08669014216544779,-0.3794315556636364,-0.0023723618142846644,0.06859677315256138,0.03753721243807894,-0.03803445861164851,-0.022776438401250647,-0.009377379034842748,0.08666604052002287,0.21453570190506352,-0.06753346450120488,-0.012603657240346936,0.10248189342295536,-0.6260409138702597,0.0438879129323105,0.0036498796404533973,0.197764400389082,-0.014811067338851267,0.0038029333823952015,-0.14215457382423896,-0.08746284880073718,0.00650501838348288,0.006174422706542972,

-0.0670390026092497,0.10933971525035242,-0.35920342382536163,-0.24246745657931093,-0.15063009115566026,-0.15209217167783654,0.06467357859946976,-0.07269222526285989,0.057233987824876084,0.20456640622125646,0.01205236601053718,0.02719452533676717,-0.2892637243203831,0.027820479450947715,-0.08005827429214794,0.1200321042617592,0.4849638042833433,-0.17038745639238115,-0.04863708591406047,-0.08344833393845187,0.05393590100844902,-0.08818145519187975,-0.05832578555477828,-0.056615663076439775,0.2691371311845056,-0.23340449465279464,0.23495154429039877,0.018586438471549612,0.3351104744255001,0.12721677693103486,0.049517547191245646,-0.13926417438980906,-0.11989131108259901,-0.3043015264906803,-0.10999507499610282,0.011679495253700206,0.2020197259594054,0.044227159596492725,-0.10248964491837484,-0.008401905002422412,-0.18435048988545474,0.054784243872320434,-0.03729430494734311,-0.08604500142819901,-0.3942745392132862,0.06382205368347044,0.14532320376907973,-0.15950689210496385,-0.11103338363226808,-0.005443119598564789,

0.12471418693115341,-0.23560565871126055,0.08429116112011302,0.4085832139018493,0.025260147548139707,0.24741117339995924,-0.06889054720353946,0.0606694592831295,-0.15520693556871495,-0.11193168017449374,-0.012848195418154192,-0.029198786581213932,0.08168175446526868,0.062399760227000146,0.052393742871109074,0.0017670108296349047,0.13649754211732343,-0.05765388450027732,-0.05751854682470622,0.08520557734957286,0.24861761771522012,-0.07491145767594083,0.026182272841431743,0.12189923910741256,-0.06648641462963621,-0.29296495442360715,-0.3080293793403724,-0.030198554907362004,-0.10260592751703947,-0.10869448624935864,-0.17826979639496313,0.0005208036028076748,0.025713900053936773,-0.2469617819217677,-0.024039082784751836,0.06051352065214282,-0.04568373687554025,-0.25613431878787757,0.07140179948347447,-0.08028477982184859,-0.374353530100786,0.01297604622734739,-0.037253991471925124,0.16762679115326531,-0.028587174178991277,-0.260278291797657,-0.09615862092931511,-0.08256541420574574,-0.06457781500120278,-0.015709748605877774,

-0.12880086824866463,0.31509555865608424,0.17658808288146333,0.3544611935829325,0.21813296058473697,-0.02465684887086201,-0.051969086677055916,-0.047101233890380886,-0.09176564860551313,-0.1357586255997582,0.08104404121898087,0.0020371547023997757,0.2430511788723291,-0.04711866571994832,-0.14814908201165872,-0.06498189705376486,0.2078747836178941,0.1920667725966215,0.012365641358966515,-0.043265659671257804,0.36588842788621145,0.023062519707875397,-0.05497427661936833,-0.09864776901020109,0.4561663348959709,0.1476813998803771,0.10868838681812296,0.04681775391130942,-0.11718811470099291,-0.03226380246362149,-0.04026334406024629,-0.11003890433525432,-0.03197636449191341,-0.3883365645703357,0.04060426518985391,-0.01586437531170948,0.18182163289506112,-0.008680298409880185,0.08991346903284922,-0.07639646900333878,0.25874012278506087,-0.06651195660719181,-0.12264226606069496,-0.058857272459047365,-0.019448290610465366,-0.06790922032256576,-0.1062243151107684,-0.15264143900432955,0.0572373016518453,-0.10606293805462894,

0.0028548672753221246,-0.005494640289142159,0.01137637724743186,-0.266729078303198,0.16376097133558484,0.20461847836590688,0.014730441736228134,-0.024068019488274184,-0.06643821740383792,0.047188536093064004,0.031836314555588274,0.046031121220622355,0.04920057428188684,0.06733384013528218,0.10591719603956937,0.0526696773984781,-0.12109724877811553,-0.19861908915790696,0.022675232798643315,-0.032287559789927596,0.057169879727274775,-0.07194431551916405,0.06910409064782841,0.07716174984551888,-0.10133382583801175,0.04132841005410873,0.1137990782057859,0.05740535490284863,0.02326414226808372,-0.10108111758657322,0.06791878437031053,0.0821070161314683,-0.03556470095017588,-0.1612794576956517,0.03255571899233736,-0.008511255162535647,0.010200598174236861,-0.14515129243797237,0.042614746435954046,-0.013387958070380623,0.03493729276056866,0.05056533245945824,0.017698367862589593,0.07588937947936868,0.012676477830902567,0.04186427279878914,0.07513785555228303,-0.12317038029532104,0.01985609773480855,-0.025467213243020488,

-0.25460247617324594,0.23119414509648384,-0.2768359575428318,0.3194363835330118,0.09182673625859877,-0.1396733781019927,-0.09674994422773615,-0.08505022237818544,0.0643429466668719,-0.08765892312057892,-0.09983903157403531,-0.05754945740422818,-0.2499615512793975,0.026001743616048685,-0.20672563731898883,-0.07257203257414942,0.32554313945674157,0.32130575499153924,0.004423406763457526,-0.05029913870700599,-0.19823448615697006,-0.055996873693369975,-0.029851607714943145,0.012258723473287228,0.12017341748698306,0.32057060135743065,-0.01420186718000293,-0.09810645677114549,-0.01619041740977967,0.04512596699258803,-0.09904639662581242,-0.034960558580957264,-0.0018051412570479263,0.25936110238531596,0.029840411842715773,0.021351573146030384,0.17092917984963987,0.16598130985034243,0.059141348361349745,-0.00788372004067872,-0.05344594523974394,-0.04284582888004022,-0.03274707596106734,-0.007943877171615293,0.21723345394428362,0.0214966239168076,-0.02401151049990332,-0.11930863725696973,-0.08310040549234074,0.07896130190798137,

-0.03397002800081322,0.07451908699746196,-0.04830689377325181,0.13734353686520015,-0.035038166152683764,-0.2961243914724396,-0.010690243865642912,-0.05904441228218848,-0.01267392970404691,-0.017428423520873818,0.07868698143746441,-0.008924262114481857,-0.047785494680648875,0.08657382610430976,0.010255495650718875,0.0004798622879622467,0.3735935432853875,0.30583488321669905,-0.003765080900143267,-0.03660135486967418,-0.091667334704117,0.04263595792383948,-0.019743718719840226,-0.05990252640593644,-0.08311018626214332,-0.2194678002385829,0.03979125567214579,0.009582784816272021,0.11460094825962301,0.022002898473453113,0.09513540508709149,0.057117980294732744,-0.06843851784604636,0.3085213649171961,0.07195977496325989,0.04552690731137949,0.06136595949973974,0.19571210518168816,-0.09847188293980405,0.0861184190380645,0.28501811342236605,0.010030168234519127,-0.09802261916767409,-0.08848575098221578,-0.2373478256362165,0.02519423224733016,-0.1956220474977892,0.04733483994038734,-0.029957753833293767,-0.006312184816938657,

-0.022828593777892998,0.2166222358354427,0.4814355811965537,0.028437705361032763,0.025413796994687706,0.2795557386048111,-0.030597351994975958,0.08183842557325144,0.4492100131272574,0.08433264425966845,0.01122882369763369,-0.0009971118430935203,-0.02881950305001947,0.03950641500368851,-0.34207636422685406,-0.11279483678729593,0.15125824171610727,0.02783708059858669,0.0676431078032508,-0.08763129968426835,0.02213681784571082,0.009710981989468993,-0.059963701572000185,0.08603660284791141,-0.3533528518114348,0.10486329926906604,0.18021491021538152,-0.05671139395271329,0.0801845830209398,-0.10697218378661955,0.12053063484614338,0.05790886545815984,0.16562192964141897,-0.0008431877751201239,0.04536496863229001,-0.06840996461202786,-0.0889849628450401,-0.30008021868828916,0.09227219691334122,0.09720735585485024,0.13083783055589673,-0.004853815225079034,0.05754897227448742,0.105676999188624,-0.061834492350388084,-0.1906748865910358,-0.16723193659353086,-0.2966194581423123,0.0865074936782837,-0.10197361932677151,

-0.027233664331549105,0.15621267832771063,-0.03524834624188756,0.013138592715515006,-0.5422822796417148,0.06024391310732771,-0.04820832193212914,0.1067804955948459,-0.14018060614658837,0.018432006554270252,-0.02737359909425955,-0.06644579710096665,-0.13389539405310014,-0.01411993566605328,0.053387575973744286,-0.1670190242986399,0.22154280971086746,-0.275582834826527,0.09838344673953275,-0.025458874342573944,-0.15583684563892203,-0.05283619377221837,0.003868180057660839,0.05548980074672712,-0.09328388431202995,0.006653733983628587,0.11026220414088739,0.09765577493092345,-0.01089412957612457,0.11167444331058773,-0.09270009892796607,-0.058204242429618525,0.10361026646232711,-0.17686806688939574,-0.03202476680881791,-0.02409259026535508,0.3848927009816323,0.2694550983796663,-0.05995003435572669,-0.03244707126152468,-0.16385421373513437,-0.08996382045595504,0.05618061285126532,0.07470577413122279,-0.0852753940207361,0.17327408989033635,-0.2367166220992782,-0.01979940600514442,0.07017114715335405,0.016931681432079102,

-0.034681190244338876,0.04966734335324077,-0.016473364965854796,-0.06261966714524012,-0.07464837705740712,0.05212592029503694,-0.10094272117267755,-0.004328692233180295,-0.08663130659917943,-0.03564143192288325,-0.028305923122643992,-0.08793778826006426,-0.07272159966198882,-0.06758953887547864,-0.07188757083891574,-0.024646949618490944,-0.04896218791636189,0.08112827165380598,-0.04834375942842304,-0.03597915303750299,0.06973300716684812,0.03391036294729702,0.023695739462194176,0.08929068534091371,-0.09584575929593382,0.012555259216288047,-0.07015663878653043,-0.07862862358353909,-0.04213078830959031,-0.02955752057609217,0.10243791461683854,0.028429311091834324,0.08233779298928791,-0.008368048583885426,-0.07224732823011691,-0.007388732396855155,0.002216114220795892,-0.07297669083801886,0.06622822901963481,-0.021375645825486334,-0.010088541099974068,0.08622068577191554,0.07775209113267394,0.05402892755224951,-0.08986437387137615,0.09963130076415815,0.03176257026043782,-0.029082198922754262,0.039069204351905765,-0.0045791824175552874,

-0.06258588505325714,0.07930338019186216,0.022018190309964075,0.03989423311932472,0.3296793226792405,0.014411585941681194,-0.008269975064605152,-0.09237622577133427,0.2530498411164218,0.057608173715858406,0.0546159412631958,-0.09789405097121388,-0.005769325887051595,0.01839411924887418,0.014404088358085423,0.0025015152873161563,0.15781997898767824,-0.0493719825577329,-0.011490907099917508,-0.05285706888760679,-0.11315571591933082,-0.0797002934855954,-0.058811611840126794,0.13917188513685738,-0.14918832161490256,0.17918725947631975,0.041778031916713386,-0.01397113370094208,0.011545413657508163,-0.007297106755184946,0.025229918815279345,-0.07406950234639231,0.1110723758599488,0.23624228850244794,-0.02148527974330995,-0.09068968975761701,-0.026458995754011547,0.16654357030973627,-0.054214548702749284,-0.007012042835887516,-0.13065928441472927,0.0016604839741364923,-0.060684745093314583,0.003919991804226022,0.34430312968820304,0.0933526548231075,-0.269409568283442,0.2516899376709802,-0.10490208677367303,0.08629351434422654,

-0.2314604753686871,0.24512168718158356,-0.09299084872639096,0.17811417552225584,0.07799642008184998,-0.16887106034223764,0.03635155018832863,-0.0701729560233775,0.17894966360264145,-0.06269098236128078,0.07086810845948226,-0.004005342496961727,-0.019618459048928553,-0.06534766404166831,0.1421247436227698,0.08113934840179304,0.23459949433752725,0.22617928709895313,-0.013110631167211428,0.06387198433865228,0.04422490274624774,-0.005999791237804967,0.045580089914696635,-0.00012743621684403798,-0.055635909999785224,0.46269480682688174,-0.07058942370605462,-0.06344807424109057,0.15443784980795022,-0.18746189876945477,0.03503017986745664,0.09437965340262437,-0.016142663156717144,0.16002555192103737,0.003352980105372589,0.06334844335533876,0.05912533453501684,0.10389469748654415,-0.04057972955555131,0.043423522807666995,0.10840667772554086,0.03710462036410612,-0.03647620779108119,0.0989705333612383,0.028004550075262428,0.12490450645512514,-0.382111587014911,-0.08034932346445041,-0.010381229981281288,-0.10152078505768324,

-0.33658073184276216,0.18597768597641373,0.04798103525827419,-0.4037769666791609,-0.17704323946775474,0.29399676909359024,-0.07465481749667535,0.03498958611337053,-0.25510459351197284,-0.05653212407586428,0.07314313704996507,0.01690137671829938,0.25980392090474447,-0.05823752856189885,0.34933281603566707,-0.3104552278164193,0.15983309036685295,0.3782150135286502,-0.04906047499615793,-0.00154962021190148,0.0386275719855531,-0.024967827471073085,0.10226189827112316,-0.10743406602796259,-0.3985979405738195,0.4865667740448375,-0.025501497641157743,-0.039996811583641115,-0.19274947014825436,-0.09422771571665942,-0.023983969616420273,-0.03224925116517882,-0.08653644931647829,-0.12274113287408184,0.057988223874137594,0.03350898478585069,-0.14353921399595584,-0.09354028319327481,0.07873340013018226,-0.03079035493114968,0.0069071450592280035,-0.033238205379471655,-0.09973069891620806,-0.014214936979005565,-0.056276610873660246,-0.10860298909277752,0.12926859709091781,0.007207526624687976,0.08451054340768006,0.08310630317295024,

-0.19763012564942903,-0.08870632828458754,0.14379271428052554,-0.14190679841989157,0.004494750598332051,0.19022516535367126,-0.09271333742573781,0.09372061247894188,0.08730417527328183,-0.05601837198011669,-0.09175911311138663,-0.014680099487594307,0.14027400905509715,-0.06517797050742412,0.004560401716243851,-0.10045469866650353,-0.2652875600080926,0.17166657716139413,-0.033004659185695305,0.04102274298025274,-0.05101110812525758,0.04412704020729187,0.046005846219237735,-0.01879141332762722,-0.1643581339064795,-0.11225181085421981,-0.036241994634707175,-0.009088331575171894,0.12851271976182407,0.01703194268444498,0.10025000997476823,-0.02902520394909759,-0.08111946700210916,-0.06713189846807015,-0.04767940718375673,0.09654589506461779,0.19053709410414285,-0.014803795948803171,0.06985380675472655,0.0031221052849643985,-0.03483047339306639,-0.004597194875488064,0.09256498262453208,0.011438534976787354,0.007769429661596634,-0.04121517234818652,-0.046958503814555436,-0.014305619881063944,0.08933823972007283,0.08477089388756992,

0.2536015053815372,-0.02917950784052457,-0.47286253152051244,-0.09246095308191968,0.2071553092346287,-0.08260456860423195,0.021173164000680436,-0.007508655753611796,-0.10042554652516422,0.004084319041414613,-0.07229861788536006,-0.007138756874222715,0.055185920065905315,-0.02985498140304378,-0.1593798411445116,0.09228015500033503,0.0776438669682563,0.417145315886185,-0.07075673343084918,-0.044160458464698085,-0.1992652205825314,-0.10008337915776361,0.06657703605178,0.020671335962245085,0.1705690333643904,-0.16863649489070912,0.2873807672409937,-0.09613566537999856,0.11142706527143431,-0.09030592820410259,0.07648766901718355,0.04125351118370947,0.06572938275154282,-0.02819184617337463,-0.0398254838403679,0.04544204927188545,-0.1631897533034752,0.18477724792248312,0.07254104640749585,0.036132266526023554,0.056311575047012064,-0.09063843223013236,0.017878603033250378,-0.1296782422129174,0.03142514891327581,0.03509579619245567,0.4094680856782604,0.03372657540202829,-0.0029206840966032248,-0.07838859942869063,

-0.04576203357616823,-0.07549632867402015,0.20918446958842926,-0.07530833072829243,0.15594940007127178,0.20116961616689255,0.08240997431843194,0.013288028184127635,-0.1407219829240459,0.039791340251056836,0.09321855700205778,-0.07677548336719729,0.11907008258567466,0.06277505815713362,-0.0997275351412925,0.13726614906226825,-0.12838328194484222,-0.0968595414439995,-0.07910773023172055,-0.02128785421825655,0.12133085259760563,0.09001909413537464,-0.09330254111157284,0.05500742909390847,-0.17466870172231877,0.09806332244569656,-0.1254171459691734,0.08034443016546033,-0.022911501815228368,-0.05546976581275591,-0.03501104865209715,0.08724697237621304,0.04007780909712574,-0.19995377262775677,0.07834664508153338,0.04391236002822366,0.21125281491178874,-0.22068598486170166,0.00044254123409624886,0.08270288663842003,-0.02777688103745955,0.07495276353209492,0.03627573014587365,0.18230382360637015,0.3272750102372422,-0.18667499895228093,0.16640425973718248,-0.11880888968219121,0.025025971857615636,0.019090998916708846,

-0.11176053034448627,0.10226356278836027,-0.2170083281201711,-0.32051279559381085,0.018768517205537336,-0.045622381970407716,-0.09661085849994513,-0.11717729937352377,0.018551780559380913,-0.17726299218729627,-0.0529568802179728,0.03627994003302996,0.029271766024120717,0.07512091828973619,-0.16040532291990167,-0.06663334516871942,-0.018216852506153798,-0.020846279688016656,-0.07490641784212815,-0.10164990727119964,-0.027920970666915047,-0.03605902475848054,0.09522676229408694,0.12096908526426962,0.2861319091102049,-0.3542224012922274,0.16083788689741632,0.01391618311095184,-0.34774119214733934,-0.003762530709641206,0.00034230222503827594,-0.0793338376734907,-0.1745526126769032,-0.09149125056180248,-0.002109901042490605,0.0006993212805953477,0.17078900261244923,0.19312947597669394,-0.09400599719594852,-0.013160419010248862,0.2219292495130549,-0.0380153419899705,0.08187850354318382,-0.08651620598524463,0.2657089942978324,0.2592899476431833,0.06951754289713843,0.06103890154889454,-0.052793638199053146,0.06209763386131606,

0.13110952963115682,-0.2564854044458687,0.13742398392626007,-0.12903727504108856,-0.17001407362725468,0.19706795173048,-0.009744359870472301,0.0392553350245626,0.10217556965694406,0.1591863142803448,-0.08456211029969922,-0.1160640860771606,0.0024341240578633085,-0.027945523607572798,0.1101052967506575,-0.11134265328863724,0.18947193786965322,-0.2751174887388031,0.018706919408898154,-0.08376675259891045,0.20896840336467667,-0.061608219320800836,0.013321238650290898,-0.08662827098142493,-0.21861458516211496,-0.18041176477453863,-0.28405111204078337,-0.023629860233444138,-0.12082759717245267,-0.036801070706292294,0.04092880516096815,-0.01756305061674138,-0.021901392166885268,-0.04642170459679927,-0.007930067237228543,-0.10471144949120928,-0.2558657656772628,-0.04355962841591288,-0.05448848324746351,-0.06642220708902019,0.13143679923762797,-0.04101374958325979,-0.09293194311923962,0.0906305950079369,-0.4566122776834432,0.17418651406960128,0.12317366695630921,-0.015797300694484498,0.012756889694053952,-0.07377327915027244,

0.22290005800127996,0.22897787394302374,-0.2960448436718719,0.008362345619912866,-0.35772535837723846,-0.43421203103297845,-0.07048101909564315,0.06677297065100994,-0.05123385898942117,-0.009897597546924545,0.04445693886436465,-0.10376649783994182,-0.20626319654523692,-0.08823397435923018,-0.13582900038332565,-0.23137684949444706,-0.11244041277886797,-0.1052352120691067,0.0680612391240903,-0.07155121255126552,-0.03791614067148746,-0.08750549704392037,-0.007376818375789705,0.18637106162429473,-0.09249784734530349,0.07502690380775537,-0.0598615911327172,-0.08650286653575058,0.08985221022178767,0.028873947203937614,0.1199745088464901,-0.042054938240126884,-0.13345775287246767,-0.036592331613469656,-0.02084612377140057,-0.10280117969827522,0.0001905226273358932,0.16932776796145704,0.011372238675066057,-0.08723148807257325,0.02750669058188554,0.0029497649236589485,-0.08185650741835027,0.13234946972751047,0.0931266517373018,0.17956147099281888,-0.05979756387756863,0.18406394807040474,0.04494495776080978,-0.05117694412000883,

-0.019642168711772302,-0.16590743467853333,0.4493478661591212,-0.012913332241821968,-0.08943133244470065,-0.11828311239417191,0.05077643532052751,0.10901937845604795,-0.19766989446703387,-0.2007667191900783,0.055425156937585804,0.0772970516599232,0.13484552969230015,-0.0018900053269960762,-0.03944425776733102,0.07524084650709456,-0.2509797577233754,0.19663643994318214,-0.029082279172613343,-0.04351839601669261,-0.01893436844996791,0.03214096636951842,0.09530670077703815,-0.0508083352057919,-0.22021834758151929,0.2536391327664471,-0.1074486280712643,0.07794201014356067,-0.00021674329290203572,0.01459350852925568,0.16752111890658225,0.06801279543647924,0.005361632799010427,0.29746577396252816,-0.10245391075020115,-0.05747774506924351,-0.2835236729564286,-0.09579048746044141,-0.0008102230776673055,0.035763270267048196,-0.7243103119863203,0.030414887264989834,-0.08060056959366449,0.1289807591893426,-0.33013726751375005,0.13403124702812988,-0.17932925252442802,-0.1650221238734533,0.043924792737187635,-0.08600501528620587,

-0.07695490888480822,0.10074433243682011,0.014727513223787266,0.13398336926938822,-0.09340600167915397,-0.1351547104503149,-0.004387775501114972,0.051197388087912826,0.10735808865617147,0.10693107673950854,0.08827495641150848,-0.08104764341336208,0.0640263036677923,0.04816441061621248,-0.010050007598418197,0.0524118718559896,-0.024302452855592765,-0.0022993251091926147,0.0007109479213287934,0.06658058218292573,-0.055512033502067695,-0.047290830087180324,0.04399984408877359,-0.0004654799437462791,0.12731728599807385,-0.032973553210054685,0.06901398190803175,0.04200676144975672,0.09695942020726028,-0.046366740546454614,-0.05258497292153175,0.09747353470991912,-0.04805032750230932,-0.07802792530919206,-0.04315970930749433,-0.0636943190945576,-0.005261440455182461,0.02917944301254042,0.09722957813071129,-0.03649698303938179,-0.07649115504848242,-0.03755463208620876,-0.07562568043759994,0.021642915466553617,-0.11879237402850232,0.010002574856300149,0.03497347259197195,-0.028708208152070605,0.04247651833052126,-0.09036719689773326,

-0.06801955293736534,0.17573882272635746,-0.15763412816526512,0.06458859849295909,-0.001577940080742833,-0.17283916724006188,0.10089217801582795,-0.003712120221124103,0.164728947292827,0.07495612874139893,-0.032702103220447684,-0.07613929097918505,-0.08426468297411976,-0.0034712619270709172,0.07987943685117156,-0.061974113581332216,0.14990882355271898,0.2453348495244598,-0.04588522781482262,-0.0254830498127381,-0.09935891470894119,0.06778244569610935,-0.08081773984303879,-0.0470543336877676,0.17009019883825427,-0.20173273278287077,-0.07065988798311088,-0.1033837559911816,-0.013945213874814195,-0.022416111649375396,-0.08929760364804032,0.07016473806565422,-0.09281753077793597,0.13769719644340392,0.08726213630589398,0.00979447346192522,-0.07123292019076934,0.19781834166187823,0.09475500254278962,0.09373881210611573,0.2492862733609006,-0.0828828722658978,0.01049887266160534,-0.05830220201486566,-0.18453944314157217,0.1761628336980003,-0.1084512215989117,0.028582131845230903,0.034929111704626724,0.07901156775070664,

-0.10491561683911686,0.07826000304488918,0.4131469195752972,-0.08984500355771556,0.13419633710381315,0.0762220407598702,0.042130090364282016,-0.11268832248666025,0.11107698742692905,0.014737560954397199,0.016736340342506182,-0.09269439781051088,-0.17736408824993635,-0.05933652557786446,-0.037278338103143946,-0.024299053450501824,0.19194565933909416,-0.20195580335870275,0.009511933631504045,-0.10020368093759749,0.014951591063720227,-0.05935096978102672,0.09431010073607102,0.08390129426974831,0.3360054686198643,0.16027779644793463,0.17163024364854776,-0.04147913339359142,0.029626014650430885,-0.005259578379416069,0.17798760713871448,0.05279244213183035,0.048353173958828856,-0.2981582261456714,0.08233889449862562,-0.08592556356386333,0.08066110811669717,0.06149899424335836,0.08437605520067722,-0.026950454150775335,-0.13479041136233919,-0.04501615714789957,-0.08821595225289008,0.042918249069001324,-0.04168521638549656,-0.20666336784023018,0.24383503220685543,-0.10299413475330672,-0.07677896998986466,-0.05528938024677136,

0.026605711338651524,-0.06351496151896165,0.07791867486908803,0.07788112880294086,0.037730269365830696,-0.5614786936506816,-0.10360304626629778,0.12399286766508406,0.0837314567044685,0.09118069721863127,0.05321980677678461,0.016322966025153735,-0.16913849121136784,0.0764942952572039,0.021049468070057947,0.131418103903004,-0.42747578257096813,0.11816299979677557,0.04709806087905671,0.015831002440217165,0.14761615708070977,0.01006278885065789,-0.06085837831956672,0.0689815749793907,-0.12226813410388186,-0.23518279324291735,-0.09484580868394218,-0.008395017363270188,-0.048328010560740396,-0.028987448597057167,-0.07210426494522121,-0.07620863839272363,-0.058866246345966884,-0.18930733456592358,0.004439935969233732,0.06543691983779866,-0.07659303256341983,0.10763068796013685,-0.05634455652185162,0.07609022233511221,0.11444487723027251,0.06941063994016365,-0.006860438692451254,0.02694856582768761,-0.049548750690458956,0.01381206318813077,-0.18713032931531948,0.2836261753123431,0.034053264282539936,0.02282200444351688,

0.11184069843806395,-0.23795767790210573,-0.21748797864366823,-0.26087298692396227,-0.05074047550754722,-0.09125594017165818,0.0669419452008032,0.022931238343774356,-0.05031470016618548,-0.10565110595565089,-0.02435340165532755,-0.1163304550560377,0.0773817297862054,0.06828045034196799,0.08400985326106558,0.022454448966423336,0.26436137881185073,-0.003968200257806255,0.017474969134936808,-0.0705470057337202,0.0174332892073236,0.048500428377468784,-0.1224253504630038,-0.07863728281765574,0.06337763195875484,0.02915585843680837,-0.08670513674344554,0.04927301171032965,-0.012325540809393657,0.07501149246291959,-0.07158110645236533,-0.016219304804287252,0.06957161063511029,-0.10106901847854972,-0.012422273740886804,0.028812367196641233,-0.23862452034044082,-0.10561114653614123,-0.012821061031590815,-0.09591866595278266,-0.3269649329047787,-0.08594481765900958,-0.036923156985382385,-0.1112883165918485,0.1730873660093437,-0.20742673685167115,0.14513792023792035,-0.33525916231487396,0.004066763726360957,-0.024738146857347296,

