/*
 *
 *  Created on: Jan. 28, 2020
 *      Author: wenda
 *       Email: wenda.zhao@mail.utoronto.ca
 *       test NN = NN2 (Feb05)  the estimation performance on the ground is not good
 */

#ifndef _WEIGHTS_H__
#define _WEIGHTS_H__

// set_weights_for the first layer
float weights_1[300] = {
-6.314812739753162e-24,0.12396952379355589,-4.463176464214512e-24,0.6324593041107464,-4.065064003447699e-24,-3.045973669872843e-24,-1.6734751348767376e-24,-7.221643693998288e-25,0.16666820907227348,0.74334213640478,6.541763023997123e-09,-0.7718687527575375,-0.6578595559710443,-0.07856690888024005,5.4049456685246375e-24,-0.39809064194634963,-0.7983610430023514,0.3878842803327159,0.2947848040652211,-0.3508410653287752,-0.08972698474615151,0.04183409207558755,0.07462070034219268,-5.9926188895864825e-24,-0.3495007903114121,-0.9843759016861432,0.934700572084088,-0.08257425796802113,-0.14906697095952182,-1.251460401501448e-22,0.17848644299873268,0.7138879019023878,-1.3172802801917536,-0.21331159499246047,-0.09781433030728179,-1.4577049043632644,6.586383872473549e-25,-0.23135859711044388,-0.18804446136257327,-0.06434490888427062,-0.33389561172698645,-0.21172366325137995,0.6478827722828967,0.0002772930593932681,-0.23048400115421622,1.8895778516499572e-24,-3.614453563654819e-24,-0.24228412096820143,0.17199504311631772,0.3719047823026596,

-5.024354223698182e-24,0.0008198969017811422,-1.2576426538007036e-24,0.7610554407422083,-3.977960457399929e-24,3.887354915469324e-24,-6.314036739869122e-24,-4.143587380610773e-24,-0.0044156626240952,0.24241424638933967,-1.1540864471053149e-08,-0.8214117076931573,-0.18058269142984573,0.1417355667530235,-5.558231450373424e-24,0.5650769968550862,0.5452139672210518,-0.0449018885605095,-0.634068517700071,-0.35970418386543035,0.08108743611509997,-0.023327404975616462,-0.43582852072463485,-8.434058660260575e-25,0.35785042871425005,0.8855904107490498,0.3604379980116957,0.28217478039683147,-0.2451280216572403,3.5667666405466403e-22,0.10997119353228373,0.24723121519421148,0.4478213611898686,0.14742763887934024,-0.2386555093005713,-0.3152811026746452,-1.3737615689599621e-24,0.2734262903026539,-0.47651544575397875,0.040322939612977185,1.4003159592454308,-0.013994327661721564,-0.7440278824526515,-0.0011408574688331371,-0.8091222063860475,-1.7393133084167855e-24,-5.8402709098746624e-24,-0.8024798190788468,-0.193512098703091,-0.4518259327732038,

-2.7279910952920084e-24,-0.040053487187178216,-5.686018011766372e-24,0.10665483456021374,-2.640068774051849e-24,-4.5938942087057124e-24,-2.9819439154765565e-24,3.2629395644680672e-24,0.38272939250236937,-0.058932082082642015,6.796146835470526e-08,-0.08866597470549024,0.5425671037785779,-1.4238137312017862,2.5342733482234275e-24,-1.0033839471714079,-0.6222570811090133,1.6004335853914344,0.8290246526478899,0.2724132224411341,0.09153640634086377,-0.0515838840377291,-0.7946534241879832,-6.136745176095016e-24,-0.49206657231256706,-0.0433641971893716,0.7032180182638372,-1.360230104778254,0.2875545865594104,-1.9523565237216095e-21,0.21361669907793324,-0.8204498188081356,1.2448208898104922,-0.07927727100164952,0.34382374085005163,1.2449765725183468,1.659274662455833e-24,0.06250105454788793,-0.5085715102513967,-0.16272640662137083,0.6117800216881902,0.09661800991010938,-0.8419828387814148,-0.0017834283202104047,0.004057706987403029,-4.50625225171376e-24,7.176404156097506e-25,0.5965128768221852,-0.04446445043401832,-0.4343559711282614,

-6.025765103943923e-24,0.11609640826935064,-5.287567610519198e-25,-0.13204812591557216,1.2699858815963553e-24,-5.712442015787255e-24,1.225270806169346e-25,-1.5343530944779771e-24,-0.10560873668877882,0.009697676777004791,-2.342130838681624e-09,0.036826545976666056,0.12409699716266757,0.45733007394335734,-5.62063086109424e-24,0.8170577178182841,-0.6412191044445433,0.02944090946112715,0.04227997012305195,0.9069793217326657,0.14391438622186672,-0.03291892483400019,0.17540615764348644,7.802727657802323e-26,-0.5704977413002781,0.27930910267314146,-0.06594083088836387,0.05111512241278155,-0.0051898332012830966,1.4064329233089986e-21,0.7246965463133777,0.036302119510825084,0.12277348745067156,0.4289094302821857,-1.0817418672362467,-0.07805051705212303,4.008422056220086e-24,0.27159215841910084,0.26664620064164446,-0.5255394351261595,-0.3030407690753957,-0.04234042152409049,-0.7630195935668592,-0.0014147925925840884,0.41992850254369324,-1.2112525937570413e-25,-1.681488065978679e-24,-0.3278288531232619,0.6186401625765785,0.21701774154382958,

-3.615833997241335e-25,0.059623591264507836,-4.143947384379436e-24,0.11041835936833204,-4.8245433199577545e-24,-5.5201721199109005e-24,1.049912500345511e-24,-4.354676087345865e-24,-0.39665362023044376,-0.01430298107005593,-1.4596707344503542e-07,0.1110065768780081,-0.058768372452060576,-0.40947105519286514,-4.232690207367384e-24,0.02103933918114701,-0.02895233025850344,0.11858434182475562,-0.1423888548192931,-0.04181902592996746,-0.5405558703688539,0.6729608976432451,-0.09449209993922714,2.8121742966573422e-25,-0.00028775908977233676,0.22273082786867546,0.000904414993137419,0.05660556743254373,-0.6684132189231614,-1.5640665465449376e-22,-0.27352556773829223,-0.019467624077897875,-0.0675447412772006,0.2693515823658829,0.23776380464231317,-0.02873591649854591,-4.023741660889493e-24,-0.27502593192151775,-0.001187735761152403,-0.1281713096442099,-0.11003651727082926,0.6944123340766317,0.019841295338488007,-0.0003897490204797303,-0.07513148734398858,-2.9806943650334335e-24,-3.635043830211165e-24,-0.08946706411505803,-0.2192047034177432,-0.16579082551032756,

-5.6033463819427475e-24,0.6235533848241713,5.697714851378217e-24,0.17191458202892798,-4.906825344853483e-24,-3.1341510156405263e-24,-9.13070569852865e-25,-1.53383979077995e-24,-0.31906367303662375,-0.13013137041971318,7.514180807644644e-09,-0.0037075493209712813,0.5145978631002717,0.2757765421156719,-2.171893490858445e-24,0.007695576189924004,0.111622508066465,-0.011916044908715881,0.019387597539348062,0.0035676149542609704,0.04030662257998143,-0.16873912520817488,0.12654027880343904,2.072821692548965e-24,0.05911209730515943,0.10517913798345503,-0.17294039970719424,-0.1975332363751339,0.14054693551705671,-1.340485746090638e-22,-0.06717507548520502,-0.06145036588883436,0.11483728920125444,0.12134545493738526,0.2204997403366248,0.02549573445837569,-5.784174347826207e-24,-0.12567859386624558,0.030709139062841884,0.48035570085316814,-0.09306526973359193,-0.3091909292837983,0.04492271199652109,-2.2365058554178972e-05,0.11923936417366089,-5.063889302293507e-24,1.1767110674445178e-24,-0.019151826189490448,-0.29727737973118495,-0.003434018356332736,
};



// set_bias_for the first layer
float bias_1[50] ={
-2.067510580098517e-24,-0.37415436462507207,-1.129956887946942e-24,-0.7929755838623327,8.44303682549062e-25,-1.4449554900544908e-24,-1.8152906248445535e-24,-4.50642986223267e-24,0.12008039068030428,-0.6780122485583141,-2.49156652836135e-09,0.9386775623957939,-0.042391430667663106,-0.1530440459275495,-4.6881375116290425e-24,0.18483234277068958,0.5776245234315359,-1.371567554618183,-0.2579851448170699,-0.0479479140258768,0.06656190083448707,-0.18113525955476645,0.19985940439074243,-4.8919758036254884e-24,0.6609911422866686,-0.12241946675746068,-0.9970776256384027,0.41022754990435883,0.21648264863990446,-9.07634310173594e-22,-0.3819422476263957,0.0923410187817939,-0.4521797756803522,-0.22541964774442463,0.36806310326273234,0.21834830657557705,-2.763383710753101e-24,0.07397656014862966,0.5824005052689258,0.20121328858673596,-0.8448215217799331,-0.10524540467378643,0.8290687489087,0.0008977430167677388,0.018937965518474775,-3.13330457598195e-24,-2.6922944031839275e-24,0.3802485919362471,-0.051693334373977835,0.35932824813308173,
};







// set_weights_for the second layer
float weights_2[2500] = {
-1.539811130813582e-25,2.1525000030334283e-25,1.5878206023943625e-24,5.864090247251e-25,-1.8037695372850018e-24,3.000520487904958e-25,2.5846979973958103e-26,6.77800562944039e-25,7.219783897991045e-25,-1.4591321338393986e-24,1.2683508884305683e-24,1.3767551431097881e-24,1.5602684219552411e-24,-1.8964828092795654e-24,1.6501979280373801e-24,9.813394967754903e-25,7.653548770489802e-26,-9.721561727984265e-25,1.2011157756139187e-24,-2.306256313272366e-25,-1.6461542665664878e-25,8.430669182036998e-25,-5.449678876963032e-25,2.0695417098138203e-24,-1.995875887349769e-24,2.3900215254847763e-25,1.3220687713845351e-24,-3.1557030292075687e-25,1.6346955984103575e-25,9.864246440111397e-25,1.863499559547516e-24,1.002646249744336e-24,1.853800490889815e-25,2.133607032809109e-24,1.646249581111805e-25,1.9916934386018016e-24,-1.7816591199663318e-24,-1.1616302140879471e-24,5.180159564189596e-26,-2.1953961979641697e-26,6.073405638491928e-25,2.018947354255804e-24,2.1382481537477475e-24,3.3646290256592993e-25,-1.3024360672977214e-25,1.2211285755099271e-24,4.431707908110268e-25,7.783318361712268e-25,-4.154319333476886e-27,-8.428249122479649e-25,

-0.014858261270689972,-0.08041371894023323,0.06410847125221769,-0.14193710443902754,0.05337318526839756,-0.15323142578522275,7.10235904424973e-25,0.10861546450016843,-0.1585848470755608,0.1019928529692312,5.473007693142027e-26,-0.03701297240629602,-0.06637180294178081,-2.8932593464636637e-06,-0.0805079485837367,3.3926410132874996e-25,-0.01820048952800983,-0.11100758405103335,0.05359088810076442,0.0021094711088546665,-0.07574706541630156,0.06402719836839517,-0.15333646776485654,2.8538010994038643e-09,0.20333655944056925,0.08425830683387532,-0.06110494650448346,-0.06813670843543662,4.77420198598159e-25,-0.12767347635748333,0.05776890368264368,-7.770578240509496e-25,-0.052068942493867364,0.03930711016391053,0.01336775728733964,0.01160602761112937,1.796682901506187e-24,-0.042847212000996164,-0.11935213297371981,-0.025064750332502824,0.07251388522542963,4.388051521561083e-25,0.00029973960572703264,-0.01672957964819513,0.03776056286466069,0.0938676616687193,0.0036026296354409867,-0.07390688546539739,0.0403886331279269,-0.05726275917293872,

-1.1053429067113612e-24,3.66461877128358e-25,-1.8301477209857275e-24,-6.5005068200900335e-25,-1.1340266507176847e-24,1.0885075869990308e-25,8.79095583899347e-25,1.7333705627468476e-24,1.0342504607363101e-24,-5.292151830317075e-25,7.329886146424649e-25,-2.076852033026542e-26,9.294958232489411e-25,-9.958711291233806e-25,-7.768090670650562e-25,5.31635940010972e-25,4.55067208452494e-25,1.691629998560642e-24,-1.6163571961080966e-24,-3.3662227335831523e-25,6.891510647046837e-25,6.0618137335285775e-25,-1.2464701559188392e-25,-8.455366110653231e-25,8.69785605483925e-25,7.513478234126023e-25,7.294380315882451e-25,1.4471957560485606e-24,4.052820966324942e-25,-1.2858106533563883e-24,9.91496531984662e-25,-8.625898943260124e-25,1.466772059604027e-24,1.6245143631930483e-24,-8.740630575437144e-25,-1.6659453462452455e-24,-1.5226428889120159e-25,1.205099923612818e-24,-8.319680948592062e-27,6.777377948287721e-25,1.3934126788874825e-24,1.3873185519620373e-24,-9.956834059638938e-25,1.796490644420575e-24,-1.3963655296445753e-24,1.4441020707307183e-24,5.133153220079661e-26,-1.655706643814036e-26,2.0233425171723865e-24,-7.72475222303889e-25,

-0.07485402702558888,-0.08735979862991165,0.17133860322465952,-0.051665443079944286,0.1239626466095211,0.1119087202833734,1.0740101271853925e-25,-0.04398981006333483,0.0026399573651955817,0.5113400957978497,6.812451376258995e-25,-0.032570130276049804,-0.05121878457200796,1.3819270360881807e-06,-0.07566369325362093,1.864798292868222e-24,0.40702615752690613,-0.12345376541085909,0.3688959914425806,-0.04046654716174235,-0.25426704741185124,0.3486195004957657,0.22432143089882628,9.165420343063657e-10,0.32396990652191315,0.19598314281447463,0.07843718820868721,0.4260797576248488,-1.7841683334930916e-24,0.16654242962591265,-0.25296506046878187,-2.2930055128774636e-24,-0.03811712931627492,-0.4056865238889246,0.057243665556720426,-0.21269364073796626,-7.9137499685363e-25,0.01994839792652493,-0.5673036498689299,0.10648838479351795,0.06678657071352172,-2.1315540504903787e-24,0.24148599615696653,0.08386404902889019,0.12156381377331454,-0.010587204245864266,0.3988963716422035,0.19022145617683872,0.30048327798682634,-0.42647980340732417,

1.7303218921402664e-24,1.901509140466697e-24,1.5524993566054423e-24,-7.170251718427912e-25,-1.608591966587127e-24,3.984654793131935e-25,-1.2339909247032387e-24,-6.917930869240521e-25,1.1481199584603193e-24,1.3840557723403253e-24,1.207612043071073e-25,5.243057865188965e-25,2.1068520074338908e-24,-1.9484421388707436e-24,-1.6202586994216437e-24,2.0559531102794428e-24,-3.3169229333022013e-25,2.135671173903546e-25,-1.9996926537079326e-24,-1.0494777730286538e-24,-9.700670406950031e-25,-1.564367412357642e-26,-2.050106609053226e-24,-1.1108396500510255e-24,-1.609855000551403e-24,1.761956557291905e-24,-1.1827660982984026e-24,1.3713970708098862e-24,1.6484652955814234e-24,3.910672107922783e-25,6.342787791309716e-26,9.29064350575039e-25,1.0647569271345856e-24,-9.094210688984695e-25,-3.0495028652729408e-25,8.58740349063323e-25,-1.2668697933844716e-26,-1.6559567863770333e-24,8.924368305647306e-25,-1.1266434991058567e-24,1.3539582285891233e-24,5.175693729024307e-25,3.4667597234530884e-25,-1.0569844909042944e-24,-8.998065047219217e-26,2.629442364609549e-25,-8.697173300531566e-26,1.4090558477068011e-24,-2.1757711655356137e-24,3.973898197969256e-25,

7.850570910116683e-26,3.8929761489041517e-25,-1.0170107329260439e-24,-1.418992389067357e-24,7.763239539058303e-25,1.899314581176813e-24,9.341404313051755e-25,-1.860525978204838e-24,-2.7258762747558553e-25,-1.740352934385408e-25,-1.3838499161694903e-24,1.1204626995467997e-24,1.4667423028679746e-24,9.410409719194284e-25,-1.6632132454522835e-25,-1.7201830979637943e-24,1.796406953600165e-24,3.671785960150864e-25,-1.565995431288358e-24,1.160703105777845e-24,8.69109641707414e-25,1.1370746299671536e-25,-1.6493579976651331e-24,-1.3819388595338042e-24,1.1321731375874555e-24,-1.3068984153450813e-24,1.954856459065775e-24,1.3830758923183279e-24,1.8076754576143637e-24,-1.1692408480655912e-24,3.294279916901262e-26,4.1004224451569403e-25,1.9711970917433535e-24,2.1397787658623215e-24,4.4825291587813995e-25,-1.944691279033603e-24,-9.073566953293414e-25,1.568075380649296e-25,-4.034013779191586e-26,4.862966705488735e-25,-2.0216403388760337e-24,-3.616062984624751e-25,-1.2610637427213227e-24,2.0686355242087346e-24,-3.5646710090539464e-26,-1.727445485138959e-24,8.700355876449551e-25,1.4085065104609498e-24,6.896662939513497e-25,1.5968731594647156e-24,

-4.77619792272269e-25,-6.839649730507376e-25,-3.569366993975238e-26,2.0292799159287726e-24,-1.5674593232214373e-24,9.07123872116451e-25,-2.0990048306516226e-24,1.7606821320769065e-24,-3.726683651197494e-25,1.647154139395411e-24,5.661681673435769e-25,4.848655575204578e-25,-1.1526629751595323e-24,-1.3704464825752263e-25,1.7839532945798705e-24,-9.45504017390122e-25,5.310910197805476e-25,-5.444361022751768e-25,-5.774907216791877e-25,1.710175419406247e-25,2.8862801933520777e-25,-6.959257861289397e-25,1.324628083166442e-25,1.920348874030681e-24,-1.5001288958594819e-24,-7.092146097942166e-25,-2.0765045535943154e-24,5.679749591655878e-25,-6.948802320605528e-26,-1.3319557956761962e-24,4.633542269907904e-25,-1.3743017234631013e-24,-2.146355004547704e-24,1.194600212773605e-24,5.723815133326914e-25,-1.826669089297571e-24,1.953681067988558e-24,-1.7394720885009683e-24,2.0377219949595465e-24,-1.4637322230285286e-24,-2.0170196756933123e-24,-9.833556318858978e-25,1.8354645295697643e-24,2.1803093002708177e-24,1.2689088272331722e-24,7.540312765780709e-25,-8.703602382857843e-25,9.5638661373254e-25,-5.290444305107039e-25,-8.786795707797333e-25,

-3.2322034132624673e-25,-1.2788492044227042e-24,-3.5155968042579057e-25,-2.0288326349887254e-24,-1.3826839403096926e-25,-1.2764919129822771e-24,2.003498493764203e-24,9.967841727263215e-25,8.531932749941015e-25,3.7933096808207136e-26,-2.185684808158025e-24,1.1960450417974213e-24,-5.178053345209521e-25,-8.696499124478161e-26,-1.6513876162965204e-24,7.422861998368675e-25,-1.33411304280851e-25,1.7586935451954425e-24,3.578958891887999e-25,2.9655818951445905e-25,2.18176412569813e-24,-5.699887695307932e-25,1.4253681184953136e-24,1.8191685319965496e-24,-1.3942400152815359e-24,-1.0470004085083746e-24,-1.7028391053396056e-24,-1.9235753876303384e-24,-8.495057644587454e-25,3.156194712777473e-25,-1.5567535237370444e-24,-8.278512296365657e-25,2.094377425708402e-24,1.944229584674389e-24,1.8393380197060685e-24,-3.138475506308627e-25,3.8897122069097445e-25,1.0872365139610418e-24,-1.8939362835952958e-24,-1.4638098695118555e-24,9.71238479705695e-25,1.337209138213243e-24,-1.0057318837965275e-24,-1.6371263517933282e-24,-1.4238615674915797e-24,6.278587633104375e-25,-1.0043907384001795e-24,-1.384738085000687e-24,-2.1604155273189942e-24,-6.607322850781856e-25,

-0.03983533720575038,-0.03925646038442875,-0.1790328797495436,0.06224501097953747,-0.17702422343934016,-0.01024410986474341,-2.0828112165389145e-24,-0.10649525593958194,-0.2458228408880791,-0.04806732521869754,3.453989899111531e-26,-0.07348371361105936,-0.056123139048740965,5.405459836443116e-07,-0.04530073818081693,3.2162004628455257e-25,0.03201682397793695,9.992054518460092e-07,0.011661435232329272,-0.02542148116501626,-0.07061087531918295,-0.19693867618592367,0.0069781406528574,-4.2252929829701314e-10,-0.10483756018206412,-0.022922816088338363,0.11700902086666193,0.07677654408373039,1.4600513638636587e-25,0.00456161756535003,-0.012203035011974814,-1.4293042129467689e-24,0.07919061470410872,-0.009313737034745265,0.07703803193168549,-0.048331729939902576,8.337689927036452e-25,-0.11111947677701806,-0.3131703886575413,0.14374978272292152,0.10654151434676189,-1.1414893207417703e-25,0.011747723268369387,-0.050399318525411206,-0.0021136569441481913,-0.12907611186849943,0.05001624488062842,-0.10181452522833341,-0.19421374961381888,0.0012879940326294935,

-0.01724036608709281,-0.056194480166392065,0.0819765972732088,0.05330061203113958,-0.10490545146633139,-0.006832612339654523,-4.848476464260526e-25,0.02270442261153557,2.433933494986596e-25,-0.012435431636237832,1.866895082109552e-24,-0.06593749530353422,0.06983248251226455,-1.5622969962515181e-06,-0.11563574480136922,-2.0315659595694841e-25,0.5218595332736,1.842300888135096e-24,0.06605833178208363,-0.043044283094494484,-0.2643562052963304,-0.0454765298987964,-0.08171640503871662,6.330486924052625e-09,-0.007947692411197095,-0.0018248273015038262,-0.024719095963449622,-0.09307000529399845,1.0974828275942241e-24,0.09994854394371927,-0.07723792807731493,1.81881419721522e-24,-2.100758130705169e-24,0.02963093604855657,-0.00036553033953322454,-1.0905245744443997e-24,1.0243497715577956e-24,0.3646090647817021,0.4263808032830343,-0.033047852282133604,0.01083873162680284,-7.035073607938857e-26,0.2536404246575977,0.1427934118431545,0.1971362314747197,-0.006945428717311811,-0.03483443845312971,0.046832188690414965,0.038911850269682025,8.864773656640004e-25,

-4.8040110642579404e-08,1.0790617447821812e-09,4.198271842209467e-09,1.000114302732164e-08,-1.7367485600561866e-08,-1.613452667513125e-08,-1.0046394861161232e-24,-2.719622051849555e-08,1.29822902471941e-08,2.1644628859770685e-08,-1.9874154428337823e-24,-4.692492647983413e-08,2.892818179643373e-09,1.7181891626239734e-14,-1.6095159252342311e-12,1.6184951478566854e-24,-8.608208774983254e-08,1.6450221157464014e-25,-2.2491798917000812e-08,1.5205679870889747e-08,2.8630077106619737e-08,-3.120057783129355e-08,8.148341852559469e-09,-2.0913718555182308e-24,3.902575361324399e-08,2.132426272048106e-08,2.8795143971326373e-08,-6.369296841539403e-09,-1.3396863864962087e-24,-3.164522163337554e-09,-1.0359060997235637e-08,2.1794454250246812e-24,1.7319220698426178e-09,-1.3201526569558141e-08,-4.202179567564342e-08,-5.938626115752717e-10,2.6701509744855503e-25,-7.40544541034452e-09,-5.398924378605047e-09,-5.170419988837125e-08,7.618852759871418e-09,1.10576426674441e-24,-5.606912274081866e-10,7.406203430062266e-09,2.2429075663378548e-08,-3.109617215799813e-09,6.032979571221316e-11,-6.759145316138053e-09,-9.534609749159574e-09,7.461909978912242e-09,

0.3145715463226527,-0.07207534824690337,0.05539257853948721,-0.09660278547914844,-0.12034312980886919,-0.26352833723321234,7.850409583370709e-26,-0.25201017342549337,0.20760426915280222,-0.5639833626427991,-5.108201731883569e-25,-0.05818504436817672,-0.2866318405051415,-1.3195276255983838e-05,-0.12363897809965234,6.714096029680812e-25,0.028224875735043148,0.15157702031486928,-0.018283475024742354,0.030958642625337752,0.18419341373311315,-0.6082211126806959,-0.09457621683017828,-1.4333401302400727e-08,0.5314116272513055,-0.27571240006842607,-0.25506729468340145,0.21311214949724205,1.0368968407180117e-25,-0.5158026402704372,0.37413155786361935,-7.31665689830678e-25,-0.04706193953870988,0.1321095880630603,0.12754164063966902,0.017514460294110176,1.418056509067645e-24,-0.3501221612119943,-0.045969024425981365,-0.3102287573076927,-0.11140182028097058,-1.4893475421622225e-24,-0.01666574095643824,0.0002373299046248201,-0.34994009833349843,-0.0030482463267845466,-0.3316644215696693,-0.05812612094798086,0.11428823221783277,-0.08663749335279758,

0.11165424591284245,-0.10285723406461007,-0.06537393884349355,0.21352457829338692,-0.195943690778982,-0.10150016433951554,3.533282251339597e-25,0.07195036662470285,0.008877211848533156,0.15884969785148273,1.914739729269374e-24,-0.02602227544995547,0.06520798808288028,1.3446815214371745e-06,0.01282352822766273,1.3325382227375369e-24,-0.20291539604472514,-0.10241884890278453,0.0174935595035464,-0.0018354180310072626,0.06974375719805799,-0.07297427512820867,-0.19691524892593623,-1.703387091158845e-09,0.15341804580659327,-0.15044458275530803,0.10897640842148863,0.028302082630504034,1.3009942003938924e-24,-0.20119333050468358,0.2146086021073526,-2.0511687762217246e-25,-0.09748232161622854,-0.3736507226307978,-0.26295037672195865,0.06632648876092324,-3.957662571943827e-25,-0.4976081704389326,-0.20803155670053292,0.07468532410411786,0.12356242564926796,-1.3241352372241754e-24,-0.0006812919965786596,-0.07408697304241811,0.010414985498791444,-0.008010886178342811,-0.20702584559515425,-0.029971871251760096,0.2064591084095803,0.06396781387923865,

7.895320351823127e-25,0.02920402168020712,0.1589705895403363,0.15867753030569307,0.09956785868162128,0.13050319323306944,-1.0331910141208337e-24,4.137290576276006e-25,1.8079974962818113e-24,0.2899965572181029,3.6340716218475533e-25,-4.4901802044584795e-23,1.6622275066352355e-24,1.1982584315219688e-24,0.2959923207018592,5.329737677573436e-25,1.3395881438437343e-24,0.5757238902803576,-2.009991687360794e-24,0.042754689535924296,0.09199112823080123,0.41302728485341084,0.03969018268150185,4.024874077340406e-09,0.12783786918333095,-0.30057412604133654,-1.2771548840683352e-24,-0.3392519091719504,-1.918916598629465e-24,0.5933790277634471,0.24515348562426317,-1.879029536507767e-24,1.7499859474993244e-24,-0.24157062568009216,0.17103264165883947,1.3171888671052194e-25,-8.54622731238627e-25,-0.5785219414249023,-0.18169745555204844,-8.986263479174068e-25,0.007324578083998026,1.0749444247189748e-24,-0.017213666676085447,0.00011351595200435218,-1.419772803297297e-24,-0.10047487328691303,-0.6532121817747759,-0.008276343916927869,0.00022050271279256415,-6.992661103482585e-25,

1.4651249777642314e-24,-7.5964460588009035e-25,-9.067927121898238e-25,-1.859613864500113e-24,-1.2813459805638939e-24,-6.61961377765173e-25,1.8590309346886812e-24,9.430737289563561e-25,-6.65431640879308e-25,1.6490455519357627e-24,-1.1793756901754642e-25,8.806561852247805e-25,-2.4684700458585898e-25,1.1307564379781776e-24,1.7893439133094308e-24,1.0109169950676056e-24,-7.123439490526578e-25,6.916467442256662e-25,2.2008823637142022e-24,-1.5407500953230612e-24,6.722551161963842e-25,1.0856533626090483e-24,1.7781323655483303e-25,6.685436607873879e-25,-2.033498863173663e-24,-1.9528613628980075e-24,1.627848526931438e-24,-1.1991584565526393e-24,1.4737123533577699e-24,-1.0313331382230611e-24,-1.6328142985108963e-24,7.6988417775258395e-25,-2.76542367449954e-26,-1.647119500694575e-24,1.9991628443197003e-24,-1.2113760377171905e-24,-8.87969251841123e-25,2.334685620003842e-25,-1.5552144263029144e-24,3.090434650669992e-25,-2.129047975369105e-24,-1.5136272952874282e-24,1.5096017668276498e-24,1.7731325364548094e-24,-1.9345799168485785e-24,3.1389753264857196e-25,-1.6737234176439504e-25,1.67855656252047e-24,-1.0945337723112989e-24,5.999811185698988e-25,

-0.11801963121744885,0.10113619843487516,0.14055887664707795,-0.001644175601987176,-0.051642287813256096,0.45841389487069795,-7.69032992002621e-25,-0.004868989030537883,-0.7093001471727617,-0.03168870132998614,5.667907340574011e-25,-0.05949072895745289,-0.0034679223123491453,-7.698754343612048e-06,0.15421189668162505,-1.5072574284907406e-24,-0.08147812061283627,0.0774600839867461,-0.3989391986793902,-0.13528515759285545,0.16530754699333292,-0.006749245532063969,-0.24344789127163366,2.1876825641756595e-08,0.014561012246576003,-0.003753818944438394,-0.06393453185758825,-0.2827172392084209,-5.729790759469983e-25,0.08427639375291729,-0.03081383496202368,1.2584261833205903e-26,-0.0011140626370578935,-0.21583383682268034,0.0002562383603554351,0.030192841281807447,5.923504637496528e-25,0.10728583520415585,0.12116728847385362,0.1524512882697789,0.06535513436897691,-9.803054501949655e-25,0.10648952418786875,-0.2734551823212071,-0.26061311049232067,0.30385242477052055,0.3533420785649862,-0.1420136887607056,-1.0806093472924947,-0.059714593606243996,

0.13597106566597641,0.2373314079341454,0.24454659303241102,0.5239948655789046,0.15768306777095004,0.23142835457907854,2.5962125308997427e-25,-1.3709268767911428e-25,0.29068901292851623,-0.13122874892898886,3.6805595478191885e-26,0.12282754695264482,2.779440652826152e-05,-1.3970487385336268e-06,0.3696530364173071,1.3148497497933135e-24,-0.0007245273864374464,0.3772348649813115,-0.06774130152479596,0.025771654034657233,-0.053489606008451616,-0.1683060035436941,-0.06396465060906675,-5.249574416247825e-09,0.3873218860834088,-0.36081779187097957,-0.006052548738338591,-0.2344081371887574,1.3733675454881008e-24,-0.21141544910377522,0.2856573351467055,-1.4007625804423349e-24,-0.03589547691305908,0.20338417512515372,0.011364390910006784,0.005530886557686128,1.211591528026256e-25,0.6348834018796308,0.2908866423168339,0.03724905415316973,0.22990748361892005,1.5134901353317958e-24,-0.0816738123762135,-0.27617640788005127,-0.21279860968951705,-0.11578523389968295,-0.13357705193304495,-0.07055459033868645,-1.5868166192260697e-24,1.8692774315578193e-23,

-1.3166882963547515,7.406237083558887e-22,-0.0027089232194795194,0.021100033533246715,-0.11383600355513401,-0.033496719911177864,-1.4579919667652248e-24,0.12672109399753367,-0.5671586851428092,0.11783834602593435,6.562359957536809e-25,0.060686007973891884,0.2671839541369095,2.9032822884228595e-06,8.449498924953342e-25,6.7172604379224e-25,-0.08774854699621991,9.782687662470733e-21,-0.18277552111198475,-0.05030476037561753,0.03458632529745242,0.01774226346933591,-0.3896884998998687,2.321669372690793e-25,-0.5214758535214238,-0.045330119034533746,0.15101681415782603,-0.659243543063685,-1.5526308408802e-24,-0.16864985326331566,0.17991251576126904,7.819831730402241e-25,0.28676397670622417,-0.4824564251578853,-0.8459144722594888,0.16570112110079088,8.447372540577658e-25,-0.04066295695691443,-0.07760787152495957,0.17422582429917446,0.26217649098776397,1.6274400692331752e-24,-0.018475619747114563,-0.01682957316748715,0.4118957306254809,0.1993605639070712,0.14473675736121455,-0.1101149764883946,-0.1121015684898138,0.18860023086192032,

-0.2351587031329462,0.019118627508231935,0.20768254686477294,0.038215522814319315,-0.45369490722612094,-0.3115557500344604,9.628913875715892e-26,0.09679597510097185,-0.10175230191299162,-0.35977350423342985,-1.9351064715931717e-24,0.026519093004092335,-0.020060218249278013,-1.230417345143729e-06,-0.04723061053523447,9.576536847793951e-25,0.03028599390470802,-3.306519939646426e-20,0.01835736649349228,-0.04290016738813145,0.0351980774598327,-0.3204803147834753,-0.06010312287951754,-2.1330563982071685e-09,-0.1655126784402947,0.0012726031276285297,0.1251490701709406,-0.20161009038498448,1.6483673128661077e-26,0.013545768980024622,0.010257567868319795,-1.3598911891375809e-24,0.08082994526204085,-0.48014899217988327,0.013776351680444578,-0.08083071437522674,-1.546243668444318e-24,-0.07984928517654381,0.25412249396965403,0.18898771502964531,-0.015526778076680414,2.200616877834054e-24,-0.0057094201700493685,0.02106007666863483,0.2841828955387248,0.07235780451158563,0.2142476717463792,0.028121235851372613,0.11961104246693999,-0.008946596974781394,

-0.030825475688143762,-0.12922646472642166,0.1511040549438079,0.1371664555477594,-0.38328892402862347,-0.16791247267845655,-4.6666489933417277e-26,0.08457697949447508,-0.020566061086035696,0.008579920159385282,-2.717222411455137e-25,0.3528029515666891,-0.003083104845383557,-3.919602693131821e-06,-0.035623332458622356,-1.7715278947419645e-25,-0.1408761434370568,-0.038975194657059876,0.08185857542926142,0.08151112875114892,-0.05027181475232573,-0.04311227892007154,-0.09337680781592254,5.631589220188491e-09,-0.16747820667424207,-0.2912865349747216,0.044533439798257586,-0.02673085605812298,8.519434023350388e-25,0.08214397255982701,0.13603267317282922,1.4821887076211357e-24,-0.10996307921685719,-0.20164383644619466,-0.05309376686445919,0.2574870512759941,-1.883229787635979e-24,-0.20024783559056591,-0.3779956845306627,0.1301737533786913,-0.17499013816024472,-1.3098143430113156e-24,-0.043542419235673355,0.12528759309325274,-0.07007742320939789,0.1434076661537619,-0.2849482541830439,-0.20060208425320988,0.2448345301408197,0.11343780682889042,

-0.13442618642233858,0.001156796213610882,0.003257903437757302,-0.03733517193032078,-0.01605419747982752,-0.03812709632946215,6.540584071024196e-25,-0.039471741615256246,0.10618465646940863,0.008898068347593395,1.2515118304226223e-24,-0.09630147614879381,0.014955440088501377,-8.003957606609949e-07,0.023534213931122587,-1.0988025289504228e-24,-0.3543111552370896,0.0011771276463850137,-0.10717186708890347,0.026102947279153278,-0.061200643899907356,0.0160300773410101,0.025307282618121263,2.1579096795245813e-10,0.046569413970776796,-0.04734115885727679,0.13074580530944824,-0.03760916619492905,-2.0704883083172162e-24,-0.07729491749393674,0.031402330064196605,-1.3349639113646542e-24,-0.0026819927504266763,0.1416800383946925,-0.0893599286373556,0.0724316928243857,-1.9515502975646478e-24,-0.12646369744863994,-0.04017037448027893,-0.09943253183220936,0.0908477558916789,4.4086813087830835e-25,-0.02209036614772345,0.05890819410929367,0.016975989384521044,0.001777502658434951,0.12285934695195123,-0.0934283834965653,-0.022870069015973805,-0.015502687091667185,

-0.03773977831140715,0.17917088984299395,-0.04873286832073128,0.035603284418993464,0.08519985326902055,0.06632378640795013,-1.460221867169402e-24,-0.025594162178046276,0.05084571446402364,0.07431538168778286,-2.1674653165631233e-24,-0.045081195935332725,0.22731420072523162,7.404816444611693e-06,-0.1068766130231249,6.903530475377006e-25,-0.048144912442125314,0.06487283984334047,-0.12364079581803748,0.04908932112956376,0.0550547319422922,0.02709889846924513,0.12252016098964837,-8.134610090028017e-10,-0.16994487014281484,-0.07250338551664413,-0.03563617329679035,0.06393619591301881,-1.3669919114897905e-24,-0.17471283478505367,-0.1628916430721652,5.873904393580289e-25,0.054440600937410745,0.16671798858444317,-0.07183676953471566,0.0018757549936949404,-1.4314320737729281e-24,0.12792421247394037,-0.05366959949727436,-0.31025327693244237,-0.07801943064517958,-1.5236664741399724e-24,-0.0412085123060451,0.0576813398097217,0.07471902107510385,0.019825479164753298,0.08006129757287275,-0.041539409060324134,0.011856104719696649,0.01733843729020334,

-0.20197644150232064,0.0967505780700216,0.19516997123729182,-0.02613408924342399,-0.06877895827209009,0.02781400392902043,-1.8677149551058428e-24,6.72250553201357e-25,-0.07830130123102984,-0.3819965405726959,4.651705502673265e-25,0.03999742825197896,1.3238630369635625e-25,8.157801126307302e-09,-0.3216232828878447,1.756796107330218e-24,7.765785372091235e-25,0.03841333579259988,-0.006656055439495468,-0.010307223169106072,-0.014602567129901574,0.19053168820607008,-0.007227668967092848,-1.6112875790638753e-09,0.26655888049719256,0.17248478125271696,-2.021798472168354e-24,0.5252376552447034,-4.760848793791142e-25,-0.004650918164162174,-0.10861535008049461,-3.8131433262707596e-25,1.0553605402773836e-24,-0.11657273331531388,-0.06146570365387457,-1.9015421961629248e-19,8.873359292926364e-25,-0.0010929166859653169,0.25619427181526677,2.5479013817987263e-15,-0.0028479873930384748,2.1725623199983607e-24,0.0018211680516072243,-0.009750923239964869,-0.0005341633665751568,-0.06694487358520046,-0.07584314653081743,-0.023645241884323116,0.12560122354614278,1.883001966073814e-24,

6.90706617343468e-25,1.671597903280809e-24,-1.6654394212743117e-24,-1.6016102923721446e-24,3.7754649381215283e-25,3.6339553845970647e-25,-1.6345520454062277e-24,-1.3469261074075164e-24,-1.1841574581870312e-24,-4.07577317381262e-25,1.8126773789784314e-24,-2.1013393395910643e-25,4.691288935964975e-25,-1.0395697097946343e-24,-1.148035221504762e-24,1.3368050975304272e-25,-2.0387934699347528e-24,-6.33648075809776e-25,-1.0710100262634085e-27,-1.4231254369838396e-24,-2.0822499284126802e-24,6.912513050994538e-26,-1.8755386002953386e-24,-5.628161175131692e-25,2.0428327143901575e-24,1.6625448812618337e-24,-3.8475715541073843e-25,-4.763930243303162e-25,-1.2480669070290715e-24,1.818969068874627e-24,-1.688615501705636e-24,-1.4371299334004604e-24,3.024760604128019e-25,-1.1862186933505473e-24,-2.2032852201567907e-24,-9.053486968266037e-26,-1.4584380812164217e-25,-9.897842492629571e-25,4.550162965366894e-25,-1.4848137082056908e-24,-3.3204658446980497e-25,2.2427303311196233e-25,-2.1167893624551368e-24,8.831369206253517e-25,4.127689379383496e-25,6.531603581049843e-27,1.5410402235002125e-24,1.4496517074499263e-24,1.3677806974717975e-24,-8.85828394161005e-25,

-0.3562788190053228,0.10393222466050556,-0.04263926161740241,0.06563670218059425,0.24422204465497854,0.2794805907266799,-1.5714525871157646e-24,-0.00906109779608904,-0.36639054024607703,0.014236303621159772,-2.9643172338589493e-25,-0.26882636454052317,-0.0951966772446754,-1.5582922503640603e-06,0.1976937243501961,-7.054668142769887e-25,-0.2853566599469046,0.09281625158052281,-0.2748390363185592,0.00867386415991646,0.09135467680631296,0.018233910941147728,-0.12131695408145249,-1.6922394560961007e-08,-0.30277220120228804,-0.040767003170808905,-0.13814991752529243,-0.12179348248207442,1.9236919992048992e-25,0.09865169196154065,-0.2108197490801846,1.5488022292423357e-24,0.007948638702068207,0.250941399470796,-0.2475441191387068,-0.19144473229076628,-4.239391157128718e-25,0.030161303308117497,0.35782163529273164,0.029466510763069657,-0.08032013095159742,-1.0381155817905324e-24,-0.04314052542751435,-0.16506288651394177,-0.04525029839599241,0.06208775970455688,-0.23192363437248764,0.014550817664619348,-0.5797549509174335,-0.009045582298001138,

-0.22002586990392906,-0.1942412359716368,0.0006386881425622491,0.20138110512194582,-0.0022551701934699674,0.03665939091422753,-2.5672753410566413e-25,-0.033367853788117914,0.10850835536080883,-0.1356331304029023,-2.1457154671950988e-24,-0.0553502392849336,-0.08611947239446203,-7.046361023953832e-06,0.026746749712474635,-2.2370302127826937e-24,-0.8121902251991073,0.1640043710134779,-0.05331110378077721,0.01554168084916212,-0.005264432837379845,-0.05361923833977363,-0.005445806258503681,-3.02197338281969e-09,-0.2122039810426213,0.3050665160957557,-0.06821321827328442,0.5361446961512213,-1.3647895049286244e-24,0.06968224889255463,0.06958612668528714,1.1238858552012982e-24,-0.15551855980119395,0.623069197677347,0.08753315960496376,0.10576318508975002,3.212065995488632e-25,0.026874113074468797,-0.2567161350422622,-0.33114033914905106,-0.30772087366507517,-4.179598610719093e-25,0.027211761057735817,-0.02257982620767653,-0.20305877712686232,-0.05367869082002881,-0.5659389681766773,-0.11739961179464058,0.05668168785495438,-0.39201492182101394,

-0.040313518672211,-0.4230533109729449,-0.08621579484989002,-0.17140727724745428,0.24441626119387957,0.24582929783474197,1.2814591645773815e-24,0.039377614189960775,0.25380771353147674,0.21345742243263216,-1.2159070819796493e-24,0.2068188104375264,0.16968713644750155,-2.9657699621527096e-06,-0.15236106421415355,1.5411849755677733e-24,0.5397745163163701,-9.539531096994722e-21,0.5272571912402128,-0.0458460164006881,-0.2459499936596334,0.258098817120055,-0.20969474028536428,-1.5471075975511e-08,0.7485515550111943,-0.0743268760877741,0.17187709824753114,-0.1866249556569929,-5.937326900747768e-25,-0.20052382881124162,0.17888372325968263,3.8329575417272686e-25,-0.10625310451147466,-0.10165071518597521,0.2940262041558017,-0.03582803429784763,-1.3502924016224837e-24,0.49800166115477046,-0.05082545263036577,0.08484648026637386,-0.3416500440773419,-1.8532139577236875e-24,0.051274875280884695,0.27267636259106715,0.21952992601781735,-0.1703375362642062,-0.2719801063136681,0.29977788346376794,0.038270411999075715,-0.18202185543179786,

-0.05056942414614778,-0.1128765608241568,-0.044813323161137154,-0.18391361554586427,-0.03469443875002752,0.13834375645819663,1.6779006342357317e-24,1.5888507166066161e-24,-0.1403113874365313,0.07469912131964754,1.1223831713999609e-24,-0.15335889565698485,-2.7962095606531258e-15,-1.8625716665315071e-06,0.2895521554393336,2.4508871343057223e-25,-0.6112049113945844,0.39302900395828533,-0.17625296811553962,0.09567328202156551,0.12127804464629172,-0.08830694813787993,-0.17621103622042814,1.1089512128893047e-08,-0.2997690861890533,0.06729062851438845,-1.0754372315930836e-24,-0.18055219889608023,-3.2444385462525776e-25,0.10555978654580911,-0.0298657050943359,-8.100199077840193e-25,2.883448823889057e-25,0.1444477575876541,0.33334407224721946,-7.776517722193075e-20,1.3713813055767629e-25,-0.13205445198338356,-0.03521051614667908,-3.861769993722034e-23,0.008434885861197101,-1.4167717926332858e-24,0.1596438894043874,-0.10346732907640634,-0.19895539201997325,-0.051790409337402595,0.02522567990099579,0.2686100563362735,0.9394396417460711,-4.069039172350176e-25,

0.13126949289788797,-0.03604590282181636,0.022616315668200857,0.06513884350752899,0.022639204456346953,-0.03641003972506836,-8.090467159595538e-25,-0.17489121119120885,0.1836423799295785,-0.057877403684550556,-1.2667772685331155e-24,-0.17852776153598895,-0.2378415898004189,3.8656864619656814e-07,-0.008316818302317,-2.007993121202683e-24,-0.2930334448093241,-8.640367146700017e-20,-0.1789040654066449,0.03272053604965286,0.17258148616799482,-0.14320860137199778,-0.01528968842892961,8.861262030228038e-12,0.07128689993078595,0.07572408564369447,0.11018335358068218,0.259146636312371,-3.327522067604123e-25,-0.014890318805125716,0.04944193289494818,-2.206385739189572e-25,-0.06933834031303607,0.038876711471923585,-0.10394312081327174,0.014233114125914756,1.6225305067259092e-24,-0.04298977821731129,0.003616854452016364,-0.27636313980367944,0.10410305201111698,-1.6862119478394334e-25,1.072015788851997e-05,-0.04628847556084766,-0.1365644528640869,-0.1152232409327126,0.17156280756153733,-0.029904212192524954,0.018816825982867786,-0.15487725166394178,

-5.033615775345495e-25,1.779042503219955e-24,-1.9596337026510291e-22,7.079391777103238e-22,8.329243068902825e-24,5.975005257347938e-22,8.540079633742187e-25,-7.734068638667776e-25,-1.045615906617535e-24,-4.602186411785297e-24,-6.690283701219832e-25,-5.363037741364457e-25,2.0038202384737966e-24,-2.068721074825496e-24,1.2099921182967178e-21,-1.8129540920485547e-24,-1.6468409362589328e-24,-2.7839707497917105e-23,-1.6548430654596547e-25,2.1890369330495933e-22,3.977370735968877e-22,1.680253839618899e-23,1.0657109138195913e-24,-2.11937056204578e-24,-1.8568857145515686e-24,-9.153248243246226e-22,-1.2406512029207797e-24,8.568574270175428e-22,2.035113631057783e-24,-9.0063413171798e-24,-4.944003829817291e-22,1.5889640290655433e-24,9.689925435511557e-25,-9.80892055658507e-22,7.562862589140851e-22,4.273518177879007e-25,1.6071959596860098e-24,-2.640016002909545e-23,-2.769995541171734e-23,8.629272148268835e-25,-2.3692363567300845e-25,1.3705427270185415e-24,-3.472253742826811e-24,-1.5852838248440717e-25,-9.150234367227659e-27,-4.265977220627683e-22,-2.5460936561471367e-23,-1.608438847712493e-24,-7.04535234470561e-25,3.8597646354330803e-25,

-0.17545659286187937,0.10563811453589148,0.017036977993070353,-0.011170492745537641,-0.3329920347060228,-0.08243375053423461,-2.229997338578729e-24,0.05551720381717431,-0.3343402217100282,0.27675933044139356,6.675454152799838e-25,0.02583704341417359,-0.03790167752502619,-1.2387003180525122e-05,0.12492579711024984,-2.682602431016503e-24,-0.10438730920095028,8.307801675034992e-06,0.2480501765835123,0.03264520773810516,-0.09551589651653809,0.17217937105738942,0.13217378476640648,1.211615092611786e-08,0.13278020339601387,-0.1900544247635479,0.005217571853274186,-0.06541820995377591,-9.84010409628992e-25,0.13547918548770882,-0.09004522201530059,-7.505547477305947e-25,0.08579733376153653,-0.009192756513174423,0.2062051119418085,0.18124346861744992,7.201764843142365e-26,-0.22377386541972955,-0.002458904034247748,0.06151670547710713,0.21608247699739164,1.415265009155118e-24,-0.039692596896927806,0.2524240969273965,0.09364875413545447,0.06538288428542295,-0.2810488045497906,-0.06109631129477335,0.01702423288533792,0.08381521178183451,

0.6144403464790856,0.10126427618348592,0.020852738543519708,0.01968703935051906,0.48442062237177186,0.07057075217997236,1.655892338620392e-24,-0.09143965424959927,-0.21258722660874027,0.32454987307035166,-1.0506708321679116e-24,-0.008452162664576162,-0.14779385818592172,-6.95723133631384e-06,0.038435296447771175,9.686979667912276e-25,0.12123157625741278,-0.1191291247121131,-0.08576978412570932,-0.08478077071344087,0.18123347231055076,0.446918569943225,0.1582533179739793,1.3231309530000209e-08,-0.16724827239892606,0.17836043741454974,-0.08700053974823041,0.09841813982235348,-8.484316160266749e-25,0.07668184816943019,-0.24963432420321488,-5.304976376621266e-25,-1.1489419137135574e-07,0.12697940717278441,0.5376744702860412,-1.4476818560894713e-19,3.042859562590179e-25,0.24991269444375117,0.441806794122524,-0.3561417271534595,0.07701781505464224,-2.4445344712322424e-25,0.31280420764468697,-0.1764049565863097,-0.04985018404807733,-0.1271158369492195,0.6790559175406925,0.09080902270450764,-0.01659656309505714,-0.00495658022242917,

-0.4248987814629565,-0.005923846273937734,-0.1275908001153735,-0.27433029184959984,-0.5397266329576903,-0.2180576338988257,-5.612291396225234e-26,-0.06836193965362387,-0.6804109642912136,-0.215165920408517,-7.8249975526303895e-25,-0.1831168395112359,-0.024289545603003965,4.040522542196255e-06,0.0814163316022639,-1.7513151132477415e-24,-0.36436111248324754,-0.01738463794431257,-0.08805256264196298,0.02606329303378879,-0.26018543029816155,-0.6904268575277861,-0.1960731008389414,-6.449986183575591e-09,-0.408639720316869,-0.11485211837816255,0.1162428116924904,-0.4527596811938877,-8.979142074444827e-25,-0.3777082617515694,0.06830572652483805,-2.641773720842103e-25,0.10265578293616322,0.019752110763192856,-0.09588620027951199,0.24770686967124572,-1.5835949347662287e-24,0.48294720634639754,0.279701958835767,0.29325791332133927,-0.07340953848177105,-7.185142872591888e-25,-8.388431784535918e-25,0.21331129023704545,0.28510440771319495,0.14704629784766154,0.31130531751277696,0.038460429790202644,-0.00664650670605234,-0.10938791082297455,

-0.17199842509968266,-0.07795433438826492,-0.1328766565874109,0.005899728072015035,-0.07068646714054069,0.037114169838991636,-4.231205251329872e-25,-0.05227015185505494,-0.07440058218372761,0.07940950681435985,1.6753558535906203e-24,-0.13373399504116068,0.045696529999884924,-1.1731639151719628e-06,0.09550040767905449,-9.7714923195854e-25,-0.019541786173557233,-0.01070274288578625,0.024744634301272012,0.03851206531668809,0.1046651404413935,0.1274748198554598,-0.012520341498751827,5.8575764076016244e-09,0.25636946503351016,-0.015572558914671705,-0.06481283542931747,0.11303464671105523,-2.1236655119090226e-24,0.049533178125380765,-0.04323074273911974,-1.8181652782110313e-25,0.06522581616382572,0.016504451466105234,-0.197702943058632,0.10812283497920973,2.5013083989314397e-25,0.00386319437068874,-0.1879104301839331,-0.09771788591254149,-0.14681100604406305,-1.859334313912733e-24,-0.06667537031048025,0.04755836657412767,0.05010898070295858,0.06106973458256617,-0.10706132788286288,0.029595161580332204,0.133715489925995,-0.029838311561800453,

0.4041604270441877,0.05229983168196162,-0.0880269908986617,-0.38963908086635174,0.2204011016008232,-0.15391912281944892,7.559266173862077e-25,0.04762390986906631,0.17271207705995636,-0.043711138002850515,5.22821204355316e-25,-0.14071874740398133,0.07341227347780684,1.1685802336328045e-05,0.1330112917421443,-1.902591702205651e-24,0.35131550263308253,-0.017685382707237882,-0.08550594889600287,-0.08968642940300083,0.0041188284800272295,-0.573122876162289,-0.33784018002970173,-1.2996613886918315e-17,-0.14679902199117267,-0.1844644350915516,-0.00666157564174896,-0.26070871531079015,-1.2612895563964406e-24,0.1115225313521878,-0.015057323662346894,-1.2646326588340414e-24,0.09865538373462833,-0.14364028303587262,0.020291239144923808,-0.19371852275571338,1.5411499260304759e-24,0.10530161806041675,0.23091445945822764,-0.16413519489596753,0.06071788034305191,-4.48757269308135e-25,-0.0030940062327072426,0.0063762182297548604,0.00679560817597071,-0.08340291915881679,0.18309420397610804,0.0958881224866942,-0.1258030285595443,-0.2080874373258944,

0.01695409294452773,0.06856308410181054,0.13187259309104163,0.40048985464486025,0.12758050480605207,0.07078464617635932,1.6898857423792296e-24,0.0762852625699866,0.24942717171159884,0.5137005069322578,7.782076947877137e-25,0.4567233638316096,0.17524072946113203,-1.2843399316116595e-06,-0.18427778070132828,-9.949166888244194e-25,-0.02512156119389405,0.3526673643090168,-0.021547685532912433,-0.002819613772271976,0.08637530645520063,0.16045674342266558,-0.06831723760556035,-7.498924041082223e-09,0.04485642977128741,-0.9309635901074687,0.17510798656304605,0.07870220248532178,4.629956834096878e-25,0.16898732750287265,-0.3386175044397811,-1.045815643964198e-24,0.15618225015526482,-0.27845367209756877,0.1951399429079089,0.17520603919499841,3.7002685544399853e-25,-0.9301952582492317,-0.26226202441049024,0.09810794228086077,0.24792196516123913,-5.639015409584963e-25,-1.5113540433789992e-24,-0.07451456245380068,0.018448660360289314,-0.47337949697050796,-0.3898705345964624,-0.04262182198504603,-0.2587888003506358,0.11560122763029132,

9.013657112004717e-25,-1.364158977220319e-24,1.4134870441710412e-24,-2.3168780732246066e-25,7.149646341028485e-25,-1.50653821785279e-24,-1.9231175291005683e-24,-8.468459074550888e-25,2.6803635793160637e-25,1.934638151711078e-24,-1.1755287021323018e-24,-1.9598600077515847e-25,1.6430421304210115e-24,-2.021363461745205e-24,-1.6495188700197289e-24,2.1541298817599736e-24,1.796599907436139e-24,-1.919889039467315e-24,-1.0714284803652817e-24,1.3753972595492309e-24,1.8803700016129167e-26,-8.485010096652164e-25,1.8653351782079143e-24,2.1207191114204863e-24,1.4692816218426665e-24,2.176431625593116e-24,1.1626644931429375e-24,-1.433965025543664e-24,2.0857681975116634e-25,-8.63255585059588e-25,8.824176445191646e-25,-1.0666450850319344e-24,1.966570849172995e-24,-1.5688855542852445e-24,1.968486439061339e-24,1.7824054793519222e-24,-1.2048967408987946e-24,3.733087161327778e-25,-1.2276346068960831e-24,1.788775745629452e-24,-1.970708895291408e-24,-1.2582759085047508e-24,1.4265172399540384e-24,1.716929501084612e-24,-2.2692115015324148e-25,-9.050026585317895e-25,-1.5876433405874893e-24,1.5058035984298116e-24,8.344281657451728e-25,-1.9721346614061833e-25,

-0.12986595939762585,-0.003426421188723906,0.06491609438674723,0.04825037153772318,-0.21084809214689618,-0.03248208858146294,1.3028524581153843e-24,-0.16501938992026857,0.023055011625338902,-0.10062196914092371,-9.905916332050472e-25,-0.12985243883047298,-0.10945389762561708,-2.7214671790729754e-06,0.025062154168942558,-2.1618553815938547e-24,-0.08826360151698734,-0.03133496177475757,-0.0031345750740699417,-0.03158828524814304,-0.009786051151530223,-0.01504811398519566,0.15594880294709396,3.539561748225854e-09,-0.008172636245087114,0.09931295969671665,-0.03154171244750644,0.17167911389874324,1.3719898999304811e-25,-0.04614859886228105,0.05308012675668874,-2.298249951016835e-24,0.01861018507503312,0.1354603768618641,-0.12092767110705127,0.06479966467972575,-1.2749442650299978e-24,-0.16312724557808184,0.16056626874388757,-0.036400206684700454,0.06683150376264184,4.234955438904817e-25,-0.014916345985713187,0.044966999858066424,-0.011431011786792136,0.05072794399419175,-0.18681046625093684,-0.1308672777025664,0.04574577275046965,0.07086725903033304,

0.13478192847106407,0.06658799404247127,0.05215499058115984,-0.1566481542578701,-0.05228569662309886,0.024613447452377465,2.1146064230177905e-24,-0.04861580137710467,0.1369371126348712,-0.3054150010725617,-1.8469492348699202e-24,0.0121312492460336,-0.01579121064817702,1.4066661309244085e-06,0.022530571963229985,5.363528178323465e-25,-0.05291369997972705,0.05992064843514987,-0.18439938270792758,0.14732499433733548,0.05014624494656784,-0.24410071519936635,-0.11565432504960405,2.0976234062449705e-10,0.16658202592429397,-0.05822380724595061,0.08798073057987497,0.3514332303463681,-2.0570926481983554e-24,-0.2401504097619074,0.2341450695478791,-2.9801587818703376e-25,-0.16412298608006112,0.08322242696891576,-0.00628961822108902,-0.07413100410904665,1.1297755185516964e-24,-0.3736775369087144,-0.032259469188153686,-0.05377880094959899,-0.009398494636419603,-2.3533858688667575e-26,0.0008479968052711348,0.017743396777083014,-0.23174160185170645,0.05748570859742533,0.08408260109533819,-0.21457183912841823,0.07823119647679702,-0.22059448203202364,

0.04049406221694505,-0.06892387852583841,-0.0173551347192104,0.021659483674080018,0.23530356078143644,0.030950861802493044,1.4344163992524328e-24,0.07469551530075191,0.06943631738216757,-0.10544301556901088,-1.48586286562899e-24,0.022717613274583152,-0.029912693179001738,1.8287890173495807e-06,0.06565076777769063,3.0974741172926006e-26,-0.06248913342910374,-0.0032232306576957955,-0.25639303513332373,-0.006039105485061251,-0.029017170789959915,0.052801234647056335,-0.13785233981879433,-1.2792628568954057e-08,0.0009456354349145237,-0.0908610062405728,-0.044682856331828995,-0.07494887779847545,2.040577605582307e-24,0.139540305733717,-0.13077738894402746,-2.849132724114493e-25,0.08930338661376935,0.17465015948639362,-0.22879182745822135,-0.007102512136778691,-1.3805246850937794e-25,0.03224227779438756,0.04887066908713573,0.388464223880645,0.15336313198228183,-1.2035808189859244e-24,-0.10066635542742755,-0.0630418226647677,-0.1276527876084483,-0.016570074307076885,0.002924239321373672,0.03549406524348612,0.035791363686660645,-0.0717245490813276,

-0.0004694256387644869,-0.051942300337713306,0.16578818973398546,-0.07750585511876713,0.18557020893400294,0.19190096650677382,7.766080563241555e-25,-0.16387701456902287,4.275216856490116e-25,0.32519136008477456,1.54021958851169e-24,-0.1266471328507791,-0.33561184662990073,1.477233066578177e-06,-0.1251926190541548,-8.53908305669665e-25,-0.43841173168461856,0.044677858638536246,0.00946723873283031,0.14403137623141177,-0.08201751000881442,0.22567921726325021,0.35414033215540464,-6.8995010100034065e-09,0.19823743429604976,0.09229741847007453,-0.20725869635912772,0.4351182203114163,2.061597823638997e-25,0.3941575116378155,-0.035523450480318824,9.292969550236779e-25,-0.045692759588447575,0.2543685199666173,0.3362872165128855,-0.14646144317571122,-3.5646203934616664e-26,-0.23177836538432814,-1.023325191055702,-0.22594106617925966,-0.053452063866809923,-1.1775673872691003e-24,-0.06870126879454956,-0.013804008611145363,-0.036233829417551516,0.04303376266709213,-0.45624740110832646,-0.1352068488539024,-0.023231023732881825,-0.004072703936448109,

-0.022934909830230926,0.044837479723885264,-0.05622089590948235,0.02465830203405428,0.010224903055158106,-0.010645900364968283,1.2985466802916616e-24,-0.035777969603353686,-0.03258711741327462,-0.09294773633829229,1.2965542299470215e-24,0.0954086583749532,0.20214198660705887,3.675610539512202e-06,0.04940817391340966,-6.967859980941244e-25,-0.015491175534484881,-0.08051811264655635,0.005593329453940288,-0.0067017044471271965,0.04477669993806753,0.1454741699604609,0.379054499228955,-5.20857342543867e-10,-0.043219362224541646,-0.21288264654840455,-0.052790551485027246,0.05108538456941587,-5.074607718918998e-25,-0.3346161945920471,0.0031284381730310516,2.885199887923537e-25,0.15670692543609233,0.12416133116474395,-0.07092267738250296,-0.0040774708665868385,-1.678572562259943e-24,-0.015050975030685834,-0.05166413246060646,-0.1983645566515106,0.0854480765952739,1.3379595659027192e-24,-0.06972763640352868,0.10696773987411434,0.06296095105031664,-0.10184322306594551,-0.07050656433920426,0.004577919722446577,-0.10958791108353806,-0.08613939859183636,

-0.48607128492758206,0.16528207192318342,0.22260305198360436,0.36014775152263423,0.4372561784839837,-0.06913453950300064,-6.189080077142746e-25,-0.1902492507915931,-0.006467607919663674,0.24188178024193652,1.1781126562113053e-24,-0.15286223202461927,-0.05448372631786892,1.4920043932049756e-06,0.45597478279369275,-2.8983134951228588e-25,-0.4453307035045007,-0.3100859214235887,0.07684671628763744,0.1497994633394171,-0.07245198496304875,0.13076192323147484,0.7173475033780832,3.755270950674319e-09,0.11926601093955669,-0.17348945634072915,-0.08497086103061398,-0.1551579732041048,-1.0205127070999735e-24,0.005143613313326624,-0.03837073057411191,3.4535982105987246e-25,0.12168148613818174,-0.18153696574428496,0.1496076913325632,1.8632301493150087e-24,-1.3637598829762036e-24,-0.9183263117066016,-0.27151046164161513,-0.09539679377072802,-0.0367446674338251,-2.116901182690067e-24,-0.2207281397172523,0.10926300215813343,-0.023107955873972297,-0.04554057300031654,-0.037924895190057636,0.1930812177755899,0.17197737044192168,-0.10558811924281336,

6.973267313891717e-05,-0.0005291612642338506,-0.00044797567907942635,0.0002840649919725318,0.0005986569528082092,0.0003497685911056924,-1.6393872773394618e-24,3.1154372832560906e-26,-5.343519734358004e-05,-4.982832326193592e-05,1.075035554723104e-24,1.011231306372935e-25,1.8068046669694745e-24,-1.6489856475892748e-10,0.0005855592577623738,-3.876255712205563e-25,1.4421982071887421e-24,-9.652939966602994e-22,-1.6896902713314701e-25,0.00014468226091390155,0.00030030984861155105,0.0006008717085102214,-0.000663645784265525,-2.5652846024250263e-13,-0.0001911956934066293,-0.00025221413974476503,-2.112852871729121e-24,0.0004015779908326658,1.6493261486586155e-24,-2.200671964999217e-24,-0.00017390668969669902,-4.521024667342248e-25,8.105188607373982e-25,-3.157106696307682e-05,0.0005563200102166927,-2.0113873227701187e-24,1.4804519873251995e-24,-1.3632342029386148e-24,-0.0010771139155287572,-1.1251153279732975e-24,-2.9175476422664457e-05,1.1693244226487036e-24,-1.0556972795920237e-24,0.0002689409179715652,1.8118741474465467e-24,-0.00024644200040227157,-0.0006897215752699043,-0.00029322427289643453,0.001081909069511483,-1.2627751371292426e-24,

0.49797262225611366,-0.07011724639273982,-0.029885370478121988,0.023311211088060963,-0.2730521002864388,-0.15533511339175549,8.358355663743905e-25,0.042405287339241746,0.1970651171184576,0.3064710654893533,-1.236153402511915e-24,0.09611165575098335,0.01040563158114282,8.086639047001001e-15,0.07540737370525873,5.643163513007986e-25,-7.2297177565227495e-09,2.370193412020863e-20,0.032405810329052986,-0.046113561749868824,-0.07901773005931258,0.04375222974712889,0.023366999802730486,3.0469682540304455e-09,0.185812983704114,-1.8005305433435503e-05,0.05217054476165974,0.07357918610264946,4.335260124436535e-25,2.1118155085135707e-24,0.08273555548112817,5.080591242976148e-25,0.23241160833573787,-0.1444328681566099,0.04734708100229532,0.03301619617554192,-2.781386050257629e-25,2.1559905763560404e-24,-0.2604346320161513,-0.03789247647901474,-0.2300493643273679,-1.3277530054092968e-24,-4.63881246684613e-25,-0.049355972440338715,-0.1996326811695463,0.069334080680107,-0.1416817629949525,-0.005703735521064531,-0.10439033531305242,0.042124601181562076,

-2.760275526674005e-25,-1.1730852788891422e-24,-2.141646233529028e-24,1.5861509705280436e-24,-1.5993239056544192e-24,1.778920686581241e-24,1.7053215842992747e-24,3.391221783832502e-25,4.1195364986318535e-25,1.8095161907134976e-24,1.567883821660128e-24,-1.0194904221911531e-24,1.1960120304183712e-24,6.92898154464667e-25,3.7342611575584856e-25,-1.9261884010220905e-25,-1.9091805665261062e-25,-1.728803136225059e-24,-3.85504909643309e-25,-1.0159917971879845e-24,-1.489316041867302e-24,4.504109766712385e-25,8.815612084573373e-25,2.1003106399238784e-24,-8.965472122175211e-25,-2.1857931412752653e-24,1.732039878702926e-24,-1.3045795984344198e-24,1.7067533947509263e-25,1.6347490675455154e-25,5.972804622914875e-25,2.0343385610711535e-24,-1.9949692367958353e-24,3.1976239936065743e-25,2.6652480872588263e-25,-8.527502948323241e-25,1.589055041994991e-24,8.008239766207299e-25,-1.94424097592517e-24,7.1144008819266e-25,-6.991459066799594e-25,1.318700913288054e-24,-1.6352398212171743e-24,-1.4935487051077458e-25,-2.189699875265232e-24,-3.8615560577169736e-25,1.3303874064550217e-24,1.9975169248527823e-24,8.399406011136987e-25,2.105850972232564e-24,

-5.921535858829003e-25,3.193609158973762e-25,-2.5798973989492495e-25,2.6201689567633282e-25,1.109093534073821e-24,-1.6081393387338548e-24,-1.873290688107392e-24,-2.4328200811251942e-25,7.531297404630377e-25,-1.0939925716729068e-24,2.49322858021873e-25,5.1908115458263935e-25,-5.257309714474907e-25,3.6723671464032344e-25,7.390011026628223e-25,2.1056315163034497e-24,-1.3740407708355965e-24,1.619579641404231e-24,-1.7818919431791348e-24,-1.037981444003501e-24,-2.1566938430320385e-24,1.0927782411166694e-24,-2.204246967167603e-24,1.6825846481999925e-24,-2.050410685700235e-24,1.4853400304761261e-25,-1.0862765105090286e-24,5.581673249160491e-25,-1.2622319270889173e-25,-1.1286326671740772e-24,-1.9060995819639654e-24,2.0523313900278485e-26,-2.196009930647142e-24,1.3132786780259626e-25,-8.589271423248526e-25,-1.7292457676748596e-24,-1.6972613446365613e-24,-1.927969388174351e-24,1.888873686386368e-24,1.433345713472985e-24,1.4599433536107174e-24,-1.759599847037898e-24,2.0415015653970512e-24,-5.967952880077727e-25,1.4779915114985312e-25,-1.2345337526632313e-24,-2.122929943925377e-24,1.885708313580332e-24,-6.195073493353079e-25,-1.117302673654323e-25,

0.32270041275185857,0.041278188126987574,0.08381166303469983,-0.06774517926216314,0.11590468822748451,-0.2777297167710815,-1.735000906422718e-24,-0.033571466884236977,0.26705476413697166,-0.07702907137252898,8.51966042103195e-25,0.06568483342338385,-0.09292955315863838,-1.6089755843720947e-05,0.06220022430314341,-1.5979137340122603e-24,-0.03929658410707063,-6.606312157929534e-19,-0.2648578479953479,-0.056757593805145466,0.1712991112732225,-0.3522390608733409,0.046817188570650495,-1.7036891790993975e-16,0.1930163930578078,-0.11307755548702614,-0.07318759649670802,0.2472634217421112,2.2986047734518856e-25,0.0663795986083136,-0.02139932833296649,-1.843444504617103e-24,0.1028630458470689,-0.34019944915982175,0.1409200970955068,-0.14293640221339776,1.3152120173955849e-25,0.006579500712058748,0.15509546673085645,-0.6186105685889105,0.051341602299210684,-1.267061352373362e-24,8.168981935202416e-25,0.06182329301934431,0.0027869066927219245,-0.1992658529048657,0.20554581856952708,-0.14601374071453369,-0.22048204295322638,-0.050815570748011483,

0.06355055343924396,0.06607630269460917,-0.05887970149721122,-0.04167332287995561,-0.0717985716273895,-0.14785392600499908,-4.53726004165661e-25,-0.03638340265420689,0.09426716207753807,-0.04316206503197593,1.702490974774527e-24,-0.03169876054174197,-0.10691136149877987,3.794137388350405e-08,-0.1416622864314602,-2.1459519978157596e-24,-0.22698249262257308,-2.1612949481076398e-07,0.09076152755184759,-0.0001805273310557157,0.043265182428627126,-0.19176162404062838,0.08725937117651857,6.2702583162513285e-09,-0.13780430163875185,0.17010451667807597,-0.03750444563302559,0.08287646050019794,2.9804777271210716e-25,-0.04671193487866288,0.03122649419663442,-1.4955746150902384e-24,0.01967756608101076,0.019144383997980834,-0.0038963866670692817,0.15190630420973608,1.0460811628764148e-24,0.2712028271965771,-0.14368883600783838,-0.19044113113885175,-0.019230676991987557,6.233734002874776e-26,-0.09672189350465252,0.0696535265227994,-0.08182419084038159,0.02757919642760993,-0.2110594367335355,-0.019616675960439294,-0.07702615191789838,-0.18998826818433562,

0.09152342625776427,0.02327580309739842,0.13196221227747526,-0.0017267790675218786,0.149473518547336,-0.07972555587435674,-1.3890330468486274e-24,0.07991938734610264,-0.15379508164694272,-0.3849766521094502,6.331301226214056e-25,-0.021822742499357884,-0.2902208725871665,-2.5423515276237365e-06,0.018468720893743594,2.5352807560893375e-25,-0.13424402686187356,-0.16684717982691077,-0.18345983017911968,0.04101959974186478,-0.06719198003043654,-0.2659960640258562,0.11522847694980386,6.4241296813690414e-09,-0.23577801158578635,-0.15060938016407158,-0.1740575490990431,-0.10851340087944854,-1.0516987525975436e-24,-0.35278620471188427,0.05213030310422189,-2.0239148930837e-24,-0.013411789829457852,-0.25577029269694124,0.13183165678915204,-0.08476894424009755,-1.445224768847592e-24,0.20721347698117706,0.20755430185652068,0.021600677020480193,-0.25962062054137364,-9.068953496820322e-25,-0.04988131024075614,0.1509878637006982,0.016648318493278424,0.07032654414102571,0.08106102453797502,0.04026107301015252,0.05270679463069611,-0.27566733055677356,
};















































// set_bias_for the second layer
float bias_2[50] ={
-0.15544488820772973,-0.17051345910439467,-0.28262619668178895,-0.183790652461409,0.0866676864260632,0.10607661190527956,-2.2115558691778037e-24,-0.03936601582438757,-0.05118553105956447,0.031068579269636097,-1.99288928743499e-24,-0.08420343934363314,-0.08881049623211647,2.157228968112813e-06,-0.4811612886885655,-2.1509358152867025e-24,-0.16159786682474245,-0.6097010116232687,0.0770245199061974,0.03792709071481514,0.032745957822756876,0.12578100255155358,-0.022424867198776528,-2.256531961684031e-08,-0.08055255217724948,0.16616435365337168,-0.21834498991109896,-0.0351868073121424,-4.406191859554379e-25,-0.10246219105264728,0.009057427913740628,-8.40113166699298e-25,-0.26134279728926585,0.0969370616335363,-0.010909395712237611,-0.5565608788586626,-2.0232446209025976e-24,-0.14407535000142252,-0.09485764446385604,-0.08396698992901157,-0.022723464673599137,-1.1806304712946427e-24,-0.29305791639403905,0.060584055792217026,0.012293159148867853,0.016904431520615545,0.2291245647558644,-0.1218054812625443,-0.1464761061061706,0.06568293902998701,
};





// set_weights_for the third layer
float weights_3[50] = {
1.6694579364202575,-0.6110636071452888,-0.5863046785557006,0.6034266912944359,0.6748242151724062,0.48443146809846815,4.0275025855185096e-25,-0.43833767214998365,-1.2708809134930876,-0.7259494076875267,1.7395934401905736e-24,-0.4823794638952872,-0.7661879827212214,2.8890185148609846e-05,0.9105756552842739,-1.835314633374537e-24,1.334265809416108,-1.1324788108402608,-0.6135303565299621,0.1613742440993842,0.33841759753883127,0.8802253936041557,-0.7837160302897287,4.888050490318512e-08,-0.9019720968848616,-0.7227869419331409,-0.5647677409948795,0.7277981739174909,3.072725124794709e-25,-0.9823168608689454,-0.4280942420484045,1.8520499516599417e-24,0.5935804418041007,-0.8154200691917963,0.6259155067528865,-0.8622069703221402,-4.4382242361903e-25,-1.351495826375083,-1.2112743960394956,1.0174405595832794,-0.5540052335765626,3.8855578875765555e-25,0.556812686551793,0.30965192801437275,0.454710490956913,-0.36736821572754824,-0.8128688609614755,-0.49157696705282367,1.5053050232190435,0.6589959365119842,
};





// set_bias_for the third layer
float bias_3[1] = {
0.6223296917801052,
};




#endif /* _WEIGHTS_H__ */
